~o
<STREAMINFO> 1 25
<VECSIZE> 25<NULLD><MFCC_D_N_Z_0><DIAGC>
~s "silst"
<MEAN> 25
 -1.717098e+00 2.569946e+00 -8.658879e-01 7.707184e+00 3.629454e+00 1.943777e+00 6.349916e+00 1.473202e+00 4.296195e+00 3.147125e+00 5.715296e+00 2.593076e+00 -5.378926e-03 1.593704e-02 8.808698e-04 1.529205e-02 -1.957087e-02 -1.442071e-02 1.475540e-02 -7.825321e-03 -1.594768e-03 2.437835e-02 2.670956e-02 -4.844635e-03 -1.955422e-02
<VARIANCE> 25
 2.980579e+00 5.639957e+00 6.845927e+00 7.613241e+00 1.022840e+01 1.468782e+01 1.470424e+01 1.206144e+01 1.318184e+01 1.461428e+01 1.302105e+01 1.280856e+01 1.106147e-01 2.236576e-01 3.801759e-01 5.418698e-01 6.998925e-01 8.913634e-01 1.031972e+00 1.164045e+00 1.217475e+00 1.259240e+00 1.219920e+00 1.129183e+00 5.187088e-02
<GCONST> 6.551121e+01
~h "a"
<BEGINHMM>
<NUMSTATES> 5
<STATE> 2
<MEAN> 25
 2.519821e+00 -6.044180e+00 2.119911e-01 -8.808911e+00 -3.003886e+00 -2.470552e+00 -5.317516e+00 -6.655008e-03 -2.750107e+00 -1.858391e+00 -5.271564e+00 -2.225210e+00 9.150446e-01 -2.770855e+00 -4.507678e-01 -2.470699e+00 2.250583e-01 6.048049e-01 -8.703437e-01 1.074411e+00 -5.170986e-01 -8.936575e-01 -1.759857e+00 -1.630442e-01 2.377739e+00
<VARIANCE> 25
 2.271574e+01 7.096919e+01 6.002387e+01 8.086694e+01 1.040810e+02 5.833135e+01 6.107506e+01 8.272670e+01 5.507789e+01 4.383324e+01 5.934475e+01 2.969504e+01 2.380950e+00 3.977595e+00 3.684996e+00 7.156879e+00 6.728985e+00 5.152742e+00 6.406410e+00 7.406779e+00 5.624922e+00 5.120515e+00 4.079330e+00 3.351058e+00 5.349616e+00
<GCONST> 1.149011e+02
<STATE> 3
<MEAN> 25
 4.258157e+00 -1.523261e+01 -2.723112e+00 -1.263554e+01 1.384903e+00 4.541972e-01 -6.797506e+00 4.244496e+00 -3.344775e+00 -6.487939e+00 -1.155283e+01 -1.660416e+00 4.968143e-02 -7.622239e-02 -1.233365e-01 3.302530e-01 2.917138e-01 1.709353e-01 -1.930273e-01 1.456665e-01 -2.468081e-01 -4.633408e-01 1.016279e-01 -2.046329e-02 -1.598399e-01
<VARIANCE> 25
 9.959837e+00 1.708959e+01 2.312418e+01 2.476567e+01 3.472211e+01 4.827605e+01 5.088294e+01 5.367634e+01 4.689225e+01 2.815041e+01 2.427986e+01 2.464605e+01 2.377318e-01 8.878152e-01 6.361760e-01 9.660174e-01 1.625380e+00 1.701910e+00 1.506243e+00 1.822727e+00 1.396301e+00 1.476711e+00 1.387286e+00 1.265543e+00 3.651737e-01
<GCONST> 8.661489e+01
<STATE> 4
<MEAN> 25
 3.103856e+00 -8.448406e+00 -3.731473e+00 -6.458304e+00 4.648591e+00 -3.709817e-01 -4.091264e+00 3.536561e+00 -1.671621e+00 -6.560974e+00 -7.004825e+00 -1.742975e+00 -1.073726e-01 1.809171e+00 1.457416e-01 1.366342e+00 -3.002251e-01 -9.544221e-02 4.291731e-01 -1.793649e-01 6.212617e-01 7.356774e-01 1.200615e+00 -1.664632e-01 -2.002538e+00
<VARIANCE> 25
 1.485672e+01 4.388744e+01 2.772853e+01 7.542775e+01 5.601990e+01 4.605309e+01 6.038202e+01 6.368281e+01 6.551889e+01 4.944432e+01 5.093661e+01 3.464035e+01 1.110724e+00 2.610647e+00 1.713037e+00 3.731136e+00 3.671658e+00 3.433414e+00 3.014640e+00 3.338377e+00 2.932422e+00 3.270702e+00 2.596922e+00 2.666741e+00 2.177168e+00
<GCONST> 1.044783e+02
<TRANSP> 5
 0.000000e+00 1.000000e+00 0.000000e+00 0.000000e+00 0.000000e+00
 0.000000e+00 6.934225e-01 3.065775e-01 0.000000e+00 0.000000e+00
 0.000000e+00 0.000000e+00 8.709999e-01 1.290001e-01 0.000000e+00
 0.000000e+00 0.000000e+00 0.000000e+00 6.793336e-01 3.206664e-01
 0.000000e+00 0.000000e+00 0.000000e+00 0.000000e+00 0.000000e+00
<ENDHMM>
~h "b"
<BEGINHMM>
<NUMSTATES> 5
<STATE> 2
<MEAN> 25
 -2.995049e+00 3.760685e+00 -1.456643e+00 6.575520e+00 4.534346e+00 -8.381798e-01 7.605198e+00 2.979108e+00 2.782199e+00 4.381643e+00 5.569640e+00 4.730019e+00 -4.710308e-03 9.309827e-02 3.003260e-02 6.901508e-02 -1.400471e-02 -2.264124e-02 5.271980e-02 -4.580058e-02 -5.077872e-02 1.799400e-02 3.469055e-02 -1.750282e-02 -5.567254e-02
<VARIANCE> 25
 3.960163e+00 1.185682e+01 7.264803e+00 9.674345e+00 2.132149e+01 1.109848e+01 1.553626e+01 1.837661e+01 1.485987e+01 1.631594e+01 1.668663e+01 1.492768e+01 1.514654e-01 3.356707e-01 5.026360e-01 6.333724e-01 9.465277e-01 9.150552e-01 1.238226e+00 1.410375e+00 1.279787e+00 1.392818e+00 1.363654e+00 1.138980e+00 1.406279e-01
<GCONST> 7.152493e+01
<STATE> 3
<MEAN> 25
 2.412221e-01 6.049864e+00 1.987791e+00 8.938700e+00 4.775131e+00 6.039765e-01 4.886484e+00 -1.823073e+00 -1.306294e+00 -3.526090e-01 1.065040e+00 -7.120332e-01 1.635208e+00 1.685365e+00 1.439908e+00 6.118882e-01 1.697757e-01 -2.018080e-01 -1.431787e+00 -2.444521e+00 -2.589557e+00 -2.427601e+00 -2.483845e+00 -2.168848e+00 8.902282e-01
<VARIANCE> 25
 9.697233e+00 1.270735e+01 1.104857e+01 1.219725e+01 1.932082e+01 1.454404e+01 2.694880e+01 3.083401e+01 2.747888e+01 2.975212e+01 2.990080e+01 2.699530e+01 1.090871e+00 4.457327e-01 6.613768e-01 8.553827e-01 9.040339e-01 1.371428e+00 2.345037e+00 3.069013e+00 2.839181e+00 2.641391e+00 1.981668e+00 1.890566e+00 4.587210e-01
<GCONST> 8.487949e+01
<STATE> 4
<MEAN> 25
 7.078850e+00 9.826131e+00 3.557269e+00 6.345098e+00 4.068217e+00 1.348525e+00 2.450020e+00 -8.113349e+00 -7.497831e+00 -5.810986e+00 -3.916890e+00 -3.693481e+00 4.263789e-01 2.206155e-02 -3.250900e-01 -6.943233e-01 -4.754272e-01 5.729342e-02 -3.657540e-01 -4.231726e-01 -6.057645e-02 4.714423e-02 3.095376e-02 -1.548385e-01 1.059721e+00
<VARIANCE> 25
 5.368911e+00 7.955152e+00 9.622499e+00 1.656931e+01 1.752596e+01 1.452124e+01 4.150189e+01 2.862708e+01 2.225385e+01 1.763022e+01 2.179767e+01 2.680323e+01 1.279156e+00 7.120885e-01 9.950586e-01 9.669330e-01 1.159007e+00 1.710950e+00 2.152804e+00 2.815173e+00 2.063636e+00 1.597739e+00 1.555030e+00 1.553177e+00 1.311114e+00
<GCONST> 8.443508e+01
<TRANSP> 5
 0.000000e+00 1.000000e+00 0.000000e+00 0.000000e+00 0.000000e+00
 0.000000e+00 9.275622e-01 7.243783e-02 0.000000e+00 0.000000e+00
 0.000000e+00 0.000000e+00 6.014715e-01 3.985285e-01 0.000000e+00
 0.000000e+00 0.000000e+00 0.000000e+00 7.976505e-01 2.023495e-01
 0.000000e+00 0.000000e+00 0.000000e+00 0.000000e+00 0.000000e+00
<ENDHMM>
~h "c"
<BEGINHMM>
<NUMSTATES> 5
<STATE> 2
<MEAN> 25
 -1.468806e+00 2.600700e+00 1.251180e-01 7.279079e+00 4.047608e+00 1.292273e+00 5.841909e+00 2.729790e+00 3.697280e+00 2.962039e+00 5.330131e+00 1.373351e+00 -2.775074e-01 -5.866192e-02 -9.095339e-02 -4.187528e-02 1.892790e-03 5.661199e-02 9.419167e-02 -8.412442e-02 1.425962e-01 1.062733e-01 1.060155e-01 4.029682e-02 1.012912e-01
<VARIANCE> 25
 6.470117e+00 1.127371e+01 1.501417e+01 1.634104e+01 1.580552e+01 1.904269e+01 1.758556e+01 2.201200e+01 2.040910e+01 2.027278e+01 1.700257e+01 1.968989e+01 1.310432e+00 1.253510e+00 2.258835e+00 2.244849e+00 1.749588e+00 2.357341e+00 2.346441e+00 2.537346e+00 2.489876e+00 1.993796e+00 1.872550e+00 1.799707e+00 1.792783e+00
<GCONST> 8.796541e+01
<STATE> 3
<MEAN> 25
 -1.181646e+01 3.803946e+00 -1.235910e+00 2.908520e+00 2.726939e+00 7.830275e-01 4.834091e+00 -5.216170e-01 3.255770e+00 2.412362e+00 3.291534e+00 7.741012e-01 -1.862571e+00 8.481891e-01 -4.777445e-02 -6.445912e-01 -1.294911e+00 -1.552072e-01 -3.044708e-01 -9.701080e-01 -7.779350e-01 -3.946936e-01 -1.789358e-01 -6.906638e-01 3.750589e+00
<VARIANCE> 25
 3.719286e+01 3.140711e+01 2.527731e+01 2.807674e+01 2.493863e+01 2.934897e+01 2.475247e+01 2.287194e+01 1.870444e+01 1.419715e+01 1.473136e+01 1.771305e+01 4.096166e+00 2.941623e+00 2.711333e+00 2.857359e+00 2.304851e+00 2.405286e+00 2.645904e+00 2.632399e+00 2.068224e+00 2.097334e+00 2.009041e+00 1.684956e+00 4.890066e+00
<GCONST> 9.611942e+01
<STATE> 4
<MEAN> 25
 -8.764218e+00 5.038198e+00 1.160167e+00 1.780317e+00 -5.769009e+00 -3.858832e+00 4.975737e+00 -1.845481e+00 -2.519924e+00 -2.328001e+00 1.408769e+00 -1.545894e+00 4.138278e+00 -1.999397e+00 2.271089e-01 -1.626637e+00 -1.985681e+00 -2.947470e+00 -1.664639e+00 7.564100e-01 -2.216161e+00 -1.485469e+00 -2.344603e+00 -6.271278e-01 8.072353e-01
<VARIANCE> 25
 5.186682e+01 2.529244e+01 1.647766e+01 3.802591e+01 3.734824e+01 4.139720e+01 2.607073e+01 2.389661e+01 2.848711e+01 2.478078e+01 2.903727e+01 2.647053e+01 2.627184e+00 7.293212e+00 2.436255e+00 9.788284e+00 5.395091e+00 3.926894e+00 7.334801e+00 5.192057e+00 2.882874e+00 2.462318e+00 3.409834e+00 3.023506e+00 1.435305e+00
<GCONST> 1.040205e+02
<TRANSP> 5
 0.000000e+00 1.000000e+00 0.000000e+00 0.000000e+00 0.000000e+00
 0.000000e+00 8.854777e-01 1.145223e-01 0.000000e+00 0.000000e+00
 0.000000e+00 0.000000e+00 8.093565e-01 1.906436e-01 0.000000e+00
 0.000000e+00 0.000000e+00 0.000000e+00 6.609344e-01 3.390656e-01
 0.000000e+00 0.000000e+00 0.000000e+00 0.000000e+00 0.000000e+00
<ENDHMM>
~h "d"
<BEGINHMM>
<NUMSTATES> 5
<STATE> 2
<MEAN> 25
 4.994090e+00 -3.472899e+00 6.769433e+00 -1.963917e+00 -9.095285e+00 -4.960331e+00 -9.646509e+00 1.778256e+00 -2.176313e+00 -5.166405e+00 -4.583625e+00 -3.599723e+00 2.358578e-01 1.370875e+00 7.691283e-01 2.938718e+00 1.326586e+00 -3.357872e-01 1.220535e+00 -8.344530e-01 9.261944e-01 -1.616461e+00 -3.781476e-01 2.020725e-01 -2.525260e+00
<VARIANCE> 25
 8.744137e+00 5.374583e+01 5.027422e+01 8.782391e+01 8.402444e+01 3.759022e+01 1.003788e+02 7.008443e+01 5.056413e+01 4.830012e+01 5.650521e+01 3.248959e+01 1.456093e+00 4.680135e+00 4.229331e+00 6.801759e+00 1.415027e+01 5.572103e+00 7.247531e+00 7.122074e+00 4.600299e+00 4.264639e+00 7.404950e+00 3.521203e+00 5.070891e+00
<GCONST> 1.141755e+02
<STATE> 3
<MEAN> 25
 3.923200e+00 2.896322e+00 8.712556e+00 4.680637e+00 -6.237289e+00 -5.586109e+00 -7.508432e+00 -2.860596e+00 -1.512576e+00 -7.153552e+00 -2.747122e+00 -2.944363e+00 -1.524178e-01 -6.332213e-01 -3.094243e-01 -1.048971e+00 -9.560062e-01 -1.182994e-01 -8.727490e-01 9.333487e-01 -2.262125e-01 1.140558e+00 5.142625e-01 8.207442e-02 9.246794e-01
<VARIANCE> 25
 1.311495e+01 5.066196e+01 1.802484e+01 6.302949e+01 5.800896e+01 2.922697e+01 5.723035e+01 5.237280e+01 3.472946e+01 3.849540e+01 4.086703e+01 2.403940e+01 1.851616e+00 6.049431e+00 2.208555e+00 1.059684e+01 9.400393e+00 3.470295e+00 6.032381e+00 6.968614e+00 2.811877e+00 4.757287e+00 4.138142e+00 2.808390e+00 1.146900e+01
<GCONST> 1.092890e+02
<STATE> 4
<MEAN> 25
 5.005619e+00 -3.255935e+00 4.632351e+00 -4.847626e+00 -6.976687e+00 -5.585309e+00 -1.284370e+01 5.371649e+00 -4.796509e-01 -1.951797e-01 -4.383509e+00 -2.595982e+00 -8.286587e-02 5.757491e-01 -3.819952e-01 5.051664e-01 1.119267e+00 2.580698e-01 8.547540e-01 -4.520530e-01 5.231113e-01 -8.794951e-02 -4.909986e-01 -1.886099e-01 -7.874606e-01
<VARIANCE> 25
 9.710700e+00 4.737045e+01 3.630909e+01 1.130553e+02 9.313277e+01 3.512296e+01 9.236834e+01 7.345306e+01 6.617971e+01 3.718235e+01 4.523809e+01 4.820715e+01 4.564705e-01 2.028968e+00 1.445481e+00 2.887418e+00 3.063524e+00 2.841701e+00 2.806803e+00 3.617331e+00 2.041201e+00 2.573111e+00 2.879766e+00 1.902000e+00 2.950004e+00
<GCONST> 1.030840e+02
<TRANSP> 5
 0.000000e+00 1.000000e+00 0.000000e+00 0.000000e+00 0.000000e+00
 0.000000e+00 6.647941e-01 3.352059e-01 0.000000e+00 0.000000e+00
 0.000000e+00 0.000000e+00 6.932691e-01 3.067309e-01 0.000000e+00
 0.000000e+00 0.000000e+00 0.000000e+00 8.285063e-01 1.714937e-01
 0.000000e+00 0.000000e+00 0.000000e+00 0.000000e+00 0.000000e+00
<ENDHMM>
~h "e"
<BEGINHMM>
<NUMSTATES> 5
<STATE> 2
<MEAN> 25
 4.740679e-01 -7.688702e-01 1.355778e+00 -2.104370e+00 -4.313294e+00 -3.747473e+00 -1.858741e+00 -3.362107e+00 -1.269105e+00 -1.406193e+00 -3.378253e+00 -3.736094e+00 1.916813e+00 -2.679028e+00 1.052833e+00 -3.745960e+00 -3.371600e+00 -2.038042e+00 -1.711991e+00 1.437504e+00 -1.263006e+00 -2.909959e-01 -2.538161e+00 -5.398899e-01 3.759398e+00
<VARIANCE> 25
 3.389075e+01 4.639940e+01 2.977090e+01 7.347733e+01 6.196367e+01 5.892577e+01 8.320335e+01 6.210818e+01 5.485862e+01 4.762125e+01 4.340993e+01 3.255782e+01 4.812302e+00 6.038163e+00 2.878060e+00 6.633358e+00 5.133850e+00 5.595956e+00 8.530636e+00 8.760968e+00 4.678600e+00 4.377644e+00 4.549471e+00 5.016378e+00 5.112236e+00
<GCONST> 1.146418e+02
<STATE> 3
<MEAN> 25
 3.218192e+00 -1.074567e+01 5.094528e+00 -1.132384e+01 -1.292569e+01 -7.566489e+00 -4.041588e+00 6.249899e+00 -3.753286e+00 -1.846843e+00 -8.863291e+00 -2.927392e+00 -7.714480e-02 -1.771204e+00 1.234230e+00 -1.401798e+00 -1.792368e+00 2.086376e-01 7.241240e-01 2.048249e+00 -1.513361e+00 2.601744e-01 -7.498304e-01 5.405608e-01 1.238466e+00
<VARIANCE> 25
 6.490929e+00 2.111699e+01 2.314315e+01 3.160097e+01 4.755347e+01 5.794743e+01 6.144669e+01 4.273107e+01 5.922087e+01 3.451616e+01 4.565688e+01 2.120500e+01 9.760631e-01 2.761738e+00 1.922441e+00 3.395853e+00 3.032816e+00 2.979275e+00 3.636833e+00 4.320028e+00 2.937554e+00 4.204886e+00 3.033773e+00 1.749748e+00 1.581720e+00
<GCONST> 1.002198e+02
<STATE> 4
<MEAN> 25
 2.576867e+00 -1.011835e+01 7.244968e+00 -1.170826e+01 -1.514970e+01 -4.405451e+00 -2.002627e+00 5.874905e+00 -8.189140e+00 9.760819e-03 -8.536189e+00 -1.877417e+00 1.062735e-01 3.305281e-01 -3.155071e-01 6.129096e-01 5.711889e-01 1.206319e-01 -1.181592e-01 -1.968848e-01 1.929526e-01 -2.128353e-01 1.255533e-01 -1.595440e-02 -6.573926e-01
<VARIANCE> 25
 9.655946e+00 4.421381e+01 3.774351e+01 3.740160e+01 5.164812e+01 5.027376e+01 5.304848e+01 4.915720e+01 3.569703e+01 4.827317e+01 4.844528e+01 1.931930e+01 5.719768e-01 1.322856e+00 1.238161e+00 2.169343e+00 2.602524e+00 1.661736e+00 2.271804e+00 1.904917e+00 2.398506e+00 2.020338e+00 1.669495e+00 1.447181e+00 1.728038e+00
<GCONST> 9.592348e+01
<TRANSP> 5
 0.000000e+00 1.000000e+00 0.000000e+00 0.000000e+00 0.000000e+00
 0.000000e+00 6.522703e-01 3.477297e-01 0.000000e+00 0.000000e+00
 0.000000e+00 0.000000e+00 5.689898e-01 4.310103e-01 0.000000e+00
 0.000000e+00 0.000000e+00 0.000000e+00 8.836098e-01 1.163903e-01
 0.000000e+00 0.000000e+00 0.000000e+00 0.000000e+00 0.000000e+00
<ENDHMM>
~h "f"
<BEGINHMM>
<NUMSTATES> 5
<STATE> 2
<MEAN> 25
 -4.226578e+00 3.771555e+00 -1.108670e+00 5.171484e+00 -6.033304e-01 -3.037297e+00 1.081269e+00 -2.712102e+00 -6.935903e-02 -1.265143e+00 1.832937e-01 -1.033751e+00 -2.279391e+00 3.373992e-01 -1.146761e+00 1.608996e+00 1.388459e+00 9.377043e-01 1.129426e+00 1.083464e+00 1.535221e+00 3.089153e-01 1.100283e+00 6.684688e-01 -6.955386e-01
<VARIANCE> 25
 3.433841e+01 2.239146e+01 2.304821e+01 2.899803e+01 4.171091e+01 3.481699e+01 3.148792e+01 2.767881e+01 3.043580e+01 3.557513e+01 2.528895e+01 2.243227e+01 2.980772e+00 3.571064e+00 3.411081e+00 5.771353e+00 4.663812e+00 3.879628e+00 3.365176e+00 3.286002e+00 4.361020e+00 4.891193e+00 3.620560e+00 2.538990e+00 2.385549e+00
<GCONST> 1.032676e+02
<STATE> 3
<MEAN> 25
 -8.823700e+00 2.720123e+00 -4.172257e+00 7.316233e+00 1.957791e+00 -6.463352e-01 4.817039e+00 1.863908e+00 3.811469e+00 1.638743e+00 3.322341e+00 2.261756e+00 -2.284627e-01 -6.828088e-02 -9.406927e-02 6.600255e-02 -1.693942e-01 -1.308913e-01 1.332545e-03 1.993824e-02 2.113671e-02 1.067850e-01 8.572014e-02 2.000719e-02 1.973759e-01
<VARIANCE> 25
 2.129234e+01 1.691146e+01 1.254311e+01 1.368306e+01 2.073124e+01 2.236267e+01 2.043737e+01 2.055585e+01 1.443378e+01 1.973406e+01 1.458565e+01 1.678236e+01 1.384743e+00 8.700683e-01 7.839558e-01 1.137884e+00 1.308216e+00 1.340711e+00 1.415911e+00 1.616970e+00 1.595440e+00 1.698410e+00 1.424316e+00 1.560586e+00 2.038020e+00
<GCONST> 8.428029e+01
<STATE> 4
<MEAN> 25
 -8.779879e+00 1.411738e+00 -3.234672e+00 7.366354e+00 1.397572e-01 -2.018035e+00 3.609940e+00 -2.200844e-01 1.993763e+00 7.528253e-01 2.241495e+00 4.042733e-01 3.187530e+00 -6.346247e-01 1.716597e+00 -2.292266e+00 -1.612852e+00 -9.507951e-01 -1.735336e+00 -1.913878e+00 -2.526848e+00 -1.103990e+00 -1.360626e+00 -1.375709e+00 1.099716e+00
<VARIANCE> 25
 1.343466e+01 1.844384e+01 1.898195e+01 1.565464e+01 1.949627e+01 2.261939e+01 2.415789e+01 2.605208e+01 1.839160e+01 2.062823e+01 1.866235e+01 1.919033e+01 2.728544e+00 3.590347e+00 7.363102e+00 6.440824e+00 4.159316e+00 4.962952e+00 4.020951e+00 3.610261e+00 3.746819e+00 2.626591e+00 2.314357e+00 3.149322e+00 3.587768e+00
<GCONST> 9.890121e+01
<TRANSP> 5
 0.000000e+00 1.000000e+00 0.000000e+00 0.000000e+00 0.000000e+00
 0.000000e+00 7.061332e-01 2.938668e-01 0.000000e+00 0.000000e+00
 0.000000e+00 0.000000e+00 8.751553e-01 1.248447e-01 0.000000e+00
 0.000000e+00 0.000000e+00 0.000000e+00 4.461651e-01 5.538348e-01
 0.000000e+00 0.000000e+00 0.000000e+00 0.000000e+00 0.000000e+00
<ENDHMM>
~h "g"
<BEGINHMM>
<NUMSTATES> 5
<STATE> 2
<MEAN> 25
 3.996509e+00 4.621839e+00 4.707261e+00 2.854019e+00 -1.701568e+00 -6.055016e+00 -3.541798e+00 -6.980145e+00 -3.533711e+00 -3.060249e+00 -5.892202e+00 -2.521312e+00 -4.132365e-01 -3.915325e-02 -2.176090e-01 3.125884e-01 7.711362e-01 -1.107546e+00 -9.501109e-01 1.878108e-01 4.747469e-01 6.218080e-01 -3.536157e-01 3.732199e-01 5.331780e-01
<VARIANCE> 25
 8.332937e+00 4.417570e+01 6.577941e+01 1.007932e+02 6.916891e+01 4.347271e+01 4.568937e+01 4.802744e+01 2.329297e+01 4.442770e+01 3.696616e+01 2.291950e+01 1.443700e+00 5.558770e+00 5.661236e+00 3.480353e+00 8.066742e+00 3.146033e+00 4.464538e+00 4.742667e+00 4.375092e+00 4.846105e+00 3.070692e+00 2.010851e+00 5.665450e+00
<GCONST> 1.080000e+02
<STATE> 3
<MEAN> 25
 2.703478e+00 3.420520e+00 7.003734e+00 8.694339e-02 -4.546071e+00 -9.566902e+00 -8.400726e+00 -4.546714e+00 -5.437921e+00 -1.273316e+00 -9.197456e+00 -4.392846e-01 -5.267454e-01 1.233751e-02 4.184629e-01 -1.072198e-01 -1.078516e+00 1.508762e-01 1.582042e-01 1.202015e-02 -3.088332e-01 4.900257e-01 2.493628e-01 9.861566e-02 4.773312e-01
<VARIANCE> 25
 1.505202e+01 4.180607e+01 2.497771e+01 8.695985e+01 7.296906e+01 5.175085e+01 4.703407e+01 4.517258e+01 1.703857e+01 5.912384e+01 3.731840e+01 4.867341e+01 2.081251e+00 7.455221e+00 3.641540e+00 2.003675e+01 9.982498e+00 6.052730e+00 5.950032e+00 8.833632e+00 2.245498e+00 1.015383e+01 4.906858e+00 5.883760e+00 1.593972e+01
<GCONST> 1.147461e+02
<STATE> 4
<MEAN> 25
 2.694977e+00 -1.727620e+00 7.596022e+00 -1.029729e+01 -1.243909e+01 -7.256520e+00 -6.999191e+00 -6.862109e+00 -8.849546e+00 7.318355e+00 -1.029774e+01 -3.287516e-01 2.598545e-01 4.866249e-02 -1.149228e-01 6.403866e-02 7.372968e-01 7.237766e-01 -4.156260e-01 -2.340971e-01 3.632928e-01 -5.503176e-01 3.106610e-01 -6.760737e-01 -4.071372e-01
<VARIANCE> 25
 2.108641e+01 5.285587e+01 1.835078e+01 1.415766e+02 6.559721e+01 2.614756e+01 8.373135e+01 8.168665e+01 3.904995e+01 7.182080e+01 4.602744e+01 3.165584e+01 1.955824e+00 2.649359e+00 1.712846e+00 6.492410e+00 4.620678e+00 3.149268e+00 5.615417e+00 6.394310e+00 3.435005e+00 4.365096e+00 4.185658e+00 2.410060e+00 4.737431e+00
<GCONST> 1.092136e+02
<TRANSP> 5
 0.000000e+00 1.000000e+00 0.000000e+00 0.000000e+00 0.000000e+00
 0.000000e+00 6.253588e-01 3.746412e-01 0.000000e+00 0.000000e+00
 0.000000e+00 0.000000e+00 7.636839e-01 2.363161e-01 0.000000e+00
 0.000000e+00 0.000000e+00 0.000000e+00 7.968384e-01 2.031616e-01
 0.000000e+00 0.000000e+00 0.000000e+00 0.000000e+00 0.000000e+00
<ENDHMM>
~h "h"
<BEGINHMM>
<NUMSTATES> 5
<STATE> 2
<MEAN> 25
 -2.279095e+00 6.315912e-01 -9.137080e-01 6.191935e+00 6.002986e+00 6.827650e-01 5.512368e+00 2.489208e+00 3.897870e+00 -9.986484e-02 3.100043e+00 3.028117e+00 -2.498226e-01 -3.002387e-01 -2.666113e-01 2.994369e-01 7.752031e-02 9.279528e-02 4.711195e-01 4.078254e-01 6.233364e-01 4.087579e-01 5.666747e-01 2.151103e-01 -5.376162e-01
<VARIANCE> 25
 8.104473e+00 2.746394e+01 2.214678e+01 1.516364e+01 4.126989e+01 2.322221e+01 3.131491e+01 3.868139e+01 3.208184e+01 2.555661e+01 2.653690e+01 2.454636e+01 1.004334e+00 1.435239e+00 1.300091e+00 1.763311e+00 2.452742e+00 2.025366e+00 3.058340e+00 2.868975e+00 3.212366e+00 2.796055e+00 2.873510e+00 2.117929e+00 1.294975e+00
<GCONST> 9.355153e+01
<STATE> 3
<MEAN> 25
 -1.653236e+00 2.653218e+00 -1.308565e+00 7.935210e+00 4.560068e+00 3.978663e-01 7.196205e+00 1.908244e+00 4.195167e+00 2.929659e+00 6.090895e+00 2.832368e+00 6.954583e-03 -2.646557e-02 -2.517445e-02 -7.821057e-03 1.165199e-02 4.389304e-02 3.080222e-02 -3.432300e-02 -1.517104e-02 2.094225e-02 2.052421e-02 -1.851595e-02 8.801926e-04
<VARIANCE> 25
 3.500757e+00 1.341199e+01 7.375237e+00 8.205490e+00 1.278125e+01 1.365093e+01 1.778639e+01 1.578058e+01 1.656360e+01 1.891924e+01 1.744009e+01 1.508073e+01 1.302051e-01 4.075261e-01 4.619507e-01 5.621951e-01 7.851942e-01 9.415624e-01 1.154689e+00 1.206147e+00 1.325117e+00 1.501691e+00 1.388142e+00 1.098415e+00 1.091264e-01
<GCONST> 7.065696e+01
<STATE> 4
<MEAN> 25
 -6.407498e+00 -3.343730e+00 -2.471799e+00 3.285981e+00 8.956168e+00 9.612001e-01 6.907942e+00 1.377716e+00 2.700749e+00 -9.141748e-01 2.935219e+00 2.580542e+00 -4.566848e-01 -4.395674e-01 9.092551e-02 -6.878352e-01 2.794687e-01 -1.396305e-01 -1.334211e-01 -4.205701e-01 -4.001127e-01 -5.743299e-01 -6.386929e-01 -2.221950e-01 1.519180e+00
<VARIANCE> 25
 2.581223e+01 4.533076e+01 2.350836e+01 2.327709e+01 5.716975e+01 4.044599e+01 3.323108e+01 3.051041e+01 3.151936e+01 2.672774e+01 2.700629e+01 2.379440e+01 1.856711e+00 2.068565e+00 1.090263e+00 1.504886e+00 2.423694e+00 1.830665e+00 2.328663e+00 2.402667e+00 2.346447e+00 1.990208e+00 2.272174e+00 1.745723e+00 9.778481e-01
<GCONST> 9.513524e+01
<TRANSP> 5
 0.000000e+00 1.000000e+00 0.000000e+00 0.000000e+00 0.000000e+00
 0.000000e+00 8.104470e-01 1.895529e-01 0.000000e+00 0.000000e+00
 0.000000e+00 0.000000e+00 9.231270e-01 7.687301e-02 0.000000e+00
 0.000000e+00 0.000000e+00 0.000000e+00 8.845051e-01 1.154950e-01
 0.000000e+00 0.000000e+00 0.000000e+00 0.000000e+00 0.000000e+00
<ENDHMM>
~h "i"
<BEGINHMM>
<NUMSTATES> 5
<STATE> 2
<MEAN> 25
 -2.380070e+00 3.984576e+00 8.981935e+00 -7.452313e-01 -1.061228e+01 -5.196446e+00 -4.083235e+00 -7.102839e+00 -6.483504e+00 -2.867940e+00 -7.547247e-01 -3.346660e+00 5.898373e-01 -3.075843e-01 3.603663e+00 -3.029483e+00 -4.015089e+00 1.068749e-02 -3.130389e+00 -9.722235e-01 -2.354273e+00 4.843048e-01 -1.095210e+00 -8.659891e-01 2.483344e+00
<VARIANCE> 25
 2.310386e+01 3.926266e+01 5.167217e+01 6.331408e+01 8.152196e+01 4.593651e+01 5.573251e+01 5.455537e+01 4.337124e+01 3.556739e+01 4.049333e+01 2.510766e+01 4.772920e+00 3.232467e+00 4.294437e+00 5.322587e+00 6.391959e+00 7.004714e+00 6.311495e+00 5.182587e+00 5.345335e+00 5.898345e+00 7.102550e+00 4.266203e+00 4.346218e+00
<GCONST> 1.128498e+02
<STATE> 3
<MEAN> 25
 -2.328996e+00 2.979695e+00 1.528184e+01 -1.199446e+01 -1.773305e+01 -1.562250e-02 -1.286233e+01 -5.723289e+00 -1.018005e+01 -2.801216e-02 -5.622864e+00 -4.393630e+00 -1.304009e-01 1.509728e-01 3.374910e-01 -5.380458e-01 -2.186028e-01 5.712052e-01 -4.668094e-01 -1.070379e-02 2.601064e-02 8.747530e-02 -2.695103e-01 -1.947935e-01 2.270448e-02
<VARIANCE> 25
 8.852509e+00 2.563903e+01 2.591155e+01 6.565558e+01 3.996754e+01 6.298620e+01 3.090011e+01 3.623978e+01 3.122486e+01 5.341700e+01 8.121131e+01 4.860843e+01 4.076035e-01 1.054423e+00 1.138990e+00 1.605110e+00 1.738030e+00 1.970730e+00 1.917552e+00 1.722339e+00 1.588653e+00 1.986602e+00 1.646918e+00 1.304059e+00 4.782773e-01
<GCONST> 9.272384e+01
<STATE> 4
<MEAN> 25
 -1.769928e+00 6.300570e+00 1.274847e+01 -5.895043e+00 -1.144278e+01 1.654489e+00 -7.268079e+00 -7.482921e+00 -5.473488e+00 -1.554948e+00 -2.372445e+00 -3.357946e+00 2.978277e-01 2.231988e-02 -1.214849e+00 1.708079e+00 1.688921e+00 -3.483012e-01 1.570104e+00 2.416427e-01 8.456453e-01 -7.738505e-02 5.616909e-01 4.899063e-01 -1.696911e+00
<VARIANCE> 25
 1.191735e+01 3.180831e+01 3.925123e+01 7.485275e+01 9.308218e+01 5.434992e+01 5.844036e+01 3.152055e+01 5.356470e+01 4.473540e+01 5.441787e+01 5.170895e+01 1.003112e+00 1.786435e+00 2.473952e+00 3.582596e+00 3.447563e+00 2.620978e+00 3.393303e+00 2.833430e+00 2.994387e+00 3.136002e+00 3.410455e+00 2.446369e+00 1.996047e+00
<GCONST> 1.039238e+02
<TRANSP> 5
 0.000000e+00 1.000000e+00 0.000000e+00 0.000000e+00 0.000000e+00
 0.000000e+00 6.537578e-01 3.462422e-01 0.000000e+00 0.000000e+00
 0.000000e+00 0.000000e+00 8.195159e-01 1.804841e-01 0.000000e+00
 0.000000e+00 0.000000e+00 0.000000e+00 8.250911e-01 1.749089e-01
 0.000000e+00 0.000000e+00 0.000000e+00 0.000000e+00 0.000000e+00
<ENDHMM>
~h "j"
<BEGINHMM>
<NUMSTATES> 5
<STATE> 2
<MEAN> 25
 -2.493473e+00 1.297927e+00 9.435261e-01 5.988442e+00 4.419757e+00 1.848220e+00 3.163555e+00 3.547870e+00 2.854934e+00 8.198283e-01 2.470675e+00 1.819574e+00 -1.370132e-01 -1.348968e-01 6.093537e-03 3.848174e-01 -2.624601e-01 1.887410e-01 4.952496e-01 3.468444e-01 4.076088e-01 3.665979e-01 5.488138e-01 4.111253e-01 -5.274059e-01
<VARIANCE> 25
 1.070773e+01 1.962299e+01 2.938745e+01 1.458647e+01 2.891642e+01 2.702791e+01 3.306537e+01 3.904654e+01 3.723756e+01 2.917930e+01 3.509425e+01 2.485502e+01 1.147471e+00 1.436168e+00 1.858271e+00 1.668695e+00 1.647854e+00 1.772061e+00 2.453743e+00 3.239723e+00 3.485624e+00 2.793643e+00 2.711630e+00 2.562651e+00 1.071395e+00
<GCONST> 9.400114e+01
<STATE> 3
<MEAN> 25
 -1.484308e+00 5.737543e-01 8.905908e-01 7.398490e+00 1.602383e+00 1.934055e+00 5.120884e+00 2.257556e+00 3.805542e+00 9.383734e-01 5.218755e+00 1.829021e+00 -1.398725e-02 5.679694e-02 1.117558e-02 8.764686e-02 3.259865e-02 -1.157503e-02 7.665622e-03 -4.710506e-02 -2.857797e-03 -5.125387e-03 -2.915604e-02 -6.037427e-02 -9.047195e-03
<VARIANCE> 25
 3.964445e+00 1.077420e+01 1.013303e+01 9.951382e+00 1.091248e+01 1.523692e+01 1.372188e+01 1.642942e+01 1.449512e+01 1.662112e+01 1.667155e+01 1.421604e+01 3.492455e-01 4.725671e-01 6.284806e-01 8.109401e-01 8.306489e-01 9.740724e-01 1.119044e+00 1.381773e+00 1.409153e+00 1.389796e+00 1.243009e+00 1.230279e+00 2.006499e-01
<GCONST> 7.303840e+01
<STATE> 4
<MEAN> 25
 -3.507475e+00 6.231076e+00 4.660192e+00 7.858816e+00 2.327929e+00 8.856012e-01 2.782618e+00 -1.928206e+00 -9.612627e-01 -2.205382e+00 2.509799e-01 -2.712730e+00 -7.883854e-01 5.368631e-01 2.364523e-01 -4.195131e-01 -4.588383e-01 -4.134266e-01 -4.651127e-01 -4.179384e-01 -4.120131e-01 -2.809265e-01 -9.186953e-02 -2.537707e-01 1.785274e+00
<VARIANCE> 25
 5.124438e+01 2.980284e+01 3.261485e+01 2.437535e+01 2.304390e+01 2.421364e+01 2.559639e+01 2.954503e+01 3.027761e+01 3.525249e+01 3.091756e+01 2.308200e+01 4.696250e+00 2.044593e+00 4.477806e+00 2.342495e+00 4.597596e+00 2.536649e+00 2.100888e+00 3.091217e+00 2.530132e+00 3.388235e+00 2.970640e+00 2.095905e+00 3.766922e+00
<GCONST> 1.006957e+02
<TRANSP> 5
 0.000000e+00 1.000000e+00 0.000000e+00 0.000000e+00 0.000000e+00
 0.000000e+00 7.005053e-01 2.994947e-01 0.000000e+00 0.000000e+00
 0.000000e+00 0.000000e+00 9.157704e-01 8.422958e-02 0.000000e+00
 0.000000e+00 0.000000e+00 0.000000e+00 8.942199e-01 1.057801e-01
 0.000000e+00 0.000000e+00 0.000000e+00 0.000000e+00 0.000000e+00
<ENDHMM>
~h "k"
<BEGINHMM>
<NUMSTATES> 5
<STATE> 2
<MEAN> 25
 -2.092780e+00 2.585302e+00 -8.222545e-02 5.118850e+00 2.984610e+00 2.495823e+00 4.624637e+00 3.677701e-01 3.657100e+00 2.324194e+00 4.282729e+00 1.720299e+00 -5.682890e-01 -3.883060e-01 -5.067553e-01 8.443878e-01 6.905726e-01 1.348607e-01 7.261071e-01 5.935915e-01 7.531959e-01 5.704088e-01 6.804396e-01 4.978237e-01 -9.186408e-01
<VARIANCE> 25
 1.066846e+01 1.599961e+01 2.178046e+01 2.230800e+01 2.719309e+01 2.478259e+01 2.825065e+01 2.776809e+01 3.179201e+01 2.772399e+01 2.646497e+01 1.988411e+01 1.624078e+00 1.881002e+00 2.175210e+00 3.750324e+00 3.162112e+00 3.528775e+00 3.068123e+00 3.067653e+00 3.255441e+00 3.284694e+00 3.273558e+00 2.053855e+00 4.205720e+00
<GCONST> 9.707962e+01
<STATE> 3
<MEAN> 25
 -4.778399e+00 -5.854628e-01 -6.202459e+00 4.875000e+00 5.655826e+00 -3.249961e+00 5.458048e+00 4.650406e-01 4.037689e+00 3.782134e+00 2.510534e+00 3.642454e+00 -3.419399e-01 -1.326666e+00 -2.127198e+00 -1.526769e+00 4.834310e-01 -2.751027e+00 -1.142524e+00 -2.305191e-01 -6.995943e-01 -2.000798e-01 -2.183885e+00 2.885689e-02 4.419313e+00
<VARIANCE> 25
 1.595556e+01 2.752687e+01 4.851540e+01 3.391325e+01 5.125831e+01 6.294746e+01 3.728091e+01 2.892458e+01 2.800309e+01 3.332906e+01 4.084878e+01 2.619543e+01 2.077133e+00 3.233176e+00 4.452242e+00 6.159933e+00 6.886864e+00 5.653749e+00 4.021962e+00 4.033134e+00 3.952528e+00 4.436216e+00 5.432827e+00 3.130249e+00 6.880307e+00
<GCONST> 1.076047e+02
<STATE> 4
<MEAN> 25
 -1.542301e+00 -1.541529e+00 -6.404583e+00 -2.438606e+00 2.956729e+00 -7.222992e+00 -1.324648e-02 4.175749e-01 1.391229e+00 2.519442e+00 -5.225285e+00 7.776743e-01 2.329060e+00 -1.277448e+00 2.015197e+00 -3.580883e+00 -2.911662e+00 7.524565e-01 -1.715472e+00 7.804955e-01 -1.426527e+00 -9.843981e-01 -2.148312e+00 -1.694203e+00 2.688279e+00
<VARIANCE> 25
 2.825195e+01 3.131470e+01 5.287880e+01 6.163438e+01 7.918737e+01 5.119043e+01 4.754533e+01 3.543431e+01 3.274841e+01 4.812212e+01 5.244823e+01 3.725097e+01 1.775317e+00 4.953582e+00 5.965243e+00 6.851254e+00 6.004005e+00 7.176926e+00 5.768254e+00 4.576811e+00 4.532083e+00 3.255232e+00 4.420899e+00 3.886267e+00 3.913886e+00
<GCONST> 1.113192e+02
<TRANSP> 5
 0.000000e+00 1.000000e+00 0.000000e+00 0.000000e+00 0.000000e+00
 0.000000e+00 8.015559e-01 1.984441e-01 0.000000e+00 0.000000e+00
 0.000000e+00 0.000000e+00 6.098455e-01 3.901545e-01 0.000000e+00
 0.000000e+00 0.000000e+00 0.000000e+00 5.200081e-01 4.799919e-01
 0.000000e+00 0.000000e+00 0.000000e+00 0.000000e+00 0.000000e+00
<ENDHMM>
~h "l"
<BEGINHMM>
<NUMSTATES> 5
<STATE> 2
<MEAN> 25
 3.905036e+00 -8.627102e-01 4.079818e-02 -8.368801e+00 -6.773962e-01 -1.072706e+00 -8.131289e+00 -3.521704e+00 7.951808e-01 2.081990e+00 -7.152731e-01 -8.644630e-01 7.989520e-01 -8.497776e-01 2.680308e-01 -2.152107e+00 4.946602e-01 -2.351196e-01 -2.063605e+00 -1.665003e-01 6.434844e-01 3.055996e-01 -5.231590e-01 -5.485198e-01 1.422549e+00
<VARIANCE> 25
 3.057676e+01 4.371763e+01 2.858865e+01 1.345943e+02 5.666975e+01 5.244106e+01 1.170034e+02 5.435598e+01 5.382174e+01 3.641244e+01 5.386365e+01 3.636213e+01 3.131254e+00 3.810292e+00 2.069730e+00 8.320428e+00 4.688819e+00 4.683530e+00 9.340962e+00 5.372555e+00 3.387835e+00 4.479632e+00 4.044956e+00 3.332176e+00 3.750762e+00
<GCONST> 1.122885e+02
<STATE> 3
<MEAN> 25
 5.952630e+00 -3.479435e+00 9.817579e-01 -2.194816e+01 -1.877906e+00 -1.455644e+00 -1.360769e+01 -3.359955e+00 -1.538347e+00 5.890057e+00 -4.420180e+00 -1.175886e+00 -5.285111e-02 -6.256099e-01 -1.239682e-01 -2.547577e-02 2.168537e-01 6.092725e-02 -3.149323e-02 2.152650e-01 6.360984e-01 -1.301989e-01 -3.974607e-01 -5.524803e-01 3.833690e-01
<VARIANCE> 25
 7.608707e+00 3.677731e+01 4.083070e+01 6.015224e+01 4.641912e+01 5.246970e+01 8.062100e+01 3.729262e+01 5.529215e+01 4.556812e+01 4.504655e+01 4.341356e+01 2.848755e-01 1.337047e+00 1.057106e+00 1.605684e+00 1.439187e+00 1.873974e+00 2.621396e+00 2.288756e+00 2.048116e+00 2.135273e+00 3.152045e+00 1.584390e+00 5.850787e-01
<GCONST> 9.549967e+01
<STATE> 4
<MEAN> 25
 6.031562e+00 -3.860608e+00 -3.274851e+00 -1.391416e+01 -8.477285e-01 5.513064e-01 -1.153587e+01 -3.531161e+00 1.700412e-02 1.090942e+00 -5.210275e+00 -4.978968e+00 -2.853164e-01 4.622901e-01 -1.247099e-01 1.133155e+00 3.141834e-01 -1.652536e-03 8.194491e-01 -7.353280e-02 1.837322e-02 -5.077736e-01 1.605807e-01 1.437110e-01 -8.220172e-01
<VARIANCE> 25
 1.085092e+01 3.912956e+01 2.355928e+01 6.974568e+01 6.379399e+01 7.270546e+01 1.016855e+02 3.398237e+01 3.642849e+01 4.874940e+01 4.186823e+01 2.864588e+01 7.233519e-01 1.602836e+00 1.442356e+00 2.938142e+00 1.950198e+00 2.642632e+00 2.519597e+00 2.125657e+00 2.241882e+00 2.721008e+00 2.532832e+00 1.779351e+00 1.236164e+00
<GCONST> 9.899958e+01
<TRANSP> 5
 0.000000e+00 1.000000e+00 0.000000e+00 0.000000e+00 0.000000e+00
 0.000000e+00 6.239138e-01 3.760862e-01 0.000000e+00 0.000000e+00
 0.000000e+00 0.000000e+00 7.550326e-01 2.449674e-01 0.000000e+00
 0.000000e+00 0.000000e+00 0.000000e+00 8.285852e-01 1.714148e-01
 0.000000e+00 0.000000e+00 0.000000e+00 0.000000e+00 0.000000e+00
<ENDHMM>
~h "m"
<BEGINHMM>
<NUMSTATES> 5
<STATE> 2
<MEAN> 25
 5.782203e+00 -2.703173e+00 5.656011e-01 -5.082784e+00 4.440389e-01 -1.215423e-01 -8.653003e+00 -9.316442e+00 -9.053019e+00 -1.513441e+00 -3.224478e+00 -5.984015e+00 -1.497518e-01 1.193112e+00 7.140834e-01 1.491189e+00 1.076336e+00 2.021984e-01 -3.750645e-02 -1.688081e+00 -1.490784e+00 -1.369467e-01 2.669546e-01 2.859721e-01 -1.253691e+00
<VARIANCE> 25
 1.380651e+01 4.288758e+01 2.975830e+01 4.926640e+01 5.084834e+01 4.220081e+01 6.859597e+01 8.191958e+01 8.171584e+01 5.133400e+01 5.700970e+01 3.873118e+01 9.888082e-01 2.070771e+00 2.751757e+00 3.247519e+00 3.145991e+00 2.570090e+00 4.377915e+00 5.317275e+00 5.058600e+00 3.903551e+00 4.365278e+00 2.443835e+00 1.717221e+00
<GCONST> 1.060031e+02
<STATE> 3
<MEAN> 25
 2.767971e+00 3.711505e+00 1.240968e+00 3.456112e+00 4.100387e+00 2.228368e+00 -2.407619e+00 -7.648772e+00 -9.444482e+00 -5.034801e+00 -2.500283e+00 -3.893070e+00 -6.005637e-01 1.750319e-02 -2.550004e-01 7.103156e-01 5.908073e-02 2.803758e-01 1.267215e+00 1.300119e+00 1.532681e+00 5.003737e-01 5.650091e-01 4.172323e-01 -1.042088e+00
<VARIANCE> 25
 1.308350e+01 2.788115e+01 2.029358e+01 3.262328e+01 3.586393e+01 3.280814e+01 5.606629e+01 6.248482e+01 8.780890e+01 4.464660e+01 4.329118e+01 3.078198e+01 7.973176e-01 1.670661e+00 1.211335e+00 1.896401e+00 1.737027e+00 1.992298e+00 3.019975e+00 3.629046e+00 3.813049e+00 3.201947e+00 3.145097e+00 2.581928e+00 1.190485e+00
<GCONST> 9.856728e+01
<STATE> 4
<MEAN> 25
 -8.717123e-01 1.878985e-01 -1.708803e+00 6.045652e+00 4.511070e+00 2.761220e+00 4.964342e+00 1.706479e+00 3.843423e+00 1.545943e+00 4.406325e+00 1.743393e+00 1.002959e-02 6.161030e-02 4.570847e-03 7.342334e-03 -8.432586e-02 2.437036e-02 2.584001e-02 1.794329e-02 7.714679e-02 1.430223e-02 -4.741601e-02 5.774350e-03 -6.351537e-02
<VARIANCE> 25
 7.967873e+00 1.374141e+01 1.348657e+01 1.650141e+01 2.495149e+01 2.048040e+01 3.036400e+01 3.494715e+01 4.071509e+01 2.494702e+01 2.406567e+01 1.995224e+01 3.565668e-01 6.903434e-01 8.119122e-01 1.098326e+00 1.423855e+00 1.400317e+00 1.459412e+00 1.954115e+00 2.278462e+00 2.059348e+00 1.863280e+00 1.504844e+00 5.408188e-01
<GCONST> 8.453279e+01
<TRANSP> 5
 0.000000e+00 1.000000e+00 0.000000e+00 0.000000e+00 0.000000e+00
 0.000000e+00 7.601649e-01 2.398351e-01 0.000000e+00 0.000000e+00
 0.000000e+00 0.000000e+00 7.096597e-01 2.903403e-01 0.000000e+00
 0.000000e+00 0.000000e+00 0.000000e+00 8.098794e-01 1.901207e-01
 0.000000e+00 0.000000e+00 0.000000e+00 0.000000e+00 0.000000e+00
<ENDHMM>
~h "n"
<BEGINHMM>
<NUMSTATES> 5
<STATE> 2
<MEAN> 25
 5.205791e+00 -5.302329e+00 2.428240e-01 -3.877526e+00 -4.453352e+00 -4.795231e+00 -7.486156e+00 2.876176e+00 -4.180125e+00 -5.629164e+00 -8.232830e+00 -3.420547e+00 3.246236e-01 2.676003e+00 1.285419e+00 1.187501e+00 -7.855349e-02 -1.241726e+00 6.959324e-01 -3.642401e+00 8.676828e-01 1.338657e+00 -8.082794e-01 9.839334e-02 -2.218841e+00
<VARIANCE> 25
 7.570355e+00 3.643380e+01 3.164120e+01 2.496501e+01 4.458290e+01 4.637738e+01 4.251288e+01 8.264736e+01 5.321355e+01 4.181078e+01 3.142947e+01 3.263508e+01 7.550102e-01 1.573779e+00 2.867208e+00 1.894961e+00 3.637684e+00 3.195795e+00 2.753023e+00 5.474494e+00 4.388632e+00 4.323801e+00 3.228734e+00 2.542417e+00 1.095927e+00
<GCONST> 1.008487e+02
<STATE> 3
<MEAN> 25
 5.441839e+00 3.627513e+00 4.174199e+00 -6.693873e-01 -4.189095e+00 -4.976423e+00 -4.648172e+00 -7.948752e+00 -5.557012e+00 -4.577415e+00 -9.490664e+00 -2.575722e+00 -2.141494e-01 1.122647e+00 1.854528e-01 9.451213e-01 7.752740e-01 2.844571e-01 5.419637e-01 -4.403708e-01 -3.520525e-01 -3.855459e-01 2.329243e-01 -1.497472e-02 -1.232589e+00
<VARIANCE> 25
 6.187719e+00 2.693466e+01 1.723832e+01 2.558626e+01 5.613187e+01 4.592618e+01 3.343171e+01 4.160511e+01 3.702484e+01 5.597777e+01 4.073028e+01 3.256042e+01 5.141782e-01 1.183203e+00 1.142723e+00 1.639584e+00 1.979205e+00 2.221383e+00 2.046876e+00 2.997341e+00 2.119086e+00 1.841581e+00 2.180143e+00 1.451208e+00 6.546345e-01
<GCONST> 9.258668e+01
<STATE> 4
<MEAN> 25
 -4.208559e-01 6.461241e+00 3.238691e+00 7.486355e+00 3.887321e+00 -1.277448e+00 3.169319e+00 -3.431879e+00 -2.150298e+00 -3.131659e+00 -2.763741e+00 -1.487362e+00 -9.599358e-01 -5.237794e-01 -6.328592e-01 3.173237e-01 4.649209e-01 7.265195e-01 1.102624e+00 1.061319e+00 1.224039e+00 1.126265e+00 1.485132e+00 7.491702e-01 -9.242664e-01
<VARIANCE> 25
 1.638587e+01 1.570120e+01 1.794040e+01 2.130623e+01 3.644531e+01 3.194319e+01 3.652264e+01 3.982598e+01 4.134607e+01 4.538927e+01 4.436620e+01 2.764446e+01 7.683018e-01 1.243914e+00 1.237156e+00 1.869560e+00 2.109449e+00 2.594000e+00 2.482160e+00 3.062793e+00 3.485269e+00 3.624221e+00 2.941045e+00 2.284224e+00 9.921571e-01
<GCONST> 9.538891e+01
<TRANSP> 5
 0.000000e+00 1.000000e+00 0.000000e+00 0.000000e+00 0.000000e+00
 0.000000e+00 6.505235e-01 3.494765e-01 0.000000e+00 0.000000e+00
 0.000000e+00 0.000000e+00 8.244160e-01 1.755840e-01 0.000000e+00
 0.000000e+00 0.000000e+00 0.000000e+00 7.888963e-01 2.111037e-01
 0.000000e+00 0.000000e+00 0.000000e+00 0.000000e+00 0.000000e+00
<ENDHMM>
~h "o"
<BEGINHMM>
<NUMSTATES> 5
<STATE> 2
<MEAN> 25
 4.656388e+00 4.739218e-01 -4.222557e+00 -8.397908e+00 -1.708983e-01 1.535982e+00 -5.554585e+00 -4.774541e+00 -3.108066e+00 -1.574591e+00 -1.626249e+00 -2.637575e+00 2.160140e+00 -1.850154e+00 -3.456376e-01 -4.598307e+00 -9.228460e-01 4.709615e-01 -1.947091e+00 1.697695e-01 -8.242419e-01 -4.820594e-01 -1.246041e+00 -6.340877e-01 2.514228e+00
<VARIANCE> 25
 2.560121e+01 3.656688e+01 4.667448e+01 1.249935e+02 4.403608e+01 5.305243e+01 6.945561e+01 4.276584e+01 7.906254e+01 3.610371e+01 3.513546e+01 2.511070e+01 4.022888e+00 4.808575e+00 5.019270e+00 1.352657e+01 4.569467e+00 6.287485e+00 7.853193e+00 6.783063e+00 6.564518e+00 3.517302e+00 4.424855e+00 2.302173e+00 4.855834e+00
<GCONST> 1.135063e+02
<STATE> 3
<MEAN> 25
 7.026056e+00 -5.698762e+00 -6.693711e+00 -2.027046e+01 7.955737e-01 1.907094e+00 -7.469405e+00 -1.562537e-01 -3.736037e+00 -3.728131e-01 -5.165065e+00 -3.789648e+00 7.262533e-02 -1.108979e+00 1.837918e-01 -1.326178e+00 7.489198e-01 6.843643e-01 6.867539e-01 5.026788e-01 -1.988745e-01 2.430821e-01 -4.579910e-01 -2.062766e-01 4.973636e-01
<VARIANCE> 25
 1.162766e+01 4.130357e+01 3.122231e+01 5.453246e+01 7.140676e+01 5.399350e+01 5.763836e+01 3.936703e+01 6.017388e+01 3.307230e+01 5.505457e+01 3.038526e+01 1.079100e+00 2.419084e+00 3.019026e+00 9.684122e+00 4.349553e+00 4.797639e+00 3.766121e+00 4.735877e+00 4.195896e+00 2.531477e+00 2.842564e+00 2.085782e+00 3.305945e+00
<GCONST> 1.061566e+02
<STATE> 4
<MEAN> 25
 6.969784e+00 -5.914598e+00 -6.462614e+00 -2.112978e+01 2.351245e-01 5.872923e+00 -6.434729e+00 -1.889112e+00 -3.016480e+00 -9.018963e-01 -3.643394e+00 -3.780637e+00 -2.097950e-01 3.393840e-01 1.444995e-01 1.126453e+00 6.489477e-02 -1.026332e-01 1.867287e-01 5.382848e-02 2.952408e-01 -2.289182e-01 2.362836e-01 5.282339e-02 -6.877677e-01
<VARIANCE> 25
 1.174866e+01 2.948826e+01 2.618693e+01 7.922820e+01 8.774281e+01 5.958751e+01 6.412935e+01 3.362754e+01 4.202342e+01 2.901253e+01 4.524520e+01 3.290527e+01 6.768640e-01 1.861350e+00 1.133353e+00 4.648831e+00 2.132304e+00 2.527221e+00 2.898431e+00 2.252502e+00 2.288969e+00 2.193969e+00 2.950983e+00 1.831721e+00 1.925439e+00
<GCONST> 9.949174e+01
<TRANSP> 5
 0.000000e+00 1.000000e+00 0.000000e+00 0.000000e+00 0.000000e+00
 0.000000e+00 5.838978e-01 4.161021e-01 0.000000e+00 0.000000e+00
 0.000000e+00 0.000000e+00 5.162696e-01 4.837303e-01 0.000000e+00
 0.000000e+00 0.000000e+00 0.000000e+00 8.626019e-01 1.373982e-01
 0.000000e+00 0.000000e+00 0.000000e+00 0.000000e+00 0.000000e+00
<ENDHMM>
~h "p"
<BEGINHMM>
<NUMSTATES> 5
<STATE> 2
<MEAN> 25
 5.078234e+00 3.817605e+00 -5.950115e-01 -3.351375e+00 -2.726228e-01 2.463120e+00 -8.811843e-01 -6.079912e+00 -3.091011e+00 -2.679334e+00 -1.674960e+00 -2.779993e+00 -1.291835e+00 1.624176e+00 1.074217e+00 4.104051e+00 1.668378e+00 4.528119e-01 1.550072e+00 8.110331e-01 1.047591e+00 -3.599056e-01 4.874026e-01 -6.117652e-02 -3.457433e+00
<VARIANCE> 25
 2.043654e+01 4.198443e+01 3.029200e+01 1.050973e+02 4.861351e+01 2.752474e+01 3.448678e+01 3.157424e+01 4.078149e+01 3.509530e+01 3.917330e+01 3.075103e+01 1.712486e+00 4.353257e+00 2.871572e+00 7.786311e+00 4.015463e+00 3.437890e+00 3.403685e+00 3.373103e+00 3.527196e+00 3.890337e+00 3.952598e+00 2.439914e+00 4.968048e+00
<GCONST> 1.059896e+02
<STATE> 3
<MEAN> 25
 -1.257719e+00 3.580500e+00 7.676514e-01 6.486119e+00 4.503598e+00 4.071987e+00 3.903748e+00 -9.338842e-01 1.956678e+00 -4.169064e-01 1.658581e+00 -5.101397e-01 -1.654801e+00 -1.121260e+00 -8.534273e-01 7.544068e-01 3.355056e-01 1.242433e-01 1.364197e+00 1.587142e+00 1.986121e+00 1.799516e+00 1.848346e+00 1.513301e+00 -8.877426e-01
<VARIANCE> 25
 1.159254e+01 1.977135e+01 1.714793e+01 1.564357e+01 1.682494e+01 2.902574e+01 2.160479e+01 2.664670e+01 3.359439e+01 2.957967e+01 2.843003e+01 2.370160e+01 1.473332e+00 1.056440e+00 1.599384e+00 2.944115e+00 2.443657e+00 2.039652e+00 2.409897e+00 2.596451e+00 3.028393e+00 2.956815e+00 2.716905e+00 2.404822e+00 3.697149e+00
<GCONST> 9.374306e+01
<STATE> 4
<MEAN> 25
 -2.452079e+00 1.890104e+00 -1.414056e+00 7.115160e+00 3.977087e+00 2.841362e+00 6.090949e+00 2.161771e+00 5.143822e+00 2.878315e+00 5.850942e+00 2.735015e+00 -8.403369e-02 7.425811e-02 -9.405918e-02 4.687803e-02 -2.410805e-01 -3.531453e-01 -2.526743e-03 -1.328254e-01 -9.255975e-02 -2.009667e-02 3.908592e-02 1.016057e-02 3.083358e-01
<VARIANCE> 25
 5.707818e+00 9.858312e+00 1.031708e+01 1.262482e+01 1.367818e+01 2.008860e+01 1.882681e+01 1.610062e+01 1.608881e+01 1.764410e+01 1.608177e+01 1.425813e+01 5.409368e-01 5.993031e-01 8.235234e-01 1.217271e+00 1.293938e+00 1.590925e+00 1.459571e+00 1.622116e+00 1.737509e+00 1.822041e+00 1.745291e+00 1.531808e+00 2.610744e+00
<GCONST> 8.081548e+01
<TRANSP> 5
 0.000000e+00 1.000000e+00 0.000000e+00 0.000000e+00 0.000000e+00
 0.000000e+00 5.600290e-01 4.399709e-01 0.000000e+00 0.000000e+00
 0.000000e+00 0.000000e+00 5.245408e-01 4.754593e-01 0.000000e+00
 0.000000e+00 0.000000e+00 0.000000e+00 8.677965e-01 1.322035e-01
 0.000000e+00 0.000000e+00 0.000000e+00 0.000000e+00 0.000000e+00
<ENDHMM>
~h "r"
<BEGINHMM>
<NUMSTATES> 5
<STATE> 2
<MEAN> 25
 5.280651e+00 -9.333724e+00 -1.774273e+00 -9.383765e+00 -7.267976e+00 -1.826333e+00 -1.067779e+01 6.510505e+00 4.746066e-02 -2.449170e+00 -9.874665e+00 -4.166366e+00 1.500512e-01 1.657306e-01 -5.542759e-02 7.495009e-01 2.146438e-02 -4.180370e-02 -4.259390e-01 2.914002e-02 2.916592e-01 -5.914729e-01 4.259107e-01 4.149444e-03 -3.700594e-01
<VARIANCE> 25
 1.427922e+01 3.402835e+01 1.828199e+01 5.224428e+01 5.668679e+01 3.828619e+01 8.367840e+01 5.620699e+01 3.613897e+01 5.528974e+01 4.856742e+01 2.236987e+01 7.019470e-01 2.527765e+00 1.397866e+00 4.186956e+00 3.440211e+00 3.507083e+00 2.636321e+00 4.410844e+00 3.557992e+00 2.911199e+00 4.392920e+00 1.742287e+00 2.349099e+00
<GCONST> 1.022352e+02
<STATE> 3
<MEAN> 25
 4.718522e+00 -3.039477e+00 -2.761009e+00 -3.550172e-01 -3.410739e+00 -4.004873e+00 -8.862217e+00 9.636570e-01 3.658727e+00 -3.756306e+00 -1.246253e+00 -1.944790e+00 -4.835660e-01 1.106966e+00 1.732491e-01 1.732062e+00 4.615228e-01 -1.481559e+00 4.838969e-01 -1.025817e+00 5.725784e-01 -6.932831e-01 7.795671e-01 4.724769e-01 -3.856141e-01
<VARIANCE> 25
 2.588586e+01 3.504736e+01 2.608912e+01 4.961681e+01 5.305908e+01 4.356486e+01 9.039605e+01 7.065127e+01 3.850161e+01 5.379483e+01 3.531522e+01 2.795763e+01 4.338934e+00 6.717909e+00 2.574919e+00 8.432137e+00 6.298083e+00 3.856554e+00 1.108996e+01 8.167694e+00 4.864011e+00 4.655933e+00 6.107111e+00 3.265152e+00 7.263360e+00
<GCONST> 1.132038e+02
<STATE> 4
<MEAN> 25
 1.264609e+00 -6.195642e-01 -3.868226e-01 2.990260e+00 4.945545e-01 -3.562095e+00 -3.779635e+00 2.481108e+00 -9.953824e-02 -4.864791e+00 -1.511184e+00 -1.191700e+00 -5.011346e-01 3.178786e-01 3.084969e-01 4.276552e-01 5.442874e-01 4.107991e-01 7.902696e-01 -2.493268e-02 -8.089424e-02 6.904075e-01 4.993822e-01 3.714629e-01 -1.015101e+00
<VARIANCE> 25
 2.270274e+01 2.742510e+01 3.706569e+01 5.322757e+01 8.509890e+01 5.202235e+01 6.659389e+01 5.549745e+01 5.371659e+01 5.443104e+01 4.743543e+01 3.467390e+01 2.466232e+00 2.979704e+00 2.201799e+00 4.354889e+00 4.557335e+00 2.831997e+00 6.154064e+00 3.745377e+00 5.420671e+00 4.898575e+00 4.227636e+00 2.922829e+00 2.970818e+00
<GCONST> 1.087972e+02
<TRANSP> 5
 0.000000e+00 1.000000e+00 0.000000e+00 0.000000e+00 0.000000e+00
 0.000000e+00 7.605870e-01 2.394130e-01 0.000000e+00 0.000000e+00
 0.000000e+00 0.000000e+00 4.439585e-01 5.560415e-01 0.000000e+00
 0.000000e+00 0.000000e+00 0.000000e+00 6.920870e-01 3.079129e-01
 0.000000e+00 0.000000e+00 0.000000e+00 0.000000e+00 0.000000e+00
<ENDHMM>
~h "s"
<BEGINHMM>
<NUMSTATES> 5
<STATE> 2
<MEAN> 25
 -5.502396e+00 6.298966e+00 -1.402756e+00 1.239403e+00 1.029109e+00 -6.637011e+00 -5.261575e-01 -3.471103e-01 -1.161748e+00 -3.524917e+00 -1.899082e+00 -1.498588e+00 -3.625298e+00 2.533779e+00 -1.161132e+00 2.659020e+00 1.491470e+00 1.819683e-01 2.710402e+00 1.309279e-01 8.519754e-01 -1.893182e-01 1.554439e+00 6.411673e-01 -5.655511e-01
<VARIANCE> 25
 5.571737e+01 4.249367e+01 3.171266e+01 6.684172e+01 7.584097e+01 3.977675e+01 9.048564e+01 5.131989e+01 4.881211e+01 4.290183e+01 4.303532e+01 2.521582e+01 2.796190e+00 5.312239e+00 3.956145e+00 6.853634e+00 5.953359e+00 6.426817e+00 6.974222e+00 5.634647e+00 4.739380e+00 5.896351e+00 4.339986e+00 2.825695e+00 2.277690e+00
<GCONST> 1.124411e+02
<STATE> 3
<MEAN> 25
 -1.707940e+01 1.075049e+01 -6.673642e+00 6.858936e+00 3.113042e+00 -4.695079e+00 7.215992e+00 -1.447552e-01 1.437032e+00 -1.659414e-01 3.100219e+00 1.905086e+00 -1.542891e-01 -1.274622e-01 -1.263663e-01 4.370289e-03 -1.403286e-01 7.887852e-02 1.236260e-01 -3.052110e-02 6.340417e-02 1.349346e-01 1.560180e-01 1.391399e-01 -1.668672e-02
<VARIANCE> 25
 5.607519e+00 1.276562e+01 1.587189e+01 2.146098e+01 2.713616e+01 3.067748e+01 2.650460e+01 2.884671e+01 2.174723e+01 2.035848e+01 1.686610e+01 1.669085e+01 8.649059e-01 5.931340e-01 8.509275e-01 8.578733e-01 1.222696e+00 1.242142e+00 1.492847e+00 1.533134e+00 1.546228e+00 1.554387e+00 1.358174e+00 1.318439e+00 5.112909e-01
<GCONST> 8.219781e+01
<STATE> 4
<MEAN> 25
 -1.227381e+01 6.598211e+00 -3.412318e+00 7.359042e+00 3.507982e+00 -2.662336e+00 6.857769e+00 1.682383e+00 2.997455e+00 -3.155222e-01 4.252296e+00 2.165444e+00 2.186013e+00 -7.879516e-01 8.157790e-01 -3.310201e-01 -7.268078e-01 -2.166444e-01 -1.184656e+00 -4.551166e-01 -4.568424e-02 -2.395309e-01 -5.917223e-01 -4.414060e-01 -5.442348e-01
<VARIANCE> 25
 3.088254e+01 2.280411e+01 1.664024e+01 2.540208e+01 2.582631e+01 3.873981e+01 2.987179e+01 3.357385e+01 2.672692e+01 2.192223e+01 2.087801e+01 1.907358e+01 3.281626e+00 2.155533e+00 2.534822e+00 2.631772e+00 3.210978e+00 3.498235e+00 4.289716e+00 4.006048e+00 3.145426e+00 2.418869e+00 2.504215e+00 1.847603e+00 2.679540e+00
<GCONST> 9.839358e+01
<TRANSP> 5
 0.000000e+00 1.000000e+00 0.000000e+00 0.000000e+00 0.000000e+00
 0.000000e+00 7.714961e-01 2.285039e-01 0.000000e+00 0.000000e+00
 0.000000e+00 0.000000e+00 8.811033e-01 1.188967e-01 0.000000e+00
 0.000000e+00 0.000000e+00 0.000000e+00 6.984927e-01 3.015073e-01
 0.000000e+00 0.000000e+00 0.000000e+00 0.000000e+00 0.000000e+00
<ENDHMM>
~h "t"
<BEGINHMM>
<NUMSTATES> 5
<STATE> 2
<MEAN> 25
 7.041689e-01 2.452829e+00 1.582899e+00 2.733031e+00 3.949136e-01 -6.731550e-01 -2.292382e+00 3.929853e-03 1.503652e+00 -2.401907e+00 -1.174036e+00 -2.340500e+00 -9.960163e-01 9.370981e-01 2.791213e-01 2.276019e+00 1.529328e+00 1.060623e+00 2.199825e+00 1.765568e-01 1.079047e+00 5.338053e-01 1.283855e+00 7.648109e-01 -3.100125e+00
<VARIANCE> 25
 2.019896e+01 3.496210e+01 4.053708e+01 5.803246e+01 6.528146e+01 4.404469e+01 7.363200e+01 5.179568e+01 4.096645e+01 3.808396e+01 4.030365e+01 3.007166e+01 1.575075e+00 5.598867e+00 3.344146e+00 6.906198e+00 4.386100e+00 3.865278e+00 5.220998e+00 5.433241e+00 3.564311e+00 4.752038e+00 4.553350e+00 2.660775e+00 5.775637e+00
<GCONST> 1.095028e+02
<STATE> 3
<MEAN> 25
 -3.160179e+00 2.750142e+00 -6.503475e-01 6.770529e+00 4.571757e+00 1.351641e+00 7.178425e+00 2.544235e+00 4.718241e+00 3.029508e+00 5.919158e+00 3.403301e+00 -1.315488e-01 -2.337890e-02 -2.072866e-01 3.835753e-02 9.572617e-03 -1.465071e-01 2.523365e-01 -5.780457e-03 6.225811e-02 2.175694e-01 2.707373e-01 1.721049e-01 -3.052569e-02
<VARIANCE> 25
 6.386749e+00 1.121141e+01 1.010770e+01 1.083616e+01 1.769686e+01 1.685477e+01 2.036675e+01 1.863762e+01 1.872676e+01 2.029942e+01 2.098392e+01 1.532106e+01 6.696478e-01 7.579259e-01 9.515411e-01 1.039463e+00 1.400411e+00 1.550921e+00 1.626091e+00 1.843335e+00 2.099892e+00 1.875506e+00 2.133548e+00 1.558555e+00 1.543684e+00
<GCONST> 8.245561e+01
<STATE> 4
<MEAN> 25
 -4.843295e+00 2.699737e+00 -2.027008e+00 5.693611e+00 3.179425e+00 -1.874375e+00 6.299756e+00 5.848091e-01 3.342867e+00 1.376505e+00 3.923457e+00 2.249099e+00 1.323430e-02 -1.035549e-01 -3.966933e-01 -1.933152e+00 -2.140872e+00 -2.276763e+00 -2.506998e+00 -1.373505e+00 -9.985701e-01 -1.247588e+00 -1.575807e+00 -1.312007e+00 5.558339e+00
<VARIANCE> 25
 1.291974e+01 1.351552e+01 1.797852e+01 2.002224e+01 2.549157e+01 4.370161e+01 2.700395e+01 2.312448e+01 2.259587e+01 2.419053e+01 2.815934e+01 1.827382e+01 2.486571e+00 2.202192e+00 3.426776e+00 4.611848e+00 4.984746e+00 3.564887e+00 8.835682e+00 5.292680e+00 3.659677e+00 2.584306e+00 4.129990e+00 2.300533e+00 5.280689e+00
<GCONST> 1.003408e+02
<TRANSP> 5
 0.000000e+00 1.000000e+00 0.000000e+00 0.000000e+00 0.000000e+00
 0.000000e+00 6.825207e-01 3.174793e-01 0.000000e+00 0.000000e+00
 0.000000e+00 0.000000e+00 8.492291e-01 1.507709e-01 0.000000e+00
 0.000000e+00 0.000000e+00 0.000000e+00 5.695102e-01 4.304898e-01
 0.000000e+00 0.000000e+00 0.000000e+00 0.000000e+00 0.000000e+00
<ENDHMM>
~h "u"
<BEGINHMM>
<NUMSTATES> 5
<STATE> 2
<MEAN> 25
 2.100402e+00 3.566086e+00 -1.001664e+00 -5.684964e-01 -3.631246e+00 -4.016016e+00 -5.103168e+00 -6.009406e+00 -2.989327e+00 -3.309901e+00 -2.228608e+00 -1.556733e+00 2.292725e+00 -1.864649e-01 1.083913e-01 -4.003332e+00 -2.905808e+00 3.303170e-01 -3.878633e+00 -1.303852e+00 -2.049481e+00 -2.842353e-01 -4.403093e-01 -6.174757e-01 2.476812e+00
<VARIANCE> 25
 3.259510e+01 2.543441e+01 3.129848e+01 8.335610e+01 5.039929e+01 5.971867e+01 8.859337e+01 4.106425e+01 4.988249e+01 3.541053e+01 3.870316e+01 2.738060e+01 3.466293e+00 4.231124e+00 4.325141e+00 8.956337e+00 5.388204e+00 7.302878e+00 9.175912e+00 5.983040e+00 5.877950e+00 6.609531e+00 9.311160e+00 4.886628e+00 3.320710e+00
<GCONST> 1.138831e+02
<STATE> 3
<MEAN> 25
 6.764153e+00 1.059524e-01 -1.593138e+00 -1.129266e+01 -1.059761e+01 2.614566e+00 -1.698750e+01 -8.252147e+00 -6.388626e+00 3.696701e-01 1.355021e+00 -5.227058e+00 6.077787e-01 -9.447067e-02 -4.318018e-01 -1.967803e+00 -6.194211e-01 1.839283e+00 -5.295445e-01 -4.166606e-01 -1.144707e+00 7.604092e-01 9.652556e-01 1.114205e-02 1.957118e-01
<VARIANCE> 25
 8.981362e+00 2.843377e+01 2.748857e+01 6.696574e+01 4.836691e+01 4.994270e+01 7.865358e+01 5.819573e+01 5.522357e+01 5.921056e+01 6.935188e+01 4.381814e+01 6.301031e-01 1.597016e+00 2.099657e+00 4.058517e+00 3.709588e+00 4.278932e+00 5.021759e+00 3.790651e+00 3.879937e+00 4.231706e+00 3.083880e+00 3.103080e+00 1.006214e+00
<GCONST> 1.042609e+02
<STATE> 4
<MEAN> 25
 7.880265e+00 4.006818e+00 -3.036628e+00 -1.375900e+01 -8.199303e+00 3.239298e+00 -9.423620e+00 -7.070449e+00 -9.352884e+00 -1.053248e+00 1.433612e-01 -1.083469e+00 -2.508369e-01 6.471881e-02 1.359659e-01 8.154714e-01 6.632606e-01 -4.845115e-01 7.864503e-01 4.120674e-01 4.818416e-01 3.847758e-02 -2.837880e-01 2.085323e-01 -5.972148e-01
<VARIANCE> 25
 1.018744e+01 3.188341e+01 3.125320e+01 8.831551e+01 7.186961e+01 5.702062e+01 7.988696e+01 4.643613e+01 4.683988e+01 6.139283e+01 5.653616e+01 4.319316e+01 6.184115e-01 1.375631e+00 1.355281e+00 4.660707e+00 2.932593e+00 2.613226e+00 3.879811e+00 1.949142e+00 3.330067e+00 2.664991e+00 2.900470e+00 2.276482e+00 1.426639e+00
<GCONST> 1.021219e+02
<TRANSP> 5
 0.000000e+00 1.000000e+00 0.000000e+00 0.000000e+00 0.000000e+00
 0.000000e+00 6.432927e-01 3.567073e-01 0.000000e+00 0.000000e+00
 0.000000e+00 0.000000e+00 6.878254e-01 3.121746e-01 0.000000e+00
 0.000000e+00 0.000000e+00 0.000000e+00 8.632618e-01 1.367382e-01
 0.000000e+00 0.000000e+00 0.000000e+00 0.000000e+00 0.000000e+00
<ENDHMM>
~h "w"
<BEGINHMM>
<NUMSTATES> 5
<STATE> 2
<MEAN> 25
 7.385987e+00 4.765518e+00 -2.436950e+00 -1.129318e+01 -6.299244e+00 -3.458272e-01 -7.176750e+00 -8.195342e+00 -4.727698e+00 -6.034551e-01 3.611402e-01 -5.522653e-01 1.816191e+00 -4.014392e-01 -4.558041e-01 -3.321613e+00 -1.178646e+00 7.365035e-01 -5.967326e-01 -6.358856e-01 -9.531044e-01 1.422032e-01 -4.821102e-01 3.652256e-01 1.120614e+00
<VARIANCE> 25
 1.887494e+01 1.489607e+01 2.119519e+01 1.076553e+02 4.794372e+01 3.801074e+01 4.604986e+01 2.998976e+01 3.357228e+01 3.784137e+01 2.020346e+01 2.195909e+01 5.011057e+00 1.546924e+00 2.010618e+00 3.757921e+00 4.070895e+00 3.770127e+00 4.632702e+00 6.515880e+00 3.731675e+00 2.409277e+00 1.812469e+00 3.077777e+00 1.110934e+00
<GCONST> 1.015281e+02
<STATE> 3
<MEAN> 25
 8.326065e+00 -4.648654e+00 -5.877601e+00 -2.394559e+01 -4.273267e+00 5.325662e+00 -1.061544e+01 -4.396410e+00 -4.732422e+00 5.289350e+00 -5.649967e+00 -1.215674e+00 -4.171366e-01 -2.243073e+00 -1.486948e-01 -1.843161e-01 1.911454e+00 -1.631933e-02 3.699075e-01 4.850817e-01 1.616588e+00 6.870953e-03 -1.593915e+00 -1.181218e+00 1.284981e+00
<VARIANCE> 25
 3.354781e+00 3.297184e+01 2.197723e+01 3.367773e+01 6.850184e+01 5.465653e+01 4.114331e+01 3.049146e+01 5.178212e+01 4.526152e+01 3.546228e+01 3.040763e+01 2.105038e-01 6.147783e-01 6.385036e-01 2.540478e+00 1.487997e+00 1.785264e+00 1.779352e+00 1.821196e+00 1.637817e+00 5.539229e+00 2.857770e+00 2.053620e+00 2.932084e-01
<GCONST> 9.070462e+01
<STATE> 4
<MEAN> 25
 5.837585e+00 -1.425604e+01 -4.991714e+00 -1.985602e+01 4.579275e+00 4.569054e-03 -6.456686e+00 -1.662987e+00 2.151772e+00 -3.218030e+00 -1.377226e+01 -4.944102e+00 -3.238645e-01 -6.098113e-01 5.426479e-01 1.034348e+00 7.497936e-03 -1.004896e+00 5.772795e-01 9.964732e-01 -3.860417e-01 -1.666116e+00 -3.174308e-02 4.001703e-01 2.049827e-01
<VARIANCE> 25
 5.960708e+00 2.206875e+01 1.861720e+01 2.472968e+01 4.769012e+01 7.129693e+01 4.075340e+01 8.119836e+01 2.585358e+01 1.940448e+01 4.778931e+01 1.985073e+01 1.680080e-01 1.072122e+00 9.381901e-01 8.549594e-01 2.825807e+00 1.138135e+00 1.982692e+00 1.996444e+00 1.744273e+00 2.776525e+00 2.534944e+00 1.774583e+00 3.664009e-01
<GCONST> 8.895403e+01
<TRANSP> 5
 0.000000e+00 1.000000e+00 0.000000e+00 0.000000e+00 0.000000e+00
 0.000000e+00 7.473219e-01 2.526781e-01 0.000000e+00 0.000000e+00
 0.000000e+00 0.000000e+00 8.153912e-01 1.846088e-01 0.000000e+00
 0.000000e+00 0.000000e+00 0.000000e+00 7.840140e-01 2.159860e-01
 0.000000e+00 0.000000e+00 0.000000e+00 0.000000e+00 0.000000e+00
<ENDHMM>
~h "y"
<BEGINHMM>
<NUMSTATES> 5
<STATE> 2
<MEAN> 25
 -2.300271e+00 3.106215e+00 1.689222e+01 -5.967637e+00 -1.829904e+01 -3.014986e+00 -1.015574e+01 -6.231535e+00 -9.024923e+00 -3.837674e+00 3.174114e-02 -6.026340e+00 3.292416e-01 -7.674273e-01 -4.078953e-01 -3.318090e-02 -5.428918e-01 -9.197602e-01 2.767424e-02 4.898285e-01 1.123721e-01 4.691996e-01 1.627408e-01 2.853076e-01 4.755077e-01
<VARIANCE> 25
 1.184395e+01 2.189490e+01 2.556650e+01 3.522496e+01 6.034719e+01 6.360798e+01 3.001921e+01 3.995882e+01 3.079771e+01 5.435613e+01 4.192415e+01 3.153807e+01 4.936272e-01 1.220153e+00 2.718407e+00 8.934729e-01 1.964267e+00 2.023947e+00 2.582425e+00 2.612146e+00 2.030411e+00 1.658380e+00 1.397883e+00 1.259033e+00 5.849810e-01
<GCONST> 9.317332e+01
<STATE> 3
<MEAN> 25
 3.827445e+00 -5.995429e+00 4.488695e+00 -9.390526e+00 -1.338421e+01 -9.132336e+00 -1.223638e+01 3.797831e+00 -1.249196e+00 3.320776e+00 -6.284787e+00 -4.417510e+00 9.237974e-01 -8.874502e-01 -2.285439e+00 -1.128205e+00 2.327434e+00 7.285281e-01 -9.736018e-01 4.841363e-01 1.803725e+00 9.927978e-01 -1.495132e+00 -7.498710e-01 9.418522e-02
<VARIANCE> 25
 1.309510e+01 1.672898e+01 3.584572e+01 5.567524e+01 7.118452e+01 5.024861e+01 6.575622e+01 3.541341e+01 3.973976e+01 4.640524e+01 7.570573e+01 2.953890e+01 5.099544e-01 8.315036e-01 1.458469e+00 1.449207e+00 3.052389e+00 3.700637e+00 3.471749e+00 4.562117e+00 2.425702e+00 3.193652e+00 2.519534e+00 2.537002e+00 2.284760e-01
<GCONST> 9.760603e+01
<STATE> 4
<MEAN> 25
 7.636688e+00 -5.976083e+00 -4.840047e+00 -1.884616e+01 -4.084188e+00 2.417340e+00 -1.514886e+01 -1.964306e+00 -2.330981e+00 6.431639e+00 -5.188471e+00 -4.923311e+00 1.983272e-01 3.132645e-01 -5.769260e-01 -7.306357e-01 5.636613e-01 8.802783e-01 3.631228e-01 -3.405148e-01 -7.963349e-01 -4.165759e-01 4.930195e-01 4.988567e-01 -4.706312e-01
<VARIANCE> 25
 7.439707e+00 1.770602e+01 3.151388e+01 3.473862e+01 7.491899e+01 5.121042e+01 8.573443e+01 2.353320e+01 3.714376e+01 3.999142e+01 7.010544e+01 5.253637e+01 2.347627e-01 3.976143e-01 6.571251e-01 1.305689e+00 1.740082e+00 2.483330e+00 1.566612e+00 1.473205e+00 1.261086e+00 1.484015e+00 1.941528e+00 1.295298e+00 2.439764e-01
<GCONST> 8.911646e+01
<TRANSP> 5
 0.000000e+00 1.000000e+00 0.000000e+00 0.000000e+00 0.000000e+00
 0.000000e+00 8.679603e-01 1.320397e-01 0.000000e+00 0.000000e+00
 0.000000e+00 0.000000e+00 7.720455e-01 2.279545e-01 0.000000e+00
 0.000000e+00 0.000000e+00 0.000000e+00 8.574347e-01 1.425653e-01
 0.000000e+00 0.000000e+00 0.000000e+00 0.000000e+00 0.000000e+00
<ENDHMM>
~h "z"
<BEGINHMM>
<NUMSTATES> 5
<STATE> 2
<MEAN> 25
 -8.048844e+00 1.200223e+01 -4.889363e+00 8.168597e+00 1.528690e+00 -8.393902e+00 3.985748e+00 -2.992961e+00 2.052258e+00 -1.848145e+00 2.757249e-01 2.855771e+00 -3.432676e-01 3.831902e-01 -1.979665e-01 2.240450e-02 -6.289551e-01 -5.816053e-01 -3.776788e-01 -5.241507e-01 -1.129452e-01 -5.233519e-01 -3.648092e-01 -3.741933e-02 1.158871e+00
<VARIANCE> 25
 2.911177e+01 2.648480e+01 1.534640e+01 2.476682e+01 4.966319e+01 3.571164e+01 5.652497e+01 3.830038e+01 4.005035e+01 3.645738e+01 3.148997e+01 1.366531e+01 1.901303e+00 2.261470e+00 1.365120e+00 1.406649e+00 1.680317e+00 2.902846e+00 4.045529e+00 2.311518e+00 3.227295e+00 2.367291e+00 2.504486e+00 1.410164e+00 1.868421e+00
<GCONST> 9.689819e+01
<STATE> 3
<MEAN> 25
 -3.673581e+00 3.954060e+00 -4.059322e-01 1.465209e+00 -1.203673e+01 -1.080320e+01 -8.329439e+00 -4.416222e+00 1.959102e-01 -5.662189e+00 -3.914302e+00 1.696495e-01 2.057642e+00 -3.433728e+00 1.965199e+00 -2.996808e+00 -2.880933e+00 1.822946e+00 -3.421430e+00 1.692266e+00 -1.117773e+00 6.484770e-01 -6.847026e-01 -1.582904e+00 1.801956e+00
<VARIANCE> 25
 1.523636e+01 3.640117e+01 2.083302e+01 2.902621e+01 6.306422e+01 1.800559e+01 6.876179e+01 5.681286e+01 2.548782e+01 1.153738e+01 2.953794e+01 1.905201e+01 1.600404e+00 1.436876e+00 2.863267e+00 1.499864e+00 7.787281e-01 2.177213e+00 3.064528e+00 6.755306e+00 4.774605e+00 3.061439e+00 1.402583e+00 1.100840e+00 3.539380e-01
<GCONST> 9.391804e+01
<STATE> 4
<MEAN> 25
 2.408155e+00 -8.805973e+00 5.366271e+00 -8.684584e+00 -2.285937e+01 -3.773170e+00 -1.509677e+01 6.230893e+00 -6.313283e+00 -1.268439e-01 -3.721167e+00 -6.859204e+00 5.136943e-01 6.455695e-02 1.882763e-01 4.865617e-02 1.037101e+00 1.083833e+00 4.513943e-01 -7.959589e-01 -2.514516e-01 5.629404e-02 1.602746e-01 -2.430986e-01 -1.149857e+00
<VARIANCE> 25
 9.910183e+00 2.235639e+01 2.148849e+01 1.744150e+01 6.746404e+01 1.140478e+01 4.083683e+01 6.386794e+01 2.773893e+01 1.638780e+01 3.368501e+01 9.601337e+00 3.481129e-01 3.928082e+00 1.872035e+00 3.007247e+00 7.164865e+00 3.463290e+00 4.904655e+00 4.488222e+00 1.813542e+00 2.771328e+00 1.137513e+00 1.574665e+00 3.823593e+00
<GCONST> 9.556705e+01
<TRANSP> 5
 0.000000e+00 1.000000e+00 0.000000e+00 0.000000e+00 0.000000e+00
 0.000000e+00 9.429921e-01 5.700795e-02 0.000000e+00 0.000000e+00
 0.000000e+00 0.000000e+00 7.402822e-01 2.597178e-01 0.000000e+00
 0.000000e+00 0.000000e+00 0.000000e+00 8.248786e-01 1.751213e-01
 0.000000e+00 0.000000e+00 0.000000e+00 0.000000e+00 0.000000e+00
<ENDHMM>
~h "aw"
<BEGINHMM>
<NUMSTATES> 5
<STATE> 2
<MEAN> 25
 5.142456e+00 -1.466367e+01 -2.477324e+00 -1.495806e+01 -3.737996e+00 1.835707e+00 -1.471632e+01 4.793960e+00 2.779513e-01 -1.577016e+00 -9.787270e+00 -7.860774e+00 2.551245e-01 -2.610449e-01 7.302848e-02 -1.879903e+00 2.307309e-01 1.322281e+00 -5.220407e-01 -9.009419e-01 -5.978240e-01 4.569575e-01 1.271869e-02 -9.306684e-02 2.147430e-01
<VARIANCE> 25
 9.680648e+00 4.429637e+01 6.229065e+00 7.267592e+01 1.602582e+01 2.003864e+01 4.639307e+01 3.570847e+01 2.052957e+01 2.257218e+01 5.144539e+01 2.805648e+01 4.079468e-01 4.688426e+00 8.732143e-01 3.324343e+00 1.610502e+00 2.771400e+00 3.135666e+00 3.420712e+00 3.805469e+00 2.518708e+00 6.769576e+00 2.152264e+00 2.488684e+00
<GCONST> 9.615459e+01
<STATE> 3
<MEAN> 25
 3.890121e+00 -9.803288e+00 -2.918752e+00 -8.389956e+00 2.542655e-01 4.870788e+00 -1.015112e+01 -4.636775e+00 -1.092515e+00 -2.009808e+00 -3.171716e+00 -1.532393e+00 1.093175e+00 -3.874620e+00 -3.887931e-01 -3.856285e+00 -1.538250e-01 1.938174e+00 -2.824514e+00 -1.682631e+00 -5.570557e-01 -1.430379e+00 -1.966925e+00 -6.067389e-01 4.324101e+00
<VARIANCE> 25
 2.044403e+01 7.625427e+01 9.359214e+00 1.477969e+02 4.270082e+01 2.736697e+01 1.004114e+02 4.077323e+01 2.503995e+01 4.906386e+01 3.938441e+01 1.722528e+01 2.011389e+00 1.188200e+01 9.943615e-01 1.128424e+01 2.186800e+00 3.734072e+00 6.202118e+00 5.398590e+00 2.383527e+00 8.805748e+00 3.733412e+00 3.276953e+00 1.234485e+01
<GCONST> 1.088091e+02
<STATE> 4
<MEAN> 25
 7.055626e+00 -6.711784e+00 -4.229917e+00 -2.005809e+01 -5.768931e+00 4.445838e+00 -8.606008e+00 -1.615737e+00 -3.330441e+00 -2.785711e+00 -5.865213e+00 -1.603137e+00 -4.880348e-02 7.390780e-01 4.597198e-02 2.443911e-01 1.904806e-02 -3.101431e-01 2.340838e-01 -2.094626e-02 -1.995589e-01 1.532108e-01 1.515038e-01 1.203230e-02 -4.003998e-01
<VARIANCE> 25
 8.300360e+00 1.119679e+02 1.009937e+01 7.186406e+01 5.133867e+01 4.073884e+01 5.406579e+01 3.682751e+01 4.604527e+01 2.879105e+01 1.637470e+01 1.935046e+01 5.445678e-01 3.324180e+00 8.731909e-01 2.421979e+00 2.659824e+00 1.737440e+00 1.277784e+00 1.829059e+00 2.019948e+00 2.025808e+00 1.547895e+00 1.843287e+00 1.076263e+00
<GCONST> 9.381194e+01
<TRANSP> 5
 0.000000e+00 1.000000e+00 0.000000e+00 0.000000e+00 0.000000e+00
 0.000000e+00 8.297015e-01 1.702985e-01 0.000000e+00 0.000000e+00
 0.000000e+00 0.000000e+00 4.993632e-01 5.006368e-01 0.000000e+00
 0.000000e+00 0.000000e+00 0.000000e+00 9.337762e-01 6.622379e-02
 0.000000e+00 0.000000e+00 0.000000e+00 0.000000e+00 0.000000e+00
<ENDHMM>
~h "ax"
<BEGINHMM>
<NUMSTATES> 5
<STATE> 2
<MEAN> 25
 -4.625015e+00 2.468814e+00 -1.372391e+00 4.262935e+00 4.962720e-01 -2.783594e+00 3.292591e+00 2.951102e-01 1.060808e+00 -9.066795e-01 2.109739e+00 1.055263e+00 4.492203e-01 -4.207473e-01 -1.636046e-01 -9.179882e-01 -7.263969e-01 -5.053858e-01 -9.758430e-01 -2.224972e-01 -2.836863e-01 -4.805287e-01 -2.678862e-01 -6.230352e-01 2.052805e+00
<VARIANCE> 25
 4.411332e+01 2.169483e+01 3.397102e+01 3.381767e+01 5.764471e+01 4.297104e+01 4.565424e+01 5.608820e+01 4.443425e+01 3.748148e+01 5.074906e+01 3.282774e+01 3.125997e+00 1.747797e+00 2.599879e+00 5.823349e+00 4.032802e+00 3.931275e+00 4.412066e+00 4.179803e+00 3.423749e+00 4.300755e+00 5.201174e+00 3.457454e+00 7.272251e+00
<GCONST> 1.080126e+02
<STATE> 3
<MEAN> 25
 -5.393838e-01 2.403096e+00 -1.120701e+00 1.659560e+00 -2.421283e+00 -4.294054e+00 -7.279904e-01 -1.986652e-01 -1.726136e-01 -3.410307e+00 -9.152150e-02 -2.391985e+00 1.910586e+00 -2.015955e+00 -1.702058e-01 -3.332511e+00 -1.718457e+00 -2.662426e-01 -2.793155e+00 2.059435e-01 -1.036394e-01 1.655992e-01 -1.267188e+00 -9.601116e-01 3.714077e+00
<VARIANCE> 25
 3.386116e+01 4.210909e+01 3.364514e+01 5.134786e+01 5.739050e+01 3.864785e+01 4.825620e+01 6.050537e+01 4.778075e+01 3.483486e+01 4.049052e+01 2.479094e+01 5.160876e+00 2.657775e+00 3.884580e+00 7.876315e+00 5.874910e+00 5.436578e+00 9.589293e+00 7.567725e+00 6.338597e+00 4.812537e+00 7.379306e+00 3.657029e+00 7.433703e+00
<GCONST> 1.131835e+02
<STATE> 4
<MEAN> 25
 4.442326e+00 -3.228693e+00 -9.846781e-01 -7.008798e+00 -6.077766e+00 -3.430272e+00 -8.147382e+00 5.442246e-01 -2.230537e-01 -1.859289e-01 -2.874914e+00 -3.519288e+00 1.616556e+00 -2.733743e+00 2.214861e-01 -2.841664e+00 -1.225964e+00 3.831725e-01 -2.658300e+00 1.504919e+00 1.069608e-01 8.114882e-01 -1.664414e+00 -3.579492e-01 2.316213e+00
<VARIANCE> 25
 1.652745e+01 3.857944e+01 4.056567e+01 6.880175e+01 6.549909e+01 4.953881e+01 7.018043e+01 9.706205e+01 6.036612e+01 4.520909e+01 4.973880e+01 2.382716e+01 3.800265e+00 4.052881e+00 3.900518e+00 7.494961e+00 6.501640e+00 6.000222e+00 9.653837e+00 8.253831e+00 5.311724e+00 4.776596e+00 5.670417e+00 3.802186e+00 4.646371e+00
<GCONST> 1.142317e+02
<TRANSP> 5
 0.000000e+00 1.000000e+00 0.000000e+00 0.000000e+00 0.000000e+00
 0.000000e+00 5.402213e-01 4.597787e-01 0.000000e+00 0.000000e+00
 0.000000e+00 0.000000e+00 6.608323e-02 9.339168e-01 0.000000e+00
 0.000000e+00 0.000000e+00 0.000000e+00 4.972689e-01 5.027311e-01
 0.000000e+00 0.000000e+00 0.000000e+00 0.000000e+00 0.000000e+00
<ENDHMM>
~h "ay"
<BEGINHMM>
<NUMSTATES> 5
<STATE> 2
<MEAN> 25
 3.869747e+00 -4.524794e+00 -3.708048e-01 -5.784645e+00 5.544607e-01 -3.415726e+00 -8.272102e+00 7.748727e-01 -6.066681e-01 -3.105469e+00 -6.609450e+00 -2.940991e+00 4.552379e-01 -2.455610e+00 -3.408411e-01 -1.925779e+00 6.504624e-02 4.986938e-01 -1.036007e+00 1.782524e+00 -7.284675e-01 -1.141199e+00 -1.416281e+00 -1.048061e-01 2.570777e+00
<VARIANCE> 25
 1.138023e+01 6.525755e+01 4.277940e+01 7.148884e+01 6.148316e+01 3.666555e+01 6.213968e+01 7.190655e+01 3.849762e+01 4.060342e+01 3.948626e+01 2.310262e+01 2.619776e+00 3.304295e+00 4.122097e+00 3.915804e+00 4.731624e+00 4.489057e+00 7.579064e+00 7.137609e+00 4.489081e+00 4.063458e+00 4.004788e+00 3.771407e+00 2.710718e+00
<GCONST> 1.094806e+02
<STATE> 3
<MEAN> 25
 7.789623e-01 -6.908391e+00 8.128573e+00 -1.240417e+01 -1.001319e+01 -7.323926e+00 -7.053151e+00 4.743355e+00 -6.880651e+00 -6.222393e-01 -7.242759e+00 7.013159e-01 4.394472e-03 -1.291964e-01 2.117841e-01 -4.523457e-02 -4.242311e-01 4.829380e-02 1.800561e-01 8.231515e-02 -2.126163e-01 2.458846e-02 -1.246561e-01 1.108511e-01 1.583171e-02
<VARIANCE> 25
 1.111733e+01 5.457543e+01 7.659196e+01 2.934588e+01 1.050786e+02 8.420232e+01 6.178427e+01 5.586064e+01 4.397260e+01 6.211586e+01 7.080561e+01 2.412156e+01 3.262164e-01 2.356932e+00 2.270162e+00 7.503915e-01 3.642388e+00 1.481516e+00 3.734990e+00 3.392363e+00 2.229255e+00 3.336316e+00 3.709442e+00 1.238490e+00 4.455952e-01
<GCONST> 9.988051e+01
<STATE> 4
<MEAN> 25
 3.811487e+00 -1.223851e+01 3.036969e+00 -1.185920e+01 -8.877697e+00 1.047856e+00 -8.476174e+00 7.778957e+00 -5.436594e+00 -5.101157e+00 -8.106747e+00 -1.758303e+00 -2.637061e-01 9.702103e-01 8.761513e-01 2.331311e-01 -1.249295e+00 -2.820166e-01 2.222489e-01 -2.163065e-01 -4.530964e-01 5.022034e-01 6.551198e-01 -2.251592e-01 -4.606599e-01
<VARIANCE> 25
 1.354098e+01 7.208207e+01 4.733050e+01 1.681692e+01 1.275094e+02 3.658880e+01 2.115859e+01 3.977075e+01 3.875116e+01 4.741965e+01 3.470667e+01 1.604952e+01 2.520932e-01 1.449162e+00 1.155640e+00 1.158340e+00 3.263500e+00 1.217189e+00 1.722567e+00 2.745933e+00 1.249576e+00 2.729964e+00 2.085526e+00 1.038916e+00 5.583306e-01
<GCONST> 9.216735e+01
<TRANSP> 5
 0.000000e+00 1.000000e+00 0.000000e+00 0.000000e+00 0.000000e+00
 0.000000e+00 7.671364e-01 2.328637e-01 0.000000e+00 0.000000e+00
 0.000000e+00 0.000000e+00 8.572472e-01 1.427528e-01 0.000000e+00
 0.000000e+00 0.000000e+00 0.000000e+00 9.100029e-01 8.999708e-02
 0.000000e+00 0.000000e+00 0.000000e+00 0.000000e+00 0.000000e+00
<ENDHMM>
~h "ey"
<BEGINHMM>
<NUMSTATES> 5
<STATE> 2
<MEAN> 25
 3.988894e+00 -7.721645e+00 2.312042e+00 -6.012905e+00 -1.379385e+01 -4.012636e+00 -6.134820e+00 -1.614244e+00 -5.592762e+00 -3.125366e+00 -2.821422e+00 -7.487075e+00 4.003437e-01 -1.740973e+00 1.391609e+00 -2.494138e+00 -2.618869e+00 8.838550e-01 -2.870708e-01 2.441959e+00 -1.374747e+00 1.079458e+00 -5.745437e-01 -1.489712e-01 1.700019e+00
<VARIANCE> 25
 7.778111e+00 3.184948e+01 1.686413e+01 3.340467e+01 5.978652e+01 3.911232e+01 3.608609e+01 1.289037e+02 2.385979e+01 2.938395e+01 1.970960e+01 3.569070e+01 2.563287e+00 3.341891e+00 2.775248e+00 2.559928e+00 5.500114e+00 3.081837e+00 6.081696e+00 6.712087e+00 3.747617e+00 2.149855e+00 2.089653e+00 2.345395e+00 2.773876e+00
<GCONST> 1.024482e+02
<STATE> 3
<MEAN> 25
 1.667102e+00 -8.561390e+00 1.001619e+01 -1.509967e+01 -2.253217e+01 -1.017122e+00 -6.866813e+00 4.863738e+00 -1.155805e+01 4.868667e+00 -5.808015e+00 -4.048743e+00 -2.210034e-01 7.969109e-01 7.179216e-01 -2.199578e-01 1.744460e-01 3.410607e-01 -5.040087e-01 -7.339358e-01 -4.218304e-01 1.785712e-01 -2.065203e-01 1.255967e-01 -3.312151e-01
<VARIANCE> 25
 6.578108e+00 1.777391e+01 1.341022e+01 7.170408e+00 1.836613e+01 4.292548e+01 2.763738e+01 1.199448e+01 1.081133e+01 2.024864e+01 8.825275e+00 2.403075e+01 2.536637e-01 8.375152e-01 4.221067e-01 6.587938e-01 1.096161e+00 9.266658e-01 1.161147e+00 1.386466e+00 8.932992e-01 1.700536e+00 8.561457e-01 8.997737e-01 1.437677e-01
<GCONST> 7.437415e+01
<STATE> 4
<MEAN> 25
 -3.533092e-01 4.738905e+00 1.538141e+01 -8.352882e+00 -9.825212e+00 1.029788e+00 -9.513172e+00 -3.478106e+00 -9.200481e+00 -9.729018e-01 -3.435601e+00 -3.597571e+00 -1.599229e-01 4.930211e-01 -3.258342e-01 1.033072e+00 1.445304e+00 4.014031e-01 7.589760e-01 -3.745745e-01 7.153075e-01 -7.388811e-01 3.289303e-01 4.060658e-02 -1.143001e+00
<VARIANCE> 25
 7.068440e+00 3.158283e+01 2.962101e+01 6.202381e+01 1.128118e+02 2.084622e+01 6.600822e+01 2.069118e+01 3.873875e+01 3.160457e+01 1.297309e+01 2.333446e+01 4.217561e-01 1.692086e+00 2.218848e+00 1.548541e+00 1.729377e+00 1.434810e+00 2.015525e+00 2.596084e+00 1.564108e+00 2.008213e+00 1.263518e+00 1.350463e+00 4.355817e-01
<GCONST> 9.098496e+01
<TRANSP> 5
 0.000000e+00 1.000000e+00 0.000000e+00 0.000000e+00 0.000000e+00
 0.000000e+00 8.122655e-01 1.877345e-01 0.000000e+00 0.000000e+00
 0.000000e+00 0.000000e+00 8.956990e-01 1.043010e-01 0.000000e+00
 0.000000e+00 0.000000e+00 0.000000e+00 8.609881e-01 1.390119e-01
 0.000000e+00 0.000000e+00 0.000000e+00 0.000000e+00 0.000000e+00
<ENDHMM>
~h "ng"
<BEGINHMM>
<NUMSTATES> 5
<STATE> 2
<MEAN> 25
 5.640673e+00 -8.783999e+00 -2.707687e-01 -8.611283e+00 -3.756434e-01 1.111431e+00 -8.147097e+00 6.583997e-01 -1.239168e+00 -9.589372e-01 -6.084944e+00 -6.854991e+00 1.025307e-01 1.017176e+00 6.484785e-01 4.445682e-01 -1.053670e+00 -1.002026e-01 -3.113555e-01 -3.202505e-01 -2.941161e-01 4.132802e-01 1.319853e-01 -3.336087e-01 -5.352106e-01
<VARIANCE> 25
 9.867723e+00 2.835438e+01 3.923286e+01 3.957309e+01 3.227598e+01 7.500990e+01 4.982790e+01 4.330693e+01 4.374076e+01 2.979406e+01 5.720135e+01 3.218563e+01 3.806301e-01 1.066149e+00 1.201853e+00 1.494711e+00 2.151138e+00 3.266047e+00 3.372108e+00 2.908583e+00 2.244730e+00 1.687384e+00 2.468978e+00 2.473038e+00 4.932698e-01
<GCONST> 9.543918e+01
<STATE> 3
<MEAN> 25
 5.918278e+00 -3.150352e+00 1.276054e+00 -8.436320e+00 -5.192867e+00 5.273923e+00 -5.377136e+00 -3.201938e+00 -5.371503e+00 -1.974329e+00 -4.704660e+00 -4.077705e+00 -3.219468e-02 1.293176e+00 4.473366e-01 8.247614e-02 -9.357728e-01 1.908726e-01 7.088600e-01 -6.872685e-01 -3.084528e-01 -3.073833e-01 3.101611e-01 6.844612e-01 -6.370973e-01
<VARIANCE> 25
 8.009247e+00 1.895837e+01 3.074307e+01 2.645278e+01 2.973121e+01 3.981418e+01 9.271401e+01 6.813914e+01 3.235504e+01 4.764685e+01 4.737075e+01 5.043712e+01 2.159351e-01 7.872555e-01 1.183469e+00 1.650800e+00 1.357358e+00 1.792114e+00 1.621356e+00 2.667912e+00 1.880526e+00 1.675270e+00 1.266946e+00 1.695519e+00 2.631438e-01
<GCONST> 9.044589e+01
<STATE> 4
<MEAN> 25
 4.177891e+00 5.146916e+00 5.410490e-01 -5.763646e+00 -8.687286e+00 -6.585678e-01 -2.391649e-01 -6.750991e+00 -6.200029e+00 -2.197137e+00 -3.321135e+00 -2.693428e+00 -7.133218e-01 1.230143e+00 -8.359178e-02 8.573254e-01 2.386399e-01 -4.826499e-01 9.111731e-01 -5.677221e-01 3.837277e-01 -1.166686e-01 5.829310e-01 5.030048e-01 -9.125868e-01
<VARIANCE> 25
 9.877687e+00 2.772631e+01 2.697680e+01 3.062743e+01 5.718161e+01 6.516432e+01 8.058154e+01 5.301943e+01 4.831430e+01 4.612255e+01 3.527615e+01 3.281882e+01 1.489793e+00 3.064103e+00 2.292053e+00 4.696035e+00 5.065268e+00 4.866216e+00 6.746732e+00 5.883261e+00 5.863922e+00 3.521026e+00 3.346526e+00 2.850295e+00 1.643401e+00
<GCONST> 1.061829e+02
<TRANSP> 5
 0.000000e+00 1.000000e+00 0.000000e+00 0.000000e+00 0.000000e+00
 0.000000e+00 5.439596e-01 4.560404e-01 0.000000e+00 0.000000e+00
 0.000000e+00 0.000000e+00 7.684557e-01 2.315442e-01 0.000000e+00
 0.000000e+00 0.000000e+00 0.000000e+00 7.909774e-01 2.090226e-01
 0.000000e+00 0.000000e+00 0.000000e+00 0.000000e+00 0.000000e+00
<ENDHMM>
~h "ny"
<BEGINHMM>
<NUMSTATES> 5
<STATE> 2
<MEAN> 25
 2.455450e+00 5.051864e+00 4.561450e+00 -4.060911e+00 -6.675806e+00 1.954116e-01 -1.703202e+00 -3.014011e+00 -8.397735e+00 1.687590e-01 3.854930e+00 -2.449785e+00 4.609715e-01 -1.199634e+00 6.148241e-01 -1.504565e+00 -1.314132e+00 2.269863e-01 -8.738596e-01 1.128342e+00 -1.097987e+00 -6.654007e-01 -8.543085e-01 -3.212324e-01 2.165231e+00
<VARIANCE> 25
 2.375278e+01 5.872644e+01 2.965289e+01 9.243014e+01 6.846610e+01 3.636558e+01 6.085435e+01 7.846601e+01 6.654590e+01 4.280244e+01 6.657725e+01 3.225176e+01 3.557409e+00 5.787213e+00 2.518893e+00 5.154647e+00 4.037621e+00 4.082375e+00 4.150970e+00 9.355000e+00 7.133912e+00 3.563305e+00 4.915905e+00 3.610332e+00 1.575165e+00
<GCONST> 1.116372e+02
<STATE> 3
<MEAN> 25
 3.851088e+00 -1.336064e+01 2.495864e+00 -1.082638e+01 -5.809779e+00 4.898880e+00 -7.773064e+00 1.012325e+01 -4.945924e+00 -5.440379e+00 -8.304481e+00 -7.889612e-01 2.382909e-01 -7.079741e-01 -1.171322e+00 1.501144e-01 1.807346e+00 2.233392e-01 -3.771944e-01 -6.468771e-01 7.312436e-01 -2.822973e-01 -4.911371e-01 -1.285318e-01 1.943218e-01
<VARIANCE> 25
 8.871038e+00 1.040805e+01 1.623659e+01 1.733158e+01 3.186095e+01 3.424066e+01 2.606456e+01 3.096953e+01 3.934509e+01 1.187763e+01 4.563457e+01 1.256306e+01 1.117824e-01 1.038417e+00 1.616030e+00 8.103770e-01 2.659663e+00 6.723899e-01 1.912671e+00 1.417897e+00 2.111629e+00 1.788214e+00 2.484770e+00 1.136530e+00 1.633252e-01
<GCONST> 8.254891e+01
<STATE> 4
<MEAN> 25
 5.038619e+00 -6.782579e+00 2.018731e+00 -7.950035e+00 -8.014940e+00 5.195199e-01 -7.120987e+00 1.212802e+00 -8.694254e+00 -7.605736e+00 -3.280107e+00 -6.441934e+00 1.000445e-01 8.766404e-01 -1.973567e-01 -5.927262e-02 8.918967e-01 5.689770e-03 3.163834e-01 -1.609607e+00 -7.306196e-03 6.999478e-01 5.608224e-01 -7.846022e-01 -5.075310e-01
<VARIANCE> 25
 8.582185e+00 3.621005e+01 1.301241e+01 2.245561e+01 5.853625e+01 2.863750e+01 1.866888e+01 9.882970e+01 4.962187e+01 2.933619e+01 3.358569e+01 2.531116e+01 7.235688e-01 1.197491e+00 1.671502e+00 2.131185e+00 1.744089e+00 2.148144e+00 2.860857e+00 5.757983e+00 3.005503e+00 1.944180e+00 2.689190e+00 1.379947e+00 1.185063e+00
<GCONST> 9.483260e+01
<TRANSP> 5
 0.000000e+00 1.000000e+00 0.000000e+00 0.000000e+00 0.000000e+00
 0.000000e+00 8.977953e-01 1.022047e-01 0.000000e+00 0.000000e+00
 0.000000e+00 0.000000e+00 7.829242e-01 2.170758e-01 0.000000e+00
 0.000000e+00 0.000000e+00 0.000000e+00 6.505253e-01 3.494747e-01
 0.000000e+00 0.000000e+00 0.000000e+00 0.000000e+00 0.000000e+00
<ENDHMM>
~h "sp"
<BEGINHMM>
<NUMSTATES> 3
<STATE> 2
~s "silst"
<TRANSP> 3
 0.000000e+00 6.219292e-01 3.780708e-01
 0.000000e+00 9.598022e-01 4.019778e-02
 0.000000e+00 0.000000e+00 0.000000e+00
<ENDHMM>
~h "sil"
<BEGINHMM>
<NUMSTATES> 5
<STATE> 2
<MEAN> 25
 -3.049253e+00 2.195207e+00 -1.603017e+00 7.495579e+00 5.312342e+00 3.474602e-01 7.995497e+00 2.665890e+00 4.621792e+00 3.686295e+00 6.315328e+00 3.719799e+00 2.907979e-02 -5.725387e-04 -3.470846e-02 1.707899e-02 -4.817450e-02 -1.890420e-03 4.321702e-03 -3.398688e-02 -3.415334e-03 3.355301e-02 7.542352e-02 5.512544e-02 -9.455756e-02
<VARIANCE> 25
 5.161836e+00 1.598242e+01 1.089251e+01 1.187470e+01 1.693537e+01 1.790187e+01 2.317129e+01 2.247817e+01 1.748166e+01 2.317003e+01 2.281462e+01 1.436080e+01 2.179033e-01 3.551538e-01 5.216069e-01 6.533215e-01 9.901693e-01 1.098765e+00 1.242061e+00 1.467467e+00 1.480766e+00 1.496661e+00 1.421178e+00 1.274072e+00 1.488929e-01
<GCONST> 7.552204e+01
<STATE> 3
~s "silst"
<STATE> 4
<MEAN> 25
 -4.967774e+00 2.807225e+00 -1.856871e+00 5.883636e+00 2.607214e+00 -3.731821e-01 6.245716e+00 -5.625802e-01 2.838138e+00 2.607506e+00 4.655875e+00 2.789057e+00 -7.312321e-02 -3.477520e-02 9.106579e-03 -8.742169e-02 3.527755e-02 -9.710363e-02 -1.120433e-01 1.294333e-02 -5.757794e-02 -5.754883e-02 -3.363677e-02 -2.754227e-02 1.496735e-01
<VARIANCE> 25
 2.260464e+01 2.000080e+01 2.402318e+01 2.295728e+01 3.106890e+01 3.054773e+01 2.923695e+01 3.583845e+01 3.043922e+01 2.465544e+01 2.692558e+01 2.030608e+01 1.938755e+00 1.478274e+00 1.550196e+00 1.920412e+00 2.043623e+00 2.317041e+00 2.889516e+00 2.455025e+00 2.494086e+00 2.173877e+00 2.169986e+00 1.924444e+00 1.444222e+00
<GCONST> 9.425365e+01
<TRANSP> 5
 0.000000e+00 1.000000e+00 0.000000e+00 0.000000e+00 0.000000e+00
 0.000000e+00 8.475823e-01 1.081881e-01 4.422962e-02 0.000000e+00
 0.000000e+00 0.000000e+00 9.742334e-01 2.576660e-02 0.000000e+00
 0.000000e+00 1.448135e-01 0.000000e+00 7.323456e-01 1.228409e-01
 0.000000e+00 0.000000e+00 0.000000e+00 0.000000e+00 0.000000e+00
<ENDHMM>
