~o
<STREAMINFO> 1 25
<VECSIZE> 25<NULLD><MFCC_D_N_Z_0><DIAGC>
~h "a"
<BEGINHMM>
<NUMSTATES> 5
<STATE> 2
<MEAN> 25
 1.082374e-01 -4.997604e-01 -9.302066e-02 -2.408639e-01 2.279363e-01 2.237588e-02 -1.284002e-01 2.140740e-01 -1.027941e-01 -2.446014e-01 -3.645822e-01 -7.067073e-02 -8.932116e-04 4.200747e-04 -8.357058e-04 2.450699e-03 2.825169e-03 1.793364e-04 4.456330e-03 -9.232794e-04 1.199969e-03 -7.654243e-04 3.335338e-04 4.906416e-04 -3.747662e-03
<VARIANCE> 25
 2.876586e+01 6.730067e+01 3.582928e+01 1.055400e+02 6.541161e+01 4.155645e+01 8.257315e+01 5.080965e+01 5.234678e+01 4.583599e+01 7.177952e+01 3.059425e+01 1.365252e+00 2.553884e+00 1.833263e+00 3.894608e+00 3.058563e+00 2.644801e+00 3.362987e+00 3.380349e+00 2.860974e+00 2.799292e+00 3.063398e+00 2.032801e+00 3.530023e+00
<GCONST> 1.063868e+02
<STATE> 3
<MEAN> 25
 1.043370e-01 -4.974197e-01 -9.740072e-02 -2.273554e-01 2.426347e-01 2.330661e-02 -1.072598e-01 2.093083e-01 -9.531162e-02 -2.461191e-01 -3.606945e-01 -6.809852e-02 -8.798777e-04 3.096746e-04 -7.730639e-04 2.760098e-03 2.729431e-03 1.771151e-04 4.267925e-03 -1.569376e-03 1.254982e-03 -8.873781e-04 7.097963e-04 6.699393e-04 -3.810208e-03
<VARIANCE> 25
 2.871460e+01 6.726347e+01 3.576762e+01 1.056047e+02 6.522714e+01 4.147524e+01 8.240488e+01 5.076289e+01 5.228413e+01 4.578603e+01 7.175483e+01 3.055729e+01 1.362227e+00 2.552358e+00 1.829776e+00 3.895775e+00 3.053152e+00 2.639358e+00 3.355715e+00 3.376224e+00 2.857330e+00 2.798523e+00 3.062258e+00 2.031760e+00 3.530143e+00
<GCONST> 1.063577e+02
<STATE> 4
<MEAN> 25
 1.059954e-01 -5.665560e-01 -1.212327e-01 -2.103850e-01 3.168597e-01 7.701562e-03 -7.548109e-02 2.182208e-01 -6.617646e-02 -2.626258e-01 -3.845808e-01 -5.795918e-02 -5.709183e-04 5.483544e-04 -3.650740e-04 2.946330e-03 2.184171e-03 -8.791285e-06 3.677542e-03 -2.450018e-03 1.375827e-03 -2.866718e-04 1.207021e-03 7.044636e-04 -3.764850e-03
<VARIANCE> 25
 2.856543e+01 6.782402e+01 3.541949e+01 1.083675e+02 6.616685e+01 4.058903e+01 8.249364e+01 4.975373e+01 5.179319e+01 4.545185e+01 7.130024e+01 3.005435e+01 1.355571e+00 2.558349e+00 1.790822e+00 3.900450e+00 3.008960e+00 2.563150e+00 3.319303e+00 3.281513e+00 2.805243e+00 2.768661e+00 3.027730e+00 1.997816e+00 3.494905e+00
<GCONST> 1.061374e+02
<TRANSP> 5
 0.000000e+00 1.000000e+00 0.000000e+00 0.000000e+00 0.000000e+00
 0.000000e+00 7.644786e-01 2.355214e-01 0.000000e+00 0.000000e+00
 0.000000e+00 0.000000e+00 7.644792e-01 2.355208e-01 0.000000e+00
 0.000000e+00 0.000000e+00 0.000000e+00 8.970433e-01 1.029567e-01
 0.000000e+00 0.000000e+00 0.000000e+00 0.000000e+00 0.000000e+00
<ENDHMM>
~h "b"
<BEGINHMM>
<NUMSTATES> 5
<STATE> 2
<MEAN> 25
 2.505534e-01 1.209372e-01 -2.939865e-01 -6.376050e-01 2.068646e-01 -1.422851e-01 -1.315603e-01 -4.799299e-02 -1.987485e-02 -8.101477e-02 -2.684954e-01 -2.854391e-01 9.414539e-04 -4.401042e-04 2.414211e-03 -1.322614e-04 -8.681239e-03 -4.123468e-03 -7.203050e-03 2.578568e-04 -5.523084e-03 -7.340190e-05 -5.016672e-03 -7.358450e-03 7.378857e-03
<VARIANCE> 25
 2.873689e+01 6.259775e+01 3.367673e+01 1.226440e+02 8.653907e+01 3.990580e+01 9.509825e+01 4.478635e+01 4.261201e+01 4.604393e+01 6.216381e+01 3.846527e+01 1.350861e+00 2.659082e+00 1.458412e+00 4.641237e+00 3.213893e+00 2.482749e+00 3.525851e+00 2.895104e+00 2.509627e+00 2.664746e+00 2.904824e+00 2.084343e+00 3.441215e+00
<GCONST> 1.061611e+02
<STATE> 3
<MEAN> 25
 2.588559e-01 1.121742e-01 -2.787242e-01 -6.342253e-01 1.694725e-01 -1.667870e-01 -1.675617e-01 -4.704193e-02 -4.657674e-02 -8.321751e-02 -2.945505e-01 -3.137029e-01 1.461191e-03 -2.091412e-03 4.201156e-03 7.736229e-04 -8.507951e-03 -5.555027e-03 -8.732158e-03 1.264382e-04 -5.882047e-03 -4.836803e-04 -5.831805e-03 -6.167331e-03 8.085089e-03
<VARIANCE> 25
 2.872383e+01 6.275985e+01 3.374960e+01 1.226763e+02 8.679137e+01 4.009441e+01 9.502460e+01 4.494669e+01 4.284293e+01 4.625197e+01 6.235244e+01 3.869362e+01 1.346579e+00 2.660712e+00 1.471804e+00 4.635912e+00 3.233244e+00 2.493819e+00 3.535714e+00 2.909650e+00 2.515675e+00 2.679317e+00 2.915071e+00 2.090511e+00 3.445488e+00
<GCONST> 1.062342e+02
<STATE> 4
<MEAN> 25
 2.902493e-01 6.573550e-02 -2.566276e-01 -6.045180e-01 6.612030e-02 -2.326830e-01 -2.070148e-01 -6.443638e-03 -1.175013e-01 -1.081728e-01 -3.851378e-01 -3.332259e-01 3.972924e-03 -5.083985e-03 4.766706e-03 -3.033936e-03 -7.790840e-03 -4.356207e-03 -1.029859e-02 6.607124e-04 -6.835362e-03 -4.119754e-03 -9.610929e-03 -5.433257e-03 1.343965e-02
<VARIANCE> 25
 2.877538e+01 6.345404e+01 3.386975e+01 1.230313e+02 8.807742e+01 4.070421e+01 9.389822e+01 4.514537e+01 4.339384e+01 4.617537e+01 6.272203e+01 3.830574e+01 1.353930e+00 2.679707e+00 1.498374e+00 4.628152e+00 3.288759e+00 2.507482e+00 3.537504e+00 2.954673e+00 2.519860e+00 2.692197e+00 2.928901e+00 2.099360e+00 3.458713e+00
<GCONST> 1.063690e+02
<TRANSP> 5
 0.000000e+00 1.000000e+00 0.000000e+00 0.000000e+00 0.000000e+00
 0.000000e+00 7.780355e-01 2.219646e-01 0.000000e+00 0.000000e+00
 0.000000e+00 0.000000e+00 7.780359e-01 2.219641e-01 0.000000e+00
 0.000000e+00 0.000000e+00 0.000000e+00 9.094963e-01 9.050372e-02
 0.000000e+00 0.000000e+00 0.000000e+00 0.000000e+00 0.000000e+00
<ENDHMM>
~h "c"
<BEGINHMM>
<NUMSTATES> 5
<STATE> 2
<MEAN> 25
 -2.532591e-01 -6.167939e-01 -4.106251e-01 -2.727574e-01 1.850404e-01 -2.364378e-01 1.770439e-01 8.875510e-01 -4.189055e-02 -6.207554e-02 -1.468391e-01 3.346478e-01 -4.193897e-03 -7.605670e-03 -7.308187e-04 7.729157e-03 1.176278e-02 -8.115485e-03 4.434682e-03 8.675223e-03 5.184350e-03 -4.003070e-03 2.759506e-03 5.749962e-03 -6.303359e-03
<VARIANCE> 25
 3.173785e+01 6.171143e+01 3.428736e+01 1.249029e+02 7.280524e+01 4.067070e+01 8.396954e+01 4.144987e+01 5.146925e+01 4.620527e+01 7.422443e+01 2.797204e+01 2.144498e+00 2.832838e+00 1.542897e+00 3.899416e+00 2.970561e+00 2.688988e+00 3.257495e+00 2.833987e+00 2.712251e+00 2.836944e+00 3.010227e+00 1.934779e+00 3.404178e+00
<GCONST> 1.063766e+02
<STATE> 3
<MEAN> 25
 -2.733581e-01 -6.378620e-01 -4.173281e-01 -2.331898e-01 2.330082e-01 -2.662992e-01 2.081024e-01 9.198981e-01 -2.007330e-02 -7.134797e-02 -1.263931e-01 3.555420e-01 -4.457627e-03 -4.165942e-03 -2.072981e-03 8.821062e-03 1.078164e-02 -5.107370e-03 7.288336e-03 6.716068e-03 5.044887e-03 -1.280387e-03 5.651450e-03 4.492607e-03 -9.386801e-03
<VARIANCE> 25
 3.170799e+01 6.171371e+01 3.420838e+01 1.235262e+02 7.275954e+01 4.037635e+01 8.412802e+01 4.136540e+01 5.093808e+01 4.615221e+01 7.447144e+01 2.792642e+01 2.143868e+00 2.822807e+00 1.537143e+00 3.854174e+00 2.971057e+00 2.685244e+00 3.265319e+00 2.823154e+00 2.703461e+00 2.834384e+00 3.005960e+00 1.928056e+00 3.393896e+00
<GCONST> 1.063104e+02
<STATE> 4
<MEAN> 25
 -2.353172e-01 -7.382730e-01 -5.390446e-01 -3.651078e-01 3.182183e-01 -3.038191e-01 1.701175e-01 9.698327e-01 -3.160310e-02 -6.842607e-02 -1.790217e-01 3.202761e-01 -2.700206e-03 -2.250169e-03 -4.022583e-03 6.984932e-03 5.333209e-03 -1.337534e-03 3.822210e-03 3.956330e-03 5.255570e-03 1.042283e-03 1.984424e-03 8.315772e-04 -4.476657e-03
<VARIANCE> 25
 3.282676e+01 6.282290e+01 3.431582e+01 1.239740e+02 7.342594e+01 4.060110e+01 8.592471e+01 4.223861e+01 5.084073e+01 4.591021e+01 7.479449e+01 2.807532e+01 2.191924e+00 2.832784e+00 1.540103e+00 3.816720e+00 2.969831e+00 2.723940e+00 3.326418e+00 2.856493e+00 2.686667e+00 2.816740e+00 3.038025e+00 1.927042e+00 3.437164e+00
<GCONST> 1.065012e+02
<TRANSP> 5
 0.000000e+00 1.000000e+00 0.000000e+00 0.000000e+00 0.000000e+00
 0.000000e+00 7.871793e-01 2.128207e-01 0.000000e+00 0.000000e+00
 0.000000e+00 0.000000e+00 7.871778e-01 2.128222e-01 0.000000e+00
 0.000000e+00 0.000000e+00 0.000000e+00 9.202808e-01 7.971924e-02
 0.000000e+00 0.000000e+00 0.000000e+00 0.000000e+00 0.000000e+00
<ENDHMM>
~h "d"
<BEGINHMM>
<NUMSTATES> 5
<STATE> 2
<MEAN> 25
 3.121298e-01 2.214390e-01 8.012565e-01 3.589298e-02 -5.513567e-01 -7.184796e-01 -7.431421e-01 1.475804e-01 -6.902153e-02 -4.945932e-02 -2.782394e-01 -1.774929e-01 4.746529e-03 -6.395565e-04 4.391734e-03 -9.372519e-03 -6.233471e-03 -1.615068e-03 -6.991051e-03 -5.597125e-03 -4.969866e-03 5.685082e-03 -5.827950e-03 -2.036016e-03 8.371811e-03
<VARIANCE> 25
 3.227399e+01 5.540911e+01 5.303232e+01 1.059038e+02 8.408475e+01 4.355806e+01 1.037771e+02 5.449727e+01 5.592777e+01 4.532110e+01 6.603578e+01 3.441071e+01 1.355143e+00 2.192500e+00 2.355132e+00 4.194832e+00 3.853279e+00 2.855704e+00 3.894334e+00 3.367498e+00 3.037122e+00 2.878760e+00 3.219418e+00 2.098928e+00 3.481586e+00
<GCONST> 1.081598e+02
<STATE> 3
<MEAN> 25
 3.372375e-01 2.105931e-01 8.215381e-01 -1.647026e-02 -5.837883e-01 -7.299426e-01 -7.824784e-01 1.300958e-01 -9.758954e-02 -3.018807e-02 -3.113193e-01 -1.848293e-01 5.051808e-03 -3.938115e-03 3.963991e-03 -1.259051e-02 -7.892487e-03 -2.584791e-03 -8.875269e-03 -3.279540e-03 -5.471899e-03 4.843163e-03 -8.056178e-03 -1.889640e-03 1.345364e-02
<VARIANCE> 25
 3.224880e+01 5.549923e+01 5.343992e+01 1.066784e+02 8.428357e+01 4.381917e+01 1.041538e+02 5.464117e+01 5.616607e+01 4.555040e+01 6.602950e+01 3.437906e+01 1.355980e+00 2.204664e+00 2.378612e+00 4.218770e+00 3.876000e+00 2.862374e+00 3.918667e+00 3.371241e+00 3.045241e+00 2.888363e+00 3.232142e+00 2.101774e+00 3.523264e+00
<GCONST> 1.082590e+02
<STATE> 4
<MEAN> 25
 4.487548e-01 -5.940306e-03 7.970659e-01 -2.985653e-01 -6.718652e-01 -6.904453e-01 -9.545429e-01 2.426925e-01 -1.224050e-01 -3.743130e-02 -4.629361e-01 -2.393207e-01 5.377205e-03 -6.831566e-03 2.201777e-03 -1.311419e-02 -8.119603e-03 -2.986724e-03 -9.110443e-03 2.940855e-04 -3.563356e-03 4.663646e-03 -7.618518e-03 -3.992566e-04 1.534837e-02
<VARIANCE> 25
 3.282847e+01 5.795630e+01 5.437949e+01 1.125382e+02 8.689088e+01 4.379605e+01 1.056467e+02 5.335966e+01 5.701704e+01 4.525802e+01 6.480489e+01 3.372033e+01 1.319377e+00 2.217802e+00 2.319067e+00 4.186674e+00 3.850361e+00 2.755320e+00 3.897236e+00 3.265409e+00 2.988571e+00 2.853527e+00 3.113163e+00 2.024352e+00 3.458301e+00
<GCONST> 1.081209e+02
<TRANSP> 5
 0.000000e+00 1.000000e+00 0.000000e+00 0.000000e+00 0.000000e+00
 0.000000e+00 7.570885e-01 2.429115e-01 0.000000e+00 0.000000e+00
 0.000000e+00 0.000000e+00 7.570884e-01 2.429117e-01 0.000000e+00
 0.000000e+00 0.000000e+00 0.000000e+00 8.898941e-01 1.101059e-01
 0.000000e+00 0.000000e+00 0.000000e+00 0.000000e+00 0.000000e+00
<ENDHMM>
~h "e"
<BEGINHMM>
<NUMSTATES> 5
<STATE> 2
<MEAN> 25
 -1.201518e-01 -6.344522e-01 -1.940431e-02 2.116537e-01 -4.353175e-01 -1.244496e-01 5.385419e-01 5.789328e-01 2.003440e-01 -4.157798e-04 1.545391e-02 3.076332e-02 -3.735895e-03 -3.383502e-03 3.429683e-03 -3.977761e-03 -2.425149e-03 -1.160280e-04 -1.252249e-03 -3.380128e-03 5.994762e-04 -2.216068e-04 -1.824602e-03 3.437896e-04 8.824663e-03
<VARIANCE> 25
 3.384832e+01 6.043126e+01 3.837529e+01 1.152244e+02 7.706734e+01 4.607951e+01 8.266161e+01 4.695476e+01 4.996812e+01 3.721583e+01 6.478883e+01 2.824143e+01 1.735315e+00 2.729878e+00 1.698856e+00 4.566978e+00 3.119649e+00 2.583064e+00 3.657602e+00 3.197815e+00 2.828058e+00 2.533656e+00 3.042831e+00 1.922608e+00 3.431980e+00
<GCONST> 1.065627e+02
<STATE> 3
<MEAN> 25
 -1.324911e-01 -6.508173e-01 -8.392460e-04 1.815545e-01 -4.558193e-01 -1.303445e-01 5.254334e-01 5.562506e-01 1.898618e-01 -5.424588e-03 -3.007024e-03 2.835072e-02 -2.594523e-03 -3.091433e-03 3.701733e-03 -6.683446e-03 -3.517445e-03 -6.197411e-04 -2.904537e-03 -5.240316e-03 -1.803378e-03 -6.650045e-04 -3.977824e-03 4.688063e-05 1.186440e-02
<VARIANCE> 25
 3.397984e+01 6.036409e+01 3.861802e+01 1.153466e+02 7.745084e+01 4.610354e+01 8.301244e+01 4.725031e+01 4.997425e+01 3.720701e+01 6.489393e+01 2.828521e+01 1.742172e+00 2.726038e+00 1.705305e+00 4.566513e+00 3.130385e+00 2.588772e+00 3.673497e+00 3.214742e+00 2.831195e+00 2.547091e+00 3.045348e+00 1.925653e+00 3.433030e+00
<GCONST> 1.066225e+02
<STATE> 4
<MEAN> 25
 -1.629312e-01 -7.565437e-01 6.390321e-02 2.353312e-02 -5.533297e-01 -2.147462e-01 4.832799e-01 5.155492e-01 9.812058e-02 -2.191216e-02 -1.451868e-01 -8.370601e-03 5.043551e-04 -2.197837e-03 4.485102e-03 -1.317903e-02 -5.719392e-03 -2.877441e-03 -7.383405e-03 -8.680535e-03 -7.265881e-03 -1.358496e-03 -9.464771e-03 -1.492125e-03 1.868105e-02
<VARIANCE> 25
 3.477845e+01 6.150615e+01 3.961657e+01 1.144510e+02 7.931889e+01 4.558746e+01 8.343963e+01 4.717261e+01 5.036765e+01 3.697718e+01 6.472527e+01 2.832009e+01 1.770414e+00 2.760174e+00 1.688781e+00 4.476200e+00 3.129552e+00 2.567442e+00 3.652973e+00 3.211257e+00 2.814509e+00 2.539881e+00 3.029648e+00 1.907645e+00 3.357438e+00
<GCONST> 1.066366e+02
<TRANSP> 5
 0.000000e+00 1.000000e+00 0.000000e+00 0.000000e+00 0.000000e+00
 0.000000e+00 7.747019e-01 2.252981e-01 0.000000e+00 0.000000e+00
 0.000000e+00 0.000000e+00 7.747022e-01 2.252979e-01 0.000000e+00
 0.000000e+00 0.000000e+00 0.000000e+00 9.071355e-01 9.286454e-02
 0.000000e+00 0.000000e+00 0.000000e+00 0.000000e+00 0.000000e+00
<ENDHMM>
~h "f"
<BEGINHMM>
<NUMSTATES> 5
<STATE> 2
<MEAN> 25
 -5.878133e-01 -3.925447e-01 3.403696e-01 9.593964e-02 -5.410888e-01 -6.806663e-01 1.312381e-02 -2.778371e-01 -1.628353e-01 -1.313387e-01 -1.753522e-01 -1.019961e-01 1.057068e-02 -8.093423e-03 1.185995e-03 -2.551817e-02 -1.599513e-02 -6.465148e-03 -2.742163e-02 -9.932780e-03 -1.575310e-02 -4.093013e-04 -1.158720e-02 -1.777817e-02 2.783529e-02
<VARIANCE> 25
 3.380007e+01 4.318179e+01 5.614126e+01 1.124490e+02 7.618289e+01 4.703054e+01 7.851349e+01 4.405166e+01 5.507269e+01 3.826653e+01 6.173970e+01 3.202674e+01 1.769067e+00 2.122287e+00 2.238235e+00 4.158385e+00 3.373735e+00 2.776561e+00 3.178969e+00 2.903341e+00 2.900861e+00 2.605952e+00 2.905861e+00 1.969367e+00 3.226362e+00
<GCONST> 1.065105e+02
<STATE> 3
<MEAN> 25
 -5.320776e-01 -4.316806e-01 3.476200e-01 -1.788996e-02 -6.033145e-01 -7.054766e-01 -1.062109e-01 -3.188018e-01 -2.255581e-01 -1.273931e-01 -2.255768e-01 -1.791604e-01 1.324300e-02 -9.473450e-03 1.634620e-03 -2.520056e-02 -1.393073e-02 -4.994198e-03 -2.696871e-02 -8.302681e-03 -1.286508e-02 1.601133e-03 -1.096533e-02 -1.716448e-02 2.332311e-02
<VARIANCE> 25
 3.377621e+01 4.318092e+01 5.676746e+01 1.135000e+02 7.651187e+01 4.735248e+01 7.919062e+01 4.424660e+01 5.523756e+01 3.832203e+01 6.212140e+01 3.215213e+01 1.770743e+00 2.122934e+00 2.252405e+00 4.178897e+00 3.370040e+00 2.793410e+00 3.197185e+00 2.907769e+00 2.931493e+00 2.608462e+00 2.909147e+00 1.968341e+00 3.211770e+00
<GCONST> 1.066010e+02
<STATE> 4
<MEAN> 25
 -3.737658e-01 -5.172251e-01 3.932802e-01 -3.095155e-01 -7.493697e-01 -7.393418e-01 -3.733531e-01 -4.266890e-01 -3.481930e-01 -1.558723e-01 -4.226093e-01 -3.325011e-01 1.412703e-02 -4.903150e-03 5.598022e-03 -1.787177e-02 -1.033674e-02 -1.251310e-03 -2.378537e-02 -6.110219e-03 -8.279043e-03 1.257924e-03 -1.049380e-02 -1.273047e-02 1.098250e-02
<VARIANCE> 25
 3.355030e+01 4.334051e+01 5.708572e+01 1.172116e+02 7.628570e+01 4.803880e+01 7.807056e+01 4.469272e+01 5.630800e+01 3.798226e+01 6.356073e+01 3.232758e+01 1.774386e+00 2.126020e+00 2.246356e+00 4.247159e+00 3.325599e+00 2.815750e+00 3.182580e+00 2.935804e+00 2.991072e+00 2.606405e+00 2.929247e+00 1.970065e+00 3.159037e+00
<GCONST> 1.067089e+02
<TRANSP> 5
 0.000000e+00 1.000000e+00 0.000000e+00 0.000000e+00 0.000000e+00
 0.000000e+00 7.791825e-01 2.208175e-01 0.000000e+00 0.000000e+00
 0.000000e+00 0.000000e+00 7.791826e-01 2.208174e-01 0.000000e+00
 0.000000e+00 0.000000e+00 0.000000e+00 9.099051e-01 9.009491e-02
 0.000000e+00 0.000000e+00 0.000000e+00 0.000000e+00 0.000000e+00
<ENDHMM>
~h "g"
<BEGINHMM>
<NUMSTATES> 5
<STATE> 2
<MEAN> 25
 4.018097e-01 1.613049e-01 2.092796e+00 -1.838888e+00 -3.014251e+00 -1.108684e+00 -2.249298e+00 -3.471140e-01 -1.846396e+00 2.860589e-02 -1.946113e+00 -6.026577e-01 5.066075e-03 -1.920363e-02 3.300802e-03 -1.991925e-02 -5.836404e-03 -5.359306e-03 -2.984077e-02 1.065288e-02 -5.476185e-03 -2.127968e-02 -1.669661e-02 -1.009748e-02 3.297411e-02
<VARIANCE> 25
 2.686631e+01 6.626398e+01 4.985576e+01 1.284873e+02 9.016885e+01 4.815155e+01 1.002342e+02 6.046428e+01 6.102964e+01 4.997658e+01 8.089124e+01 3.479049e+01 1.128049e+00 2.377588e+00 2.016636e+00 5.022368e+00 3.552670e+00 2.561590e+00 3.250168e+00 3.677221e+00 2.999973e+00 3.346095e+00 3.199739e+00 2.190231e+00 3.623250e+00
<GCONST> 1.087793e+02
<STATE> 3
<MEAN> 25
 4.253887e-01 6.762516e-02 2.101724e+00 -1.928316e+00 -3.038384e+00 -1.129008e+00 -2.386726e+00 -2.936313e-01 -1.868599e+00 -7.229698e-02 -2.020144e+00 -6.459733e-01 4.224421e-03 -1.947343e-02 2.751790e-04 -1.544482e-02 -1.758013e-03 -2.970910e-03 -2.522421e-02 1.215730e-02 -2.274877e-03 -2.167939e-02 -1.299647e-02 -8.250472e-03 2.775003e-02
<VARIANCE> 25
 2.691364e+01 6.670559e+01 4.983743e+01 1.283321e+02 9.067108e+01 4.877555e+01 1.006842e+02 6.097638e+01 6.148518e+01 5.070787e+01 8.040137e+01 3.491142e+01 1.128934e+00 2.396617e+00 2.029279e+00 5.015425e+00 3.585311e+00 2.585994e+00 3.269421e+00 3.703384e+00 3.008033e+00 3.366196e+00 3.197515e+00 2.196490e+00 3.635646e+00
<GCONST> 1.088964e+02
<STATE> 4
<MEAN> 25
 4.963976e-01 -1.514942e-01 2.084059e+00 -2.166653e+00 -3.121299e+00 -1.112536e+00 -2.730943e+00 -1.712374e-01 -1.958161e+00 -2.604924e-01 -2.183111e+00 -7.572179e-01 2.189219e-03 -2.059179e-02 -5.653878e-03 -5.559722e-03 6.472826e-03 1.205245e-03 -1.471223e-02 1.535917e-02 4.553022e-03 -2.033291e-02 -5.858733e-03 -3.662431e-03 1.576896e-02
<VARIANCE> 25
 2.640745e+01 6.776775e+01 5.031039e+01 1.279518e+02 9.202869e+01 4.957425e+01 1.028018e+02 6.196879e+01 6.251433e+01 5.156948e+01 7.954926e+01 3.531189e+01 1.113515e+00 2.437142e+00 2.045968e+00 5.025784e+00 3.639346e+00 2.618438e+00 3.306613e+00 3.738668e+00 3.005628e+00 3.340211e+00 3.201415e+00 2.185546e+00 3.702656e+00
<GCONST> 1.090693e+02
<TRANSP> 5
 0.000000e+00 1.000000e+00 0.000000e+00 0.000000e+00 0.000000e+00
 0.000000e+00 7.789569e-01 2.210431e-01 0.000000e+00 0.000000e+00
 0.000000e+00 0.000000e+00 7.789574e-01 2.210425e-01 0.000000e+00
 0.000000e+00 0.000000e+00 0.000000e+00 9.097502e-01 9.024980e-02
 0.000000e+00 0.000000e+00 0.000000e+00 0.000000e+00 0.000000e+00
<ENDHMM>
~h "h"
<BEGINHMM>
<NUMSTATES> 5
<STATE> 2
<MEAN> 25
 -2.336106e-01 -1.984833e-02 -5.491796e-01 2.646404e-01 6.689934e-01 7.287680e-02 2.620726e-01 -2.833488e-01 -5.682018e-02 -2.660033e-01 5.880756e-01 7.621574e-02 -1.068741e-02 1.778703e-03 5.751804e-03 3.104949e-03 -1.602469e-03 -2.602796e-03 4.033980e-03 -3.430750e-03 -1.994290e-03 -8.409931e-04 -1.334737e-03 8.008576e-04 5.959828e-03
<VARIANCE> 25
 3.837167e+01 6.069744e+01 3.161600e+01 1.018927e+02 8.462720e+01 4.003407e+01 9.471957e+01 5.238308e+01 5.427903e+01 4.178492e+01 6.186965e+01 3.081228e+01 1.495219e+00 2.028124e+00 1.415593e+00 3.322371e+00 3.037766e+00 2.325967e+00 3.274041e+00 2.800100e+00 2.655205e+00 2.364573e+00 2.700874e+00 1.761157e+00 2.382108e+00
<GCONST> 1.047880e+02
<STATE> 3
<MEAN> 25
 -2.774154e-01 -2.420016e-02 -5.284621e-01 2.703535e-01 6.586841e-01 6.094015e-02 2.776881e-01 -2.980581e-01 -6.630502e-02 -2.737992e-01 5.717038e-01 7.425493e-02 -9.716749e-03 -5.744820e-04 5.520733e-03 7.656467e-04 -2.896526e-03 -3.123686e-03 3.046490e-03 -4.043681e-03 -2.018194e-03 -2.535035e-03 -4.357802e-03 -7.598842e-04 1.013517e-02
<VARIANCE> 25
 3.877396e+01 6.090625e+01 3.169668e+01 1.013793e+02 8.486587e+01 4.001746e+01 9.489449e+01 5.234071e+01 5.408295e+01 4.172292e+01 6.166335e+01 3.079686e+01 1.513936e+00 2.034956e+00 1.420542e+00 3.314645e+00 3.043150e+00 2.327803e+00 3.295602e+00 2.808887e+00 2.653448e+00 2.363777e+00 2.703452e+00 1.763998e+00 2.383464e+00
<GCONST> 1.048252e+02
<STATE> 4
<MEAN> 25
 -2.891297e-01 -1.292868e-01 -5.373040e-01 1.286233e-01 5.835938e-01 -2.462542e-03 1.586221e-01 -4.031346e-01 -2.251480e-01 -3.820527e-01 4.414519e-01 2.287497e-02 -4.568003e-03 -9.467627e-03 3.729750e-03 -7.501573e-03 -6.160923e-03 -3.206905e-03 1.105273e-03 -4.309324e-03 -3.431050e-03 -5.105180e-03 -1.036202e-02 -3.109611e-03 2.016839e-02
<VARIANCE> 25
 4.018009e+01 6.250594e+01 3.179036e+01 1.014560e+02 8.694460e+01 3.987117e+01 9.471872e+01 5.196227e+01 5.449364e+01 4.121800e+01 6.101295e+01 3.008763e+01 1.566341e+00 2.018748e+00 1.387311e+00 3.248929e+00 2.996104e+00 2.295404e+00 3.282217e+00 2.756975e+00 2.613874e+00 2.343815e+00 2.678199e+00 1.739405e+00 2.280204e+00
<GCONST> 1.047022e+02
<TRANSP> 5
 0.000000e+00 1.000000e+00 0.000000e+00 0.000000e+00 0.000000e+00
 0.000000e+00 7.857534e-01 2.142466e-01 0.000000e+00 0.000000e+00
 0.000000e+00 0.000000e+00 7.857533e-01 2.142468e-01 0.000000e+00
 0.000000e+00 0.000000e+00 0.000000e+00 9.200096e-01 7.999039e-02
 0.000000e+00 0.000000e+00 0.000000e+00 0.000000e+00 0.000000e+00
<ENDHMM>
~h "i"
<BEGINHMM>
<NUMSTATES> 5
<STATE> 2
<MEAN> 25
 -3.753155e-01 5.643936e-01 1.112642e+00 -1.305759e-01 -1.000873e+00 8.260850e-03 -3.403488e-01 -5.562735e-01 -3.277617e-01 -5.317922e-02 -1.042834e-01 -1.452222e-01 4.022519e-03 1.704553e-03 5.042762e-03 -8.845308e-03 -3.886423e-03 2.539661e-04 -4.851537e-03 -6.528940e-03 -1.666328e-03 3.780863e-03 -3.610298e-03 -1.585786e-03 7.432093e-03
<VARIANCE> 25
 2.896160e+01 4.536623e+01 6.002623e+01 1.108625e+02 9.533266e+01 4.385071e+01 9.328006e+01 5.331878e+01 5.883422e+01 4.313137e+01 6.422483e+01 3.487098e+01 1.376702e+00 1.890442e+00 2.269208e+00 3.884499e+00 3.500601e+00 2.605464e+00 3.628174e+00 3.062562e+00 3.012141e+00 2.624797e+00 2.873364e+00 2.023201e+00 3.050264e+00
<GCONST> 1.070283e+02
<STATE> 3
<MEAN> 25
 -3.574733e-01 5.714235e-01 1.134195e+00 -1.691875e-01 -1.020437e+00 1.111572e-02 -3.628066e-01 -5.817369e-01 -3.353337e-01 -3.636783e-02 -1.198903e-01 -1.541982e-01 4.003532e-03 1.071026e-03 4.739201e-03 -9.419862e-03 -4.188987e-03 2.251532e-04 -5.205498e-03 -5.848905e-03 -1.654709e-03 4.209099e-03 -3.686304e-03 -2.247202e-03 8.096545e-03
<VARIANCE> 25
 2.899607e+01 4.528067e+01 6.023180e+01 1.113857e+02 9.529729e+01 4.404267e+01 9.363316e+01 5.330827e+01 5.892447e+01 4.316486e+01 6.407822e+01 3.490963e+01 1.376998e+00 1.890445e+00 2.276582e+00 3.898072e+00 3.503402e+00 2.609765e+00 3.637869e+00 3.068790e+00 3.017380e+00 2.621220e+00 2.879895e+00 2.027612e+00 3.058448e+00
<GCONST> 1.070660e+02
<STATE> 4
<MEAN> 25
 -2.974421e-01 6.337531e-01 1.249047e+00 -2.962710e-01 -1.197713e+00 9.130857e-02 -5.311818e-01 -7.083694e-01 -3.911097e-01 -2.912454e-02 -1.883221e-01 -2.449075e-01 3.311076e-03 7.525834e-04 2.660905e-03 -7.443191e-03 -2.840447e-03 1.532509e-03 -3.334073e-03 -3.610893e-03 -5.953253e-04 4.700985e-03 -2.166514e-03 -2.405047e-03 4.665846e-03
<VARIANCE> 25
 2.819029e+01 4.434808e+01 6.094067e+01 1.135095e+02 9.682608e+01 4.397862e+01 9.497047e+01 5.214665e+01 5.926428e+01 4.268051e+01 6.351060e+01 3.509350e+01 1.344414e+00 1.829918e+00 2.255081e+00 3.898848e+00 3.442456e+00 2.561156e+00 3.606402e+00 2.987735e+00 2.977746e+00 2.560549e+00 2.845372e+00 1.995689e+00 3.014606e+00
<GCONST> 1.068285e+02
<TRANSP> 5
 0.000000e+00 1.000000e+00 0.000000e+00 0.000000e+00 0.000000e+00
 0.000000e+00 7.706566e-01 2.293434e-01 0.000000e+00 0.000000e+00
 0.000000e+00 0.000000e+00 7.706568e-01 2.293433e-01 0.000000e+00
 0.000000e+00 0.000000e+00 0.000000e+00 9.025853e-01 9.741474e-02
 0.000000e+00 0.000000e+00 0.000000e+00 0.000000e+00 0.000000e+00
<ENDHMM>
~h "j"
<BEGINHMM>
<NUMSTATES> 5
<STATE> 2
<MEAN> 25
 4.966453e-02 2.532639e-02 4.715699e-01 1.326472e+00 3.738350e-01 2.403838e-01 3.801157e-01 1.337072e-01 5.008839e-02 -1.332406e-01 1.531214e-01 8.567595e-02 5.076489e-03 -1.871906e-03 7.607001e-03 -1.792426e-02 -1.440349e-02 -9.057919e-03 -1.756963e-02 -8.973621e-03 -1.501645e-02 -4.295628e-03 -1.110948e-02 -7.754016e-03 2.498165e-02
<VARIANCE> 25
 2.493158e+01 5.047500e+01 3.122258e+01 1.119271e+02 5.976601e+01 3.586667e+01 7.258893e+01 4.743660e+01 5.208478e+01 4.006712e+01 6.446790e+01 3.119234e+01 1.372446e+00 1.934160e+00 1.883696e+00 3.296501e+00 3.089385e+00 2.130361e+00 2.949635e+00 3.023817e+00 2.827437e+00 2.674708e+00 2.612234e+00 2.074434e+00 2.374820e+00
<GCONST> 1.037606e+02
<STATE> 3
<MEAN> 25
 7.033083e-02 2.493156e-02 5.085811e-01 1.259030e+00 3.104497e-01 2.034606e-01 3.135640e-01 8.732515e-02 -1.592268e-02 -1.481405e-01 1.070177e-01 5.175853e-02 4.960896e-03 6.405078e-05 9.831525e-03 -1.712570e-02 -1.590459e-02 -9.276817e-03 -1.514946e-02 -1.090586e-02 -1.525967e-02 -3.430564e-03 -1.146560e-02 -7.656717e-03 2.331254e-02
<VARIANCE> 25
 2.492639e+01 5.060266e+01 3.188096e+01 1.124267e+02 6.022503e+01 3.621568e+01 7.257658e+01 4.783484e+01 5.262423e+01 4.030974e+01 6.484533e+01 3.123338e+01 1.377316e+00 1.945620e+00 1.894959e+00 3.309020e+00 3.094719e+00 2.145392e+00 2.971015e+00 3.065596e+00 2.844513e+00 2.683043e+00 2.619208e+00 2.072971e+00 2.382492e+00
<GCONST> 1.039005e+02
<STATE> 4
<MEAN> 25
 1.065523e-01 1.146912e-02 6.687028e-01 1.145073e+00 2.013434e-01 1.496048e-01 1.977764e-01 -5.712457e-02 -1.730550e-01 -2.444916e-01 -3.168654e-02 -6.479644e-02 3.033532e-03 4.143920e-03 8.532145e-03 -1.019238e-02 -1.101107e-02 -6.210827e-03 -6.302370e-03 -7.983060e-03 -1.166215e-02 -2.597240e-03 -8.067469e-03 -5.594856e-03 1.209041e-02
<VARIANCE> 25
 2.444518e+01 5.023887e+01 3.209468e+01 1.140865e+02 5.810792e+01 3.627717e+01 7.020543e+01 4.906876e+01 5.417700e+01 4.036795e+01 6.621587e+01 3.054603e+01 1.366318e+00 1.930301e+00 1.902039e+00 3.292405e+00 2.993737e+00 2.112852e+00 2.934699e+00 3.090394e+00 2.867665e+00 2.733187e+00 2.609815e+00 2.054086e+00 2.299337e+00
<GCONST> 1.037909e+02
<TRANSP> 5
 0.000000e+00 1.000000e+00 0.000000e+00 0.000000e+00 0.000000e+00
 0.000000e+00 7.792622e-01 2.207379e-01 0.000000e+00 0.000000e+00
 0.000000e+00 0.000000e+00 7.792622e-01 2.207377e-01 0.000000e+00
 0.000000e+00 0.000000e+00 0.000000e+00 9.125826e-01 8.741739e-02
 0.000000e+00 0.000000e+00 0.000000e+00 0.000000e+00 0.000000e+00
<ENDHMM>
~h "k"
<BEGINHMM>
<NUMSTATES> 5
<STATE> 2
<MEAN> 25
 4.427372e-02 -1.484188e-01 -1.571697e-01 -2.461526e-01 1.688679e-01 3.337303e-02 -4.621409e-02 5.599407e-02 -3.962038e-02 -1.230485e-01 -3.209258e-01 -1.343598e-01 1.608532e-03 -4.067550e-03 -1.257582e-03 -4.475295e-03 -4.586481e-04 1.973778e-03 -1.372727e-03 1.625256e-03 -4.933937e-04 -1.701033e-03 -3.678565e-03 -2.018788e-03 3.596780e-03
<VARIANCE> 25
 3.016109e+01 5.897301e+01 3.919268e+01 1.015039e+02 6.478042e+01 4.372237e+01 7.886932e+01 4.958790e+01 5.281773e+01 4.524064e+01 7.070927e+01 3.193852e+01 1.532037e+00 2.538756e+00 2.107522e+00 4.277120e+00 3.479319e+00 2.986281e+00 3.607065e+00 3.452421e+00 3.088776e+00 2.973019e+00 3.316497e+00 2.168408e+00 3.920375e+00
<GCONST> 1.074171e+02
<STATE> 3
<MEAN> 25
 5.008350e-02 -1.636046e-01 -1.642899e-01 -2.586005e-01 1.708603e-01 4.195249e-02 -4.583251e-02 6.343511e-02 -3.501301e-02 -1.273392e-01 -3.316482e-01 -1.393653e-01 1.084239e-03 -3.745199e-03 -1.390768e-03 -2.936897e-03 8.500896e-05 1.779773e-03 -2.301366e-04 1.974494e-03 5.088846e-04 -1.392824e-03 -3.089892e-03 -1.381380e-03 2.054309e-03
<VARIANCE> 25
 3.005309e+01 5.900273e+01 3.916483e+01 1.016998e+02 6.463042e+01 4.369567e+01 7.878881e+01 4.957063e+01 5.283765e+01 4.529496e+01 7.065442e+01 3.195472e+01 1.525613e+00 2.540284e+00 2.108428e+00 4.281805e+00 3.475578e+00 2.985797e+00 3.605615e+00 3.449969e+00 3.087252e+00 2.971074e+00 3.313892e+00 2.167599e+00 3.926988e+00
<GCONST> 1.074072e+02
<STATE> 4
<MEAN> 25
 7.637937e-02 -1.758750e-01 -2.042662e-01 -3.352660e-01 1.875881e-01 3.141513e-02 -4.480623e-02 7.714385e-02 -3.237214e-02 -1.352340e-01 -3.864770e-01 -1.259409e-01 3.588169e-04 -3.091236e-03 -1.869427e-03 6.771183e-04 2.242455e-03 1.630950e-03 1.679952e-03 1.948386e-03 3.167920e-03 1.975346e-05 -7.315460e-04 2.267824e-04 -2.617899e-03
<VARIANCE> 25
 2.958036e+01 5.851188e+01 3.914629e+01 1.058348e+02 6.516143e+01 4.324965e+01 7.828627e+01 4.827835e+01 5.319193e+01 4.479391e+01 7.012427e+01 3.165604e+01 1.506470e+00 2.532074e+00 2.098616e+00 4.361807e+00 3.451897e+00 2.934468e+00 3.585526e+00 3.342223e+00 3.069741e+00 2.945853e+00 3.288744e+00 2.145529e+00 3.931077e+00
<GCONST> 1.072716e+02
<TRANSP> 5
 0.000000e+00 1.000000e+00 0.000000e+00 0.000000e+00 0.000000e+00
 0.000000e+00 7.549425e-01 2.450576e-01 0.000000e+00 0.000000e+00
 0.000000e+00 0.000000e+00 7.549405e-01 2.450595e-01 0.000000e+00
 0.000000e+00 0.000000e+00 0.000000e+00 8.859085e-01 1.140915e-01
 0.000000e+00 0.000000e+00 0.000000e+00 0.000000e+00 0.000000e+00
<ENDHMM>
~h "l"
<BEGINHMM>
<NUMSTATES> 5
<STATE> 2
<MEAN> 25
 7.056812e-01 -4.397926e-01 -2.462338e-01 -1.549047e+00 -3.020823e-02 4.035949e-01 -7.544273e-01 -1.925209e-01 -1.692808e-01 -6.955636e-02 -4.117348e-01 -2.392999e-01 -2.135676e-03 3.014368e-03 1.054254e-03 4.096628e-03 3.684210e-03 -8.849748e-04 8.674077e-03 8.225351e-04 2.797268e-03 1.258867e-03 -3.187062e-03 3.633233e-03 -5.595732e-03
<VARIANCE> 25
 3.305342e+01 6.210008e+01 3.699057e+01 1.331781e+02 7.316023e+01 4.429465e+01 9.369699e+01 5.043549e+01 5.756377e+01 4.562107e+01 6.585948e+01 3.302489e+01 1.484481e+00 2.246646e+00 1.766646e+00 4.546306e+00 3.015721e+00 2.515578e+00 3.614372e+00 3.257242e+00 3.145590e+00 2.809552e+00 2.955576e+00 2.048180e+00 2.916319e+00
<GCONST> 1.070085e+02
<STATE> 3
<MEAN> 25
 6.940485e-01 -4.273780e-01 -2.383534e-01 -1.531797e+00 -1.848492e-02 3.994208e-01 -7.194682e-01 -1.917687e-01 -1.562221e-01 -6.291795e-02 -4.205865e-01 -2.231046e-01 -2.692019e-03 4.018781e-03 1.398396e-03 3.761983e-03 3.161160e-03 -1.749340e-03 8.597600e-03 -6.118016e-04 2.543470e-03 1.147889e-03 -2.226878e-03 4.381428e-03 -5.076258e-03
<VARIANCE> 25
 3.307650e+01 6.212159e+01 3.688737e+01 1.331457e+02 7.308000e+01 4.428312e+01 9.371271e+01 5.049048e+01 5.748652e+01 4.560399e+01 6.582024e+01 3.296403e+01 1.484690e+00 2.248367e+00 1.766798e+00 4.546314e+00 3.013094e+00 2.511958e+00 3.624717e+00 3.260529e+00 3.136914e+00 2.809670e+00 2.953938e+00 2.047234e+00 2.921324e+00
<GCONST> 1.070028e+02
<STATE> 4
<MEAN> 25
 7.317248e-01 -4.530651e-01 -2.370250e-01 -1.675977e+00 -6.132430e-02 3.722786e-01 -8.040891e-01 -2.204159e-01 -1.811536e-01 -7.937159e-02 -5.541375e-01 -2.020299e-01 -3.350623e-03 3.603894e-03 3.067439e-03 4.359823e-03 4.626894e-04 -2.438274e-03 5.387348e-03 -2.179370e-03 2.185535e-03 1.002738e-03 -1.093320e-04 3.345384e-03 -2.027215e-03
<VARIANCE> 25
 3.343555e+01 6.381576e+01 3.669111e+01 1.365203e+02 7.413087e+01 4.309161e+01 9.607541e+01 4.946936e+01 5.740325e+01 4.552654e+01 6.525180e+01 3.284240e+01 1.466579e+00 2.231297e+00 1.756643e+00 4.463662e+00 3.007241e+00 2.438131e+00 3.658968e+00 3.144505e+00 3.080673e+00 2.777070e+00 2.900669e+00 2.014040e+00 2.840043e+00
<GCONST> 1.068410e+02
<TRANSP> 5
 0.000000e+00 1.000000e+00 0.000000e+00 0.000000e+00 0.000000e+00
 0.000000e+00 7.621077e-01 2.378923e-01 0.000000e+00 0.000000e+00
 0.000000e+00 0.000000e+00 7.621058e-01 2.378942e-01 0.000000e+00
 0.000000e+00 0.000000e+00 0.000000e+00 8.953743e-01 1.046257e-01
 0.000000e+00 0.000000e+00 0.000000e+00 0.000000e+00 0.000000e+00
<ENDHMM>
~h "m"
<BEGINHMM>
<NUMSTATES> 5
<STATE> 2
<MEAN> 25
 4.250754e-01 -5.445179e-02 -6.399425e-02 8.630954e-02 3.515755e-01 3.262288e-01 -2.565570e-01 4.271259e-02 -3.953390e-01 -2.704019e-01 4.518372e-02 -2.293482e-01 -3.228235e-03 3.395667e-03 -4.420035e-03 1.502236e-02 1.222070e-02 9.701384e-04 1.206589e-02 6.187659e-03 3.651541e-03 -1.542400e-04 5.694108e-03 3.347117e-03 -1.625855e-02
<VARIANCE> 25
 2.886080e+01 5.031807e+01 3.703771e+01 1.143119e+02 6.848584e+01 4.206205e+01 8.563788e+01 5.231976e+01 6.246410e+01 4.307006e+01 6.389000e+01 3.144767e+01 1.348803e+00 1.999711e+00 1.945911e+00 4.015193e+00 3.210680e+00 2.421465e+00 3.415224e+00 3.330173e+00 3.162572e+00 2.778558e+00 2.892193e+00 1.999598e+00 2.942197e+00
<GCONST> 1.059924e+02
<STATE> 3
<MEAN> 25
 4.106441e-01 -4.015924e-02 -8.624518e-02 1.462882e-01 4.021098e-01 3.314560e-01 -2.030046e-01 6.800618e-02 -3.787553e-01 -2.684874e-01 7.307700e-02 -2.162682e-01 -3.265827e-03 3.449201e-03 -5.458121e-03 1.390505e-02 1.111562e-02 1.155968e-03 1.293634e-02 5.874096e-03 3.895091e-03 9.298329e-04 6.663546e-03 3.002960e-03 -1.639582e-02
<VARIANCE> 25
 2.876666e+01 5.026295e+01 3.685412e+01 1.134580e+02 6.785223e+01 4.183070e+01 8.547952e+01 5.218047e+01 6.241928e+01 4.295003e+01 6.365176e+01 3.137288e+01 1.346511e+00 1.992530e+00 1.942894e+00 3.997827e+00 3.194809e+00 2.415447e+00 3.408457e+00 3.322430e+00 3.162202e+00 2.771467e+00 2.885022e+00 1.993306e+00 2.933808e+00
<GCONST> 1.059125e+02
<STATE> 4
<MEAN> 25
 3.921810e-01 -5.372919e-02 -8.431893e-02 1.951750e-01 4.452226e-01 3.220518e-01 -1.350376e-01 7.218137e-02 -4.108713e-01 -3.148021e-01 6.449258e-02 -2.429165e-01 -2.784064e-03 4.520033e-03 -5.817787e-03 1.043450e-02 7.582653e-03 1.596145e-03 1.036606e-02 3.105538e-03 2.156438e-03 1.602166e-03 7.320241e-03 1.456944e-03 -1.373500e-02
<VARIANCE> 25
 2.839735e+01 5.002448e+01 3.630514e+01 1.129067e+02 6.627888e+01 4.084995e+01 8.411458e+01 5.170900e+01 6.275972e+01 4.239273e+01 6.377226e+01 3.113177e+01 1.337599e+00 1.957809e+00 1.914185e+00 3.935108e+00 3.131435e+00 2.364804e+00 3.329839e+00 3.289357e+00 3.156123e+00 2.757756e+00 2.864354e+00 1.973128e+00 2.834381e+00
<GCONST> 1.056010e+02
<TRANSP> 5
 0.000000e+00 1.000000e+00 0.000000e+00 0.000000e+00 0.000000e+00
 0.000000e+00 7.743840e-01 2.256160e-01 0.000000e+00 0.000000e+00
 0.000000e+00 0.000000e+00 7.743865e-01 2.256135e-01 0.000000e+00
 0.000000e+00 0.000000e+00 0.000000e+00 9.060379e-01 9.396220e-02
 0.000000e+00 0.000000e+00 0.000000e+00 0.000000e+00 0.000000e+00
<ENDHMM>
~h "n"
<BEGINHMM>
<NUMSTATES> 5
<STATE> 2
<MEAN> 25
 1.786021e-01 -2.144713e-01 9.771267e-02 -3.391990e-01 -3.375781e-01 5.508087e-02 -4.078570e-01 -1.559113e-01 -3.111274e-01 -2.888887e-01 -4.802226e-01 -2.417874e-01 -1.879422e-03 1.053929e-03 -1.234657e-03 2.974526e-03 4.089968e-04 1.045236e-04 1.436434e-03 -1.239539e-03 7.244108e-04 2.007785e-03 -4.187389e-04 1.716781e-03 -8.809931e-04
<VARIANCE> 25
 2.753407e+01 6.035314e+01 3.860385e+01 9.399551e+01 6.785725e+01 4.477678e+01 8.840998e+01 5.665698e+01 5.324784e+01 4.616236e+01 7.178537e+01 3.331874e+01 1.361382e+00 2.471245e+00 1.978381e+00 3.905350e+00 3.271377e+00 3.032049e+00 3.661442e+00 3.720794e+00 3.063365e+00 2.911489e+00 3.247808e+00 2.184829e+00 3.725043e+00
<GCONST> 1.073111e+02
<STATE> 3
<MEAN> 25
 1.719750e-01 -2.074457e-01 9.146464e-02 -3.273304e-01 -3.363670e-01 5.620915e-02 -4.028653e-01 -1.616962e-01 -3.083012e-01 -2.803844e-01 -4.804671e-01 -2.363445e-01 -1.850581e-03 9.388142e-04 -1.083340e-03 3.582858e-03 9.568685e-04 -9.852952e-05 2.008701e-03 -1.100475e-03 1.228232e-03 2.017749e-03 2.326938e-04 1.363598e-03 -1.622409e-03
<VARIANCE> 25
 2.768393e+01 6.033563e+01 3.853648e+01 9.398406e+01 6.767460e+01 4.481889e+01 8.865112e+01 5.656050e+01 5.332395e+01 4.615846e+01 7.173647e+01 3.328970e+01 1.363639e+00 2.473191e+00 1.972432e+00 3.909306e+00 3.264930e+00 3.030771e+00 3.662059e+00 3.714784e+00 3.063810e+00 2.915227e+00 3.243742e+00 2.183672e+00 3.719950e+00
<GCONST> 1.073082e+02
<STATE> 4
<MEAN> 25
 1.728865e-01 -1.293945e-01 1.624931e-01 -3.622910e-01 -4.512117e-01 6.774996e-02 -4.627476e-01 -2.343946e-01 -3.637085e-01 -2.875273e-01 -5.132786e-01 -2.662556e-01 -1.591071e-03 1.800765e-03 -9.186022e-04 3.387366e-03 1.038943e-03 -4.032603e-04 1.458615e-03 -2.082707e-03 1.479384e-03 1.939417e-03 1.512955e-03 7.105999e-04 -2.857756e-03
<VARIANCE> 25
 2.756600e+01 5.939243e+01 3.899540e+01 9.830112e+01 6.922527e+01 4.486854e+01 8.952631e+01 5.553281e+01 5.364038e+01 4.526934e+01 7.094564e+01 3.335318e+01 1.351962e+00 2.420490e+00 1.933050e+00 3.959853e+00 3.193331e+00 2.953485e+00 3.630043e+00 3.620949e+00 3.028612e+00 2.864492e+00 3.192447e+00 2.151661e+00 3.635740e+00
<GCONST> 1.071350e+02
<TRANSP> 5
 0.000000e+00 1.000000e+00 0.000000e+00 0.000000e+00 0.000000e+00
 0.000000e+00 7.545452e-01 2.454548e-01 0.000000e+00 0.000000e+00
 0.000000e+00 0.000000e+00 7.545468e-01 2.454533e-01 0.000000e+00
 0.000000e+00 0.000000e+00 0.000000e+00 8.857505e-01 1.142495e-01
 0.000000e+00 0.000000e+00 0.000000e+00 0.000000e+00 0.000000e+00
<ENDHMM>
~h "o"
<BEGINHMM>
<NUMSTATES> 5
<STATE> 2
<MEAN> 25
 2.558915e-01 2.661824e-02 -5.394745e-01 -1.001142e+00 4.168054e-01 2.565092e-01 -2.422898e-01 -1.685072e-01 3.542225e-01 4.095793e-01 1.866408e-01 -9.519475e-02 1.827323e-03 2.639209e-03 -8.576925e-03 3.406326e-03 9.370320e-03 5.648978e-03 2.303852e-03 2.199657e-03 1.619724e-03 -7.113777e-04 3.727838e-03 -1.449881e-04 -7.474305e-03
<VARIANCE> 25
 3.618551e+01 4.742821e+01 4.592542e+01 1.584328e+02 7.824923e+01 4.929915e+01 9.036744e+01 4.275593e+01 5.023881e+01 3.820472e+01 6.130899e+01 3.038915e+01 1.765878e+00 2.324990e+00 1.918843e+00 5.648201e+00 3.255202e+00 2.671903e+00 3.538656e+00 2.961251e+00 2.884395e+00 2.658447e+00 2.953361e+00 1.957145e+00 3.218696e+00
<GCONST> 1.071624e+02
<STATE> 3
<MEAN> 25
 2.616002e-01 4.080386e-02 -5.769963e-01 -9.856353e-01 4.534374e-01 2.785144e-01 -2.314571e-01 -1.587728e-01 3.556241e-01 4.043557e-01 1.985601e-01 -9.775263e-02 1.380889e-03 2.712691e-03 -8.421886e-03 3.470791e-03 7.493882e-03 4.593669e-03 2.259040e-03 2.439040e-03 -2.106856e-04 -1.528306e-03 2.377935e-03 -1.025681e-03 -6.354738e-03
<VARIANCE> 25
 3.624967e+01 4.741823e+01 4.540513e+01 1.585863e+02 7.789192e+01 4.916035e+01 9.048743e+01 4.264870e+01 5.044238e+01 3.823967e+01 6.128774e+01 3.040507e+01 1.763473e+00 2.330608e+00 1.913801e+00 5.673257e+00 3.261838e+00 2.677531e+00 3.550900e+00 2.955970e+00 2.898860e+00 2.665944e+00 2.964995e+00 1.955401e+00 3.232500e+00
<GCONST> 1.071739e+02
<STATE> 4
<MEAN> 25
 3.533036e-01 3.898938e-02 -6.374182e-01 -1.094985e+00 3.722033e-01 2.337956e-01 -3.262044e-01 -1.586022e-01 2.101171e-01 3.594015e-01 7.282194e-02 -1.363833e-01 -5.126666e-04 2.883753e-03 -5.504950e-03 4.470124e-03 2.766113e-03 1.610185e-03 2.084912e-03 3.495762e-03 -2.828865e-03 -3.142360e-03 -2.400327e-04 -1.477448e-03 -3.468379e-03
<VARIANCE> 25
 3.615894e+01 4.801361e+01 4.370550e+01 1.572164e+02 7.780358e+01 4.884874e+01 9.098749e+01 4.246945e+01 5.147494e+01 3.821098e+01 6.121518e+01 3.054940e+01 1.722569e+00 2.338344e+00 1.884675e+00 5.561645e+00 3.265118e+00 2.678589e+00 3.534113e+00 2.939384e+00 2.914388e+00 2.658385e+00 2.978248e+00 1.952195e+00 3.216890e+00
<GCONST> 1.070900e+02
<TRANSP> 5
 0.000000e+00 1.000000e+00 0.000000e+00 0.000000e+00 0.000000e+00
 0.000000e+00 7.705848e-01 2.294151e-01 0.000000e+00 0.000000e+00
 0.000000e+00 0.000000e+00 7.705843e-01 2.294157e-01 0.000000e+00
 0.000000e+00 0.000000e+00 0.000000e+00 9.030387e-01 9.696129e-02
 0.000000e+00 0.000000e+00 0.000000e+00 0.000000e+00 0.000000e+00
<ENDHMM>
~h "p"
<BEGINHMM>
<NUMSTATES> 5
<STATE> 2
<MEAN> 25
 3.235546e-01 1.319435e-01 -4.535726e-02 -5.095011e-01 -6.413985e-02 -2.081550e-02 -2.782351e-01 -5.687331e-01 -2.218938e-01 -8.172952e-02 -1.276364e-01 -1.987297e-02 3.673072e-03 -3.674710e-03 -5.768868e-03 -3.819824e-04 3.596834e-03 5.197446e-03 6.858089e-03 3.977843e-03 3.059078e-03 -3.162961e-03 -2.724357e-04 -1.604829e-03 -1.727606e-03
<VARIANCE> 25
 3.254443e+01 5.522106e+01 3.788826e+01 1.233103e+02 6.861179e+01 4.560872e+01 8.558952e+01 5.177632e+01 5.586038e+01 4.306559e+01 6.590572e+01 3.197722e+01 1.590212e+00 2.378456e+00 2.049103e+00 5.215139e+00 3.331036e+00 2.859812e+00 3.820305e+00 3.411308e+00 3.127298e+00 2.883024e+00 3.260945e+00 2.147678e+00 3.879739e+00
<GCONST> 1.077960e+02
<STATE> 3
<MEAN> 25
 3.370862e-01 1.183843e-01 -6.765457e-02 -5.053263e-01 -4.667312e-02 -2.579689e-03 -2.448073e-01 -5.517824e-01 -2.082471e-01 -9.645673e-02 -1.271391e-01 -2.278766e-02 2.793442e-03 -3.386077e-03 -5.838860e-03 1.752163e-03 4.454589e-03 4.729059e-03 8.459305e-03 4.512059e-03 3.616482e-03 -3.351660e-03 6.871250e-04 -4.291059e-04 -3.443751e-03
<VARIANCE> 25
 3.225888e+01 5.513407e+01 3.781995e+01 1.231335e+02 6.850583e+01 4.542202e+01 8.520490e+01 5.169453e+01 5.566692e+01 4.307174e+01 6.596565e+01 3.193627e+01 1.582388e+00 2.374070e+00 2.045257e+00 5.204624e+00 3.326701e+00 2.851459e+00 3.802390e+00 3.405619e+00 3.116033e+00 2.877985e+00 3.254999e+00 2.144258e+00 3.870602e+00
<GCONST> 1.077346e+02
<STATE> 4
<MEAN> 25
 3.801461e-01 9.246369e-02 -1.370852e-01 -5.889549e-01 6.964844e-03 2.725178e-02 -2.159557e-01 -5.255962e-01 -2.120970e-01 -8.611662e-02 -1.330602e-01 -1.966799e-02 6.998267e-04 -2.686454e-03 -5.401002e-03 5.320027e-03 5.518463e-03 3.074104e-03 8.880689e-03 6.132570e-03 5.051128e-03 -2.261851e-03 2.281347e-03 1.116895e-03 -7.049733e-03
<VARIANCE> 25
 3.142269e+01 5.418566e+01 3.693328e+01 1.257227e+02 6.747811e+01 4.411234e+01 8.435472e+01 5.038860e+01 5.582357e+01 4.252778e+01 6.573584e+01 3.169087e+01 1.540773e+00 2.322386e+00 1.998158e+00 5.175770e+00 3.249330e+00 2.768842e+00 3.737900e+00 3.291534e+00 3.092355e+00 2.840514e+00 3.207032e+00 2.111835e+00 3.793518e+00
<GCONST> 1.073344e+02
<TRANSP> 5
 0.000000e+00 1.000000e+00 0.000000e+00 0.000000e+00 0.000000e+00
 0.000000e+00 7.599723e-01 2.400276e-01 0.000000e+00 0.000000e+00
 0.000000e+00 0.000000e+00 7.599741e-01 2.400260e-01 0.000000e+00
 0.000000e+00 0.000000e+00 0.000000e+00 8.921103e-01 1.078897e-01
 0.000000e+00 0.000000e+00 0.000000e+00 0.000000e+00 0.000000e+00
<ENDHMM>
~h "r"
<BEGINHMM>
<NUMSTATES> 5
<STATE> 2
<MEAN> 25
 1.530350e-01 -1.952627e-01 1.308385e-02 -2.561693e-01 -2.520388e-01 -3.849264e-01 -4.925722e-01 1.266568e-01 -1.161663e-01 -2.603681e-01 -5.436687e-01 -6.505856e-03 -2.421918e-03 7.642933e-03 3.403041e-03 5.610840e-03 -4.025287e-03 5.329377e-03 -1.026416e-03 -7.455623e-03 6.813159e-04 4.738048e-03 6.753961e-03 3.161642e-04 -6.463823e-03
<VARIANCE> 25
 3.222718e+01 6.480432e+01 3.868187e+01 1.025076e+02 7.012884e+01 4.532424e+01 8.906236e+01 5.114232e+01 5.153435e+01 4.582654e+01 7.349753e+01 3.091326e+01 1.623678e+00 2.598997e+00 1.831249e+00 4.138648e+00 3.195073e+00 2.842039e+00 3.819457e+00 3.422102e+00 3.033075e+00 2.957092e+00 3.212208e+00 2.104522e+00 3.435316e+00
<GCONST> 1.074407e+02
<STATE> 3
<MEAN> 25
 1.464183e-01 -1.698647e-01 2.976711e-02 -2.439442e-01 -2.801693e-01 -3.630300e-01 -5.055898e-01 9.472741e-02 -1.161293e-01 -2.440698e-01 -5.219699e-01 -1.076080e-02 -1.870119e-03 6.464955e-03 3.711120e-03 3.915271e-03 -6.003236e-03 5.221817e-03 -2.639640e-03 -7.420263e-03 6.279640e-04 4.907233e-03 6.127432e-03 -1.129157e-03 -4.321967e-03
<VARIANCE> 25
 3.235878e+01 6.462522e+01 3.885685e+01 1.025876e+02 7.048695e+01 4.534650e+01 8.927130e+01 5.112701e+01 5.163092e+01 4.579912e+01 7.335084e+01 3.090939e+01 1.628612e+00 2.596060e+00 1.834480e+00 4.137897e+00 3.207085e+00 2.846036e+00 3.821860e+00 3.415495e+00 3.035332e+00 2.952662e+00 3.213533e+00 2.101866e+00 3.436128e+00
<GCONST> 1.074601e+02
<STATE> 4
<MEAN> 25
 1.195539e-01 -1.678109e-01 9.897128e-02 -2.841400e-01 -4.013762e-01 -3.731298e-01 -5.867198e-01 2.185357e-02 -1.247948e-01 -2.510083e-01 -5.538752e-01 -2.308484e-02 9.518726e-05 3.489834e-03 4.862880e-03 3.404973e-04 -9.998654e-03 5.064745e-03 -5.663565e-03 -6.655067e-03 -8.194439e-05 4.504736e-03 3.971658e-03 -3.293734e-03 -2.819992e-04
<VARIANCE> 25
 3.231034e+01 6.511460e+01 4.046343e+01 1.052727e+02 7.361893e+01 4.485982e+01 9.053126e+01 5.051320e+01 5.192330e+01 4.578449e+01 7.302988e+01 3.054549e+01 1.623171e+00 2.583949e+00 1.819547e+00 4.160688e+00 3.217942e+00 2.782039e+00 3.811692e+00 3.330574e+00 3.019004e+00 2.911927e+00 3.191287e+00 2.067165e+00 3.404307e+00
<GCONST> 1.074461e+02
<TRANSP> 5
 0.000000e+00 1.000000e+00 0.000000e+00 0.000000e+00 0.000000e+00
 0.000000e+00 7.532754e-01 2.467246e-01 0.000000e+00 0.000000e+00
 0.000000e+00 0.000000e+00 7.532734e-01 2.467266e-01 0.000000e+00
 0.000000e+00 0.000000e+00 0.000000e+00 8.835918e-01 1.164082e-01
 0.000000e+00 0.000000e+00 0.000000e+00 0.000000e+00 0.000000e+00
<ENDHMM>
~h "s"
<BEGINHMM>
<NUMSTATES> 5
<STATE> 2
<MEAN> 25
 -1.007320e+00 3.970630e-01 -3.919753e-01 8.173951e-01 4.683683e-01 -3.274176e-01 7.661680e-01 3.193828e-01 4.888459e-01 1.512474e-01 3.822627e-01 1.484518e-01 -6.039569e-04 3.373182e-03 1.732589e-03 4.651000e-03 2.951957e-03 3.257481e-03 7.732965e-04 -3.504066e-03 1.519004e-03 4.731561e-03 3.499416e-03 3.661436e-03 -9.307474e-03
<VARIANCE> 25
 4.970048e+01 6.085855e+01 4.472603e+01 1.107069e+02 7.901570e+01 4.535504e+01 9.040547e+01 4.623623e+01 5.314382e+01 3.792196e+01 5.630809e+01 2.807061e+01 2.090613e+00 2.553602e+00 1.922472e+00 4.156716e+00 3.264664e+00 2.548311e+00 3.958984e+00 2.805427e+00 2.729378e+00 2.556311e+00 2.824680e+00 1.857477e+00 2.579905e+00
<GCONST> 1.067927e+02
<STATE> 3
<MEAN> 25
 -1.008058e+00 4.086807e-01 -3.867229e-01 8.331000e-01 4.784959e-01 -3.121511e-01 7.632332e-01 3.042871e-01 4.958205e-01 1.701415e-01 3.947749e-01 1.629320e-01 -2.750029e-04 2.998394e-03 1.767221e-03 2.523433e-03 1.276082e-03 3.192802e-03 -1.143902e-03 -3.779758e-03 3.686912e-04 4.289671e-03 2.756038e-03 2.792515e-03 -6.320997e-03
<VARIANCE> 25
 4.960695e+01 6.064316e+01 4.461292e+01 1.109909e+02 7.885999e+01 4.528648e+01 9.048386e+01 4.620323e+01 5.319925e+01 3.793320e+01 5.613577e+01 2.805255e+01 2.086539e+00 2.546151e+00 1.924548e+00 4.156136e+00 3.263521e+00 2.548782e+00 3.958377e+00 2.800874e+00 2.724781e+00 2.552923e+00 2.819264e+00 1.852704e+00 2.579571e+00
<GCONST> 1.067681e+02
<STATE> 4
<MEAN> 25
 -9.526421e-01 3.831840e-01 -3.702268e-01 7.924790e-01 4.020865e-01 -2.982912e-01 6.616117e-01 2.811676e-01 4.550769e-01 1.666594e-01 3.892508e-01 1.515384e-01 4.214898e-04 1.785165e-03 4.024168e-04 -5.109925e-04 -2.199069e-04 2.448126e-03 -4.251779e-03 -3.019614e-03 3.368675e-05 3.201878e-03 1.454670e-03 1.024520e-03 -2.321814e-03
<VARIANCE> 25
 5.021164e+01 6.242664e+01 4.362514e+01 1.082533e+02 7.901614e+01 4.430917e+01 9.168006e+01 4.632005e+01 5.346543e+01 3.801013e+01 5.515564e+01 2.794431e+01 2.061881e+00 2.562658e+00 1.862377e+00 4.003953e+00 3.213376e+00 2.499980e+00 3.966746e+00 2.748781e+00 2.679497e+00 2.501694e+00 2.770687e+00 1.815691e+00 2.530054e+00
<GCONST> 1.065222e+02
<TRANSP> 5
 0.000000e+00 1.000000e+00 0.000000e+00 0.000000e+00 0.000000e+00
 0.000000e+00 7.772297e-01 2.227703e-01 0.000000e+00 0.000000e+00
 0.000000e+00 0.000000e+00 7.772276e-01 2.227724e-01 0.000000e+00
 0.000000e+00 0.000000e+00 0.000000e+00 9.105389e-01 8.946120e-02
 0.000000e+00 0.000000e+00 0.000000e+00 0.000000e+00 0.000000e+00
<ENDHMM>
~h "t"
<BEGINHMM>
<NUMSTATES> 5
<STATE> 2
<MEAN> 25
 8.655105e-03 -2.588485e-01 -1.227756e-01 -1.145803e-01 -2.226645e-01 -1.723165e-01 -1.818761e-01 7.437596e-02 -2.982986e-02 -1.536334e-01 -4.908883e-03 7.198822e-02 -3.549749e-03 -1.969263e-03 2.981239e-03 5.418734e-03 2.818706e-03 -1.250520e-03 3.973711e-03 2.118801e-03 -5.552893e-05 -2.111914e-04 4.005052e-04 1.661071e-03 -7.477446e-04
<VARIANCE> 25
 3.019593e+01 5.993496e+01 3.716960e+01 9.896997e+01 7.573241e+01 4.161275e+01 9.948611e+01 5.377524e+01 5.241217e+01 4.318852e+01 6.589321e+01 3.340469e+01 1.406007e+00 2.415187e+00 1.917872e+00 4.022443e+00 3.574825e+00 2.962487e+00 4.432148e+00 3.371016e+00 3.056532e+00 2.774180e+00 3.237453e+00 2.093101e+00 4.214858e+00
<GCONST> 1.075395e+02
<STATE> 3
<MEAN> 25
 -8.611229e-03 -2.619889e-01 -1.079848e-01 -8.806150e-02 -2.137514e-01 -1.740450e-01 -1.620390e-01 8.094283e-02 -2.811838e-02 -1.526733e-01 -2.457233e-04 7.630464e-02 -3.791575e-03 -5.556310e-04 3.152314e-03 6.486684e-03 2.906678e-03 -1.491634e-04 5.239796e-03 1.490530e-03 3.303777e-04 2.461504e-04 7.902602e-04 1.082527e-03 -2.773114e-03
<VARIANCE> 25
 3.026168e+01 5.996825e+01 3.704633e+01 9.867085e+01 7.568544e+01 4.160571e+01 9.941085e+01 5.384018e+01 5.238773e+01 4.317247e+01 6.595183e+01 3.337047e+01 1.405063e+00 2.411959e+00 1.909497e+00 4.002573e+00 3.569822e+00 2.956153e+00 4.416903e+00 3.371676e+00 3.053656e+00 2.773026e+00 3.229312e+00 2.092969e+00 4.193128e+00
<GCONST> 1.075073e+02
<STATE> 4
<MEAN> 25
 -5.765717e-02 -2.628234e-01 -6.090192e-02 -5.349141e-02 -2.274012e-01 -1.906946e-01 -1.752845e-01 8.496723e-02 -1.532426e-02 -1.638368e-01 1.053840e-02 6.195146e-02 -4.044239e-03 3.126066e-03 3.784362e-03 8.808786e-03 1.891042e-03 7.533124e-04 7.597894e-03 -1.617678e-04 3.951171e-04 1.384963e-03 2.897209e-03 7.145316e-04 -6.871359e-03
<VARIANCE> 25
 3.044765e+01 5.986281e+01 3.696028e+01 9.948478e+01 7.670125e+01 4.099277e+01 1.005771e+02 5.298172e+01 5.221496e+01 4.278178e+01 6.543329e+01 3.315284e+01 1.397740e+00 2.398223e+00 1.881365e+00 3.962066e+00 3.566867e+00 2.915056e+00 4.424963e+00 3.317606e+00 3.017650e+00 2.747177e+00 3.216277e+00 2.065000e+00 4.184563e+00
<GCONST> 1.073789e+02
<TRANSP> 5
 0.000000e+00 1.000000e+00 0.000000e+00 0.000000e+00 0.000000e+00
 0.000000e+00 7.659176e-01 2.340823e-01 0.000000e+00 0.000000e+00
 0.000000e+00 0.000000e+00 7.659171e-01 2.340829e-01 0.000000e+00
 0.000000e+00 0.000000e+00 0.000000e+00 8.967450e-01 1.032551e-01
 0.000000e+00 0.000000e+00 0.000000e+00 0.000000e+00 0.000000e+00
<ENDHMM>
~h "u"
<BEGINHMM>
<NUMSTATES> 5
<STATE> 2
<MEAN> 25
 4.580188e-01 5.772716e-01 -3.439474e-01 -6.183654e-01 -2.187102e-01 -2.661309e-02 -6.869243e-01 -6.760351e-01 -6.520783e-01 -1.299045e-02 5.769476e-02 -1.111909e-01 7.674774e-04 -4.467589e-03 1.007959e-03 1.194892e-03 -5.746976e-03 1.016812e-03 -1.369923e-03 1.698314e-03 1.667683e-03 -5.569139e-05 -2.720744e-03 -1.248145e-03 4.453080e-03
<VARIANCE> 25
 3.776044e+01 5.044992e+01 3.581696e+01 1.078618e+02 7.772135e+01 4.419330e+01 1.035105e+02 5.694630e+01 6.119287e+01 4.383121e+01 6.274498e+01 3.475605e+01 1.641415e+00 2.058852e+00 1.971969e+00 4.211283e+00 3.676617e+00 2.971302e+00 4.397931e+00 3.217196e+00 3.300448e+00 2.841309e+00 3.251857e+00 2.185660e+00 3.270424e+00
<GCONST> 1.079233e+02
<STATE> 3
<MEAN> 25
 4.596429e-01 5.585504e-01 -3.388527e-01 -6.129668e-01 -2.419159e-01 -2.072374e-02 -6.923831e-01 -6.656875e-01 -6.445914e-01 -1.303564e-02 4.428076e-02 -1.160319e-01 3.574797e-04 -4.690105e-03 8.539662e-04 8.988553e-04 -5.128302e-03 1.379345e-03 -1.644069e-03 3.085331e-03 1.720359e-03 -1.207055e-04 -4.109340e-03 -1.607608e-03 4.934005e-03
<VARIANCE> 25
 3.773200e+01 5.044323e+01 3.575405e+01 1.076494e+02 7.777273e+01 4.420483e+01 1.035118e+02 5.696224e+01 6.109663e+01 4.379612e+01 6.281757e+01 3.467977e+01 1.645150e+00 2.062170e+00 1.969829e+00 4.202113e+00 3.685985e+00 2.976398e+00 4.400020e+00 3.224562e+00 3.298133e+00 2.842606e+00 3.256169e+00 2.187157e+00 3.274244e+00
<GCONST> 1.079270e+02
<STATE> 4
<MEAN> 25
 4.509910e-01 5.923280e-01 -3.656909e-01 -7.330194e-01 -3.016014e-01 1.151921e-02 -7.874221e-01 -6.672919e-01 -7.132968e-01 -4.480134e-02 2.114493e-02 -1.453909e-01 -1.796274e-04 -5.533329e-03 6.592566e-04 9.735169e-04 -3.022910e-03 1.923533e-03 -1.043996e-03 4.152666e-03 2.828754e-03 1.988728e-04 -4.250755e-03 -5.568348e-04 3.817593e-03
<VARIANCE> 25
 3.882786e+01 5.017950e+01 3.508572e+01 1.098894e+02 7.786687e+01 4.374916e+01 1.031527e+02 5.666941e+01 6.164508e+01 4.306165e+01 6.179455e+01 3.423158e+01 1.669471e+00 2.040434e+00 1.918978e+00 4.157768e+00 3.618932e+00 2.898103e+00 4.357749e+00 3.153989e+00 3.254104e+00 2.795582e+00 3.188140e+00 2.133606e+00 3.143119e+00
<GCONST> 1.076706e+02
<TRANSP> 5
 0.000000e+00 1.000000e+00 0.000000e+00 0.000000e+00 0.000000e+00
 0.000000e+00 7.702245e-01 2.297755e-01 0.000000e+00 0.000000e+00
 0.000000e+00 0.000000e+00 7.702250e-01 2.297749e-01 0.000000e+00
 0.000000e+00 0.000000e+00 0.000000e+00 9.041185e-01 9.588150e-02
 0.000000e+00 0.000000e+00 0.000000e+00 0.000000e+00 0.000000e+00
<ENDHMM>
~h "w"
<BEGINHMM>
<NUMSTATES> 5
<STATE> 2
<MEAN> 25
 -1.929134e-01 -4.529282e-01 -9.062159e-01 -2.218702e-01 5.545110e-01 4.793568e-01 2.631585e-01 2.222089e-01 1.360499e-01 3.262044e-01 2.873240e-01 2.020815e-01 1.018942e-02 -1.238703e-02 -1.324730e-02 6.147430e-04 2.010979e-02 -9.278302e-04 -1.427175e-03 7.413453e-03 4.200208e-03 1.836685e-03 -5.042828e-04 6.787375e-06 -7.614874e-03
<VARIANCE> 25
 4.263034e+01 6.266579e+01 3.868406e+01 1.436416e+02 7.874085e+01 4.262541e+01 8.841045e+01 4.783055e+01 5.157523e+01 4.179363e+01 6.972374e+01 2.832075e+01 2.140861e+00 2.462650e+00 1.785875e+00 3.687704e+00 3.065187e+00 2.597731e+00 3.473346e+00 2.880690e+00 2.622904e+00 2.651554e+00 3.036490e+00 1.957113e+00 2.812261e+00
<GCONST> 1.068731e+02
<STATE> 3
<MEAN> 25
 -1.471894e-01 -5.133138e-01 -9.624187e-01 -2.138693e-01 6.492608e-01 4.659389e-01 2.604149e-01 2.620840e-01 1.591759e-01 3.282173e-01 2.847546e-01 2.039766e-01 1.064438e-02 -1.197541e-02 -1.166977e-02 2.718674e-03 1.934448e-02 -2.661108e-03 1.942339e-04 7.540332e-03 4.833619e-03 3.537934e-04 -6.650764e-05 -4.357419e-04 -8.886944e-03
<VARIANCE> 25
 4.205776e+01 6.289141e+01 3.802243e+01 1.439058e+02 7.754768e+01 4.238700e+01 8.803634e+01 4.761035e+01 5.139012e+01 4.156586e+01 6.997863e+01 2.822816e+01 2.122960e+00 2.467119e+00 1.765125e+00 3.716809e+00 3.047382e+00 2.597097e+00 3.451621e+00 2.890382e+00 2.626534e+00 2.642983e+00 3.040739e+00 1.958983e+00 2.833836e+00
<GCONST> 1.067981e+02
<STATE> 4
<MEAN> 25
 8.544969e-04 -7.937585e-01 -1.047263e+00 -4.480948e-01 7.749913e-01 3.295675e-01 1.234315e-01 4.500836e-01 1.386755e-01 1.666286e-01 9.889615e-02 1.709629e-01 9.501753e-03 -9.547794e-03 -8.632359e-03 9.529982e-03 1.850870e-02 -3.665928e-03 6.545096e-03 9.219908e-03 6.442007e-03 -2.416534e-03 1.852273e-03 -7.265090e-04 -1.495466e-02
<VARIANCE> 25
 4.093443e+01 6.462415e+01 3.707264e+01 1.423827e+02 7.695177e+01 4.211642e+01 8.813570e+01 4.805597e+01 5.152160e+01 4.175616e+01 7.139519e+01 2.828901e+01 2.117391e+00 2.555773e+00 1.733466e+00 3.778415e+00 3.045732e+00 2.639742e+00 3.444791e+00 2.950495e+00 2.644607e+00 2.639388e+00 3.083713e+00 1.950835e+00 2.956091e+00
<GCONST> 1.069109e+02
<TRANSP> 5
 0.000000e+00 1.000000e+00 0.000000e+00 0.000000e+00 0.000000e+00
 0.000000e+00 7.853962e-01 2.146039e-01 0.000000e+00 0.000000e+00
 0.000000e+00 0.000000e+00 7.853956e-01 2.146043e-01 0.000000e+00
 0.000000e+00 0.000000e+00 0.000000e+00 9.176577e-01 8.234225e-02
 0.000000e+00 0.000000e+00 0.000000e+00 0.000000e+00 0.000000e+00
<ENDHMM>
~h "y"
<BEGINHMM>
<NUMSTATES> 5
<STATE> 2
<MEAN> 25
 2.852090e-01 -1.497146e-01 1.283912e+00 -8.894802e-01 -1.288157e+00 -3.560046e-01 -1.122127e+00 -4.028121e-01 -3.706821e-01 4.147963e-01 -3.791574e-01 -6.495745e-01 5.377855e-03 -3.891022e-03 -1.138861e-02 -1.029920e-03 4.397543e-03 7.204040e-03 4.564787e-03 6.403352e-03 6.248386e-03 2.989616e-03 1.038005e-02 1.178966e-02 -8.433729e-03
<VARIANCE> 25
 2.909388e+01 4.316845e+01 7.733778e+01 1.238478e+02 1.030995e+02 4.653441e+01 1.001301e+02 4.701415e+01 5.755845e+01 4.400988e+01 6.090361e+01 3.714194e+01 1.285390e+00 1.776769e+00 2.540916e+00 3.730698e+00 3.390598e+00 2.435568e+00 3.492383e+00 2.706741e+00 2.830732e+00 2.396488e+00 2.722554e+00 1.822253e+00 2.873429e+00
<GCONST> 1.067481e+02
<STATE> 3
<MEAN> 25
 3.038512e-01 -1.591701e-01 1.212926e+00 -8.706986e-01 -1.245767e+00 -3.183382e-01 -1.079526e+00 -3.684060e-01 -3.331007e-01 4.314409e-01 -3.281623e-01 -5.860443e-01 4.344544e-03 -2.446710e-03 -1.610029e-02 2.510268e-03 8.291141e-03 9.943478e-03 7.330401e-03 7.061242e-03 7.859539e-03 2.784630e-03 1.149585e-02 1.397424e-02 -1.334506e-02
<VARIANCE> 25
 2.906874e+01 4.322701e+01 7.626455e+01 1.237835e+02 1.023975e+02 4.631289e+01 1.001964e+02 4.702512e+01 5.779430e+01 4.407524e+01 6.090550e+01 3.717655e+01 1.278258e+00 1.775679e+00 2.498026e+00 3.721402e+00 3.372978e+00 2.427493e+00 3.488047e+00 2.706245e+00 2.840128e+00 2.401650e+00 2.734337e+00 1.815397e+00 2.867043e+00
<GCONST> 1.066980e+02
<STATE> 4
<MEAN> 25
 2.962293e-01 -6.910419e-02 9.793826e-01 -6.834171e-01 -9.697430e-01 -1.943166e-01 -8.614954e-01 -2.982110e-01 -2.416702e-01 4.848809e-01 -2.260371e-01 -4.391979e-01 -1.905522e-04 1.496156e-03 -2.216147e-02 1.067226e-02 1.569633e-02 1.126909e-02 1.405923e-02 8.501140e-03 8.996341e-03 3.564982e-03 9.711375e-03 1.593512e-02 -2.201782e-02
<VARIANCE> 25
 2.869080e+01 4.352484e+01 7.069082e+01 1.221528e+02 1.002380e+02 4.401683e+01 1.007282e+02 4.690287e+01 5.819738e+01 4.293707e+01 6.060572e+01 3.696786e+01 1.225897e+00 1.764043e+00 2.379347e+00 3.630703e+00 3.278649e+00 2.387082e+00 3.448576e+00 2.690501e+00 2.816920e+00 2.383197e+00 2.734086e+00 1.785539e+00 2.779301e+00
<GCONST> 1.062556e+02
<TRANSP> 5
 0.000000e+00 1.000000e+00 0.000000e+00 0.000000e+00 0.000000e+00
 0.000000e+00 7.767312e-01 2.232689e-01 0.000000e+00 0.000000e+00
 0.000000e+00 0.000000e+00 7.767312e-01 2.232688e-01 0.000000e+00
 0.000000e+00 0.000000e+00 0.000000e+00 9.090461e-01 9.095391e-02
 0.000000e+00 0.000000e+00 0.000000e+00 0.000000e+00 0.000000e+00
<ENDHMM>
~h "z"
<BEGINHMM>
<NUMSTATES> 5
<STATE> 2
<MEAN> 25
 -3.692126e-02 4.682019e-02 -3.907196e-01 -1.159851e-01 -1.494990e+00 -9.027793e-01 -1.480404e+00 3.052385e-01 -4.100364e-01 -6.995185e-01 -6.086540e-01 -8.952669e-02 1.150972e-02 -2.746859e-02 5.320662e-03 -5.563854e-03 1.950532e-03 1.390165e-02 -1.733668e-02 -5.144373e-03 1.648183e-02 -1.083687e-02 -1.157775e-02 -9.135187e-04 9.699984e-03
<VARIANCE> 25
 3.895375e+01 8.440743e+01 3.773127e+01 9.849379e+01 1.280159e+02 4.696236e+01 1.326933e+02 6.474444e+01 4.192989e+01 4.652758e+01 5.535323e+01 3.361701e+01 1.235099e+00 2.639204e+00 1.668526e+00 2.821816e+00 2.914633e+00 2.533772e+00 4.010097e+00 3.740758e+00 2.517742e+00 2.461410e+00 2.452789e+00 1.898129e+00 2.338069e+00
<GCONST> 1.067803e+02
<STATE> 3
<MEAN> 25
 -2.387637e-03 -5.091539e-02 -3.711968e-01 -1.140737e-01 -1.462823e+00 -8.411864e-01 -1.522120e+00 2.778209e-01 -3.341407e-01 -7.577955e-01 -6.678270e-01 -9.689336e-02 8.761414e-03 -2.256596e-02 4.708678e-03 3.498434e-04 9.520607e-03 1.332615e-02 -7.158183e-03 -3.081419e-03 1.670285e-02 -1.169384e-02 -1.392225e-02 -1.374669e-03 2.552975e-03
<VARIANCE> 25
 3.872547e+01 8.431619e+01 3.780430e+01 9.850356e+01 1.281205e+02 4.683310e+01 1.322978e+02 6.551688e+01 4.169349e+01 4.677999e+01 5.527346e+01 3.384943e+01 1.232730e+00 2.623696e+00 1.680294e+00 2.835517e+00 2.915663e+00 2.538311e+00 3.981599e+00 3.755215e+00 2.520203e+00 2.450010e+00 2.451830e+00 1.908860e+00 2.352772e+00
<GCONST> 1.067982e+02
<STATE> 4
<MEAN> 25
 -2.412307e-02 -9.484629e-02 -4.363838e-01 -8.335774e-02 -1.342149e+00 -7.997158e-01 -1.529971e+00 2.034506e-01 -1.635618e-01 -1.003845e+00 -8.872951e-01 -1.096892e-01 -5.001650e-04 -2.880841e-03 3.363961e-03 6.013458e-03 9.421406e-03 2.390336e-03 -1.021026e-03 -5.446040e-03 1.466399e-02 -9.923335e-03 -1.518833e-02 -1.649199e-03 7.350566e-04
<VARIANCE> 25
 3.905099e+01 8.400624e+01 3.915735e+01 9.754096e+01 1.282943e+02 4.737678e+01 1.302078e+02 6.846606e+01 4.147448e+01 4.756702e+01 5.515012e+01 3.427461e+01 1.278052e+00 2.595094e+00 1.755949e+00 2.863465e+00 2.866938e+00 2.577802e+00 3.918958e+00 3.772561e+00 2.579268e+00 2.452812e+00 2.540991e+00 1.921149e+00 2.383356e+00
<GCONST> 1.070366e+02
<TRANSP> 5
 0.000000e+00 1.000000e+00 0.000000e+00 0.000000e+00 0.000000e+00
 0.000000e+00 7.888643e-01 2.111357e-01 0.000000e+00 0.000000e+00
 0.000000e+00 0.000000e+00 7.888643e-01 2.111358e-01 0.000000e+00
 0.000000e+00 0.000000e+00 0.000000e+00 9.222124e-01 7.778766e-02
 0.000000e+00 0.000000e+00 0.000000e+00 0.000000e+00 0.000000e+00
<ENDHMM>
~h "aw"
<BEGINHMM>
<NUMSTATES> 5
<STATE> 2
<MEAN> 25
 8.520945e-01 -1.008770e+00 -1.060488e+00 -2.507868e+00 2.375385e-01 1.701768e-01 -2.206437e+00 1.171789e-01 -3.699637e-01 -6.037149e-01 -1.644961e+00 -8.400084e-01 6.756891e-03 -1.465337e-03 -6.897986e-04 -3.183557e-02 -1.902609e-02 2.586957e-03 -1.689956e-02 -6.761035e-03 -7.897638e-03 -1.758226e-03 -1.077942e-02 -8.082904e-03 3.115230e-02
<VARIANCE> 25
 4.616010e+01 9.629305e+01 2.897127e+01 1.825220e+02 6.644675e+01 3.882848e+01 1.175770e+02 4.150471e+01 4.157153e+01 3.566136e+01 4.522404e+01 3.116983e+01 1.836274e+00 3.756689e+00 1.405879e+00 4.022692e+00 2.447338e+00 2.409201e+00 4.638331e+00 2.663048e+00 2.460610e+00 2.490902e+00 2.499906e+00 1.891435e+00 3.193874e+00
<GCONST> 1.063005e+02
<STATE> 3
<MEAN> 25
 8.743757e-01 -9.919648e-01 -1.064271e+00 -2.632390e+00 1.618450e-01 1.716605e-01 -2.259955e+00 8.686035e-02 -3.987184e-01 -5.928132e-01 -1.673536e+00 -8.624330e-01 3.419069e-03 1.696100e-03 -1.455641e-03 -2.466881e-02 -1.315080e-02 -2.875185e-04 -9.926240e-03 -4.212622e-03 -4.268296e-03 2.198358e-03 -6.722216e-03 -3.382836e-03 2.290336e-02
<VARIANCE> 25
 4.654137e+01 9.607918e+01 2.952357e+01 1.839090e+02 6.763806e+01 3.879785e+01 1.179663e+02 4.115074e+01 4.181980e+01 3.569626e+01 4.501463e+01 3.140156e+01 1.846334e+00 3.732296e+00 1.394297e+00 4.012404e+00 2.440230e+00 2.396995e+00 4.626222e+00 2.656359e+00 2.468838e+00 2.519498e+00 2.481527e+00 1.902797e+00 3.128024e+00
<GCONST> 1.063219e+02
<STATE> 4
<MEAN> 25
 9.355418e-01 -9.402186e-01 -9.601350e-01 -2.877456e+00 -3.496490e-02 3.033617e-01 -2.056653e+00 -1.483599e-01 -4.593047e-01 -5.554269e-01 -1.471410e+00 -7.494135e-01 -3.589170e-03 1.360568e-02 2.597245e-03 -1.073078e-03 -4.122152e-03 -8.004244e-03 1.169453e-03 -3.247231e-03 -1.644538e-03 9.039567e-03 4.471686e-03 1.751869e-03 1.430399e-03
<VARIANCE> 25
 4.246271e+01 9.295454e+01 3.214772e+01 1.925790e+02 7.260049e+01 3.760011e+01 1.145610e+02 3.922737e+01 4.171759e+01 3.609211e+01 4.308206e+01 3.090922e+01 1.577530e+00 3.567102e+00 1.313890e+00 3.859123e+00 2.276817e+00 2.208542e+00 4.261701e+00 2.469676e+00 2.337948e+00 2.461227e+00 2.252334e+00 1.830192e+00 3.028127e+00
<GCONST> 1.053863e+02
<TRANSP> 5
 0.000000e+00 1.000000e+00 0.000000e+00 0.000000e+00 0.000000e+00
 0.000000e+00 7.901476e-01 2.098524e-01 0.000000e+00 0.000000e+00
 0.000000e+00 0.000000e+00 7.901479e-01 2.098521e-01 0.000000e+00
 0.000000e+00 0.000000e+00 0.000000e+00 9.264232e-01 7.357683e-02
 0.000000e+00 0.000000e+00 0.000000e+00 0.000000e+00 0.000000e+00
<ENDHMM>
~h "ax"
<BEGINHMM>
<NUMSTATES> 5
<STATE> 2
<MEAN> 25
 1.905074e-01 1.340112e-02 1.110207e-01 -1.590608e-01 -2.734819e-01 -1.922034e-01 -4.390531e-01 1.275092e-01 1.618522e-02 -1.440952e-01 -2.008235e-01 -1.812416e-01 -2.531752e-04 4.192542e-03 8.279372e-03 2.023486e-03 -9.056026e-03 -5.061306e-04 -1.339397e-03 -1.462078e-03 -2.370664e-03 4.875323e-03 2.059595e-03 -1.643269e-03 2.258130e-03
<VARIANCE> 25
 2.865081e+01 5.909717e+01 3.732489e+01 9.844307e+01 6.696895e+01 4.280209e+01 8.721111e+01 5.118603e+01 5.076846e+01 4.478094e+01 6.829071e+01 3.402204e+01 1.422554e+00 2.490956e+00 1.844040e+00 4.243837e+00 3.205966e+00 2.837641e+00 3.505334e+00 3.619624e+00 2.953396e+00 2.948371e+00 3.139535e+00 2.126464e+00 3.632742e+00
<GCONST> 1.068588e+02
<STATE> 3
<MEAN> 25
 1.871218e-01 2.988444e-02 1.446109e-01 -1.515029e-01 -3.105018e-01 -1.913661e-01 -4.473563e-01 1.227970e-01 1.080714e-02 -1.252176e-01 -1.952139e-01 -1.867858e-01 -9.101039e-04 4.259781e-03 7.929317e-03 2.299916e-03 -7.230221e-03 7.552094e-04 -7.071179e-04 -1.531547e-03 -6.544927e-04 5.299256e-03 1.694441e-03 -1.561314e-03 8.228141e-04
<VARIANCE> 25
 2.859541e+01 5.907217e+01 3.748577e+01 9.836417e+01 6.756835e+01 4.294070e+01 8.736070e+01 5.127570e+01 5.089223e+01 4.484029e+01 6.826731e+01 3.402268e+01 1.423080e+00 2.490735e+00 1.848227e+00 4.240304e+00 3.215970e+00 2.843579e+00 3.501618e+00 3.614379e+00 2.955563e+00 2.946271e+00 3.140198e+00 2.124047e+00 3.631180e+00
<GCONST> 1.068821e+02
<STATE> 4
<MEAN> 25
 1.964227e-01 8.110408e-02 2.109412e-01 -1.786257e-01 -4.094999e-01 -2.189928e-01 -5.281488e-01 1.102575e-01 1.309139e-02 -1.013798e-01 -2.367522e-01 -2.171757e-01 -1.196400e-03 3.581814e-03 6.661001e-03 1.028820e-03 -5.163769e-03 2.305934e-03 -6.974518e-04 -3.027197e-03 1.409933e-03 5.151534e-03 2.943747e-04 -2.001186e-03 5.833026e-04
<VARIANCE> 25
 2.820585e+01 5.930693e+01 3.790295e+01 1.012499e+02 7.050384e+01 4.246775e+01 8.996410e+01 5.084470e+01 5.103898e+01 4.459122e+01 6.780843e+01 3.398409e+01 1.389688e+00 2.484601e+00 1.815620e+00 4.288283e+00 3.238086e+00 2.782116e+00 3.518633e+00 3.538698e+00 2.934369e+00 2.916286e+00 3.123052e+00 2.096545e+00 3.644083e+00
<GCONST> 1.068576e+02
<TRANSP> 5
 0.000000e+00 1.000000e+00 0.000000e+00 0.000000e+00 0.000000e+00
 0.000000e+00 7.474297e-01 2.525704e-01 0.000000e+00 0.000000e+00
 0.000000e+00 0.000000e+00 7.474285e-01 2.525714e-01 0.000000e+00
 0.000000e+00 0.000000e+00 0.000000e+00 8.771178e-01 1.228822e-01
 0.000000e+00 0.000000e+00 0.000000e+00 0.000000e+00 0.000000e+00
<ENDHMM>
~h "ay"
<BEGINHMM>
<NUMSTATES> 5
<STATE> 2
<MEAN> 25
 -4.927362e-02 -1.401527e+00 9.480694e-01 -9.735664e-01 -4.826694e-01 -8.272626e-01 -8.040645e-01 1.493990e+00 -6.636981e-01 -7.985439e-01 -1.513828e+00 -1.428386e-03 -3.044343e-03 -2.523905e-03 -1.763030e-03 2.108295e-02 9.111394e-03 2.038531e-03 1.328828e-02 7.535707e-03 2.148749e-03 -5.520097e-03 2.843681e-03 3.367335e-03 -1.775526e-02
<VARIANCE> 25
 2.950188e+01 7.962355e+01 4.217178e+01 1.104545e+02 9.135691e+01 4.573014e+01 9.572853e+01 5.228563e+01 5.687586e+01 5.270163e+01 7.810581e+01 3.008958e+01 1.210526e+00 2.604110e+00 1.810877e+00 3.407884e+00 3.277747e+00 2.499883e+00 3.754180e+00 3.360548e+00 2.673205e+00 3.074497e+00 3.014669e+00 1.954324e+00 3.107300e+00
<GCONST> 1.073987e+02
<STATE> 3
<MEAN> 25
 -6.415385e-02 -1.413362e+00 9.431584e-01 -8.851684e-01 -4.475383e-01 -8.179560e-01 -7.510676e-01 1.526149e+00 -6.551413e-01 -8.256560e-01 -1.497812e+00 1.300345e-02 -3.860266e-03 -8.712191e-05 -1.827239e-03 2.205156e-02 8.491788e-03 1.987956e-03 1.447843e-02 6.219203e-03 3.269615e-03 -4.104524e-03 6.153284e-03 3.506103e-03 -2.002870e-02
<VARIANCE> 25
 2.946798e+01 7.942645e+01 4.206530e+01 1.096482e+02 9.138290e+01 4.552689e+01 9.530357e+01 5.201677e+01 5.691994e+01 5.270849e+01 7.769450e+01 3.008598e+01 1.208334e+00 2.592030e+00 1.808001e+00 3.365038e+00 3.253603e+00 2.486182e+00 3.741806e+00 3.345712e+00 2.654699e+00 3.053549e+00 2.998918e+00 1.948445e+00 3.080850e+00
<GCONST> 1.072951e+02
<STATE> 4
<MEAN> 25
 -4.112301e-02 -1.593120e+00 8.571480e-01 -7.986457e-01 -4.018165e-01 -7.408935e-01 -7.387037e-01 1.584193e+00 -6.067483e-01 -9.796429e-01 -1.513319e+00 -1.667197e-04 -4.218105e-03 1.300064e-03 -1.002853e-03 1.890168e-02 6.024818e-03 3.094998e-03 1.328786e-02 4.148654e-03 3.002683e-03 -3.432289e-03 7.994799e-03 2.586181e-03 -1.704636e-02
<VARIANCE> 25
 3.054200e+01 8.241889e+01 4.058902e+01 1.090095e+02 9.465868e+01 4.309240e+01 9.503178e+01 5.049801e+01 5.639587e+01 5.265354e+01 7.526757e+01 2.991097e+01 1.208465e+00 2.568932e+00 1.749051e+00 3.253894e+00 3.251678e+00 2.384704e+00 3.698629e+00 3.254405e+00 2.588813e+00 2.964185e+00 2.922039e+00 1.903629e+00 3.000739e+00
<GCONST> 1.069386e+02
<TRANSP> 5
 0.000000e+00 1.000000e+00 0.000000e+00 0.000000e+00 0.000000e+00
 0.000000e+00 7.726778e-01 2.273222e-01 0.000000e+00 0.000000e+00
 0.000000e+00 0.000000e+00 7.726786e-01 2.273214e-01 0.000000e+00
 0.000000e+00 0.000000e+00 0.000000e+00 9.059705e-01 9.402954e-02
 0.000000e+00 0.000000e+00 0.000000e+00 0.000000e+00 0.000000e+00
<ENDHMM>
~h "ey"
<BEGINHMM>
<NUMSTATES> 5
<STATE> 2
<MEAN> 25
 -6.189420e-01 4.665963e-01 5.177909e-01 -2.682981e-01 -1.816436e+00 -4.080589e-01 -3.168776e-01 -1.067065e+00 -1.358156e+00 -1.612679e-01 -6.214969e-01 -6.976225e-01 7.730034e-03 -9.378307e-03 7.629387e-03 -8.578339e-03 8.836532e-03 -2.864142e-04 1.767137e-02 1.437839e-02 9.998573e-04 1.004549e-02 -5.147821e-03 6.478681e-03 -8.246277e-03
<VARIANCE> 25
 4.160972e+01 6.981485e+01 7.098433e+01 9.890189e+01 1.305916e+02 3.427386e+01 1.127965e+02 4.877164e+01 5.638427e+01 3.799422e+01 4.447168e+01 3.715593e+01 1.742529e+00 2.821440e+00 1.967939e+00 3.357190e+00 3.300463e+00 2.056397e+00 4.336795e+00 2.904596e+00 2.540433e+00 2.145386e+00 2.154465e+00 1.968261e+00 2.386204e+00
<GCONST> 1.068156e+02
<STATE> 3
<MEAN> 25
 -5.897636e-01 4.411971e-01 5.587426e-01 -2.827958e-01 -1.749104e+00 -4.012169e-01 -2.066344e-01 -9.850092e-01 -1.332851e+00 -1.096894e-01 -6.250950e-01 -6.515227e-01 7.332051e-03 -7.495673e-03 8.024262e-03 -3.966813e-03 1.668035e-02 4.105414e-03 2.389950e-02 1.936169e-02 7.511182e-03 1.083481e-02 3.640513e-04 1.095183e-02 -2.147514e-02
<VARIANCE> 25
 4.139814e+01 6.967693e+01 7.097445e+01 1.003065e+02 1.294915e+02 3.411992e+01 1.114317e+02 4.834830e+01 5.700953e+01 3.786534e+01 4.438781e+01 3.683969e+01 1.732583e+00 2.804613e+00 1.933131e+00 3.353935e+00 3.221978e+00 2.023226e+00 4.277631e+00 2.900889e+00 2.527071e+00 2.132372e+00 2.134974e+00 1.953105e+00 2.319667e+00
<GCONST> 1.066436e+02
<STATE> 4
<MEAN> 25
 -5.499836e-01 4.910280e-01 6.551517e-01 -2.212210e-01 -1.564672e+00 -3.378422e-01 7.867230e-02 -8.272040e-01 -1.216918e+00 -3.474548e-02 -5.379174e-01 -5.198278e-01 5.987410e-03 -4.006448e-03 1.366794e-03 5.771824e-03 3.486373e-02 1.101657e-02 3.119183e-02 2.440216e-02 2.170158e-02 9.068767e-03 8.875945e-03 1.738785e-02 -4.048445e-02
<VARIANCE> 25
 4.107406e+01 6.918855e+01 7.016685e+01 1.020335e+02 1.275562e+02 3.381709e+01 1.090960e+02 4.776611e+01 5.793285e+01 3.798694e+01 4.384203e+01 3.653000e+01 1.675190e+00 2.695913e+00 1.877139e+00 3.261946e+00 3.104781e+00 1.964198e+00 4.168643e+00 2.891495e+00 2.491566e+00 2.112321e+00 2.075704e+00 1.915863e+00 2.204428e+00
<GCONST> 1.062274e+02
<TRANSP> 5
 0.000000e+00 1.000000e+00 0.000000e+00 0.000000e+00 0.000000e+00
 0.000000e+00 7.803255e-01 2.196745e-01 0.000000e+00 0.000000e+00
 0.000000e+00 0.000000e+00 7.803251e-01 2.196750e-01 0.000000e+00
 0.000000e+00 0.000000e+00 0.000000e+00 9.098065e-01 9.019354e-02
 0.000000e+00 0.000000e+00 0.000000e+00 0.000000e+00 0.000000e+00
<ENDHMM>
~h "ng"
<BEGINHMM>
<NUMSTATES> 5
<STATE> 2
<MEAN> 25
 -4.093316e-02 2.718184e-01 4.639264e-01 -7.470598e-01 -9.348995e-01 4.919449e-01 -2.983685e-02 -3.083062e-01 -3.679871e-01 -6.807803e-02 1.387168e-01 -5.536915e-02 1.423534e-02 -1.028589e-02 3.450878e-03 -3.104400e-02 -1.182008e-02 -5.623586e-03 -2.456234e-02 -1.051873e-02 -1.614569e-04 5.820456e-04 -8.500556e-03 -1.189463e-02 3.292947e-02
<VARIANCE> 25
 2.910271e+01 5.637399e+01 4.099469e+01 1.126100e+02 6.985746e+01 4.203948e+01 7.971432e+01 5.157323e+01 5.495488e+01 4.150587e+01 6.951748e+01 3.319078e+01 1.223344e+00 2.094674e+00 1.819416e+00 3.873502e+00 3.046068e+00 2.652818e+00 3.339006e+00 3.341999e+00 2.861572e+00 2.635747e+00 2.824823e+00 2.033351e+00 2.693122e+00
<GCONST> 1.057246e+02
<STATE> 3
<MEAN> 25
 1.810595e-02 2.265195e-01 4.816605e-01 -8.848572e-01 -9.834986e-01 4.617476e-01 -1.337055e-01 -3.571239e-01 -3.800280e-01 -6.402361e-02 8.426914e-02 -1.049691e-01 1.444654e-02 -1.208175e-02 4.249878e-03 -3.491195e-02 -1.162081e-02 -8.312635e-03 -2.628288e-02 -1.198001e-02 -3.482820e-03 6.978235e-04 -1.312945e-02 -1.281445e-02 3.913502e-02
<VARIANCE> 25
 2.923048e+01 5.675796e+01 4.128458e+01 1.133776e+02 7.047483e+01 4.258974e+01 8.012450e+01 5.150393e+01 5.493264e+01 4.173899e+01 6.939030e+01 3.343053e+01 1.230520e+00 2.112132e+00 1.823707e+00 3.934729e+00 3.072712e+00 2.671843e+00 3.363092e+00 3.356392e+00 2.884410e+00 2.661411e+00 2.858875e+00 2.051441e+00 2.712300e+00
<GCONST> 1.058909e+02
<STATE> 4
<MEAN> 25
 1.351023e-01 1.737836e-01 5.539750e-01 -1.229893e+00 -1.105415e+00 3.883023e-01 -4.276131e-01 -5.505639e-01 -4.946999e-01 -2.243142e-02 -1.229128e-01 -2.065089e-01 1.121828e-02 -1.135900e-02 7.050732e-03 -3.703955e-02 -1.268221e-02 -1.109059e-02 -2.522464e-02 -1.485152e-02 -1.074205e-02 -3.495378e-04 -2.171062e-02 -1.262708e-02 4.618555e-02
<VARIANCE> 25
 2.928556e+01 5.653868e+01 4.175636e+01 1.169279e+02 7.312738e+01 4.358508e+01 8.159773e+01 5.182648e+01 5.576348e+01 4.223722e+01 6.982945e+01 3.369569e+01 1.236378e+00 2.116782e+00 1.838418e+00 4.102986e+00 3.121798e+00 2.688429e+00 3.432253e+00 3.393213e+00 2.938641e+00 2.705980e+00 2.920252e+00 2.082947e+00 2.723290e+00
<GCONST> 1.062426e+02
<TRANSP> 5
 0.000000e+00 1.000000e+00 0.000000e+00 0.000000e+00 0.000000e+00
 0.000000e+00 7.469566e-01 2.530434e-01 0.000000e+00 0.000000e+00
 0.000000e+00 0.000000e+00 7.469589e-01 2.530411e-01 0.000000e+00
 0.000000e+00 0.000000e+00 0.000000e+00 8.752531e-01 1.247470e-01
 0.000000e+00 0.000000e+00 0.000000e+00 0.000000e+00 0.000000e+00
<ENDHMM>
~h "ny"
<BEGINHMM>
<NUMSTATES> 5
<STATE> 2
<MEAN> 25
 7.564014e-01 -1.243079e+00 -3.411557e-01 -1.384074e+00 -1.307730e-01 1.191067e-01 -1.196034e+00 6.731656e-01 -6.185883e-01 -5.080249e-01 -1.225507e+00 -4.211576e-01 5.752102e-03 -1.019455e-02 -1.014582e-02 -1.103762e-04 5.413861e-03 4.355981e-04 -1.163476e-02 1.497252e-03 -2.232195e-05 -1.360033e-02 -1.061788e-02 -4.247652e-03 1.352553e-02
<VARIANCE> 25
 2.700950e+01 8.857057e+01 3.173615e+01 8.790852e+01 4.645767e+01 4.583622e+01 8.126016e+01 6.068497e+01 6.818414e+01 4.679020e+01 8.048386e+01 3.223798e+01 1.291718e+00 2.761251e+00 1.887774e+00 3.223996e+00 2.628866e+00 3.112716e+00 3.192468e+00 4.004980e+00 3.350026e+00 2.705536e+00 3.274268e+00 2.183287e+00 3.388300e+00
<GCONST> 1.068763e+02
<STATE> 3
<MEAN> 25
 7.805878e-01 -1.284856e+00 -3.862006e-01 -1.386973e+00 -1.064924e-01 1.246149e-01 -1.233819e+00 6.813589e-01 -6.144952e-01 -5.668882e-01 -1.268931e+00 -4.426972e-01 5.505813e-03 -7.478632e-03 -1.065663e-02 2.032746e-03 6.892881e-03 1.715497e-03 -6.248995e-03 1.774506e-03 2.301184e-03 -1.280652e-02 -7.967687e-03 -5.017158e-03 8.953959e-03
<VARIANCE> 25
 2.726059e+01 8.881623e+01 3.144930e+01 8.764963e+01 4.638007e+01 4.612496e+01 8.096718e+01 6.040872e+01 6.830138e+01 4.684059e+01 8.065762e+01 3.209084e+01 1.304406e+00 2.771284e+00 1.871660e+00 3.211995e+00 2.604767e+00 3.122343e+00 3.186741e+00 3.994767e+00 3.340385e+00 2.709723e+00 3.294537e+00 2.182138e+00 3.371853e+00
<GCONST> 1.068632e+02
<STATE> 4
<MEAN> 25
 7.668694e-01 -1.272021e+00 -4.103146e-01 -1.353158e+00 -7.426048e-02 1.169732e-01 -1.265922e+00 6.538315e-01 -6.046254e-01 -6.489692e-01 -1.252535e+00 -4.494453e-01 6.717550e-03 -4.409060e-03 -6.871321e-03 3.552104e-03 7.132472e-03 3.107941e-03 2.427005e-03 -1.451130e-03 6.318192e-03 -7.426524e-03 -1.837736e-03 -4.067131e-03 -5.508004e-04
<VARIANCE> 25
 2.755565e+01 8.953165e+01 3.098303e+01 8.879752e+01 4.799450e+01 4.508993e+01 8.347740e+01 5.925444e+01 6.836433e+01 4.760968e+01 8.013036e+01 3.188675e+01 1.293293e+00 2.754825e+00 1.836887e+00 3.195635e+00 2.544981e+00 3.078278e+00 3.221669e+00 3.952767e+00 3.291910e+00 2.682575e+00 3.318012e+00 2.140533e+00 3.296845e+00
<GCONST> 1.067723e+02
<TRANSP> 5
 0.000000e+00 1.000000e+00 0.000000e+00 0.000000e+00 0.000000e+00
 0.000000e+00 7.610209e-01 2.389791e-01 0.000000e+00 0.000000e+00
 0.000000e+00 0.000000e+00 7.610204e-01 2.389796e-01 0.000000e+00
 0.000000e+00 0.000000e+00 0.000000e+00 8.895572e-01 1.104428e-01
 0.000000e+00 0.000000e+00 0.000000e+00 0.000000e+00 0.000000e+00
<ENDHMM>
~h "sil"
<BEGINHMM>
<NUMSTATES> 5
<STATE> 2
<MEAN> 25
 -2.351680e+00 2.656259e+00 -1.061519e+00 7.726882e+00 3.562864e+00 1.346326e+00 7.012550e+00 1.350671e+00 4.428991e+00 3.468101e+00 5.705452e+00 2.746799e+00 2.407089e-03 -2.558157e-02 1.681764e-02 4.379863e-02 2.129545e-02 -1.491410e-02 -1.366579e-02 -1.202460e-02 -2.038406e-02 -3.123523e-02 1.248308e-02 -1.356710e-02 -1.286864e-02
<VARIANCE> 25
 6.045346e+00 7.905919e+00 9.399884e+00 9.652985e+00 1.464667e+01 1.679740e+01 1.845269e+01 1.633555e+01 1.527402e+01 1.748217e+01 1.492551e+01 1.398854e+01 2.057857e-01 2.726994e-01 4.305302e-01 6.063825e-01 8.525573e-01 1.015034e+00 1.147946e+00 1.300417e+00 1.351525e+00 1.366875e+00 1.262799e+00 1.222144e+00 1.186090e-01
<GCONST> 7.141299e+01
<STATE> 3
<MEAN> 25
 -2.361023e+00 2.587782e+00 -1.043078e+00 7.828223e+00 3.593781e+00 1.265195e+00 6.956834e+00 1.336246e+00 4.419887e+00 3.411109e+00 5.772840e+00 2.752336e+00 4.574634e-03 -1.030251e-02 1.531784e-03 1.703993e-02 -2.518102e-03 -2.025207e-02 -2.091330e-02 2.838637e-03 6.729826e-04 -1.077868e-02 2.114035e-02 1.277087e-02 -5.796582e-03
<VARIANCE> 25
 6.043818e+00 7.959379e+00 8.921093e+00 9.515934e+00 1.366931e+01 1.649589e+01 1.806367e+01 1.663005e+01 1.539439e+01 1.739422e+01 1.534801e+01 1.375291e+01 1.985403e-01 2.649813e-01 4.098789e-01 6.034315e-01 8.212872e-01 9.679701e-01 1.125440e+00 1.256028e+00 1.281200e+00 1.292160e+00 1.234771e+00 1.193902e+00 1.129917e-01
<GCONST> 7.081406e+01
<STATE> 4
<MEAN> 25
 -2.229412e+00 2.457870e+00 -9.424893e-01 7.815074e+00 3.603528e+00 1.125553e+00 6.756701e+00 1.443469e+00 4.346198e+00 3.286120e+00 5.702295e+00 2.723840e+00 6.678408e-03 -6.364970e-03 -6.383826e-03 -3.054652e-03 1.194719e-03 -1.884901e-02 -1.573775e-02 8.482913e-03 -1.255477e-02 -8.910944e-03 8.229118e-03 1.708033e-02 4.174382e-03
<VARIANCE> 25
 5.693554e+00 9.192306e+00 8.789024e+00 1.016689e+01 1.311946e+01 1.597294e+01 1.776465e+01 1.630259e+01 1.495194e+01 1.702049e+01 1.559929e+01 1.358085e+01 2.171534e-01 2.951077e-01 4.355274e-01 6.353453e-01 7.976118e-01 9.746256e-01 1.134468e+00 1.275820e+00 1.307177e+00 1.294919e+00 1.258948e+00 1.156970e+00 1.529033e-01
<GCONST> 7.141595e+01
<TRANSP> 5
 0.000000e+00 1.000000e+00 0.000000e+00 0.000000e+00 0.000000e+00
 0.000000e+00 7.707037e-01 2.292963e-01 0.000000e+00 0.000000e+00
 0.000000e+00 0.000000e+00 7.707037e-01 2.292963e-01 0.000000e+00
 0.000000e+00 0.000000e+00 0.000000e+00 9.036414e-01 9.635860e-02
 0.000000e+00 0.000000e+00 0.000000e+00 0.000000e+00 0.000000e+00
<ENDHMM>
