~o
<STREAMINFO> 1 25
<VECSIZE> 25<NULLD><MFCC_D_N_Z_0><DIAGC>
~s "silst"
<MEAN> 25
 -1.805442e+00 2.696919e+00 -8.750710e-01 7.720623e+00 3.656329e+00 1.795943e+00 6.524776e+00 1.432601e+00 4.287199e+00 3.277797e+00 5.786630e+00 2.695685e+00 -4.195145e-03 1.370331e-02 -1.654625e-03 1.351495e-02 -1.784183e-02 -1.465904e-02 1.277032e-02 -5.144491e-03 -2.590068e-03 2.201922e-02 2.746252e-02 -4.561595e-03 -1.746564e-02
<VARIANCE> 25
 2.989462e+00 5.897552e+00 6.607759e+00 7.520920e+00 1.018684e+01 1.454811e+01 1.502038e+01 1.202603e+01 1.299014e+01 1.470019e+01 1.307083e+01 1.284946e+01 9.998020e-02 2.088932e-01 3.612067e-01 5.240375e-01 6.847826e-01 8.756604e-01 1.016481e+00 1.131713e+00 1.198896e+00 1.244313e+00 1.207260e+00 1.114545e+00 4.293371e-02
<GCONST> 6.493739e+01
~h "a"
<BEGINHMM>
<NUMSTATES> 5
<STATE> 2
<MEAN> 25
 1.961400e+00 -4.709075e+00 8.808919e-01 -6.927511e+00 -2.057710e+00 -1.974926e+00 -4.621561e+00 -1.637443e-01 -2.790328e+00 -2.440484e+00 -5.146236e+00 -2.462349e+00 4.820092e-01 -1.837923e+00 -2.594211e-01 -1.581737e+00 1.905302e-01 5.287206e-01 -6.235407e-01 7.253772e-01 -3.476654e-01 -6.655918e-01 -1.161745e+00 -6.395139e-02 1.725912e+00
<VARIANCE> 25
 3.060249e+01 8.939539e+01 6.148721e+01 9.890941e+01 1.026792e+02 5.623018e+01 5.999787e+01 7.775672e+01 5.219605e+01 4.254578e+01 5.834309e+01 2.871367e+01 3.049327e+00 6.205238e+00 3.814621e+00 8.101067e+00 6.779650e+00 4.772899e+00 5.744479e+00 6.894760e+00 5.186814e+00 4.837317e+00 4.882001e+00 2.959989e+00 6.398935e+00
<GCONST> 1.160888e+02
<STATE> 3
<MEAN> 25
 4.234221e+00 -1.472087e+01 -2.952918e+00 -1.207443e+01 1.424387e+00 4.603331e-01 -6.938454e+00 4.190369e+00 -3.220908e+00 -6.550026e+00 -1.140653e+01 -1.807264e+00 1.579924e-03 3.402399e-02 -1.220680e-01 4.504157e-01 3.516940e-01 1.898952e-01 -1.297381e-01 1.021011e-01 -2.016800e-01 -4.398197e-01 1.823991e-01 3.354304e-03 -2.891825e-01
<VARIANCE> 25
 1.021001e+01 2.349085e+01 2.401204e+01 2.906746e+01 3.983776e+01 4.809040e+01 4.917073e+01 5.149154e+01 4.904659e+01 2.929196e+01 2.627103e+01 2.596298e+01 2.968914e-01 1.162584e+00 7.028436e-01 1.223609e+00 1.690073e+00 1.828494e+00 1.686674e+00 1.988557e+00 1.560655e+00 1.534283e+00 1.547891e+00 1.324947e+00 6.908386e-01
<GCONST> 8.951035e+01
<STATE> 4
<MEAN> 25
 2.619557e+00 -7.893111e+00 -2.605808e+00 -4.017347e+00 4.480019e+00 1.152459e+00 -2.584058e+00 4.289208e+00 -6.424692e-01 -4.981538e+00 -5.130049e+00 -1.357943e+00 -6.094413e-03 1.064274e+00 1.588889e-02 6.121076e-01 -4.848954e-01 -2.669073e-01 2.442653e-01 -7.514177e-03 2.872840e-01 6.139697e-01 8.966582e-01 -2.122190e-01 -1.075751e+00
<VARIANCE> 25
 1.627814e+01 4.978994e+01 2.115652e+01 8.406967e+01 4.304493e+01 3.209716e+01 6.496749e+01 5.789708e+01 5.673422e+01 4.391068e+01 5.408940e+01 3.324139e+01 6.852435e-01 1.736584e+00 1.169729e+00 1.900001e+00 2.129621e+00 1.922231e+00 2.183099e+00 2.521465e+00 2.392238e+00 2.248582e+00 2.073432e+00 2.099398e+00 9.990612e-01
<GCONST> 9.814672e+01
<TRANSP> 5
 0.000000e+00 1.000000e+00 0.000000e+00 0.000000e+00 0.000000e+00
 0.000000e+00 7.378624e-01 2.621376e-01 0.000000e+00 0.000000e+00
 0.000000e+00 0.000000e+00 8.697988e-01 1.302012e-01 0.000000e+00
 0.000000e+00 0.000000e+00 0.000000e+00 5.321740e-01 4.678260e-01
 0.000000e+00 0.000000e+00 0.000000e+00 0.000000e+00 0.000000e+00
<ENDHMM>
~h "b"
<BEGINHMM>
<NUMSTATES> 5
<STATE> 2
<MEAN> 25
 -2.346609e+00 2.942616e+00 -1.439058e+00 6.424573e+00 4.735548e+00 6.340864e-02 6.853755e+00 2.886010e+00 2.999747e+00 4.076572e+00 5.442308e+00 4.190234e+00 7.644627e-03 8.033821e-02 1.081654e-02 6.684440e-02 -1.514283e-02 -1.621563e-02 6.006489e-02 -5.113795e-02 -5.394992e-02 1.352687e-02 2.794433e-02 -7.964516e-03 -5.438828e-02
<VARIANCE> 25
 4.463530e+00 9.893929e+00 7.818497e+00 9.437167e+00 2.057974e+01 1.645003e+01 1.789330e+01 1.814337e+01 1.547696e+01 1.688832e+01 1.584053e+01 1.550790e+01 1.764131e-01 3.640383e-01 5.481399e-01 6.751785e-01 1.033945e+00 1.003678e+00 1.338718e+00 1.491780e+00 1.440949e+00 1.405401e+00 1.382490e+00 1.171338e+00 1.487582e-01
<GCONST> 7.298473e+01
<STATE> 3
<MEAN> 25
 -6.872792e-01 5.050442e+00 1.018593e+00 8.449378e+00 5.004358e+00 8.220900e-01 5.994646e+00 -4.632694e-01 -8.133578e-02 1.000897e+00 2.751256e+00 8.851134e-01 1.453597e+00 1.494367e+00 1.349276e+00 7.027957e-01 3.450595e-01 -7.442365e-02 -1.207013e+00 -2.213025e+00 -2.545882e+00 -2.506944e+00 -2.422818e+00 -2.044055e+00 8.255985e-01
<VARIANCE> 25
 8.070518e+00 1.135361e+01 8.344460e+00 1.177843e+01 1.737388e+01 1.604355e+01 1.936787e+01 2.487140e+01 2.285088e+01 2.389649e+01 2.808623e+01 1.954382e+01 1.072486e+00 1.083708e+00 8.149829e-01 8.792361e-01 8.518278e-01 1.235816e+00 2.043296e+00 2.849054e+00 2.896839e+00 2.577408e+00 2.410676e+00 2.000375e+00 5.381767e-01
<GCONST> 8.406488e+01
<STATE> 4
<MEAN> 25
 6.535391e+00 9.226066e+00 3.356202e+00 6.670161e+00 4.571644e+00 9.704257e-01 2.782639e+00 -7.333654e+00 -7.165943e+00 -5.906301e+00 -4.104380e+00 -3.760386e+00 6.987244e-01 1.975493e-01 -1.320294e-01 -6.790807e-01 -4.459866e-01 4.931766e-02 -5.143017e-01 -6.789154e-01 -3.615814e-01 -2.179069e-01 -2.900044e-01 -3.915672e-01 1.072302e+00
<VARIANCE> 25
 7.759487e+00 1.799733e+01 9.147322e+00 2.052801e+01 1.631813e+01 1.344091e+01 3.643349e+01 2.667717e+01 2.367810e+01 1.744064e+01 2.230728e+01 2.634881e+01 1.405314e+00 1.189610e+00 1.193073e+00 1.078001e+00 1.024069e+00 1.598818e+00 2.385392e+00 3.435874e+00 2.845191e+00 2.162369e+00 2.091631e+00 2.049549e+00 1.287395e+00
<GCONST> 8.767811e+01
<TRANSP> 5
 0.000000e+00 1.000000e+00 0.000000e+00 0.000000e+00 0.000000e+00
 0.000000e+00 9.289422e-01 7.105782e-02 0.000000e+00 0.000000e+00
 0.000000e+00 0.000000e+00 5.077903e-01 4.922096e-01 0.000000e+00
 0.000000e+00 0.000000e+00 0.000000e+00 7.908567e-01 2.091434e-01
 0.000000e+00 0.000000e+00 0.000000e+00 0.000000e+00 0.000000e+00
<ENDHMM>
~h "c"
<BEGINHMM>
<NUMSTATES> 5
<STATE> 2
<MEAN> 25
 -1.385062e+00 2.637805e+00 -1.862798e-01 7.463304e+00 4.110350e+00 1.522538e+00 5.971736e+00 2.546130e+00 3.587523e+00 2.922266e+00 5.461588e+00 1.283873e+00 -2.911942e-01 7.191309e-02 1.439444e-02 -2.582374e-02 -5.235153e-02 -2.438568e-02 6.634384e-02 -1.526109e-01 7.537387e-02 1.267900e-01 5.930439e-02 -6.500754e-02 1.491318e-01
<VARIANCE> 25
 6.305524e+00 1.160612e+01 1.268400e+01 1.475184e+01 1.423188e+01 1.917964e+01 1.567315e+01 1.940931e+01 2.028220e+01 2.029986e+01 1.689380e+01 1.915126e+01 1.341309e+00 1.203670e+00 1.982786e+00 2.053809e+00 1.369209e+00 2.125770e+00 2.107564e+00 2.229047e+00 2.392120e+00 2.113999e+00 1.876516e+00 1.737864e+00 1.872918e+00
<GCONST> 8.652733e+01
<STATE> 3
<MEAN> 25
 -1.127946e+01 3.762213e+00 -1.255072e+00 3.104853e+00 2.878085e+00 6.637744e-01 5.034274e+00 -6.282781e-01 3.391889e+00 2.594483e+00 3.465341e+00 1.203961e+00 -1.813453e+00 7.861707e-01 -7.871490e-02 -6.382419e-01 -1.179217e+00 -8.094697e-02 -3.371447e-01 -9.460257e-01 -6.567207e-01 -3.385150e-01 -1.986990e-01 -6.331267e-01 3.634537e+00
<VARIANCE> 25
 3.835331e+01 3.099860e+01 2.582456e+01 2.781802e+01 2.511361e+01 2.964106e+01 2.520935e+01 2.105983e+01 1.770462e+01 1.427202e+01 1.534234e+01 1.808648e+01 4.251336e+00 3.114296e+00 2.893259e+00 2.777841e+00 2.489201e+00 2.357548e+00 2.702788e+00 2.582653e+00 2.131144e+00 1.988431e+00 1.922747e+00 1.712279e+00 5.613659e+00
<GCONST> 9.639056e+01
<STATE> 4
<MEAN> 25
 -7.896994e+00 3.853981e+00 7.203205e-01 4.591238e-02 -5.889165e+00 -4.008321e+00 4.366258e+00 -1.126493e+00 -2.640828e+00 -2.230350e+00 8.679162e-01 -1.855160e+00 3.646838e+00 -2.275739e+00 2.622980e-01 -1.880482e+00 -1.960978e+00 -2.535590e+00 -1.317202e+00 1.098746e+00 -2.152969e+00 -1.510598e+00 -2.198290e+00 -6.162503e-01 1.171421e+00
<VARIANCE> 25
 6.422713e+01 3.986220e+01 1.734143e+01 5.096999e+01 4.247956e+01 4.382124e+01 2.931265e+01 2.813508e+01 3.204839e+01 2.417442e+01 3.253975e+01 2.460453e+01 3.569942e+00 8.664059e+00 2.237295e+00 9.876673e+00 5.058650e+00 4.324643e+00 5.930667e+00 5.184727e+00 2.846329e+00 2.155971e+00 3.851648e+00 3.043671e+00 1.880999e+00
<GCONST> 1.061073e+02
<TRANSP> 5
 0.000000e+00 1.000000e+00 0.000000e+00 0.000000e+00 0.000000e+00
 0.000000e+00 8.870264e-01 1.129736e-01 0.000000e+00 0.000000e+00
 0.000000e+00 0.000000e+00 8.085179e-01 1.914821e-01 0.000000e+00
 0.000000e+00 0.000000e+00 0.000000e+00 7.145690e-01 2.854309e-01
 0.000000e+00 0.000000e+00 0.000000e+00 0.000000e+00 0.000000e+00
<ENDHMM>
~h "d"
<BEGINHMM>
<NUMSTATES> 5
<STATE> 2
<MEAN> 25
 3.792831e+00 -2.304829e+00 6.381234e+00 -1.007396e+00 -7.903420e+00 -4.034820e+00 -8.076729e+00 1.287848e+00 -1.610480e+00 -4.766721e+00 -4.942996e+00 -4.311600e+00 6.782228e-01 6.874651e-01 7.447120e-01 2.563929e+00 7.177269e-01 -7.439542e-01 9.128598e-01 8.724155e-02 1.176174e+00 -1.627620e+00 -5.389553e-01 5.195398e-01 -1.757870e+00
<VARIANCE> 25
 1.697568e+01 5.640148e+01 6.559201e+01 1.042040e+02 9.788488e+01 3.915156e+01 1.207455e+02 6.841579e+01 5.513691e+01 4.492567e+01 6.989961e+01 3.475943e+01 2.393014e+00 3.978417e+00 4.900136e+00 8.708826e+00 1.782463e+01 5.665046e+00 9.426169e+00 6.485633e+00 4.754480e+00 4.581047e+00 8.581581e+00 3.943647e+00 8.873382e+00
<GCONST> 1.180427e+02
<STATE> 3
<MEAN> 25
 4.129479e+00 1.686360e+00 7.862265e+00 3.469211e+00 -6.741260e+00 -6.207271e+00 -8.070190e+00 -1.628950e+00 -7.108927e-01 -7.417676e+00 -2.610088e+00 -2.599426e+00 -1.210266e-02 -4.571655e-01 -1.743972e-01 -8.134599e-01 -7.302260e-01 -1.149712e-01 -9.670631e-01 6.567518e-01 -3.310770e-01 8.392271e-01 4.709139e-01 3.658613e-02 7.119892e-01
<VARIANCE> 25
 1.353854e+01 5.156987e+01 2.228913e+01 7.238658e+01 5.305813e+01 2.991401e+01 5.444891e+01 6.223072e+01 3.925348e+01 3.572026e+01 4.157499e+01 2.308168e+01 2.495607e+00 8.560261e+00 2.674468e+00 1.377672e+01 1.053894e+01 3.778972e+00 7.989520e+00 8.906645e+00 3.526038e+00 5.186947e+00 4.498874e+00 2.948055e+00 1.299024e+01
<GCONST> 1.121650e+02
<STATE> 4
<MEAN> 25
 4.993483e+00 -3.555981e+00 4.698638e+00 -4.824679e+00 -7.654536e+00 -5.524286e+00 -1.285984e+01 5.572640e+00 -9.389629e-01 -7.859772e-01 -4.177507e+00 -3.008092e+00 -5.977920e-02 5.711884e-01 -2.549743e-01 5.119091e-01 1.049431e+00 3.442270e-01 7.425331e-01 -4.927613e-01 3.851454e-01 -3.070747e-02 -4.389322e-01 -2.007471e-01 -8.338649e-01
<VARIANCE> 25
 9.793474e+00 5.075290e+01 3.608522e+01 1.074817e+02 8.955101e+01 3.520315e+01 8.926980e+01 7.740189e+01 6.388526e+01 3.957587e+01 4.439756e+01 4.625008e+01 5.222417e-01 2.410055e+00 1.552296e+00 3.399985e+00 3.229440e+00 2.981997e+00 3.097089e+00 3.926869e+00 2.181954e+00 2.614470e+00 3.125919e+00 1.958017e+00 3.265069e+00
<GCONST> 1.041709e+02
<TRANSP> 5
 0.000000e+00 1.000000e+00 0.000000e+00 0.000000e+00 0.000000e+00
 0.000000e+00 5.938291e-01 4.061709e-01 0.000000e+00 0.000000e+00
 0.000000e+00 0.000000e+00 7.396747e-01 2.603253e-01 0.000000e+00
 0.000000e+00 0.000000e+00 0.000000e+00 8.534294e-01 1.465707e-01
 0.000000e+00 0.000000e+00 0.000000e+00 0.000000e+00 0.000000e+00
<ENDHMM>
~h "e"
<BEGINHMM>
<NUMSTATES> 5
<STATE> 2
<MEAN> 25
 1.744190e-01 -1.006727e+00 1.488185e+00 -2.108586e+00 -4.175206e+00 -3.791159e+00 -1.773015e+00 -2.892794e+00 -1.036974e+00 -1.567165e+00 -3.298270e+00 -3.704108e+00 1.787926e+00 -2.562910e+00 1.096427e+00 -3.553076e+00 -3.282120e+00 -1.974934e+00 -1.620602e+00 1.470991e+00 -1.249599e+00 -3.545746e-01 -2.444564e+00 -4.384970e-01 3.535985e+00
<VARIANCE> 25
 3.831069e+01 4.848080e+01 3.118771e+01 7.204003e+01 6.320316e+01 6.235597e+01 8.672782e+01 6.252719e+01 5.316462e+01 4.553559e+01 4.256049e+01 3.254392e+01 5.090605e+00 6.199171e+00 2.974016e+00 6.833847e+00 5.106081e+00 5.611776e+00 8.697758e+00 8.905592e+00 4.660344e+00 4.592932e+00 4.660871e+00 5.021918e+00 5.066757e+00
<GCONST> 1.151021e+02
<STATE> 3
<MEAN> 25
 3.072873e+00 -1.074161e+01 5.117068e+00 -1.138417e+01 -1.332721e+01 -7.003825e+00 -3.480409e+00 6.243285e+00 -4.650450e+00 -1.647672e+00 -9.200073e+00 -2.579401e+00 4.472862e-02 -1.893377e+00 1.133755e+00 -1.513719e+00 -1.811382e+00 2.985506e-01 6.134543e-01 2.018127e+00 -1.549920e+00 3.538249e-01 -8.455107e-01 4.368206e-01 1.359727e+00
<VARIANCE> 25
 7.282341e+00 2.258426e+01 2.141856e+01 3.381577e+01 4.526088e+01 5.583903e+01 6.188302e+01 4.313976e+01 6.169352e+01 3.490279e+01 4.460948e+01 2.227012e+01 1.136537e+00 2.648130e+00 1.860165e+00 3.512814e+00 3.081892e+00 2.841816e+00 3.669278e+00 3.904962e+00 2.919464e+00 3.748410e+00 3.057941e+00 1.761433e+00 2.245146e+00
<GCONST> 1.006319e+02
<STATE> 4
<MEAN> 25
 2.553745e+00 -9.499075e+00 6.292059e+00 -1.137355e+01 -1.409299e+01 -4.608877e+00 -1.972843e+00 5.157976e+00 -7.484735e+00 -1.674926e-01 -8.718163e+00 -1.857225e+00 7.687640e-02 3.255045e-01 -3.329083e-01 5.892822e-01 5.326207e-01 1.511990e-01 -1.050500e-01 -1.799801e-01 1.875015e-01 -1.766445e-01 1.787564e-01 3.399160e-02 -6.392197e-01
<VARIANCE> 25
 1.077095e+01 4.950451e+01 3.975052e+01 4.576067e+01 6.283995e+01 5.207425e+01 5.520830e+01 5.110146e+01 4.309757e+01 4.929473e+01 5.021518e+01 2.227335e+01 7.022206e-01 1.833889e+00 1.460870e+00 2.922715e+00 2.834502e+00 1.998852e+00 2.581262e+00 2.151459e+00 2.506513e+00 2.416135e+00 2.132343e+00 1.578222e+00 2.361600e+00
<GCONST> 9.947835e+01
<TRANSP> 5
 0.000000e+00 1.000000e+00 0.000000e+00 0.000000e+00 0.000000e+00
 0.000000e+00 6.791481e-01 3.208518e-01 0.000000e+00 0.000000e+00
 0.000000e+00 0.000000e+00 4.891316e-01 5.108684e-01 0.000000e+00
 0.000000e+00 0.000000e+00 0.000000e+00 9.026272e-01 9.737279e-02
 0.000000e+00 0.000000e+00 0.000000e+00 0.000000e+00 0.000000e+00
<ENDHMM>
~h "f"
<BEGINHMM>
<NUMSTATES> 5
<STATE> 2
<MEAN> 25
 -5.593573e+00 3.189351e+00 -1.640830e+00 5.780399e+00 4.286801e-01 -2.327626e+00 2.161637e+00 -1.566071e+00 1.087083e+00 -4.745431e-01 9.685191e-01 -1.505840e-01 -1.921996e+00 2.397981e-02 -9.818294e-01 1.149563e+00 9.817977e-01 7.579628e-01 8.666256e-01 9.489759e-01 1.282769e+00 5.274941e-01 8.455474e-01 7.492597e-01 -5.503109e-01
<VARIANCE> 25
 3.173499e+01 2.432145e+01 2.089814e+01 2.725457e+01 3.345761e+01 2.996071e+01 2.556905e+01 2.646483e+01 2.528774e+01 2.756395e+01 2.459246e+01 2.255904e+01 3.255304e+00 2.861964e+00 2.832180e+00 4.969258e+00 3.897921e+00 3.485943e+00 2.710151e+00 2.900549e+00 3.623727e+00 3.658376e+00 2.960701e+00 2.140199e+00 2.225806e+00
<GCONST> 1.000115e+02
<STATE> 3
<MEAN> 25
 -7.960414e+00 2.597046e+00 -3.750578e+00 7.401313e+00 2.168630e+00 -1.951854e-01 5.136217e+00 1.958805e+00 3.894614e+00 1.855668e+00 3.563340e+00 2.326189e+00 -6.869068e-02 -2.239489e-02 -3.554222e-02 5.776947e-02 -1.554638e-01 -8.448106e-02 -1.497384e-02 -1.755458e-02 -2.972805e-02 4.718696e-02 3.211429e-02 -2.825368e-02 1.022199e-01
<VARIANCE> 25
 2.483432e+01 1.564619e+01 1.340676e+01 1.246221e+01 1.965306e+01 2.239670e+01 2.033782e+01 2.027953e+01 1.420577e+01 1.967493e+01 1.478600e+01 1.700193e+01 1.451058e+00 8.510520e-01 7.856739e-01 1.071936e+00 1.246011e+00 1.379114e+00 1.403334e+00 1.565006e+00 1.558636e+00 1.696334e+00 1.444044e+00 1.583019e+00 2.311517e+00
<GCONST> 8.430145e+01
<STATE> 4
<MEAN> 25
 -7.786245e+00 1.675255e+00 -2.844858e+00 7.267335e+00 -8.099020e-02 -2.300308e+00 3.339206e+00 -2.983891e-01 1.505922e+00 1.933860e-01 1.954691e+00 -1.490388e-01 3.154103e+00 -7.579226e-01 1.877080e+00 -2.445696e+00 -1.809254e+00 -1.438672e+00 -1.735075e+00 -1.873974e+00 -2.613097e+00 -1.031367e+00 -1.372724e+00 -1.413136e+00 1.437620e+00
<VARIANCE> 25
 1.987025e+01 1.890157e+01 2.278564e+01 1.782581e+01 2.072773e+01 2.864985e+01 2.734074e+01 2.580967e+01 2.431879e+01 2.292295e+01 1.885199e+01 2.056848e+01 3.363864e+00 3.657809e+00 8.214023e+00 6.652071e+00 4.238870e+00 6.296083e+00 4.083506e+00 3.902626e+00 4.070232e+00 2.533108e+00 2.204204e+00 2.909959e+00 2.625535e+00
<GCONST> 1.008322e+02
<TRANSP> 5
 0.000000e+00 1.000000e+00 0.000000e+00 0.000000e+00 0.000000e+00
 0.000000e+00 7.308205e-01 2.691795e-01 0.000000e+00 0.000000e+00
 0.000000e+00 0.000000e+00 8.843198e-01 1.156802e-01 0.000000e+00
 0.000000e+00 0.000000e+00 0.000000e+00 4.769908e-01 5.230092e-01
 0.000000e+00 0.000000e+00 0.000000e+00 0.000000e+00 0.000000e+00
<ENDHMM>
~h "g"
<BEGINHMM>
<NUMSTATES> 5
<STATE> 2
<MEAN> 25
 2.798476e+00 4.897790e+00 2.296921e+00 8.061490e-01 -1.962766e+00 -4.243240e+00 -4.779387e+00 -6.959475e+00 -2.177866e+00 -2.126695e+00 -4.709358e+00 -3.756108e+00 -3.025883e-02 -1.370964e+00 -3.938190e-01 -2.213977e+00 -2.258487e-01 -1.799922e+00 -1.904807e+00 1.070625e+00 3.775690e-01 9.788541e-01 -1.268777e+00 -4.607892e-02 2.558431e+00
<VARIANCE> 25
 2.420681e+01 6.463283e+01 5.279160e+01 1.110269e+02 7.055895e+01 4.692809e+01 6.205009e+01 5.146709e+01 3.197988e+01 4.267378e+01 3.864105e+01 2.734012e+01 1.972997e+00 5.781823e+00 7.078205e+00 1.290043e+01 1.074772e+01 5.146538e+00 4.989559e+00 7.185149e+00 6.046376e+00 4.249184e+00 5.504148e+00 3.013895e+00 7.485592e+00
<GCONST> 1.149426e+02
<STATE> 3
<MEAN> 25
 2.867728e+00 -2.691340e-01 4.075930e+00 -6.847397e+00 -3.559066e+00 -1.003494e+01 -8.332163e+00 -1.768551e+00 -3.618368e+00 -5.033109e-01 -1.226453e+01 -5.225288e-01 -1.856038e-01 -1.730892e-01 7.124115e-01 -2.327019e-01 -9.293547e-01 -1.680350e-01 -4.871115e-02 2.246788e-01 -5.834030e-01 5.131712e-01 -2.533747e-01 3.994209e-01 2.687127e-01
<VARIANCE> 25
 1.805525e+01 6.517673e+01 4.101987e+01 1.415629e+02 7.763224e+01 5.060885e+01 5.186981e+01 6.685040e+01 2.440090e+01 6.323812e+01 5.176562e+01 4.141836e+01 1.231783e+00 6.528317e+00 3.274210e+00 1.605544e+01 7.324004e+00 5.632636e+00 4.638507e+00 7.654640e+00 2.797030e+00 7.427686e+00 4.978475e+00 5.717810e+00 1.108335e+01
<GCONST> 1.152476e+02
<STATE> 4
<MEAN> 25
 2.359280e+00 -1.366572e+00 7.682964e+00 -1.010979e+01 -1.042204e+01 -7.066742e+00 -1.020651e+01 -6.202725e+00 -8.072186e+00 4.651583e+00 -1.038335e+01 -8.854708e-01 5.248436e-02 7.881973e-02 -5.173948e-02 2.130494e-01 4.423024e-01 3.183106e-01 9.713233e-03 -4.123231e-02 6.389794e-02 -3.401549e-01 1.220451e-01 -1.384897e-01 -3.112846e-01
<VARIANCE> 25
 2.380432e+01 5.206137e+01 2.976147e+01 1.221634e+02 5.842678e+01 3.485520e+01 8.963901e+01 7.387364e+01 3.135031e+01 7.379173e+01 4.379676e+01 3.978556e+01 1.444352e+00 3.799815e+00 2.218199e+00 8.018867e+00 4.799173e+00 3.419760e+00 6.331233e+00 7.200924e+00 3.025600e+00 5.160199e+00 3.187613e+00 2.891121e+00 5.702801e+00
<GCONST> 1.108032e+02
<TRANSP> 5
 0.000000e+00 1.000000e+00 0.000000e+00 0.000000e+00 0.000000e+00
 0.000000e+00 6.129146e-01 3.870854e-01 0.000000e+00 0.000000e+00
 0.000000e+00 0.000000e+00 7.757140e-01 2.242860e-01 0.000000e+00
 0.000000e+00 0.000000e+00 0.000000e+00 8.558707e-01 1.441294e-01
 0.000000e+00 0.000000e+00 0.000000e+00 0.000000e+00 0.000000e+00
<ENDHMM>
~h "h"
<BEGINHMM>
<NUMSTATES> 5
<STATE> 2
<MEAN> 25
 -1.942089e+00 7.087914e-01 -8.088363e-01 6.557922e+00 5.400443e+00 1.563833e+00 5.637759e+00 2.589242e+00 4.533255e+00 9.064506e-01 3.915240e+00 2.852474e+00 -1.815362e-01 -2.523814e-01 -2.415722e-01 1.584266e-01 -6.527629e-02 -4.469793e-02 3.314953e-01 3.437600e-01 5.315446e-01 3.691962e-01 4.058946e-01 2.395470e-01 -3.903888e-01
<VARIANCE> 25
 6.291238e+00 1.868484e+01 1.709277e+01 1.419899e+01 3.121865e+01 1.924593e+01 2.648316e+01 2.837326e+01 2.375279e+01 2.166274e+01 2.412243e+01 2.031648e+01 7.744402e-01 1.224232e+00 1.136869e+00 1.443598e+00 1.791245e+00 1.678369e+00 2.412878e+00 2.611069e+00 2.753145e+00 2.596525e+00 2.611471e+00 2.005223e+00 9.911745e-01
<GCONST> 8.866091e+01
<STATE> 3
<MEAN> 25
 -1.644543e+00 2.270823e+00 -1.092715e+00 7.814446e+00 4.529212e+00 4.758262e-01 7.109390e+00 2.204570e+00 4.210841e+00 2.611569e+00 6.173403e+00 2.772204e+00 1.705700e-03 -9.019193e-03 -2.547047e-02 -4.599092e-03 1.410496e-02 5.504938e-02 2.406435e-02 -3.692025e-02 -3.630804e-02 2.267844e-02 1.978450e-02 -2.889262e-02 2.735700e-03
<VARIANCE> 25
 3.940085e+00 1.287535e+01 7.293961e+00 7.852752e+00 1.280190e+01 1.391362e+01 1.778749e+01 1.548328e+01 1.639449e+01 1.959134e+01 1.805523e+01 1.471166e+01 1.476407e-01 3.999268e-01 4.469594e-01 5.369821e-01 7.709188e-01 9.528309e-01 1.149394e+00 1.240574e+00 1.266900e+00 1.564635e+00 1.397004e+00 1.115683e+00 1.243850e-01
<GCONST> 7.090962e+01
<STATE> 4
<MEAN> 25
 -6.577102e+00 -2.550817e+00 -2.305144e+00 3.607129e+00 8.711552e+00 6.570625e-01 6.963400e+00 1.645648e+00 2.716501e+00 -5.354633e-01 3.394153e+00 2.710339e+00 -5.149148e-01 -4.278243e-01 7.372263e-02 -6.247883e-01 2.703493e-01 -1.185159e-01 -8.833619e-02 -3.561689e-01 -3.449735e-01 -5.131041e-01 -5.428109e-01 -1.818542e-01 1.422099e+00
<VARIANCE> 25
 2.701209e+01 4.965615e+01 2.124002e+01 2.287009e+01 5.183078e+01 4.065075e+01 3.115458e+01 2.861295e+01 3.011127e+01 2.674152e+01 2.385803e+01 2.271442e+01 1.664030e+00 1.938287e+00 1.017047e+00 1.337970e+00 2.195676e+00 1.770925e+00 2.156185e+00 2.281621e+00 2.258302e+00 1.948958e+00 2.042608e+00 1.674178e+00 1.116797e+00
<GCONST> 9.401835e+01
<TRANSP> 5
 0.000000e+00 1.000000e+00 0.000000e+00 0.000000e+00 0.000000e+00
 0.000000e+00 8.220163e-01 1.779837e-01 0.000000e+00 0.000000e+00
 0.000000e+00 0.000000e+00 9.190689e-01 8.093110e-02 0.000000e+00
 0.000000e+00 0.000000e+00 0.000000e+00 8.880137e-01 1.119863e-01
 0.000000e+00 0.000000e+00 0.000000e+00 0.000000e+00 0.000000e+00
<ENDHMM>
~h "i"
<BEGINHMM>
<NUMSTATES> 5
<STATE> 2
<MEAN> 25
 -2.452185e+00 3.921603e+00 8.302184e+00 -4.753010e-01 -9.769299e+00 -5.447275e+00 -3.409687e+00 -6.840638e+00 -6.249275e+00 -2.658046e+00 -7.274669e-01 -2.995898e+00 7.110030e-01 -3.450350e-01 3.628785e+00 -2.990463e+00 -4.060413e+00 -1.172901e-01 -3.190080e+00 -1.086773e+00 -2.482857e+00 4.795013e-01 -1.137127e+00 -8.794872e-01 2.537709e+00
<VARIANCE> 25
 2.576019e+01 3.720461e+01 5.328616e+01 6.387901e+01 8.168637e+01 4.457881e+01 6.057511e+01 5.597825e+01 4.299354e+01 3.559237e+01 4.108232e+01 2.506907e+01 4.901527e+00 3.251390e+00 4.479336e+00 5.759105e+00 6.724186e+00 6.602314e+00 6.780643e+00 5.265065e+00 5.175105e+00 6.260119e+00 7.353708e+00 4.371696e+00 4.657324e+00
<GCONST> 1.134183e+02
<STATE> 3
<MEAN> 25
 -1.460426e+00 1.078979e+00 1.449537e+01 -1.067824e+01 -1.726684e+01 -2.862785e+00 -1.165008e+01 -5.288324e+00 -1.079070e+01 1.677164e+00 -5.863499e+00 -3.674459e+00 -2.382262e-01 1.725060e-01 7.682538e-01 -9.610453e-01 -6.758372e-01 1.031291e+00 -1.006723e+00 3.096147e-02 -1.071127e-01 2.948982e-01 -3.864692e-01 -3.632174e-01 2.062533e-01
<VARIANCE> 25
 1.221904e+01 2.925733e+01 3.401501e+01 6.509027e+01 4.760354e+01 6.472247e+01 3.320218e+01 4.551837e+01 3.493033e+01 5.518364e+01 9.569289e+01 4.765683e+01 7.416940e-01 1.633734e+00 1.786286e+00 2.608618e+00 3.003603e+00 2.901726e+00 2.634780e+00 2.725633e+00 2.384762e+00 2.776714e+00 2.517874e+00 1.946044e+00 7.504557e-01
<GCONST> 9.993172e+01
<STATE> 4
<MEAN> 25
 -1.847485e+00 5.663450e+00 1.351432e+01 -7.905931e+00 -1.387923e+01 2.063733e+00 -9.511560e+00 -7.248990e+00 -6.621770e+00 -2.124382e+00 -2.994745e+00 -4.135644e+00 1.799917e-01 9.141127e-02 -8.092737e-01 1.084416e+00 1.132895e+00 -2.032508e-01 1.023741e+00 8.430627e-02 6.090424e-01 -1.433449e-01 3.210748e-01 3.086068e-01 -1.122508e+00
<VARIANCE> 25
 1.149577e+01 2.749847e+01 3.591233e+01 8.210088e+01 8.251276e+01 5.296236e+01 5.579012e+01 3.137297e+01 4.767831e+01 4.753873e+01 5.795203e+01 5.048980e+01 7.205437e-01 1.333326e+00 2.183990e+00 3.235248e+00 3.179541e+00 2.055557e+00 3.070875e+00 2.116302e+00 2.430281e+00 2.468485e+00 2.519736e+00 1.949270e+00 1.749899e+00
<GCONST> 1.008564e+02
<TRANSP> 5
 0.000000e+00 1.000000e+00 0.000000e+00 0.000000e+00 0.000000e+00
 0.000000e+00 6.363224e-01 3.636776e-01 0.000000e+00 0.000000e+00
 0.000000e+00 0.000000e+00 6.832948e-01 3.167053e-01 0.000000e+00
 0.000000e+00 0.000000e+00 0.000000e+00 8.809394e-01 1.190606e-01
 0.000000e+00 0.000000e+00 0.000000e+00 0.000000e+00 0.000000e+00
<ENDHMM>
~h "j"
<BEGINHMM>
<NUMSTATES> 5
<STATE> 2
<MEAN> 25
 -2.217440e+00 4.976583e-01 -7.522428e-01 6.582448e+00 4.259698e+00 2.765357e+00 4.234796e+00 3.734519e+00 3.698781e+00 1.760227e+00 3.902243e+00 2.520272e+00 -1.308036e-01 -5.007148e-03 -2.741191e-02 1.849591e-01 -2.906504e-01 9.573788e-04 3.118575e-01 2.554831e-01 2.485866e-01 3.322763e-01 5.600238e-01 2.955438e-01 -2.844109e-01
<VARIANCE> 25
 3.934556e+00 1.057078e+01 1.439369e+01 1.153430e+01 1.757127e+01 1.840293e+01 2.459639e+01 2.335039e+01 2.312026e+01 1.932449e+01 2.235983e+01 1.930218e+01 4.329096e-01 9.034412e-01 9.009516e-01 1.106733e+00 1.238498e+00 1.448564e+00 1.872541e+00 2.252850e+00 2.569330e+00 2.112119e+00 2.095210e+00 2.193968e+00 4.426670e-01
<GCONST> 8.257255e+01
<STATE> 3
<MEAN> 25
 -1.845938e+00 8.346575e-02 5.793670e-01 7.094718e+00 1.848586e+00 1.755756e+00 5.234644e+00 2.928248e+00 3.811229e+00 1.016341e+00 5.691338e+00 2.317317e+00 -7.760173e-03 7.388461e-02 5.429615e-02 7.508711e-02 -4.705526e-03 -8.160206e-03 -4.967245e-02 -1.053842e-01 -2.951716e-02 -1.788836e-02 -5.526157e-02 -5.703563e-02 3.124487e-03
<VARIANCE> 25
 3.689391e+00 1.072488e+01 8.952506e+00 9.794461e+00 1.060046e+01 1.608824e+01 1.313449e+01 1.551401e+01 1.367427e+01 1.717765e+01 1.539665e+01 1.363235e+01 2.993557e-01 3.654574e-01 5.773289e-01 6.894251e-01 9.318705e-01 9.711255e-01 9.985658e-01 1.366359e+00 1.215263e+00 1.347422e+00 1.110948e+00 1.143705e+00 2.061195e-01
<GCONST> 7.159061e+01
<STATE> 4
<MEAN> 25
 -2.704847e+00 3.577911e+00 2.137402e+00 8.574567e+00 2.570966e+00 2.059200e+00 4.868524e+00 1.079962e+00 2.505705e+00 1.613688e-01 3.310091e+00 -1.124932e-01 -1.251373e-01 4.234176e-01 3.444037e-01 8.617446e-03 3.504055e-02 -9.359004e-02 -2.661766e-01 -3.712041e-01 -4.007217e-01 -4.056042e-01 -4.582497e-01 -4.299119e-01 6.463588e-01
<VARIANCE> 25
 2.377129e+01 1.147809e+01 1.704867e+01 1.625643e+01 1.494547e+01 2.038958e+01 1.691848e+01 1.743897e+01 2.280769e+01 2.483224e+01 2.422987e+01 2.254042e+01 2.592464e+00 1.410558e+00 2.335151e+00 1.548672e+00 1.809689e+00 1.985757e+00 1.818107e+00 2.262798e+00 2.073575e+00 2.568834e+00 2.269625e+00 2.036929e+00 2.087664e+00
<GCONST> 9.044453e+01
<TRANSP> 5
 0.000000e+00 1.000000e+00 0.000000e+00 0.000000e+00 0.000000e+00
 0.000000e+00 7.796405e-01 2.203595e-01 0.000000e+00 0.000000e+00
 0.000000e+00 0.000000e+00 8.875795e-01 1.124205e-01 0.000000e+00
 0.000000e+00 0.000000e+00 0.000000e+00 8.477061e-01 1.522939e-01
 0.000000e+00 0.000000e+00 0.000000e+00 0.000000e+00 0.000000e+00
<ENDHMM>
~h "k"
<BEGINHMM>
<NUMSTATES> 5
<STATE> 2
<MEAN> 25
 -1.957696e+00 2.838610e+00 -2.262831e-02 4.588036e+00 2.693146e+00 2.244625e+00 4.257523e+00 -3.439716e-02 3.544306e+00 2.309900e+00 3.775105e+00 1.549591e+00 -6.219411e-01 -3.931248e-01 -5.701658e-01 9.444060e-01 8.100944e-01 9.472367e-02 7.697324e-01 5.985788e-01 8.250184e-01 6.200850e-01 7.210619e-01 5.501738e-01 -1.007694e+00
<VARIANCE> 25
 1.262709e+01 1.797652e+01 2.472716e+01 2.822649e+01 2.868326e+01 2.582808e+01 3.195286e+01 3.063029e+01 3.225166e+01 3.118029e+01 3.126850e+01 2.146026e+01 1.661148e+00 2.274108e+00 2.433361e+00 4.086305e+00 3.409678e+00 3.843633e+00 3.254048e+00 3.254903e+00 3.429227e+00 3.593398e+00 3.500665e+00 2.137642e+00 5.139241e+00
<GCONST> 9.955630e+01
<STATE> 3
<MEAN> 25
 -4.881465e+00 -8.595371e-01 -6.687887e+00 4.585845e+00 6.135930e+00 -3.748848e+00 5.237355e+00 4.565388e-01 3.951419e+00 3.878659e+00 2.089274e+00 3.705196e+00 -1.304245e-01 -1.250724e+00 -1.867878e+00 -1.637919e+00 3.431658e-01 -2.610459e+00 -1.232754e+00 -2.082119e-01 -7.537403e-01 -3.120578e-01 -2.256594e+00 -1.083160e-01 4.376894e+00
<VARIANCE> 25
 1.684218e+01 2.676789e+01 5.081926e+01 3.606952e+01 5.195721e+01 6.288904e+01 3.934228e+01 3.027209e+01 2.898830e+01 3.542020e+01 4.441832e+01 2.783661e+01 2.460571e+00 3.558651e+00 5.283238e+00 6.114439e+00 7.122885e+00 5.965284e+00 4.145149e+00 4.131766e+00 3.950476e+00 4.627993e+00 5.368207e+00 3.429037e+00 7.291134e+00
<GCONST> 1.088405e+02
<STATE> 4
<MEAN> 25
 -1.606738e-01 -3.432691e+00 -5.320076e+00 -4.634716e+00 1.395553e+00 -6.856868e+00 -1.174313e+00 8.036853e-01 4.361461e-01 1.106818e+00 -6.351106e+00 3.771418e-02 2.225554e+00 -1.684787e+00 1.774830e+00 -3.715843e+00 -2.646664e+00 9.222162e-01 -1.653066e+00 8.813817e-01 -1.465506e+00 -1.068743e+00 -2.148062e+00 -1.483017e+00 2.723851e+00
<VARIANCE> 25
 2.745032e+01 4.979955e+01 4.711824e+01 6.762148e+01 7.787925e+01 4.825776e+01 5.115498e+01 3.773684e+01 3.176111e+01 5.709452e+01 4.913450e+01 3.572066e+01 2.027233e+00 5.675450e+00 6.075971e+00 6.471515e+00 6.407255e+00 7.194531e+00 5.601634e+00 4.666887e+00 4.690248e+00 3.544944e+00 4.539315e+00 4.027260e+00 4.332118e+00
<GCONST> 1.123962e+02
<TRANSP> 5
 0.000000e+00 1.000000e+00 0.000000e+00 0.000000e+00 0.000000e+00
 0.000000e+00 8.090187e-01 1.909813e-01 0.000000e+00 0.000000e+00
 0.000000e+00 0.000000e+00 6.138879e-01 3.861121e-01 0.000000e+00
 0.000000e+00 0.000000e+00 0.000000e+00 5.780311e-01 4.219690e-01
 0.000000e+00 0.000000e+00 0.000000e+00 0.000000e+00 0.000000e+00
<ENDHMM>
~h "l"
<BEGINHMM>
<NUMSTATES> 5
<STATE> 2
<MEAN> 25
 4.305589e+00 -1.605188e+00 -1.133101e-01 -1.046346e+01 -2.496964e-01 -5.175146e-01 -9.343202e+00 -3.631584e+00 2.758601e-01 2.135718e+00 -1.775208e+00 -8.945854e-01 7.584711e-01 -9.835065e-01 2.127309e-01 -2.465962e+00 3.249523e-01 8.606771e-02 -2.152773e+00 6.353498e-02 6.263090e-01 3.832600e-01 -5.390934e-01 -6.268609e-01 1.557657e+00
<VARIANCE> 25
 2.709883e+01 4.846532e+01 3.218275e+01 1.232542e+02 5.732450e+01 5.051913e+01 1.164767e+02 4.873352e+01 5.399063e+01 3.787911e+01 5.609805e+01 3.507534e+01 2.817770e+00 3.892327e+00 1.775672e+00 6.573719e+00 4.536666e+00 3.495996e+00 9.378489e+00 4.623502e+00 3.158568e+00 3.377476e+00 3.486044e+00 3.032867e+00 3.455064e+00
<GCONST> 1.105868e+02
<STATE> 3
<MEAN> 25
 5.719534e+00 -3.358877e+00 1.024742e+00 -2.241106e+01 -1.457151e+00 -1.356213e+00 -1.217505e+01 -3.110752e+00 -2.009339e+00 5.182763e+00 -4.937777e+00 -3.401157e-01 -5.066745e-02 -8.091733e-01 -1.937013e-01 -2.691759e-02 2.841383e-01 5.170077e-02 6.802304e-02 2.749265e-01 7.676432e-01 -1.091403e-01 -4.706655e-01 -6.789747e-01 4.891068e-01
<VARIANCE> 25
 9.045713e+00 4.613736e+01 4.685885e+01 7.113121e+01 5.535831e+01 5.646667e+01 8.862581e+01 4.066480e+01 6.252020e+01 5.303646e+01 4.679783e+01 4.533036e+01 3.004808e-01 1.539391e+00 1.164313e+00 1.739323e+00 1.517156e+00 1.851899e+00 3.120209e+00 2.501987e+00 2.427652e+00 2.588650e+00 3.792104e+00 1.755611e+00 5.725912e-01
<GCONST> 9.829495e+01
<STATE> 4
<MEAN> 25
 6.174935e+00 -4.823677e+00 -2.933748e+00 -1.549547e+01 -1.225479e+00 9.834822e-01 -1.284609e+01 -3.078670e+00 -1.782653e-01 1.257796e+00 -5.286491e+00 -4.870284e+00 -2.186949e-01 3.572192e-01 -5.155160e-02 9.066902e-01 2.206718e-01 -6.927954e-02 6.003417e-01 -4.851314e-02 4.887656e-02 -4.031408e-01 1.429588e-01 1.117631e-01 -6.530156e-01
<VARIANCE> 25
 9.852545e+00 4.327890e+01 2.365734e+01 7.453638e+01 5.875042e+01 6.797115e+01 8.647337e+01 3.261547e+01 3.680040e+01 5.050660e+01 4.053172e+01 2.694510e+01 6.080582e-01 1.502090e+00 1.287669e+00 2.550127e+00 1.881807e+00 2.381891e+00 2.425386e+00 1.969367e+00 2.059190e+00 2.596554e+00 2.411567e+00 1.606080e+00 1.045838e+00
<GCONST> 9.747536e+01
<TRANSP> 5
 0.000000e+00 1.000000e+00 0.000000e+00 0.000000e+00 0.000000e+00
 0.000000e+00 6.033049e-01 3.966951e-01 0.000000e+00 0.000000e+00
 0.000000e+00 0.000000e+00 6.692894e-01 3.307106e-01 0.000000e+00
 0.000000e+00 0.000000e+00 0.000000e+00 8.622516e-01 1.377484e-01
 0.000000e+00 0.000000e+00 0.000000e+00 0.000000e+00 0.000000e+00
<ENDHMM>
~h "m"
<BEGINHMM>
<NUMSTATES> 5
<STATE> 2
<MEAN> 25
 5.691574e+00 -2.351335e+00 -1.872275e-03 -4.901404e+00 1.442000e+00 -1.645641e-01 -8.186294e+00 -8.829775e+00 -8.175430e+00 -2.603686e+00 -3.764472e+00 -5.982714e+00 -2.144029e-01 1.234907e+00 6.094142e-01 1.568069e+00 8.780951e-01 2.105270e-01 2.107888e-01 -1.295161e+00 -1.114838e+00 -3.456986e-02 4.158251e-01 2.447945e-01 -1.393496e+00
<VARIANCE> 25
 1.357652e+01 4.738216e+01 3.119387e+01 5.674939e+01 4.615229e+01 4.384533e+01 6.848596e+01 8.338177e+01 8.037618e+01 6.148186e+01 5.556549e+01 3.826867e+01 1.111555e+00 2.265143e+00 2.744826e+00 3.576848e+00 3.221783e+00 2.795694e+00 4.846586e+00 6.488493e+00 6.143748e+00 4.180451e+00 4.506787e+00 2.684273e+00 1.767937e+00
<GCONST> 1.074853e+02
<STATE> 3
<MEAN> 25
 2.319333e+00 3.181969e+00 1.168288e+00 3.734731e+00 4.492482e+00 2.148569e+00 -1.965814e+00 -6.598821e+00 -8.632717e+00 -4.787440e+00 -1.569949e+00 -3.715284e+00 -5.910595e-01 -5.150869e-02 -2.980416e-01 6.382861e-01 5.931477e-02 3.003147e-01 1.186190e+00 1.211536e+00 1.504070e+00 6.775761e-01 6.690941e-01 5.563837e-01 -1.067112e+00
<VARIANCE> 25
 1.395782e+01 3.126234e+01 2.228301e+01 3.101194e+01 3.644279e+01 2.994460e+01 5.385549e+01 6.505422e+01 9.729082e+01 4.477769e+01 3.894527e+01 2.774702e+01 7.455828e-01 1.617673e+00 1.250725e+00 1.874628e+00 1.789280e+00 1.846231e+00 2.772556e+00 3.229603e+00 3.868123e+00 3.563926e+00 3.121445e+00 2.607831e+00 1.187594e+00
<GCONST> 9.840389e+01
<STATE> 4
<MEAN> 25
 -1.199753e+00 1.183545e+00 -1.255734e+00 6.858233e+00 4.203846e+00 2.316095e+00 5.508312e+00 1.722065e+00 4.208965e+00 1.834946e+00 5.027390e+00 2.040010e+00 -6.460350e-03 4.816043e-02 8.720748e-03 1.342057e-02 -7.988323e-02 6.333852e-03 1.987804e-02 -4.523882e-03 5.845865e-02 8.346895e-02 1.876072e-02 2.029543e-02 -6.339040e-02
<VARIANCE> 25
 6.588617e+00 1.451146e+01 1.062709e+01 1.320621e+01 2.033179e+01 1.931663e+01 2.270868e+01 2.653894e+01 2.899558e+01 2.189139e+01 2.026871e+01 1.657562e+01 3.534880e-01 5.702415e-01 7.030683e-01 9.305921e-01 1.256201e+00 1.328254e+00 1.398928e+00 1.789116e+00 2.028999e+00 1.928398e+00 1.735052e+00 1.387439e+00 3.875956e-01
<GCONST> 8.079453e+01
<TRANSP> 5
 0.000000e+00 1.000000e+00 0.000000e+00 0.000000e+00 0.000000e+00
 0.000000e+00 7.758334e-01 2.241666e-01 0.000000e+00 0.000000e+00
 0.000000e+00 0.000000e+00 7.232138e-01 2.767863e-01 0.000000e+00
 0.000000e+00 0.000000e+00 0.000000e+00 8.762478e-01 1.237523e-01
 0.000000e+00 0.000000e+00 0.000000e+00 0.000000e+00 0.000000e+00
<ENDHMM>
~h "n"
<BEGINHMM>
<NUMSTATES> 5
<STATE> 2
<MEAN> 25
 4.940209e+00 -6.482235e+00 -1.409822e-01 -4.214362e+00 -3.942464e+00 -3.840491e+00 -7.921534e+00 4.043445e+00 -5.172743e+00 -6.500973e+00 -8.297935e+00 -3.694575e+00 3.774633e-01 2.337919e+00 1.052050e+00 1.018061e+00 -1.010875e-01 -1.238108e+00 5.922573e-01 -2.742321e+00 6.503866e-01 9.831568e-01 -6.333108e-01 -1.125991e-01 -1.960953e+00
<VARIANCE> 25
 8.025248e+00 3.357458e+01 3.233238e+01 2.557475e+01 4.288678e+01 4.476768e+01 4.309385e+01 7.985268e+01 5.603426e+01 4.003814e+01 2.939516e+01 3.307851e+01 7.023030e-01 1.688184e+00 2.610887e+00 1.808096e+00 3.550513e+00 2.793556e+00 2.673252e+00 6.787564e+00 4.163239e+00 4.224840e+00 3.012780e+00 2.268658e+00 1.340968e+00
<GCONST> 1.005578e+02
<STATE> 3
<MEAN> 25
 5.513322e+00 3.482361e+00 4.289402e+00 -1.431636e+00 -4.573935e+00 -5.924757e+00 -4.596506e+00 -8.440772e+00 -5.347792e+00 -4.135463e+00 -1.018791e+01 -2.022135e+00 -1.306794e-01 1.304219e+00 2.691297e-01 9.415078e-01 6.645561e-01 1.959193e-01 4.715753e-01 -7.965073e-01 -3.472637e-01 -3.210179e-01 1.633567e-01 -1.783413e-02 -1.285501e+00
<VARIANCE> 25
 7.191478e+00 2.348937e+01 1.714208e+01 2.504484e+01 4.853399e+01 4.649063e+01 3.289430e+01 4.087832e+01 3.853608e+01 5.775077e+01 3.817757e+01 3.258707e+01 6.571602e-01 1.595371e+00 1.452788e+00 1.959509e+00 2.386075e+00 2.465824e+00 2.531684e+00 4.291142e+00 2.581558e+00 2.487815e+00 2.685992e+00 1.751848e+00 1.207772e+00
<GCONST> 9.574626e+01
<STATE> 4
<MEAN> 25
 3.410326e-01 6.674485e+00 3.271876e+00 6.763401e+00 3.176627e+00 -1.777192e+00 2.343229e+00 -3.933189e+00 -2.644179e+00 -3.109167e+00 -3.311349e+00 -1.643961e+00 -8.614575e-01 -3.343305e-01 -5.001686e-01 4.578981e-01 5.723252e-01 7.506494e-01 9.675808e-01 9.444724e-01 9.840730e-01 8.395370e-01 1.342538e+00 5.527421e-01 -9.226843e-01
<VARIANCE> 25
 1.925103e+01 1.629731e+01 1.904671e+01 2.269742e+01 3.787318e+01 3.221786e+01 3.831200e+01 4.077704e+01 4.281226e+01 4.650940e+01 4.884777e+01 2.736007e+01 9.960148e-01 1.531017e+00 1.281667e+00 2.046872e+00 2.192827e+00 2.569555e+00 2.550074e+00 3.114627e+00 3.532840e+00 3.543387e+00 2.810040e+00 2.273600e+00 1.263355e+00
<GCONST> 9.682264e+01
<TRANSP> 5
 0.000000e+00 1.000000e+00 0.000000e+00 0.000000e+00 0.000000e+00
 0.000000e+00 7.063028e-01 2.936973e-01 0.000000e+00 0.000000e+00
 0.000000e+00 0.000000e+00 7.835498e-01 2.164501e-01 0.000000e+00
 0.000000e+00 0.000000e+00 0.000000e+00 8.255628e-01 1.744372e-01
 0.000000e+00 0.000000e+00 0.000000e+00 0.000000e+00 0.000000e+00
<ENDHMM>
~h "o"
<BEGINHMM>
<NUMSTATES> 5
<STATE> 2
<MEAN> 25
 4.305689e+00 4.436611e-01 -4.673362e+00 -8.696524e+00 2.205878e-01 1.030175e+00 -5.515373e+00 -3.992318e+00 -2.360488e+00 -1.546636e+00 -1.545752e+00 -2.718589e+00 2.135053e+00 -1.805363e+00 -2.835905e-01 -4.424478e+00 -7.275366e-01 4.695033e-01 -1.856605e+00 1.112266e-01 -8.732727e-01 -4.960541e-01 -1.264644e+00 -5.785356e-01 2.343756e+00
<VARIANCE> 25
 3.073768e+01 4.070451e+01 4.378263e+01 1.287280e+02 4.596616e+01 5.365943e+01 7.178252e+01 4.371139e+01 6.977779e+01 3.576368e+01 4.079790e+01 2.638779e+01 4.352838e+00 5.355001e+00 4.966332e+00 1.572352e+01 4.905733e+00 6.592856e+00 8.734662e+00 6.785242e+00 6.661921e+00 3.867137e+00 4.582148e+00 2.338885e+00 5.893973e+00
<GCONST> 1.148411e+02
<STATE> 3
<MEAN> 25
 6.930289e+00 -4.479036e+00 -6.031474e+00 -1.855713e+01 4.175361e-01 3.029809e+00 -6.228646e+00 -1.285861e+00 -4.289521e+00 -5.479614e-01 -4.111402e+00 -3.370620e+00 4.362112e-02 -9.511029e-01 1.386771e-01 -1.066565e+00 6.026427e-01 8.264967e-01 6.814482e-01 6.151192e-01 -7.145299e-02 1.801844e-01 -2.417348e-01 -1.449858e-01 3.095108e-01
<VARIANCE> 25
 1.154342e+01 4.299504e+01 3.949117e+01 7.922475e+01 7.044857e+01 5.314682e+01 5.920314e+01 4.576561e+01 6.962746e+01 3.543524e+01 5.008537e+01 3.188007e+01 1.224574e+00 2.900791e+00 3.095606e+00 1.203411e+01 4.548745e+00 3.936280e+00 4.114072e+00 4.798142e+00 4.068132e+00 2.718034e+00 2.855072e+00 2.085670e+00 4.159980e+00
<GCONST> 1.078873e+02
<STATE> 4
<MEAN> 25
 6.674830e+00 -5.862823e+00 -6.159225e+00 -1.978315e+01 6.316362e-01 5.381806e+00 -6.000904e+00 -1.660428e+00 -2.856814e+00 -9.351099e-01 -4.017889e+00 -3.783973e+00 -2.644379e-01 3.612033e-01 1.860545e-01 1.227196e+00 7.382935e-02 -1.627260e-01 1.652345e-01 4.905415e-02 3.287683e-01 -1.977332e-01 2.147782e-01 1.041335e-01 -6.933616e-01
<VARIANCE> 25
 1.251996e+01 3.121284e+01 2.635199e+01 9.878928e+01 8.881015e+01 6.142179e+01 6.738219e+01 3.500274e+01 4.417791e+01 3.082756e+01 4.534167e+01 3.281793e+01 7.821904e-01 2.111940e+00 1.213773e+00 4.997337e+00 2.304544e+00 2.727390e+00 2.903908e+00 2.459532e+00 2.466039e+00 2.269827e+00 3.111231e+00 1.888122e+00 1.975334e+00
<GCONST> 1.009540e+02
<TRANSP> 5
 0.000000e+00 1.000000e+00 0.000000e+00 0.000000e+00 0.000000e+00
 0.000000e+00 5.714127e-01 4.285873e-01 0.000000e+00 0.000000e+00
 0.000000e+00 0.000000e+00 4.795194e-01 5.204806e-01 0.000000e+00
 0.000000e+00 0.000000e+00 0.000000e+00 8.637232e-01 1.362769e-01
 0.000000e+00 0.000000e+00 0.000000e+00 0.000000e+00 0.000000e+00
<ENDHMM>
~h "p"
<BEGINHMM>
<NUMSTATES> 5
<STATE> 2
<MEAN> 25
 5.087735e+00 1.919533e+00 -1.632496e+00 -5.031765e+00 5.134537e-01 1.996063e+00 -1.304264e+00 -5.653472e+00 -2.685768e+00 -2.130282e+00 -2.384891e+00 -2.635830e+00 -9.340069e-01 1.576925e+00 8.326930e-01 3.300178e+00 1.217045e+00 3.782702e-01 1.133353e+00 4.702043e-01 7.941763e-01 -2.006073e-01 5.412905e-01 -1.452289e-01 -2.822274e+00
<VARIANCE> 25
 2.315787e+01 5.871375e+01 3.642387e+01 1.249955e+02 4.596473e+01 3.017259e+01 3.760548e+01 3.943321e+01 4.748632e+01 3.839258e+01 4.709742e+01 3.396252e+01 2.379806e+00 4.775414e+00 3.394592e+00 1.192972e+01 4.804936e+00 3.597291e+00 3.797919e+00 3.617583e+00 3.924221e+00 4.072327e+00 4.319495e+00 2.579707e+00 8.631322e+00
<GCONST> 1.099472e+02
<STATE> 3
<MEAN> 25
 -1.136566e+00 4.007192e+00 9.287606e-01 6.295145e+00 4.059565e+00 3.463012e+00 3.445890e+00 -1.609423e+00 1.549315e+00 -1.112655e+00 1.181523e+00 -9.456453e-01 -1.680207e+00 -1.054829e+00 -7.707547e-01 8.423695e-01 4.614894e-01 1.220993e-01 1.190620e+00 1.435784e+00 1.799826e+00 1.494213e+00 1.467874e+00 1.166344e+00 -5.732404e-01
<VARIANCE> 25
 1.709044e+01 2.050872e+01 1.842529e+01 1.846229e+01 2.209793e+01 3.219966e+01 2.367885e+01 2.612240e+01 3.477519e+01 3.214344e+01 2.953174e+01 2.655692e+01 2.187390e+00 1.367081e+00 2.007156e+00 5.550921e+00 3.102759e+00 2.824526e+00 3.640882e+00 3.862764e+00 3.931945e+00 3.925515e+00 4.138159e+00 3.528572e+00 7.873091e+00
<GCONST> 1.001160e+02
<STATE> 4
<MEAN> 25
 -2.687318e+00 2.034802e+00 -1.522942e+00 6.828255e+00 3.863660e+00 2.753351e+00 5.933575e+00 1.801650e+00 5.043447e+00 2.943044e+00 5.565043e+00 2.686281e+00 -4.448352e-02 -1.029667e-02 -1.796733e-01 -1.575109e-01 -2.989094e-01 -3.834350e-01 -7.948667e-03 -1.307142e-01 -9.614290e-02 3.178828e-02 5.331670e-02 1.462553e-02 4.682838e-01
<VARIANCE> 25
 7.116156e+00 1.058574e+01 1.152148e+01 1.557556e+01 1.535855e+01 2.298631e+01 2.056720e+01 1.790249e+01 1.664818e+01 1.705086e+01 1.679629e+01 1.489428e+01 9.221404e-01 8.884753e-01 1.084861e+00 2.621986e+00 1.561790e+00 1.776388e+00 1.892047e+00 2.022270e+00 2.130412e+00 2.112146e+00 2.270393e+00 1.946445e+00 4.175535e+00
<GCONST> 8.603217e+01
<TRANSP> 5
 0.000000e+00 1.000000e+00 0.000000e+00 0.000000e+00 0.000000e+00
 0.000000e+00 5.936741e-01 4.063259e-01 0.000000e+00 0.000000e+00
 0.000000e+00 0.000000e+00 4.297486e-01 5.702514e-01 0.000000e+00
 0.000000e+00 0.000000e+00 0.000000e+00 8.535177e-01 1.464823e-01
 0.000000e+00 0.000000e+00 0.000000e+00 0.000000e+00 0.000000e+00
<ENDHMM>
~h "r"
<BEGINHMM>
<NUMSTATES> 5
<STATE> 2
<MEAN> 25
 3.852017e+00 -7.135196e+00 -2.746884e+00 -5.943814e+00 -3.898209e+00 -1.282370e+00 -8.175740e+00 5.155273e+00 1.776000e-01 -2.946971e+00 -7.444119e+00 -3.488298e+00 8.177993e-02 2.972631e-01 -6.300986e-02 7.755008e-01 -3.687054e-01 -4.452522e-01 -5.923484e-01 8.215813e-02 6.378959e-01 -5.288174e-01 6.241853e-01 -8.517381e-02 -1.326692e-01
<VARIANCE> 25
 2.884850e+01 6.292043e+01 2.072019e+01 8.058364e+01 5.448346e+01 4.085780e+01 9.973251e+01 7.626234e+01 3.773466e+01 5.549899e+01 6.927969e+01 3.318191e+01 1.489845e+00 3.027164e+00 1.582522e+00 5.436382e+00 4.091408e+00 4.216675e+00 4.193678e+00 5.495201e+00 4.171168e+00 3.658144e+00 5.598248e+00 2.357010e+00 4.250909e+00
<GCONST> 1.092990e+02
<STATE> 3
<MEAN> 25
 3.285750e+00 -2.400245e+00 -3.189036e+00 1.148147e-01 -3.543971e+00 -4.127973e+00 -6.611988e+00 1.132215e+00 3.076351e+00 -3.241874e+00 -8.254242e-01 -2.082353e+00 3.002742e-01 3.834721e-01 2.355332e-01 6.559056e-01 -1.525914e-01 -9.071171e-01 -4.623425e-01 -2.217159e-01 5.836673e-01 -4.685587e-01 4.337847e-01 2.022031e-01 4.325787e-01
<VARIANCE> 25
 3.814608e+01 4.420864e+01 2.782321e+01 5.193705e+01 5.735807e+01 4.437833e+01 8.847370e+01 6.865261e+01 4.230994e+01 5.826070e+01 4.348506e+01 3.070921e+01 5.967861e+00 7.738657e+00 3.012729e+00 9.013769e+00 5.074409e+00 5.238407e+00 1.027300e+01 9.402797e+00 5.477755e+00 5.101460e+00 6.177112e+00 3.883120e+00 7.689884e+00
<GCONST> 1.157465e+02
<STATE> 4
<MEAN> 25
 2.220865e+00 -1.991862e+00 2.624390e-01 -2.406710e-01 -3.101100e+00 -4.763889e+00 -6.511305e+00 2.825251e+00 -5.060031e-01 -4.695692e+00 -2.779715e+00 -1.281627e+00 -2.814121e-01 9.291200e-02 2.981525e-01 1.185915e-01 3.374334e-01 3.170451e-01 3.647940e-01 1.034496e-01 -1.283851e-01 4.382874e-01 2.186613e-01 2.598212e-01 -5.608889e-01
<VARIANCE> 25
 3.042736e+01 4.567117e+01 3.610817e+01 7.349070e+01 9.682597e+01 4.329328e+01 8.678346e+01 6.562061e+01 5.234233e+01 6.326974e+01 5.317857e+01 3.037404e+01 3.033769e+00 4.409493e+00 2.379210e+00 6.159857e+00 5.390016e+00 2.875583e+00 6.780012e+00 4.483032e+00 4.892769e+00 4.965628e+00 4.812181e+00 2.575692e+00 4.060859e+00
<GCONST> 1.120905e+02
<TRANSP> 5
 0.000000e+00 1.000000e+00 0.000000e+00 0.000000e+00 0.000000e+00
 0.000000e+00 5.768503e-01 4.231497e-01 0.000000e+00 0.000000e+00
 0.000000e+00 0.000000e+00 4.828375e-01 5.171624e-01 0.000000e+00
 0.000000e+00 0.000000e+00 0.000000e+00 7.026843e-01 2.973157e-01
 0.000000e+00 0.000000e+00 0.000000e+00 0.000000e+00 0.000000e+00
<ENDHMM>
~h "s"
<BEGINHMM>
<NUMSTATES> 5
<STATE> 2
<MEAN> 25
 -5.230357e+00 6.355865e+00 -1.704582e+00 1.714300e+00 6.478660e-01 -6.546658e+00 -7.010447e-01 -5.379297e-01 -1.249020e+00 -4.700065e+00 -2.190019e+00 -1.843735e+00 -3.777984e+00 2.614538e+00 -1.245185e+00 2.932027e+00 1.632477e+00 4.412349e-01 3.006227e+00 1.811118e-02 1.026765e+00 2.719864e-02 1.846585e+00 6.944671e-01 -8.993742e-01
<VARIANCE> 25
 5.621403e+01 4.369076e+01 3.121291e+01 5.853699e+01 7.416462e+01 3.952586e+01 7.905042e+01 5.586118e+01 4.964263e+01 3.945792e+01 3.957798e+01 2.283531e+01 2.593508e+00 5.809687e+00 3.950778e+00 6.568390e+00 5.937796e+00 6.268605e+00 6.830657e+00 5.930258e+00 4.778571e+00 5.588073e+00 4.108624e+00 2.909350e+00 1.926031e+00
<GCONST> 1.117349e+02
<STATE> 3
<MEAN> 25
 -1.644056e+01 1.029851e+01 -6.447248e+00 7.015354e+00 3.229909e+00 -4.419315e+00 7.185223e+00 9.039402e-03 1.688042e+00 -2.861661e-01 3.289620e+00 1.969534e+00 -2.838538e-01 -2.951422e-02 -1.964437e-01 4.365808e-02 -9.915270e-02 8.770389e-02 1.961290e-01 -1.540299e-02 8.261807e-02 1.953053e-01 2.052987e-01 1.813256e-01 -1.520570e-02
<VARIANCE> 25
 1.267022e+01 1.600109e+01 1.802879e+01 2.156120e+01 2.766853e+01 3.093181e+01 2.685811e+01 2.972742e+01 2.190558e+01 2.061420e+01 1.727528e+01 1.744258e+01 1.047410e+00 6.993052e-01 8.775398e-01 8.335916e-01 1.245978e+00 1.341045e+00 1.519703e+00 1.575408e+00 1.643989e+00 1.603508e+00 1.430357e+00 1.356754e+00 6.431267e-01
<GCONST> 8.443065e+01
<STATE> 4
<MEAN> 25
 -1.176760e+01 6.836379e+00 -3.361542e+00 7.209947e+00 3.338288e+00 -2.938263e+00 7.296621e+00 1.275396e+00 2.896632e+00 3.805758e-01 4.019484e+00 2.242255e+00 1.513644e+00 -6.028138e-01 6.350305e-01 -3.054214e-01 -4.811279e-01 -1.802675e-01 -8.594791e-01 -2.997962e-01 -5.770197e-02 -2.488141e-01 -4.438594e-01 -3.560272e-01 -2.963749e-01
<VARIANCE> 25
 3.949997e+01 2.367951e+01 1.759279e+01 2.116550e+01 2.514112e+01 3.450987e+01 2.807659e+01 3.195572e+01 2.574770e+01 2.222720e+01 1.973205e+01 1.852456e+01 3.429723e+00 1.948942e+00 2.106917e+00 2.159765e+00 2.595060e+00 2.969495e+00 3.703193e+00 3.182429e+00 2.591866e+00 2.108218e+00 2.200854e+00 1.695025e+00 2.165836e+00
<GCONST> 9.623515e+01
<TRANSP> 5
 0.000000e+00 1.000000e+00 0.000000e+00 0.000000e+00 0.000000e+00
 0.000000e+00 7.368069e-01 2.631931e-01 0.000000e+00 0.000000e+00
 0.000000e+00 0.000000e+00 8.759753e-01 1.240247e-01 0.000000e+00
 0.000000e+00 0.000000e+00 0.000000e+00 7.575743e-01 2.424258e-01
 0.000000e+00 0.000000e+00 0.000000e+00 0.000000e+00 0.000000e+00
<ENDHMM>
~h "t"
<BEGINHMM>
<NUMSTATES> 5
<STATE> 2
<MEAN> 25
 1.132189e+00 1.428045e+00 1.078329e+00 1.365055e+00 8.783314e-01 -7.173971e-01 -3.217643e+00 3.443107e-01 1.339692e+00 -2.980202e+00 -2.363603e+00 -2.346111e+00 -1.039851e+00 1.310659e+00 3.436487e-01 2.483774e+00 1.354219e+00 1.030588e+00 2.173077e+00 4.624347e-02 1.153604e+00 6.146846e-01 1.412221e+00 6.903939e-01 -3.263003e+00
<VARIANCE> 25
 1.937513e+01 4.559623e+01 4.174805e+01 7.109920e+01 5.985876e+01 4.540018e+01 7.557150e+01 5.344568e+01 4.125200e+01 4.307078e+01 4.861532e+01 2.934245e+01 1.441178e+00 5.908607e+00 3.124484e+00 6.418195e+00 4.751609e+00 4.353324e+00 4.867927e+00 5.377302e+00 3.556556e+00 5.376815e+00 4.710521e+00 2.750998e+00 6.165295e+00
<GCONST> 1.104494e+02
<STATE> 3
<MEAN> 25
 -3.088492e+00 2.728029e+00 -4.994041e-01 6.913951e+00 4.367144e+00 1.582152e+00 6.849156e+00 2.319125e+00 4.800839e+00 2.774105e+00 5.654625e+00 3.122024e+00 -1.628199e-01 -3.654062e-02 -2.381042e-01 4.353761e-02 1.580255e-02 -1.471654e-01 3.004364e-01 1.835480e-02 1.354193e-01 2.826171e-01 3.205317e-01 2.135974e-01 -6.128955e-02
<VARIANCE> 25
 6.956248e+00 1.161277e+01 1.116779e+01 1.231522e+01 1.729619e+01 1.790997e+01 2.195406e+01 1.913910e+01 1.926972e+01 2.035248e+01 2.144591e+01 1.527321e+01 7.800351e-01 9.129424e-01 1.106962e+00 1.190245e+00 1.417214e+00 1.716044e+00 1.835132e+00 1.979532e+00 2.184967e+00 2.016463e+00 2.263900e+00 1.681426e+00 1.967191e+00
<GCONST> 8.441371e+01
<STATE> 4
<MEAN> 25
 -4.557701e+00 2.528171e+00 -2.387358e+00 5.319283e+00 2.484092e+00 -1.738192e+00 5.594725e+00 8.028686e-01 3.925951e+00 9.534028e-01 3.731215e+00 1.989794e+00 2.940872e-01 -3.508244e-01 -3.577222e-01 -2.079547e+00 -1.973858e+00 -1.933436e+00 -2.517761e+00 -9.021928e-01 -7.976192e-01 -1.166417e+00 -1.705283e+00 -1.229704e+00 5.084446e+00
<VARIANCE> 25
 1.504727e+01 1.472367e+01 1.932301e+01 2.249753e+01 3.195182e+01 4.079290e+01 3.549545e+01 2.500953e+01 2.336971e+01 2.575342e+01 2.760621e+01 1.947542e+01 2.950558e+00 2.878718e+00 3.320121e+00 5.406755e+00 5.058449e+00 4.363568e+00 9.537399e+00 5.872551e+00 3.591516e+00 2.747927e+00 4.786320e+00 2.408872e+00 7.646280e+00
<GCONST> 1.029863e+02
<TRANSP> 5
 0.000000e+00 1.000000e+00 0.000000e+00 0.000000e+00 0.000000e+00
 0.000000e+00 6.947607e-01 3.052393e-01 0.000000e+00 0.000000e+00
 0.000000e+00 0.000000e+00 8.437452e-01 1.562549e-01 0.000000e+00
 0.000000e+00 0.000000e+00 0.000000e+00 6.129324e-01 3.870676e-01
 0.000000e+00 0.000000e+00 0.000000e+00 0.000000e+00 0.000000e+00
<ENDHMM>
~h "u"
<BEGINHMM>
<NUMSTATES> 5
<STATE> 2
<MEAN> 25
 2.106792e+00 3.265693e+00 -6.030496e-01 -7.265540e-01 -4.104137e+00 -4.149106e+00 -6.051300e+00 -5.897555e+00 -2.888833e+00 -3.314292e+00 -2.064579e+00 -1.892056e+00 2.253394e+00 -3.109671e-01 1.096564e-01 -3.826956e+00 -2.878752e+00 4.878274e-01 -3.947517e+00 -1.335469e+00 -1.936378e+00 -1.695429e-01 -2.998634e-01 -7.338138e-01 2.378051e+00
<VARIANCE> 25
 3.361760e+01 2.669621e+01 3.036798e+01 7.795554e+01 5.725402e+01 6.068763e+01 9.972556e+01 4.266770e+01 4.735543e+01 3.582376e+01 4.089779e+01 2.949018e+01 3.619791e+00 4.092662e+00 4.302933e+00 9.124445e+00 5.891751e+00 8.389843e+00 9.332209e+00 6.133850e+00 6.074673e+00 6.747717e+00 9.582848e+00 5.017352e+00 3.577971e+00
<GCONST> 1.147313e+02
<STATE> 3
<MEAN> 25
 6.569681e+00 7.502975e-01 -1.273151e+00 -1.160887e+01 -9.123617e+00 1.687396e+00 -1.514395e+01 -7.733165e+00 -6.890064e+00 4.876438e-01 -3.497391e-01 -4.431412e+00 5.747502e-01 -1.239211e-01 -3.391832e-01 -2.041893e+00 -5.634023e-01 1.568293e+00 -5.470715e-01 -4.726668e-01 -1.075583e+00 9.077765e-01 8.599602e-01 5.848089e-02 3.443053e-01
<VARIANCE> 25
 1.042666e+01 3.012576e+01 2.949201e+01 7.741989e+01 5.990619e+01 5.472674e+01 1.007200e+02 6.264457e+01 5.631268e+01 6.697575e+01 7.377954e+01 4.982145e+01 7.706818e-01 1.807860e+00 2.499178e+00 5.154855e+00 3.749577e+00 5.414889e+00 4.906984e+00 4.449105e+00 4.461450e+00 4.527373e+00 3.214810e+00 3.508146e+00 1.224302e+00
<GCONST> 1.073323e+02
<STATE> 4
<MEAN> 25
 7.770086e+00 3.364144e+00 -2.906792e+00 -1.313853e+01 -8.525294e+00 3.314645e+00 -1.030039e+01 -7.346428e+00 -8.789587e+00 -1.020141e+00 5.675134e-01 -1.679728e+00 -2.284966e-01 1.269239e-01 1.079426e-01 7.646117e-01 6.417806e-01 -4.015777e-01 8.257443e-01 3.850679e-01 3.945764e-01 -6.661771e-02 -2.566263e-01 2.084797e-01 -6.207728e-01
<VARIANCE> 25
 1.052584e+01 3.396056e+01 3.075240e+01 8.448879e+01 7.033555e+01 5.668674e+01 8.326302e+01 4.649071e+01 4.809819e+01 5.909986e+01 5.609958e+01 4.309142e+01 6.768333e-01 1.431964e+00 1.386987e+00 4.603024e+00 3.267726e+00 2.822253e+00 3.919523e+00 2.076639e+00 3.364739e+00 2.774024e+00 2.906852e+00 2.202537e+00 1.378909e+00
<GCONST> 1.025361e+02
<TRANSP> 5
 0.000000e+00 1.000000e+00 0.000000e+00 0.000000e+00 0.000000e+00
 0.000000e+00 6.569463e-01 3.430537e-01 0.000000e+00 0.000000e+00
 0.000000e+00 0.000000e+00 6.279542e-01 3.720458e-01 0.000000e+00
 0.000000e+00 0.000000e+00 0.000000e+00 8.783996e-01 1.216004e-01
 0.000000e+00 0.000000e+00 0.000000e+00 0.000000e+00 0.000000e+00
<ENDHMM>
~h "w"
<BEGINHMM>
<NUMSTATES> 5
<STATE> 2
<MEAN> 25
 6.508278e+00 4.537599e+00 -2.427673e+00 -1.063196e+01 -5.882951e+00 -1.779418e-01 -7.049913e+00 -7.663721e+00 -4.314930e+00 -4.577387e-01 4.145503e-01 -4.954648e-01 2.092235e+00 -3.559135e-01 -5.123225e-01 -3.314952e+00 -1.279834e+00 6.910088e-01 -6.534618e-01 -8.300123e-01 -1.056550e+00 1.559373e-01 -4.527163e-01 2.561711e-01 1.009211e+00
<VARIANCE> 25
 3.019718e+01 1.560985e+01 2.114318e+01 1.151291e+02 4.927610e+01 3.787910e+01 4.782117e+01 3.430005e+01 4.024697e+01 3.742140e+01 2.071565e+01 2.027417e+01 5.767439e+00 1.586939e+00 1.996012e+00 3.945665e+00 4.032328e+00 4.014926e+00 4.551819e+00 7.007274e+00 3.716614e+00 2.544652e+00 1.919148e+00 3.272798e+00 1.137214e+00
<GCONST> 1.029295e+02
<STATE> 3
<MEAN> 25
 8.337943e+00 -4.187982e+00 -5.717530e+00 -2.384891e+01 -4.338639e+00 5.159615e+00 -1.002666e+01 -4.874467e+00 -4.567387e+00 5.342758e+00 -5.116824e+00 -5.790689e-01 -4.053187e-01 -2.254207e+00 -1.898418e-01 -2.853553e-01 1.967472e+00 6.842245e-02 4.335888e-01 4.710873e-01 1.646313e+00 5.730514e-02 -1.619084e+00 -1.186707e+00 1.297393e+00
<VARIANCE> 25
 3.679896e+00 3.100849e+01 2.424127e+01 3.659967e+01 6.604752e+01 5.786317e+01 4.523842e+01 3.194034e+01 4.808775e+01 4.674362e+01 3.293898e+01 2.970315e+01 2.175862e-01 6.364679e-01 6.112528e-01 2.588406e+00 1.512993e+00 1.783402e+00 1.696270e+00 1.814715e+00 1.508941e+00 5.252466e+00 2.765963e+00 2.173752e+00 2.753020e-01
<GCONST> 9.077291e+01
<STATE> 4
<MEAN> 25
 5.720592e+00 -1.287673e+01 -5.231445e+00 -1.791490e+01 6.081811e+00 5.723847e-01 -5.185704e+00 -2.327968e+00 1.395559e+00 -3.871821e+00 -1.269453e+01 -4.180529e+00 -2.955212e-01 -1.783687e-01 2.602288e-01 1.129101e+00 4.157284e-02 -7.429387e-01 5.693110e-01 7.653566e-01 -2.478330e-01 -1.113174e+00 -7.370442e-03 3.564246e-01 -3.083445e-01
<VARIANCE> 25
 6.702220e+00 2.982291e+01 1.447806e+01 3.992868e+01 5.072113e+01 6.159424e+01 4.841354e+01 6.193738e+01 3.150276e+01 2.609629e+01 4.268800e+01 2.324384e+01 2.909178e-01 1.846589e+00 1.003425e+00 1.368474e+00 2.853973e+00 1.449276e+00 1.734891e+00 1.763851e+00 1.668136e+00 3.154882e+00 2.267582e+00 1.766965e+00 1.254543e+00
<GCONST> 9.277837e+01
<TRANSP> 5
 0.000000e+00 1.000000e+00 0.000000e+00 0.000000e+00 0.000000e+00
 0.000000e+00 7.457750e-01 2.542250e-01 0.000000e+00 0.000000e+00
 0.000000e+00 0.000000e+00 8.046216e-01 1.953784e-01 0.000000e+00
 0.000000e+00 0.000000e+00 0.000000e+00 8.675362e-01 1.324638e-01
 0.000000e+00 0.000000e+00 0.000000e+00 0.000000e+00 0.000000e+00
<ENDHMM>
~h "y"
<BEGINHMM>
<NUMSTATES> 5
<STATE> 2
<MEAN> 25
 -2.073222e+00 2.222730e+00 1.688882e+01 -6.775821e+00 -1.831189e+01 -4.093950e+00 -1.027559e+01 -5.063347e+00 -9.744018e+00 -2.283891e+00 -5.756215e-01 -5.158350e+00 3.096130e-01 -7.708093e-01 -4.725266e-01 -7.908065e-02 -4.577912e-01 -9.234298e-01 6.867054e-02 5.657625e-01 1.829937e-01 4.912307e-01 1.540835e-01 3.265965e-01 4.938764e-01
<VARIANCE> 25
 1.141548e+01 2.314161e+01 2.533889e+01 4.140548e+01 5.792146e+01 5.723879e+01 3.513012e+01 4.444041e+01 2.726026e+01 5.120069e+01 5.267777e+01 3.345423e+01 5.413330e-01 1.234190e+00 2.871174e+00 9.234847e-01 2.035111e+00 2.008374e+00 2.690235e+00 2.705550e+00 2.315909e+00 1.637392e+00 1.475051e+00 1.262403e+00 5.294559e-01
<GCONST> 9.393771e+01
<STATE> 3
<MEAN> 25
 3.891092e+00 -6.130312e+00 4.449688e+00 -9.612989e+00 -1.323533e+01 -9.323693e+00 -1.209197e+01 4.151629e+00 -8.818439e-01 3.520995e+00 -6.332691e+00 -4.403310e+00 9.055150e-01 -8.478817e-01 -2.229749e+00 -1.154348e+00 2.312810e+00 9.432858e-01 -8.903766e-01 3.666455e-01 1.656240e+00 9.935334e-01 -1.514583e+00 -8.233287e-01 6.615022e-02
<VARIANCE> 25
 1.280975e+01 1.588363e+01 3.665370e+01 5.112382e+01 6.716176e+01 5.035583e+01 7.278984e+01 3.421472e+01 4.009449e+01 4.515030e+01 7.327845e+01 3.041267e+01 4.517847e-01 7.799971e-01 1.330760e+00 1.499203e+00 3.064187e+00 3.285558e+00 3.377080e+00 4.225935e+00 2.488528e+00 3.227706e+00 2.486163e+00 2.419636e+00 2.140242e-01
<GCONST> 9.690637e+01
<STATE> 4
<MEAN> 25
 7.634398e+00 -5.980564e+00 -5.532362e+00 -1.937967e+01 -3.391150e+00 2.605163e+00 -1.437527e+01 -2.228680e+00 -2.514173e+00 5.912997e+00 -5.034808e+00 -4.560656e+00 1.653517e-01 3.193262e-01 -5.908591e-01 -5.264457e-01 4.885478e-01 8.532295e-01 4.533748e-01 -3.089698e-01 -6.094336e-01 -4.640484e-01 5.709237e-01 4.617109e-01 -5.720699e-01
<VARIANCE> 25
 7.335362e+00 1.779945e+01 3.529643e+01 3.831591e+01 8.166398e+01 4.974829e+01 8.138184e+01 2.407403e+01 3.485912e+01 3.947925e+01 7.269897e+01 5.375442e+01 2.680232e-01 4.988033e-01 7.400057e-01 1.609920e+00 1.807848e+00 2.286983e+00 1.567867e+00 1.502938e+00 1.574850e+00 1.463149e+00 1.985690e+00 1.307553e+00 3.327591e-01
<GCONST> 9.054410e+01
<TRANSP> 5
 0.000000e+00 1.000000e+00 0.000000e+00 0.000000e+00 0.000000e+00
 0.000000e+00 8.775371e-01 1.224629e-01 0.000000e+00 0.000000e+00
 0.000000e+00 0.000000e+00 7.651810e-01 2.348191e-01 0.000000e+00
 0.000000e+00 0.000000e+00 0.000000e+00 8.705040e-01 1.294959e-01
 0.000000e+00 0.000000e+00 0.000000e+00 0.000000e+00 0.000000e+00
<ENDHMM>
~h "z"
<BEGINHMM>
<NUMSTATES> 5
<STATE> 2
<MEAN> 25
 -7.927167e+00 1.171130e+01 -4.688456e+00 8.333540e+00 1.667955e+00 -8.227386e+00 4.362887e+00 -2.680777e+00 2.314724e+00 -1.632326e+00 6.013682e-01 2.984728e+00 -2.972278e-01 3.387452e-01 -1.786648e-01 5.323321e-02 -6.423872e-01 -5.336232e-01 -3.821144e-01 -4.634363e-01 -7.725632e-02 -4.847921e-01 -3.393722e-01 -3.576510e-02 1.083053e+00
<VARIANCE> 25
 2.851602e+01 2.763791e+01 1.573231e+01 2.128190e+01 4.967171e+01 3.538056e+01 5.162511e+01 3.777441e+01 3.800641e+01 3.788921e+01 3.258635e+01 1.288219e+01 1.911316e+00 2.271030e+00 1.374890e+00 1.376969e+00 1.639404e+00 2.813190e+00 3.891613e+00 2.392384e+00 3.097820e+00 2.398646e+00 2.392168e+00 1.418966e+00 1.738851e+00
<GCONST> 9.643656e+01
<STATE> 3
<MEAN> 25
 -3.468690e+00 3.386488e+00 3.125208e-01 7.314320e-01 -1.307372e+01 -9.961737e+00 -8.293451e+00 -4.503077e+00 -1.273777e+00 -5.532228e+00 -3.694535e+00 -7.652198e-01 1.782399e+00 -3.269125e+00 2.020711e+00 -2.865517e+00 -2.737597e+00 1.877635e+00 -3.024240e+00 1.502535e+00 -9.784898e-01 7.068094e-01 -6.471084e-01 -1.531071e+00 1.660653e+00
<VARIANCE> 25
 1.476614e+01 4.673129e+01 2.904456e+01 3.426619e+01 6.602636e+01 2.140698e+01 7.356275e+01 8.103489e+01 2.837680e+01 1.165826e+01 2.889595e+01 1.860109e+01 1.848488e+00 1.602489e+00 2.905616e+00 1.572329e+00 9.144692e-01 1.948409e+00 4.091788e+00 6.938375e+00 4.293943e+00 2.890126e+00 1.151155e+00 1.115894e+00 3.783532e-01
<GCONST> 9.574776e+01
<STATE> 4
<MEAN> 25
 1.140120e+00 -6.434995e+00 7.175400e+00 -8.060372e+00 -2.263867e+01 -1.209274e+00 -1.345772e+01 2.021100e+00 -5.876819e+00 -1.817103e+00 -2.987398e+00 -7.065956e+00 5.139381e-01 1.273814e-01 -2.179248e-03 -5.307186e-02 9.038177e-01 9.576997e-01 2.674568e-01 -6.320311e-01 -2.154830e-01 -3.442346e-02 1.782039e-01 -2.426612e-01 -1.032624e+00
<VARIANCE> 25
 1.956291e+01 5.089761e+01 3.374429e+01 2.030542e+01 6.289010e+01 3.986093e+01 5.316061e+01 1.448963e+02 2.783494e+01 3.170174e+01 3.010536e+01 9.816528e+00 4.451526e-01 2.936640e+00 1.450226e+00 2.927913e+00 6.452308e+00 3.434776e+00 4.640901e+00 3.729599e+00 1.734876e+00 2.207842e+00 9.847985e-01 1.433445e+00 2.875758e+00
<GCONST> 9.903520e+01
<TRANSP> 5
 0.000000e+00 1.000000e+00 0.000000e+00 0.000000e+00 0.000000e+00
 0.000000e+00 9.448506e-01 5.514937e-02 0.000000e+00 0.000000e+00
 0.000000e+00 0.000000e+00 7.627567e-01 2.372433e-01 0.000000e+00
 0.000000e+00 0.000000e+00 0.000000e+00 8.414997e-01 1.585003e-01
 0.000000e+00 0.000000e+00 0.000000e+00 0.000000e+00 0.000000e+00
<ENDHMM>
~h "aw"
<BEGINHMM>
<NUMSTATES> 5
<STATE> 2
<MEAN> 25
 5.318503e+00 -1.255840e+01 -2.507128e+00 -1.550954e+01 -3.433724e+00 2.805021e+00 -1.532349e+01 1.364674e+00 -9.764079e-01 -1.240723e+00 -7.679613e+00 -6.985900e+00 3.156385e-02 7.395864e-02 -8.867418e-02 -1.391316e+00 3.321785e-01 7.485627e-01 -5.895535e-01 -8.937368e-01 -5.481161e-01 2.454564e-02 -2.483743e-01 -2.136012e-01 5.260365e-01
<VARIANCE> 25
 8.290626e+00 5.261867e+01 6.606181e+00 6.694415e+01 1.988439e+01 1.849994e+01 4.978106e+01 4.954979e+01 2.646282e+01 2.532549e+01 4.943571e+01 2.630274e+01 1.380628e+00 9.000178e+00 8.102993e-01 7.938454e+00 2.159883e+00 4.074798e+00 4.972726e+00 3.057531e+00 3.098613e+00 4.305988e+00 5.918195e+00 2.189141e+00 5.664684e+00
<GCONST> 1.016776e+02
<STATE> 3
<MEAN> 25
 -1.035307e+01 7.754445e+00 -5.192255e+00 -1.167611e+00 3.821308e+00 -7.248324e+00 -2.535157e+00 1.090601e-01 -3.388682e+00 3.262368e-01 -3.533502e+00 -6.743395e-01 3.524779e-01 -1.130269e+00 -1.247705e-01 -4.635095e-01 -1.285059e-01 1.069313e-01 -4.246553e-01 5.307762e-01 6.057433e-01 -1.280846e-01 -6.086637e-01 -2.267689e-02 7.453597e-01
<VARIANCE> 25
 1.038212e+02 1.107935e+02 1.142298e+01 6.715151e+01 2.232922e+01 4.478493e+01 9.585230e+01 3.424793e+01 2.282920e+01 3.000520e+01 2.415311e+01 2.303647e+01 1.311559e+01 1.097549e+01 1.100520e+00 9.923709e+00 2.655974e+00 4.306817e+00 1.444752e+01 4.173400e+00 2.639542e+00 3.614765e+00 2.986607e+00 3.139560e+00 4.278315e+00
<GCONST> 1.096388e+02
<STATE> 4
<MEAN> 25
 7.138386e+00 -8.725945e+00 -4.201995e+00 -1.832007e+01 -3.330985e+00 4.441589e+00 -9.395064e+00 4.109324e-01 -6.176191e-01 -3.303399e+00 -7.254776e+00 -2.203580e+00 4.607431e-02 4.953170e-01 7.378755e-02 3.234402e-01 1.547331e-01 3.569779e-02 2.817473e-01 5.617818e-03 -1.105236e-01 5.697153e-02 2.574265e-01 6.204145e-02 -5.422518e-01
<VARIANCE> 25
 7.815009e+00 9.012645e+01 9.362339e+00 6.189282e+01 6.281020e+01 3.478844e+01 4.708466e+01 4.978411e+01 5.173206e+01 2.350813e+01 2.130624e+01 1.600976e+01 4.360858e-01 3.001570e+00 7.674361e-01 1.860483e+00 2.086199e+00 1.713494e+00 1.260649e+00 1.811581e+00 1.874588e+00 1.675514e+00 1.624486e+00 1.420968e+00 9.955924e-01
<GCONST> 9.195263e+01
<TRANSP> 5
 0.000000e+00 1.000000e+00 0.000000e+00 0.000000e+00 0.000000e+00
 0.000000e+00 8.793971e-01 1.206029e-01 0.000000e+00 0.000000e+00
 0.000000e+00 0.000000e+00 8.695667e-01 1.304333e-01 0.000000e+00
 0.000000e+00 0.000000e+00 0.000000e+00 9.535269e-01 4.647308e-02
 0.000000e+00 0.000000e+00 0.000000e+00 0.000000e+00 0.000000e+00
<ENDHMM>
~h "ax"
<BEGINHMM>
<NUMSTATES> 5
<STATE> 2
<MEAN> 25
 -1.038097e+00 1.392498e+00 -1.228875e+00 2.649540e+00 1.720015e+00 -1.554812e+00 2.649984e+00 1.606430e+00 1.717916e+00 -4.250531e-01 7.240071e-01 1.062628e-01 4.232778e-01 -5.534036e-01 8.906212e-02 -4.670198e-01 4.869392e-02 7.522009e-02 -6.022721e-01 -2.867562e-01 -3.602963e-01 -2.846988e-01 -4.600224e-01 -2.138375e-01 7.605613e-01
<VARIANCE> 25
 3.483001e+01 3.260136e+01 2.673491e+01 5.343832e+01 5.781149e+01 3.591709e+01 5.761986e+01 5.026122e+01 3.900920e+01 3.884869e+01 5.647487e+01 3.257034e+01 2.408870e+00 2.082165e+00 1.753772e+00 5.269761e+00 2.774903e+00 3.325912e+00 3.867504e+00 4.606494e+00 2.714876e+00 3.454936e+00 4.757402e+00 2.815097e+00 3.324143e+00
<GCONST> 1.056696e+02
<STATE> 3
<MEAN> 25
 5.286232e-01 -4.386646e-02 -2.332918e-01 6.140929e-01 3.247053e-01 -1.816799e+00 -2.360445e-01 4.722260e-01 -3.002733e-02 -1.861400e+00 -1.631599e+00 -9.109036e-01 2.735496e-01 -7.018243e-01 -4.079469e-02 -8.269392e-01 -2.688665e-01 1.295322e-02 -8.752233e-01 -4.562273e-01 -2.315193e-01 -8.182714e-02 -3.357200e-01 -2.074818e-01 1.271144e+00
<VARIANCE> 25
 4.400123e+01 4.995543e+01 2.972106e+01 7.636237e+01 6.797554e+01 3.551731e+01 5.998745e+01 7.645468e+01 5.075269e+01 4.022802e+01 5.250140e+01 3.394777e+01 2.403424e+00 2.563958e+00 2.394370e+00 5.155269e+00 3.778870e+00 3.677560e+00 4.283244e+00 5.611631e+00 3.274721e+00 3.852630e+00 4.778315e+00 2.953180e+00 5.037539e+00
<GCONST> 1.096385e+02
<STATE> 4
<MEAN> 25
 2.550912e+00 -6.170574e-01 -6.262377e-01 -2.112437e+00 -1.722114e+00 -1.182874e+00 -3.631688e+00 -2.665307e+00 -4.927635e-01 -1.252581e+00 -1.397376e+00 -2.708766e+00 5.351503e-01 -1.235437e+00 -2.457413e-01 -1.711263e+00 -1.316423e+00 -2.018400e-01 -1.889191e+00 3.328475e-01 2.609195e-01 4.424414e-01 -5.254514e-01 -4.954755e-01 2.101013e+00
<VARIANCE> 25
 3.366262e+01 5.620063e+01 3.490189e+01 8.921534e+01 5.454914e+01 4.027477e+01 7.892908e+01 1.003143e+02 4.731590e+01 4.250088e+01 5.032959e+01 3.065150e+01 2.800148e+00 5.250004e+00 3.542862e+00 8.852229e+00 5.378046e+00 4.659352e+00 9.213530e+00 7.857105e+00 4.896061e+00 5.004714e+00 5.015717e+00 3.202778e+00 8.655046e+00
<GCONST> 1.149255e+02
<TRANSP> 5
 0.000000e+00 1.000000e+00 0.000000e+00 0.000000e+00 0.000000e+00
 0.000000e+00 4.050220e-01 5.949780e-01 0.000000e+00 0.000000e+00
 0.000000e+00 0.000000e+00 2.086044e-01 7.913955e-01 0.000000e+00
 0.000000e+00 0.000000e+00 0.000000e+00 4.971487e-01 5.028513e-01
 0.000000e+00 0.000000e+00 0.000000e+00 0.000000e+00 0.000000e+00
<ENDHMM>
~h "ay"
<BEGINHMM>
<NUMSTATES> 5
<STATE> 2
<MEAN> 25
 3.677076e+00 -7.768831e+00 5.623281e-02 -8.765426e+00 1.193677e-01 -4.393566e+00 -7.366208e+00 2.603145e+00 -2.073444e+00 -4.095617e+00 -8.383720e+00 -2.021480e+00 1.649103e-01 -1.887295e+00 -9.692501e-02 -1.424853e+00 -1.950715e-01 4.579727e-01 -5.702987e-01 1.665284e+00 -8.171302e-01 -6.957415e-01 -8.989452e-01 2.192269e-01 1.775727e+00
<VARIANCE> 25
 9.703382e+00 5.447760e+01 4.346250e+01 5.118932e+01 7.353861e+01 5.149219e+01 7.023561e+01 6.609285e+01 4.881541e+01 4.329976e+01 3.846161e+01 2.493705e+01 1.922341e+00 4.797562e+00 3.705269e+00 3.837141e+00 5.701669e+00 4.457776e+00 6.322471e+00 6.897587e+00 4.275325e+00 4.985208e+00 4.351280e+00 2.925416e+00 2.949963e+00
<GCONST> 1.097008e+02
<STATE> 3
<MEAN> 25
 1.606378e+00 -8.047286e+00 7.048151e+00 -1.246385e+01 -9.231596e+00 -5.886075e+00 -7.804852e+00 5.609625e+00 -6.188583e+00 -1.190452e+00 -7.907460e+00 2.266295e-01 6.574044e-02 -2.415294e-01 -3.352599e-02 -5.658914e-02 -7.721119e-02 1.317470e-01 2.245670e-01 2.360148e-02 -9.179916e-02 -2.068921e-01 -1.707203e-01 1.732843e-02 1.824917e-02
<VARIANCE> 25
 1.245155e+01 5.528729e+01 7.872451e+01 2.562413e+01 1.029915e+02 8.822234e+01 4.804369e+01 5.368070e+01 4.100125e+01 5.718822e+01 6.748241e+01 2.029999e+01 2.901007e-01 1.812796e+00 2.054829e+00 5.432236e-01 3.059266e+00 1.208541e+00 2.769375e+00 2.726407e+00 1.713454e+00 2.735830e+00 3.051455e+00 9.748557e-01 3.867221e-01
<GCONST> 9.652444e+01
<STATE> 4
<MEAN> 25
 3.576332e+00 -1.133317e+01 3.358037e+00 -1.140889e+01 -9.947500e+00 2.408102e-01 -7.966501e+00 7.940819e+00 -6.101900e+00 -4.998100e+00 -7.922101e+00 -1.824559e+00 -2.728826e-01 1.118772e+00 8.427433e-01 3.818563e-01 -1.139358e+00 -3.311746e-01 2.452658e-01 -2.963534e-01 -4.236760e-01 5.680187e-01 7.341651e-01 -2.709903e-01 -6.186801e-01
<VARIANCE> 25
 1.352810e+01 7.770522e+01 4.578283e+01 2.112208e+01 1.221948e+02 3.432372e+01 2.162693e+01 4.060445e+01 3.963987e+01 4.911736e+01 3.691149e+01 1.639413e+01 2.840726e-01 1.352110e+00 1.340526e+00 1.639778e+00 4.209926e+00 1.290885e+00 2.005078e+00 2.859854e+00 1.574378e+00 2.877261e+00 2.136538e+00 1.101673e+00 7.179999e-01
<GCONST> 9.418303e+01
<TRANSP> 5
 0.000000e+00 1.000000e+00 0.000000e+00 0.000000e+00 0.000000e+00
 0.000000e+00 7.788900e-01 2.211100e-01 0.000000e+00 0.000000e+00
 0.000000e+00 0.000000e+00 8.816188e-01 1.183812e-01 0.000000e+00
 0.000000e+00 0.000000e+00 0.000000e+00 8.990728e-01 1.009271e-01
 0.000000e+00 0.000000e+00 0.000000e+00 0.000000e+00 0.000000e+00
<ENDHMM>
~h "ey"
<BEGINHMM>
<NUMSTATES> 5
<STATE> 2
<MEAN> 25
 4.125249e+00 -7.143281e+00 2.165130e+00 -5.238945e+00 -1.319969e+01 -3.739460e+00 -5.950085e+00 -3.290456e+00 -5.779085e+00 -3.612683e+00 -2.571784e+00 -8.209564e+00 3.014377e-01 -1.683405e+00 1.328374e+00 -2.296257e+00 -2.368663e+00 8.403025e-01 -2.221353e-01 2.411749e+00 -1.248489e+00 1.090143e+00 -4.174006e-01 -2.283262e-01 1.548174e+00
<VARIANCE> 25
 7.869156e+00 3.281922e+01 1.604717e+01 3.296901e+01 5.899359e+01 3.395680e+01 3.649644e+01 1.402440e+02 2.048259e+01 2.915255e+01 2.044446e+01 3.307328e+01 2.208302e+00 3.071558e+00 2.788219e+00 2.681751e+00 5.499852e+00 2.963873e+00 5.049811e+00 6.579080e+00 3.708226e+00 1.960093e+00 1.978338e+00 2.215558e+00 2.216828e+00
<GCONST> 1.013018e+02
<STATE> 3
<MEAN> 25
 1.805604e+00 -8.905621e+00 9.706399e+00 -1.507027e+01 -2.251413e+01 -1.342795e+00 -6.621289e+00 5.037189e+00 -1.132495e+01 4.902128e+00 -5.571124e+00 -3.939928e+00 -2.566854e-01 8.264312e-01 7.571597e-01 -3.179691e-01 6.539278e-02 4.265299e-01 -4.708713e-01 -7.752770e-01 -5.291417e-01 2.465973e-01 -2.068101e-01 1.063259e-01 -2.989387e-01
<VARIANCE> 25
 6.328289e+00 1.730882e+01 1.246679e+01 7.252205e+00 1.824930e+01 4.287624e+01 2.558753e+01 1.396491e+01 1.025259e+01 2.061045e+01 9.220634e+00 2.551821e+01 2.624044e-01 7.995670e-01 4.339641e-01 7.258592e-01 1.153970e+00 1.023890e+00 1.343228e+00 1.653306e+00 9.061407e-01 1.786248e+00 9.156346e-01 8.702925e-01 1.469581e-01
<GCONST> 7.508762e+01
<STATE> 4
<MEAN> 25
 -1.312720e-01 3.425601e+00 1.623322e+01 -1.074547e+01 -1.295715e+01 1.578128e+00 -1.064800e+01 -2.391014e+00 -1.081404e+01 1.958166e-01 -4.509757e+00 -4.505932e+00 -2.386737e-02 5.501030e-01 -1.499183e-01 9.866335e-01 1.462267e+00 1.638308e-01 7.012101e-01 -4.581510e-01 5.511966e-01 -5.702507e-01 1.992395e-01 8.595534e-02 -1.049624e+00
<VARIANCE> 25
 6.100881e+00 3.464287e+01 2.020472e+01 5.100636e+01 8.165453e+01 2.102941e+01 4.284012e+01 2.199130e+01 2.539321e+01 3.690176e+01 1.021766e+01 1.887865e+01 3.270286e-01 1.240077e+00 1.884278e+00 1.685983e+00 1.512304e+00 1.369590e+00 2.004092e+00 2.062872e+00 1.641111e+00 2.534229e+00 1.056959e+00 1.320213e+00 5.033638e-01
<GCONST> 8.811256e+01
<TRANSP> 5
 0.000000e+00 1.000000e+00 0.000000e+00 0.000000e+00 0.000000e+00
 0.000000e+00 8.080755e-01 1.919244e-01 0.000000e+00 0.000000e+00
 0.000000e+00 0.000000e+00 8.924845e-01 1.075155e-01 0.000000e+00
 0.000000e+00 0.000000e+00 0.000000e+00 8.705357e-01 1.294643e-01
 0.000000e+00 0.000000e+00 0.000000e+00 0.000000e+00 0.000000e+00
<ENDHMM>
~h "ng"
<BEGINHMM>
<NUMSTATES> 5
<STATE> 2
<MEAN> 25
 2.051797e+00 -3.205128e+00 -7.579122e-01 7.762811e-01 1.230306e+00 2.423375e+00 1.217282e-01 1.196550e+00 2.230653e-01 -4.461635e-01 1.042596e+00 -1.929227e+00 3.388456e-02 5.948824e-01 3.515990e-01 9.868786e-02 -4.877372e-01 -5.506461e-02 1.917430e-01 -3.212111e-01 -5.653647e-02 1.234877e-01 1.520229e-01 -4.472107e-03 -3.269513e-01
<VARIANCE> 25
 2.000551e+01 3.158847e+01 2.284495e+01 8.642377e+01 3.045049e+01 3.683160e+01 7.100813e+01 3.526582e+01 4.373982e+01 2.604399e+01 6.171487e+01 3.429832e+01 2.418507e-01 1.045513e+00 8.532581e-01 9.864742e-01 1.312203e+00 2.083657e+00 2.160689e+00 2.170509e+00 1.894724e+00 1.590616e+00 1.606021e+00 1.712601e+00 3.818426e-01
<GCONST> 9.168376e+01
<STATE> 3
<MEAN> 25
 5.652252e+00 -3.251928e+00 8.599454e-01 -8.054037e+00 -4.171259e+00 5.149955e+00 -3.548865e+00 -3.609936e+00 -4.722460e+00 -1.617403e+00 -3.740960e+00 -3.549272e+00 1.767308e-02 1.249732e+00 3.394653e-01 -7.622796e-02 -9.327801e-01 1.882380e-01 5.578840e-01 -4.897298e-01 -3.906973e-01 -1.775635e-01 2.909828e-01 4.899334e-01 -5.896341e-01
<VARIANCE> 25
 9.691265e+00 2.266233e+01 3.231234e+01 3.550542e+01 2.970687e+01 4.808941e+01 8.905510e+01 7.310889e+01 4.209209e+01 4.302247e+01 4.549060e+01 5.395162e+01 1.817383e-01 6.956714e-01 7.765929e-01 1.442576e+00 1.312829e+00 1.925149e+00 1.617471e+00 2.389941e+00 1.659979e+00 1.379653e+00 1.192079e+00 1.814998e+00 2.618172e-01
<GCONST> 9.032198e+01
<STATE> 4
<MEAN> 25
 4.081459e+00 3.169676e+00 1.165730e-02 -6.454289e+00 -8.169116e+00 4.998081e-01 -1.640640e+00 -5.383953e+00 -6.251787e+00 -3.127403e+00 -3.457653e+00 -3.493564e+00 -4.528656e-01 1.398314e+00 3.132331e-02 6.829411e-01 -2.287287e-01 -3.622931e-01 8.177744e-01 -7.808025e-01 3.456228e-01 -1.032206e-01 3.723170e-01 4.894613e-01 -9.683324e-01
<VARIANCE> 25
 9.938449e+00 3.592442e+01 2.911863e+01 3.307290e+01 6.060341e+01 6.384253e+01 8.262127e+01 5.727367e+01 5.003970e+01 4.632349e+01 3.213806e+01 3.637886e+01 1.226812e+00 2.299705e+00 2.284019e+00 3.656029e+00 4.706830e+00 4.541467e+00 5.641793e+00 5.267517e+00 5.001248e+00 3.220249e+00 2.980778e+00 2.926991e+00 1.530833e+00
<GCONST> 1.052149e+02
<TRANSP> 5
 0.000000e+00 1.000000e+00 0.000000e+00 0.000000e+00 0.000000e+00
 0.000000e+00 5.460147e-01 4.539853e-01 0.000000e+00 0.000000e+00
 0.000000e+00 0.000000e+00 6.785427e-01 3.214573e-01 0.000000e+00
 0.000000e+00 0.000000e+00 0.000000e+00 8.076208e-01 1.923792e-01
 0.000000e+00 0.000000e+00 0.000000e+00 0.000000e+00 0.000000e+00
<ENDHMM>
~h "ny"
<BEGINHMM>
<NUMSTATES> 5
<STATE> 2
<MEAN> 25
 2.823827e+00 -2.434735e-01 5.477536e+00 -7.034428e+00 -8.174715e+00 1.855760e+00 -2.560508e+00 2.378323e+00 -9.320453e+00 -1.151839e+00 1.940781e+00 -1.834604e+00 2.362280e-01 -1.741792e+00 1.729933e-01 -1.118213e+00 -5.406970e-01 2.572150e-01 -6.968196e-01 1.582331e+00 -4.445363e-01 -8.008435e-01 -1.666129e+00 -7.573703e-02 1.745199e+00
<VARIANCE> 25
 1.186479e+01 7.470937e+01 2.851915e+01 7.590018e+01 5.502335e+01 4.340241e+01 4.717055e+01 9.245659e+01 5.616741e+01 3.009478e+01 8.170712e+01 2.890496e+01 1.846457e+00 4.150587e+00 3.041784e+00 4.711023e+00 5.886711e+00 3.203844e+00 2.415738e+00 1.003287e+01 6.296800e+00 2.398507e+00 4.005366e+00 2.911870e+00 1.740751e+00
<GCONST> 1.083221e+02
<STATE> 3
<MEAN> 25
 4.430515e+00 -1.337236e+01 -9.799865e-02 -1.041402e+01 -1.844314e+00 4.927740e+00 -1.115126e+01 6.692431e+00 -6.458225e+00 -6.300326e+00 -7.949370e+00 -1.908298e+00 2.102599e-01 1.933982e-01 -4.035397e-01 -2.400472e-02 5.545744e-01 9.077810e-02 -4.496388e-02 -3.670087e-01 1.518194e-01 6.703047e-02 2.532359e-01 -5.496787e-01 -1.687156e-01
<VARIANCE> 25
 7.323455e+00 3.284734e+01 1.447516e+01 2.314208e+01 4.393037e+01 2.558506e+01 4.612326e+01 7.078450e+01 5.715122e+01 2.200375e+01 3.798322e+01 1.252238e+01 2.331074e-01 1.054969e+00 1.566822e+00 9.429228e-01 2.739064e+00 9.983063e-01 2.354189e+00 3.483195e+00 3.190873e+00 1.516890e+00 1.788658e+00 1.421953e+00 4.235531e-01
<GCONST> 8.941009e+01
<STATE> 4
<MEAN> 25
 5.359135e+00 -5.928120e+00 1.382577e+00 -8.990569e+00 -1.579310e+00 2.134400e+00 -6.405656e+00 2.546331e+00 -4.316610e+00 -3.788453e+00 -1.886612e+00 -7.161144e+00 1.958505e-01 1.488367e+00 -4.908774e-03 -3.471113e-01 3.120794e-01 -5.476626e-01 1.784438e-01 -1.902045e+00 4.185185e-01 1.066916e+00 1.847323e-01 -7.939610e-01 -4.199471e-01
<VARIANCE> 25
 1.807014e+01 4.370101e+01 1.641702e+01 5.189422e+01 7.003204e+01 4.197419e+01 3.363499e+01 5.245464e+01 6.850962e+01 4.209916e+01 4.940482e+01 1.907400e+01 1.056941e+00 1.657168e+00 1.242018e+00 2.829815e+00 1.823775e+00 2.337127e+00 2.508469e+00 5.506886e+00 3.918226e+00 2.880757e+00 1.998574e+00 1.280627e+00 1.894283e+00
<GCONST> 9.953824e+01
<TRANSP> 5
 0.000000e+00 1.000000e+00 0.000000e+00 0.000000e+00 0.000000e+00
 0.000000e+00 8.377333e-01 1.622667e-01 0.000000e+00 0.000000e+00
 0.000000e+00 0.000000e+00 8.454332e-01 1.545668e-01 0.000000e+00
 0.000000e+00 0.000000e+00 0.000000e+00 5.332760e-01 4.667239e-01
 0.000000e+00 0.000000e+00 0.000000e+00 0.000000e+00 0.000000e+00
<ENDHMM>
~h "sp"
<BEGINHMM>
<NUMSTATES> 3
<STATE> 2
~s "silst"
<TRANSP> 3
 0.000000e+00 6.274969e-01 3.725031e-01
 0.000000e+00 9.588858e-01 4.111416e-02
 0.000000e+00 0.000000e+00 0.000000e+00
<ENDHMM>
~h "sil"
<BEGINHMM>
<NUMSTATES> 5
<STATE> 2
<MEAN> 25
 -2.749055e+00 1.857086e+00 -1.705202e+00 7.345985e+00 4.722864e+00 1.232579e+00 7.016273e+00 2.434017e+00 4.434917e+00 3.067405e+00 5.941925e+00 3.069520e+00 9.555574e-03 -3.293512e-03 -2.567982e-02 1.228479e-02 -3.317580e-02 -4.713194e-03 1.323649e-02 -1.540220e-02 -1.568072e-03 3.014049e-02 5.033183e-02 3.019610e-02 -6.848288e-02
<VARIANCE> 25
 6.504474e+00 1.161494e+01 1.253725e+01 1.186388e+01 1.730386e+01 1.967292e+01 2.127896e+01 2.144544e+01 1.766230e+01 2.131126e+01 2.022810e+01 1.499161e+01 2.785703e-01 4.005949e-01 5.771518e-01 7.286473e-01 1.010319e+00 1.117067e+00 1.316079e+00 1.515362e+00 1.499802e+00 1.488119e+00 1.434949e+00 1.313460e+00 1.850566e-01
<GCONST> 7.637428e+01
<STATE> 3
~s "silst"
<STATE> 4
<MEAN> 25
 -4.784820e+00 2.501097e+00 -1.395332e+00 4.881755e+00 2.712098e+00 -7.014204e-01 5.384801e+00 -6.012519e-01 2.252591e+00 2.113506e+00 3.975097e+00 2.638824e+00 -5.725284e-02 -3.492798e-02 5.188027e-02 -1.077172e-01 2.263360e-02 -9.980273e-02 -1.438170e-01 2.051773e-02 -1.099922e-01 -5.214714e-02 -1.749653e-02 -2.441073e-02 2.037484e-01
<VARIANCE> 25
 2.644295e+01 2.661633e+01 3.006184e+01 3.746562e+01 4.449902e+01 3.223056e+01 3.715908e+01 4.343977e+01 4.186057e+01 2.910745e+01 3.260106e+01 2.330220e+01 2.111062e+00 1.716410e+00 1.783123e+00 2.505018e+00 2.454502e+00 2.538424e+00 3.181807e+00 2.712871e+00 2.795336e+00 2.569963e+00 2.288101e+00 2.048793e+00 1.960417e+00
<GCONST> 9.888232e+01
<TRANSP> 5
 0.000000e+00 1.000000e+00 0.000000e+00 0.000000e+00 0.000000e+00
 0.000000e+00 8.635241e-01 7.892125e-02 5.755465e-02 0.000000e+00
 0.000000e+00 0.000000e+00 9.773581e-01 2.264186e-02 0.000000e+00
 0.000000e+00 1.823193e-01 0.000000e+00 6.706803e-01 1.470005e-01
 0.000000e+00 0.000000e+00 0.000000e+00 0.000000e+00 0.000000e+00
<ENDHMM>
