~o
<STREAMINFO> 1 25
<VECSIZE> 25<NULLD><MFCC_D_N_Z_0><DIAGC>
~s "silst"
<MEAN> 25
 -1.758793e+00 2.634340e+00 -8.686731e-01 7.710561e+00 3.645763e+00 1.868307e+00 6.445297e+00 1.449700e+00 4.295134e+00 3.209075e+00 5.749788e+00 2.648871e+00 -4.576316e-03 1.503767e-02 -1.714793e-04 1.480672e-02 -1.856622e-02 -1.459254e-02 1.398087e-02 -7.054725e-03 -3.043984e-03 2.398765e-02 2.702737e-02 -4.995568e-03 -1.888216e-02
<VARIANCE> 25
 2.992692e+00 5.802415e+00 6.749919e+00 7.569253e+00 1.022026e+01 1.469474e+01 1.491662e+01 1.206703e+01 1.310025e+01 1.473844e+01 1.303824e+01 1.282114e+01 1.068903e-01 2.188247e-01 3.735911e-01 5.343873e-01 6.922559e-01 8.844452e-01 1.026202e+00 1.154556e+00 1.207979e+00 1.253521e+00 1.212873e+00 1.124631e+00 4.889365e-02
<GCONST> 6.534145e+01
~h "a"
<BEGINHMM>
<NUMSTATES> 5
<STATE> 2
<MEAN> 25
 2.051656e+00 -4.695561e+00 9.578367e-01 -7.406344e+00 -2.710711e+00 -2.367844e+00 -4.804648e+00 -4.856656e-01 -2.946335e+00 -2.087481e+00 -4.932339e+00 -2.481483e+00 7.063268e-01 -2.356393e+00 -4.007425e-01 -2.154368e+00 1.816671e-01 5.211194e-01 -7.832780e-01 9.198690e-01 -4.054058e-01 -7.708207e-01 -1.492585e+00 -1.185999e-01 2.192621e+00
<VARIANCE> 25
 2.862856e+01 8.431112e+01 6.208735e+01 9.613243e+01 1.008925e+02 5.717941e+01 6.043741e+01 8.027839e+01 5.241646e+01 4.293000e+01 5.783294e+01 2.879971e+01 2.963225e+00 5.339646e+00 3.949689e+00 7.859600e+00 7.011072e+00 5.079336e+00 6.092162e+00 7.440635e+00 5.498990e+00 5.082232e+00 4.583736e+00 3.218637e+00 6.156900e+00
<GCONST> 1.161370e+02
<STATE> 3
<MEAN> 25
 4.268512e+00 -1.513524e+01 -2.787308e+00 -1.255026e+01 1.329860e+00 4.569906e-01 -6.895889e+00 4.255468e+00 -3.314935e+00 -6.495640e+00 -1.155249e+01 -1.706319e+00 4.056682e-02 -7.057790e-02 -1.368314e-01 3.463804e-01 3.214964e-01 1.863715e-01 -1.827374e-01 1.430944e-01 -2.386826e-01 -4.680249e-01 1.064910e-01 -6.864431e-03 -1.782210e-01
<VARIANCE> 25
 9.955025e+00 1.827302e+01 2.349010e+01 2.536319e+01 3.638500e+01 4.745730e+01 5.022325e+01 5.204463e+01 4.727429e+01 2.816723e+01 2.441546e+01 2.487929e+01 2.446123e-01 9.616576e-01 6.438103e-01 1.009323e+00 1.626580e+00 1.734748e+00 1.551403e+00 1.862289e+00 1.433233e+00 1.468936e+00 1.426604e+00 1.274912e+00 4.365246e-01
<GCONST> 8.720004e+01
<STATE> 4
<MEAN> 25
 2.879586e+00 -8.320915e+00 -3.506609e+00 -5.548825e+00 5.118896e+00 5.335975e-01 -3.497620e+00 3.820138e+00 -1.086861e+00 -6.189567e+00 -6.406701e+00 -1.617482e+00 -1.114811e-01 1.535586e+00 7.570751e-02 1.145062e+00 -3.599757e-01 -1.648869e-01 3.838052e-01 -6.796513e-02 4.979544e-01 7.423840e-01 1.133731e+00 -1.711200e-01 -1.686211e+00
<VARIANCE> 25
 1.547588e+01 4.375903e+01 2.483584e+01 7.727831e+01 5.378913e+01 3.941012e+01 6.181282e+01 6.396957e+01 6.402923e+01 4.835451e+01 5.090636e+01 3.563556e+01 1.010478e+00 2.228023e+00 1.557635e+00 3.117003e+00 3.177155e+00 2.858843e+00 2.735024e+00 2.935305e+00 2.739422e+00 2.895544e+00 2.387242e+00 2.571055e+00 1.667341e+00
<GCONST> 1.025850e+02
<TRANSP> 5
 0.000000e+00 1.000000e+00 0.000000e+00 0.000000e+00 0.000000e+00
 0.000000e+00 7.115409e-01 2.884591e-01 0.000000e+00 0.000000e+00
 0.000000e+00 0.000000e+00 8.723128e-01 1.276871e-01 0.000000e+00
 0.000000e+00 0.000000e+00 0.000000e+00 6.300381e-01 3.699619e-01
 0.000000e+00 0.000000e+00 0.000000e+00 0.000000e+00 0.000000e+00
<ENDHMM>
~h "b"
<BEGINHMM>
<NUMSTATES> 5
<STATE> 2
<MEAN> 25
 -2.819204e+00 3.485198e+00 -1.489622e+00 6.550655e+00 4.664883e+00 -5.488700e-01 7.405367e+00 2.975390e+00 2.845672e+00 4.283205e+00 5.493327e+00 4.564188e+00 -5.260580e-03 8.539781e-02 2.250772e-02 6.830107e-02 -1.287291e-02 -2.175627e-02 6.544773e-02 -4.431365e-02 -5.617131e-02 2.346242e-02 3.932593e-02 -9.295953e-03 -5.905003e-02
<VARIANCE> 25
 4.276404e+00 1.144353e+01 7.429301e+00 9.887186e+00 2.097603e+01 1.259708e+01 1.631343e+01 1.850766e+01 1.506996e+01 1.650283e+01 1.625902e+01 1.566271e+01 1.680980e-01 3.389820e-01 5.140372e-01 6.520115e-01 9.845328e-01 9.446143e-01 1.257538e+00 1.461788e+00 1.319704e+00 1.396132e+00 1.341207e+00 1.160167e+00 1.437607e-01
<GCONST> 7.216904e+01
<STATE> 3
<MEAN> 25
 -2.651016e-01 5.552906e+00 1.514875e+00 8.691978e+00 4.851733e+00 7.488201e-01 5.473125e+00 -9.842179e-01 -6.465066e-01 3.035831e-01 1.829236e+00 1.467956e-01 1.551623e+00 1.660144e+00 1.437966e+00 6.862078e-01 2.359364e-01 -1.755206e-01 -1.327833e+00 -2.372595e+00 -2.617983e+00 -2.509090e+00 -2.500867e+00 -2.130397e+00 8.476223e-01
<VARIANCE> 25
 8.493606e+00 1.144014e+01 9.834686e+00 1.187846e+01 1.873210e+01 1.476775e+01 2.390349e+01 2.650902e+01 2.523668e+01 2.743311e+01 2.694625e+01 2.329650e+01 1.122046e+00 5.199533e-01 7.070807e-01 7.951698e-01 8.622038e-01 1.374885e+00 2.188571e+00 3.048916e+00 2.879966e+00 2.566662e+00 2.032760e+00 1.889235e+00 4.388354e-01
<GCONST> 8.381618e+01
<STATE> 4
<MEAN> 25
 6.871294e+00 9.753618e+00 3.546869e+00 6.619208e+00 4.229822e+00 1.183381e+00 2.500079e+00 -7.990479e+00 -7.375403e+00 -5.830684e+00 -4.025198e+00 -3.824136e+00 5.596884e-01 1.123850e-01 -2.375382e-01 -6.707392e-01 -4.659060e-01 6.520925e-02 -4.247769e-01 -5.480775e-01 -1.962552e-01 -4.379727e-02 -8.611263e-02 -2.670911e-01 1.045094e+00
<VARIANCE> 25
 6.092868e+00 7.908394e+00 9.043309e+00 1.722030e+01 1.689121e+01 1.411192e+01 3.952885e+01 2.797840e+01 2.243087e+01 1.754029e+01 2.204094e+01 2.666907e+01 1.378475e+00 8.462811e-01 1.082850e+00 9.668881e-01 1.088976e+00 1.682054e+00 2.321486e+00 3.169056e+00 2.360122e+00 1.791399e+00 1.801949e+00 1.829189e+00 1.220379e+00
<GCONST> 8.533822e+01
<TRANSP> 5
 0.000000e+00 1.000000e+00 0.000000e+00 0.000000e+00 0.000000e+00
 0.000000e+00 9.271709e-01 7.282908e-02 0.000000e+00 0.000000e+00
 0.000000e+00 0.000000e+00 5.597958e-01 4.402043e-01 0.000000e+00
 0.000000e+00 0.000000e+00 0.000000e+00 7.995372e-01 2.004628e-01
 0.000000e+00 0.000000e+00 0.000000e+00 0.000000e+00 0.000000e+00
<ENDHMM>
~h "c"
<BEGINHMM>
<NUMSTATES> 5
<STATE> 2
<MEAN> 25
 -1.412104e+00 2.650779e+00 -9.554532e-02 7.421126e+00 3.935493e+00 1.390722e+00 5.914843e+00 2.445894e+00 3.595468e+00 2.939398e+00 5.528957e+00 1.329652e+00 -2.833252e-01 2.269368e-02 -3.003683e-02 -4.491479e-02 -2.922982e-02 -3.405308e-02 5.609121e-02 -1.554940e-01 7.033515e-02 9.341109e-02 6.270816e-02 -1.349720e-02 1.827329e-01
<VARIANCE> 25
 6.215182e+00 1.154008e+01 1.322812e+01 1.529144e+01 1.447046e+01 1.932555e+01 1.670221e+01 1.956727e+01 2.055838e+01 2.001109e+01 1.702966e+01 1.905190e+01 1.351402e+00 1.146048e+00 2.097241e+00 2.099810e+00 1.550309e+00 2.213571e+00 2.230063e+00 2.256025e+00 2.304870e+00 2.008467e+00 1.818497e+00 1.670935e+00 1.644324e+00
<GCONST> 8.666374e+01
<STATE> 3
<MEAN> 25
 -1.172751e+01 3.988204e+00 -1.337227e+00 3.007574e+00 2.779804e+00 6.093837e-01 4.846199e+00 -6.655511e-01 3.312166e+00 2.460254e+00 3.331946e+00 9.311597e-01 -1.818104e+00 8.314472e-01 -6.155043e-02 -6.807517e-01 -1.282467e+00 -1.456440e-01 -3.249012e-01 -9.425229e-01 -7.514425e-01 -3.915119e-01 -1.551398e-01 -6.780707e-01 3.720932e+00
<VARIANCE> 25
 3.668877e+01 3.254256e+01 2.497080e+01 2.781100e+01 2.447286e+01 3.044393e+01 2.483638e+01 2.135673e+01 1.828023e+01 1.385456e+01 1.505825e+01 1.734000e+01 4.136452e+00 3.018924e+00 2.718726e+00 2.772165e+00 2.284045e+00 2.356817e+00 2.616136e+00 2.596894e+00 2.087615e+00 2.022479e+00 1.944923e+00 1.570154e+00 5.079788e+00
<GCONST> 9.588743e+01
<STATE> 4
<MEAN> 25
 -8.295111e+00 4.824052e+00 1.103694e+00 1.006737e+00 -6.270410e+00 -4.371736e+00 4.673151e+00 -1.465870e+00 -2.802075e+00 -2.475555e+00 1.355043e+00 -1.798179e+00 4.035814e+00 -2.227700e+00 3.103487e-01 -1.774364e+00 -2.125085e+00 -2.778209e+00 -1.612118e+00 9.487708e-01 -2.177153e+00 -1.521547e+00 -2.284012e+00 -6.035699e-01 9.543120e-01
<VARIANCE> 25
 5.604789e+01 3.165338e+01 1.617645e+01 4.424263e+01 3.821705e+01 4.345251e+01 2.653709e+01 2.495301e+01 2.910082e+01 2.390148e+01 3.032549e+01 2.382725e+01 2.705921e+00 7.949367e+00 2.263020e+00 9.807535e+00 4.900174e+00 3.985204e+00 6.795418e+00 5.300048e+00 2.856261e+00 2.122471e+00 3.794094e+00 2.848875e+00 1.518859e+00
<GCONST> 1.043639e+02
<TRANSP> 5
 0.000000e+00 1.000000e+00 0.000000e+00 0.000000e+00 0.000000e+00
 0.000000e+00 8.846735e-01 1.153266e-01 0.000000e+00 0.000000e+00
 0.000000e+00 0.000000e+00 8.113601e-01 1.886399e-01 0.000000e+00
 0.000000e+00 0.000000e+00 0.000000e+00 6.872931e-01 3.127069e-01
 0.000000e+00 0.000000e+00 0.000000e+00 0.000000e+00 0.000000e+00
<ENDHMM>
~h "d"
<BEGINHMM>
<NUMSTATES> 5
<STATE> 2
<MEAN> 25
 4.453515e+00 -3.072569e+00 6.824908e+00 -1.891565e+00 -9.146188e+00 -4.384571e+00 -9.075306e+00 1.431185e+00 -2.105241e+00 -5.201223e+00 -4.992301e+00 -3.864828e+00 4.569578e-01 1.109374e+00 8.002124e-01 2.854833e+00 1.156531e+00 -5.313298e-01 1.185060e+00 -3.934553e-01 1.105019e+00 -1.662919e+00 -4.793842e-01 4.041685e-01 -2.316809e+00
<VARIANCE> 25
 1.206196e+01 5.443496e+01 5.811092e+01 9.636491e+01 9.346382e+01 3.689590e+01 1.082440e+02 7.082136e+01 5.225955e+01 4.623708e+01 6.197210e+01 3.391335e+01 1.840531e+00 4.590909e+00 4.737350e+00 7.804671e+00 1.645265e+01 5.614513e+00 8.474295e+00 7.376681e+00 4.796633e+00 4.520823e+00 8.000420e+00 3.566618e+00 6.311733e+00
<GCONST> 1.162709e+02
<STATE> 3
<MEAN> 25
 3.974222e+00 2.345682e+00 8.422820e+00 4.249535e+00 -6.486554e+00 -6.018844e+00 -7.718646e+00 -2.412428e+00 -8.927270e-01 -7.324001e+00 -2.739388e+00 -2.772781e+00 -9.386687e-02 -4.917174e-01 -3.035101e-01 -9.098537e-01 -8.355408e-01 -9.264952e-02 -9.838342e-01 8.339787e-01 -2.613684e-01 1.053470e+00 5.445428e-01 4.133455e-02 7.869838e-01
<VARIANCE> 25
 1.374685e+01 5.194389e+01 1.970022e+01 6.669064e+01 5.420374e+01 3.032494e+01 5.791380e+01 5.476178e+01 3.669538e+01 3.799438e+01 4.064331e+01 2.315636e+01 2.071865e+00 7.271417e+00 2.423390e+00 1.251918e+01 1.008853e+01 3.514020e+00 6.816656e+00 7.784191e+00 2.935251e+00 4.692217e+00 4.275681e+00 2.890788e+00 1.248089e+01
<GCONST> 1.105783e+02
<STATE> 4
<MEAN> 25
 5.064378e+00 -3.326165e+00 4.640978e+00 -4.663034e+00 -7.134381e+00 -5.639109e+00 -1.302745e+01 5.586827e+00 -6.836733e-01 -4.129109e-01 -4.210213e+00 -2.760383e+00 -6.858737e-02 5.707739e-01 -3.145250e-01 5.141953e-01 1.091633e+00 3.239302e-01 8.412039e-01 -4.786334e-01 4.616363e-01 -9.608684e-02 -5.155578e-01 -1.976384e-01 -8.277729e-01
<VARIANCE> 25
 9.457805e+00 4.906407e+01 3.566240e+01 1.111843e+02 8.920547e+01 3.567793e+01 9.144215e+01 7.489263e+01 6.582752e+01 3.775976e+01 4.633615e+01 4.689468e+01 4.621093e-01 2.153966e+00 1.445040e+00 3.032021e+00 3.043246e+00 2.936814e+00 2.900115e+00 3.729392e+00 2.048030e+00 2.545942e+00 2.953725e+00 1.932358e+00 3.047283e+00
<GCONST> 1.033229e+02
<TRANSP> 5
 0.000000e+00 1.000000e+00 0.000000e+00 0.000000e+00 0.000000e+00
 0.000000e+00 6.289347e-01 3.710652e-01 0.000000e+00 0.000000e+00
 0.000000e+00 0.000000e+00 7.079742e-01 2.920258e-01 0.000000e+00
 0.000000e+00 0.000000e+00 0.000000e+00 8.411651e-01 1.588349e-01
 0.000000e+00 0.000000e+00 0.000000e+00 0.000000e+00 0.000000e+00
<ENDHMM>
~h "e"
<BEGINHMM>
<NUMSTATES> 5
<STATE> 2
<MEAN> 25
 3.182431e-01 -7.119763e-01 1.298982e+00 -1.981315e+00 -4.164242e+00 -3.729720e+00 -1.755129e+00 -3.338712e+00 -1.187522e+00 -1.416402e+00 -3.263319e+00 -3.727537e+00 1.910976e+00 -2.629099e+00 1.061327e+00 -3.682153e+00 -3.340697e+00 -2.037246e+00 -1.697837e+00 1.414878e+00 -1.252604e+00 -3.258272e-01 -2.524670e+00 -5.280886e-01 3.686559e+00
<VARIANCE> 25
 3.582182e+01 4.592695e+01 3.018429e+01 7.227839e+01 6.176298e+01 5.984301e+01 8.420513e+01 6.230923e+01 5.445079e+01 4.709404e+01 4.290574e+01 3.310910e+01 4.857054e+00 6.127321e+00 2.884928e+00 6.687251e+00 5.187652e+00 5.539922e+00 8.584165e+00 8.870510e+00 4.664068e+00 4.419065e+00 4.543666e+00 5.016310e+00 5.066600e+00
<GCONST> 1.147478e+02
<STATE> 3
<MEAN> 25
 3.228388e+00 -1.085895e+01 5.068554e+00 -1.140332e+01 -1.311348e+01 -7.355159e+00 -3.980582e+00 6.314940e+00 -4.021266e+00 -1.803481e+00 -9.092015e+00 -2.849315e+00 -3.752064e-02 -1.838045e+00 1.205746e+00 -1.461427e+00 -1.818410e+00 2.460989e-01 6.886635e-01 2.063869e+00 -1.535278e+00 2.870116e-01 -7.854046e-01 5.096664e-01 1.294089e+00
<VARIANCE> 25
 6.538032e+00 2.136461e+01 2.232862e+01 3.103108e+01 4.626686e+01 5.746188e+01 6.120059e+01 4.250946e+01 5.999402e+01 3.427514e+01 4.449781e+01 2.095197e+01 1.030880e+00 2.707294e+00 1.900952e+00 3.384303e+00 3.049532e+00 2.901521e+00 3.683618e+00 4.199432e+00 2.888078e+00 4.083098e+00 3.037513e+00 1.742287e+00 1.782843e+00
<GCONST> 1.001618e+02
<STATE> 4
<MEAN> 25
 2.595932e+00 -9.847628e+00 6.964903e+00 -1.161869e+01 -1.501371e+01 -4.593718e+00 -2.113679e+00 5.573033e+00 -8.017262e+00 1.271655e-01 -8.722787e+00 -1.928957e+00 1.021023e-01 3.500305e-01 -3.117512e-01 6.128412e-01 5.449816e-01 1.231898e-01 -1.356378e-01 -1.992875e-01 1.866476e-01 -1.963627e-01 1.274504e-01 -5.352724e-03 -6.532106e-01
<VARIANCE> 25
 1.002092e+01 4.451593e+01 3.695374e+01 3.902683e+01 5.367566e+01 5.046431e+01 5.483025e+01 4.972315e+01 3.769984e+01 4.853722e+01 4.872745e+01 1.966970e+01 6.113141e-01 1.441383e+00 1.265505e+00 2.403309e+00 2.615461e+00 1.755574e+00 2.364905e+00 1.954417e+00 2.418526e+00 2.126596e+00 1.887710e+00 1.473351e+00 1.925014e+00
<GCONST> 9.686998e+01
<TRANSP> 5
 0.000000e+00 1.000000e+00 0.000000e+00 0.000000e+00 0.000000e+00
 0.000000e+00 6.576082e-01 3.423918e-01 0.000000e+00 0.000000e+00
 0.000000e+00 0.000000e+00 5.590135e-01 4.409865e-01 0.000000e+00
 0.000000e+00 0.000000e+00 0.000000e+00 8.909894e-01 1.090106e-01
 0.000000e+00 0.000000e+00 0.000000e+00 0.000000e+00 0.000000e+00
<ENDHMM>
~h "f"
<BEGINHMM>
<NUMSTATES> 5
<STATE> 2
<MEAN> 25
 -4.951093e+00 3.775052e+00 -1.400728e+00 5.446949e+00 -1.038937e-01 -2.868164e+00 1.616469e+00 -2.273542e+00 2.723678e-01 -8.534204e-01 4.749384e-01 -7.178149e-01 -2.173918e+00 2.270475e-01 -1.071666e+00 1.452055e+00 1.234598e+00 8.632858e-01 1.061405e+00 1.038082e+00 1.447366e+00 4.436926e-01 1.027437e+00 7.347484e-01 -6.778328e-01
<VARIANCE> 25
 3.453086e+01 2.161355e+01 2.257740e+01 2.704292e+01 3.670031e+01 3.284768e+01 2.744242e+01 2.625409e+01 2.901873e+01 3.113115e+01 2.557251e+01 2.280867e+01 3.097888e+00 3.539850e+00 3.236760e+00 5.623229e+00 4.460897e+00 3.677827e+00 3.112343e+00 3.176713e+00 4.180814e+00 4.407118e+00 3.336703e+00 2.364949e+00 2.372834e+00
<GCONST> 1.020546e+02
<STATE> 3
<MEAN> 25
 -8.579189e+00 2.697367e+00 -4.081424e+00 7.388594e+00 2.046315e+00 -4.353435e-01 4.890756e+00 1.899556e+00 3.905578e+00 1.767540e+00 3.391874e+00 2.260906e+00 -1.569026e-01 -4.929350e-02 -6.549131e-02 5.897539e-02 -1.728847e-01 -1.175458e-01 -7.674937e-03 -2.966001e-03 2.706051e-04 7.564066e-02 6.851378e-02 -3.328692e-03 1.655480e-01
<VARIANCE> 25
 2.229204e+01 1.661442e+01 1.270342e+01 1.297295e+01 2.007388e+01 2.255944e+01 2.034665e+01 2.042565e+01 1.429785e+01 1.951979e+01 1.418861e+01 1.680082e+01 1.421014e+00 8.672993e-01 7.684336e-01 1.092877e+00 1.224543e+00 1.377429e+00 1.409964e+00 1.584546e+00 1.570037e+00 1.661020e+00 1.395536e+00 1.543715e+00 2.174743e+00
<GCONST> 8.408081e+01
<STATE> 4
<MEAN> 25
 -8.376821e+00 1.516625e+00 -3.097558e+00 7.320174e+00 1.311556e-01 -2.002899e+00 3.517812e+00 -2.909463e-01 1.879874e+00 5.375972e-01 2.115440e+00 2.111730e-01 3.180837e+00 -6.846885e-01 1.752378e+00 -2.368918e+00 -1.706950e+00 -1.151799e+00 -1.781274e+00 -1.914975e+00 -2.583167e+00 -1.112109e+00 -1.407315e+00 -1.425813e+00 1.273933e+00
<VARIANCE> 25
 1.587823e+01 1.841152e+01 1.980775e+01 1.612604e+01 1.993747e+01 2.515442e+01 2.522721e+01 2.580313e+01 2.065610e+01 2.183073e+01 1.880111e+01 1.943183e+01 3.070902e+00 3.639517e+00 7.792934e+00 6.680920e+00 4.195536e+00 5.529590e+00 3.990614e+00 3.714277e+00 3.762218e+00 2.546843e+00 2.222551e+00 2.957421e+00 3.035621e+00
<GCONST> 9.955936e+01
<TRANSP> 5
 0.000000e+00 1.000000e+00 0.000000e+00 0.000000e+00 0.000000e+00
 0.000000e+00 7.177000e-01 2.823000e-01 0.000000e+00 0.000000e+00
 0.000000e+00 0.000000e+00 8.754318e-01 1.245681e-01 0.000000e+00
 0.000000e+00 0.000000e+00 0.000000e+00 4.535093e-01 5.464907e-01
 0.000000e+00 0.000000e+00 0.000000e+00 0.000000e+00 0.000000e+00
<ENDHMM>
~h "g"
<BEGINHMM>
<NUMSTATES> 5
<STATE> 2
<MEAN> 25
 3.003831e+00 3.851434e+00 3.298025e+00 7.734874e-01 -1.442748e+00 -6.404490e+00 -3.891554e+00 -6.036275e+00 -2.528017e+00 -2.686898e+00 -6.394571e+00 -2.213581e+00 -3.519290e-01 -5.252524e-01 -2.552611e-02 -2.844518e-01 7.094690e-02 -1.345017e+00 -1.375092e+00 6.742592e-01 3.155971e-01 9.096830e-01 -3.253382e-01 2.559472e-01 1.200383e+00
<VARIANCE> 25
 1.823878e+01 6.223933e+01 5.669446e+01 1.207350e+02 7.661705e+01 4.514647e+01 5.795697e+01 5.334428e+01 2.648591e+01 4.217279e+01 4.159184e+01 2.130580e+01 1.430127e+00 5.360743e+00 6.761194e+00 4.960067e+00 1.083416e+01 3.503629e+00 5.047309e+00 4.843705e+00 5.222364e+00 4.336852e+00 3.353485e+00 2.368545e+00 5.252968e+00
<GCONST> 1.110369e+02
<STATE> 3
<MEAN> 25
 2.563739e+00 3.011169e+00 6.770303e+00 -1.451936e+00 -4.784771e+00 -9.698885e+00 -8.910825e+00 -3.975792e+00 -4.995770e+00 -1.016189e+00 -9.863261e+00 -4.344219e-01 -3.377168e-01 7.997021e-02 5.495163e-01 1.016800e-01 -9.863889e-01 6.400287e-02 1.164807e-01 -1.177676e-02 -4.761831e-01 4.515024e-01 2.756484e-01 1.008638e-01 1.963737e-01
<VARIANCE> 25
 1.689139e+01 5.120350e+01 2.755139e+01 1.029760e+02 7.124303e+01 5.378892e+01 5.031001e+01 5.122240e+01 1.805408e+01 5.965130e+01 4.025457e+01 4.738445e+01 1.601656e+00 7.440592e+00 3.631882e+00 1.955836e+01 9.096473e+00 5.952828e+00 5.555848e+00 8.426972e+00 2.697930e+00 9.592363e+00 4.507599e+00 5.829254e+00 1.500251e+01
<GCONST> 1.151105e+02
<STATE> 4
<MEAN> 25
 2.593868e+00 -2.463774e+00 7.527452e+00 -1.055812e+01 -1.199060e+01 -7.301100e+00 -7.853148e+00 -6.491784e+00 -9.014145e+00 6.155019e+00 -9.982772e+00 -7.839925e-01 2.223817e-01 9.908916e-02 -7.481962e-02 1.077702e-01 6.373257e-01 5.296058e-01 -2.965293e-01 -2.041847e-01 1.761252e-01 -4.329187e-01 1.134617e-01 -4.465761e-01 -3.938883e-01
<VARIANCE> 25
 2.062898e+01 5.232191e+01 2.945797e+01 1.341018e+02 5.933083e+01 2.725747e+01 8.514815e+01 8.265240e+01 3.528390e+01 7.819077e+01 4.687434e+01 3.383539e+01 1.682562e+00 3.046204e+00 1.955303e+00 6.500447e+00 4.520543e+00 3.374254e+00 5.921735e+00 7.015224e+00 3.496508e+00 4.253174e+00 3.781119e+00 2.610500e+00 4.277321e+00
<GCONST> 1.098221e+02
<TRANSP> 5
 0.000000e+00 1.000000e+00 0.000000e+00 0.000000e+00 0.000000e+00
 0.000000e+00 5.588660e-01 4.411341e-01 0.000000e+00 0.000000e+00
 0.000000e+00 0.000000e+00 7.659875e-01 2.340125e-01 0.000000e+00
 0.000000e+00 0.000000e+00 0.000000e+00 8.076354e-01 1.923646e-01
 0.000000e+00 0.000000e+00 0.000000e+00 0.000000e+00 0.000000e+00
<ENDHMM>
~h "h"
<BEGINHMM>
<NUMSTATES> 5
<STATE> 2
<MEAN> 25
 -2.206032e+00 6.050554e-01 -1.019866e+00 6.382356e+00 5.955407e+00 9.873893e-01 5.592701e+00 2.518425e+00 4.192119e+00 2.905309e-01 3.412096e+00 3.022367e+00 -2.151271e-01 -2.728353e-01 -2.453121e-01 2.299071e-01 -8.250032e-03 1.470599e-02 4.023160e-01 3.824050e-01 5.977548e-01 3.866268e-01 4.960632e-01 2.199388e-01 -4.987285e-01
<VARIANCE> 25
 7.475763e+00 2.347639e+01 1.963890e+01 1.477988e+01 3.789986e+01 2.192656e+01 2.882669e+01 3.226465e+01 2.825803e+01 2.442571e+01 2.504187e+01 2.304284e+01 9.049647e-01 1.371473e+00 1.242987e+00 1.565235e+00 2.138413e+00 1.913173e+00 2.750105e+00 2.628192e+00 3.056291e+00 2.672223e+00 2.745915e+00 2.116898e+00 1.173784e+00
<GCONST> 9.152696e+01
<STATE> 3
<MEAN> 25
 -1.614979e+00 2.588840e+00 -1.159587e+00 7.885095e+00 4.522712e+00 4.603583e-01 7.064779e+00 1.955012e+00 4.237330e+00 2.773996e+00 6.073170e+00 2.762947e+00 6.312603e-03 -2.113597e-02 -2.627278e-02 -6.858791e-03 1.609506e-02 4.801641e-02 2.994800e-02 -3.044284e-02 -1.876431e-02 1.999669e-02 2.784011e-02 -1.837214e-02 2.149731e-03
<VARIANCE> 25
 3.660839e+00 1.372311e+01 7.121472e+00 8.205498e+00 1.298634e+01 1.384529e+01 1.799181e+01 1.577302e+01 1.661971e+01 1.927152e+01 1.770964e+01 1.521205e+01 1.334331e-01 4.115431e-01 4.588805e-01 5.618130e-01 7.828511e-01 9.639182e-01 1.156449e+00 1.204353e+00 1.312667e+00 1.553139e+00 1.381776e+00 1.098661e+00 1.128100e-01
<GCONST> 7.087704e+01
<STATE> 4
<MEAN> 25
 -6.717820e+00 -2.816776e+00 -2.418427e+00 3.303380e+00 8.970970e+00 6.069940e-01 6.889209e+00 1.638598e+00 2.579979e+00 -6.538575e-01 2.960792e+00 2.610585e+00 -4.999014e-01 -4.181233e-01 6.888641e-02 -6.565499e-01 2.749214e-01 -1.397812e-01 -1.200704e-01 -4.083102e-01 -3.784599e-01 -5.481829e-01 -6.031075e-01 -2.067161e-01 1.496212e+00
<VARIANCE> 25
 2.822342e+01 5.068589e+01 2.275903e+01 2.303925e+01 5.468497e+01 4.285278e+01 3.231662e+01 3.012238e+01 3.118928e+01 2.682012e+01 2.581569e+01 2.316347e+01 1.782438e+00 2.006956e+00 1.050289e+00 1.456495e+00 2.363964e+00 1.833365e+00 2.291996e+00 2.353356e+00 2.281014e+00 1.938529e+00 2.215576e+00 1.701939e+00 9.498188e-01
<GCONST> 9.485168e+01
<TRANSP> 5
 0.000000e+00 1.000000e+00 0.000000e+00 0.000000e+00 0.000000e+00
 0.000000e+00 8.175255e-01 1.824745e-01 0.000000e+00 0.000000e+00
 0.000000e+00 0.000000e+00 9.205453e-01 7.945474e-02 0.000000e+00
 0.000000e+00 0.000000e+00 0.000000e+00 8.877421e-01 1.122579e-01
 0.000000e+00 0.000000e+00 0.000000e+00 0.000000e+00 0.000000e+00
<ENDHMM>
~h "i"
<BEGINHMM>
<NUMSTATES> 5
<STATE> 2
<MEAN> 25
 -2.510658e+00 4.130793e+00 8.600513e+00 -3.397697e-01 -1.005297e+01 -5.360939e+00 -3.558078e+00 -7.026190e+00 -6.269563e+00 -2.914829e+00 -5.951409e-01 -3.185480e+00 6.788104e-01 -3.151478e-01 3.696463e+00 -3.030008e+00 -4.141201e+00 -1.100250e-01 -3.213428e+00 -1.098755e+00 -2.480569e+00 4.249628e-01 -1.100077e+00 -8.945251e-01 2.563484e+00
<VARIANCE> 25
 2.438810e+01 3.751072e+01 5.230009e+01 6.193965e+01 8.046817e+01 4.398394e+01 5.787025e+01 5.515786e+01 4.203930e+01 3.457383e+01 3.919730e+01 2.456830e+01 4.989284e+00 3.199529e+00 4.344036e+00 5.461473e+00 6.437854e+00 6.845860e+00 6.490004e+00 5.153778e+00 5.252666e+00 6.006976e+00 7.239246e+00 4.283715e+00 4.419216e+00
<GCONST> 1.128453e+02
<STATE> 3
<MEAN> 25
 -1.952170e+00 1.921534e+00 1.516603e+01 -1.153435e+01 -1.750261e+01 -1.625428e+00 -1.230232e+01 -5.165683e+00 -1.099471e+01 1.256262e+00 -5.981410e+00 -3.828794e+00 -2.007573e-01 1.361699e-01 5.637600e-01 -7.885833e-01 -4.578688e-01 7.991233e-01 -7.577543e-01 5.337767e-02 -6.867696e-02 2.128547e-01 -3.781185e-01 -2.897857e-01 1.392149e-01
<VARIANCE> 25
 9.728287e+00 2.657354e+01 2.861085e+01 6.469389e+01 4.105239e+01 6.524936e+01 3.048506e+01 4.082723e+01 3.023442e+01 5.117446e+01 8.820616e+01 4.699353e+01 5.113534e-01 1.310978e+00 1.449480e+00 2.056628e+00 2.241678e+00 2.430742e+00 2.198510e+00 2.139666e+00 1.901440e+00 2.456065e+00 2.076153e+00 1.618170e+00 5.567319e-01
<GCONST> 9.582241e+01
<STATE> 4
<MEAN> 25
 -1.960681e+00 6.157536e+00 1.323706e+01 -7.278436e+00 -1.305349e+01 2.209212e+00 -8.691516e+00 -7.558167e+00 -5.940590e+00 -2.134932e+00 -2.665953e+00 -3.935475e+00 2.385894e-01 6.269646e-02 -9.666592e-01 1.333081e+00 1.341189e+00 -2.734649e-01 1.259004e+00 1.322289e-01 7.050015e-01 -1.037216e-01 4.373285e-01 3.884691e-01 -1.353865e+00
<VARIANCE> 25
 1.132743e+01 2.836708e+01 3.668391e+01 8.069747e+01 8.873843e+01 5.207770e+01 5.943873e+01 2.971236e+01 4.851686e+01 4.542301e+01 5.559755e+01 5.259662e+01 8.201404e-01 1.506913e+00 2.280467e+00 3.430248e+00 3.287037e+00 2.231143e+00 3.176223e+00 2.361500e+00 2.645135e+00 2.699636e+00 2.864528e+00 2.125042e+00 1.884831e+00
<GCONST> 1.019883e+02
<TRANSP> 5
 0.000000e+00 1.000000e+00 0.000000e+00 0.000000e+00 0.000000e+00
 0.000000e+00 6.303328e-01 3.696671e-01 0.000000e+00 0.000000e+00
 0.000000e+00 0.000000e+00 7.665366e-01 2.334634e-01 0.000000e+00
 0.000000e+00 0.000000e+00 0.000000e+00 8.582734e-01 1.417266e-01
 0.000000e+00 0.000000e+00 0.000000e+00 0.000000e+00 0.000000e+00
<ENDHMM>
~h "j"
<BEGINHMM>
<NUMSTATES> 5
<STATE> 2
<MEAN> 25
 -2.235142e+00 6.883822e-01 5.227096e-01 6.154279e+00 4.239882e+00 2.214961e+00 3.348558e+00 4.003927e+00 3.140737e+00 9.526293e-01 3.298752e+00 1.950221e+00 -1.501843e-01 -1.001212e-01 -2.139405e-02 2.912711e-01 -3.304039e-01 1.121701e-01 4.293498e-01 3.354669e-01 4.255679e-01 4.063732e-01 6.478547e-01 4.016095e-01 -4.340869e-01
<VARIANCE> 25
 7.157795e+00 1.767421e+01 2.472942e+01 1.389058e+01 2.499985e+01 2.293634e+01 3.169916e+01 3.292610e+01 3.454323e+01 2.666739e+01 3.154546e+01 2.247338e+01 7.116328e-01 1.272526e+00 1.503790e+00 1.359339e+00 1.422035e+00 1.686406e+00 2.270598e+00 2.889190e+00 3.313074e+00 2.476568e+00 2.575839e+00 2.327366e+00 7.188674e-01
<GCONST> 9.025508e+01
<STATE> 3
<MEAN> 25
 -1.605876e+00 3.348172e-01 8.562688e-01 7.272130e+00 1.581802e+00 1.763441e+00 5.120742e+00 2.537241e+00 3.819857e+00 9.861338e-01 5.353922e+00 1.917453e+00 -2.655176e-02 4.722036e-02 5.461697e-03 7.243385e-02 3.417000e-02 -8.379529e-03 -1.258810e-02 -6.621163e-02 -6.505763e-03 -9.574742e-03 -4.564974e-02 -2.047108e-02 -2.339001e-03
<VARIANCE> 25
 3.767479e+00 1.048813e+01 1.070878e+01 9.800362e+00 1.098381e+01 1.555950e+01 1.334328e+01 1.601625e+01 1.471333e+01 1.663630e+01 1.594166e+01 1.353576e+01 3.163756e-01 4.058144e-01 6.130201e-01 7.419844e-01 8.881182e-01 9.673243e-01 1.032717e+00 1.393457e+00 1.392355e+00 1.354999e+00 1.156944e+00 1.140061e+00 2.060425e-01
<GCONST> 7.236099e+01
<STATE> 4
<MEAN> 25
 -3.313927e+00 4.702815e+00 3.279620e+00 8.151814e+00 2.685554e+00 1.639113e+00 4.091703e+00 8.223504e-02 9.948480e-01 -8.853627e-01 1.759155e+00 -1.150121e+00 -4.911996e-01 5.415304e-01 3.091072e-01 -1.305986e-01 -3.737907e-02 -2.330962e-01 -3.919141e-01 -4.300400e-01 -5.053351e-01 -3.938486e-01 -3.881842e-01 -3.909544e-01 1.214090e+00
<VARIANCE> 25
 3.769007e+01 1.685029e+01 2.571609e+01 2.068587e+01 1.872741e+01 2.259569e+01 2.104874e+01 2.244277e+01 2.774776e+01 3.017994e+01 2.737647e+01 2.336702e+01 3.799610e+00 1.751651e+00 3.085628e+00 1.871242e+00 2.693379e+00 2.153610e+00 1.940694e+00 2.551078e+00 2.205845e+00 3.059892e+00 2.469484e+00 2.190249e+00 3.075476e+00
<GCONST> 9.580146e+01
<TRANSP> 5
 0.000000e+00 1.000000e+00 0.000000e+00 0.000000e+00 0.000000e+00
 0.000000e+00 7.206116e-01 2.793884e-01 0.000000e+00 0.000000e+00
 0.000000e+00 0.000000e+00 9.026762e-01 9.732383e-02 0.000000e+00
 0.000000e+00 0.000000e+00 0.000000e+00 8.649226e-01 1.350773e-01
 0.000000e+00 0.000000e+00 0.000000e+00 0.000000e+00 0.000000e+00
<ENDHMM>
~h "k"
<BEGINHMM>
<NUMSTATES> 5
<STATE> 2
<MEAN> 25
 -1.952432e+00 2.617103e+00 -1.312252e-02 4.706089e+00 2.801399e+00 2.329099e+00 4.250382e+00 1.344231e-01 3.561889e+00 2.265260e+00 3.863575e+00 1.569416e+00 -5.986005e-01 -3.710211e-01 -5.236632e-01 9.280207e-01 7.676534e-01 1.577800e-01 7.712875e-01 6.039072e-01 7.981458e-01 5.910963e-01 7.293913e-01 5.257907e-01 -1.019541e+00
<VARIANCE> 25
 1.147961e+01 1.755853e+01 2.366641e+01 2.553355e+01 2.784698e+01 2.525042e+01 3.063778e+01 2.950501e+01 3.174477e+01 3.027347e+01 2.984544e+01 2.074456e+01 1.628518e+00 2.087478e+00 2.339990e+00 3.962126e+00 3.317415e+00 3.701274e+00 3.137981e+00 3.182783e+00 3.310621e+00 3.452060e+00 3.433646e+00 2.098064e+00 4.729289e+00
<GCONST> 9.854002e+01
<STATE> 3
<MEAN> 25
 -4.805298e+00 -8.206990e-01 -6.500630e+00 4.661300e+00 5.862936e+00 -3.543761e+00 5.293167e+00 4.797186e-01 3.971544e+00 3.794574e+00 2.248401e+00 3.664288e+00 -2.348056e-01 -1.281692e+00 -1.996019e+00 -1.603189e+00 3.998404e-01 -2.690692e+00 -1.187638e+00 -2.174612e-01 -7.264196e-01 -2.511656e-01 -2.231673e+00 -4.223751e-02 4.413506e+00
<VARIANCE> 25
 1.639833e+01 2.755633e+01 4.977485e+01 3.608175e+01 5.215202e+01 6.352901e+01 3.897472e+01 2.954945e+01 2.853983e+01 3.470602e+01 4.339570e+01 2.720511e+01 2.226354e+00 3.395361e+00 4.831097e+00 6.156529e+00 6.958455e+00 5.733026e+00 4.026919e+00 4.070964e+00 3.934381e+00 4.511680e+00 5.381498e+00 3.243570e+00 6.946649e+00
<GCONST> 1.082530e+02
<STATE> 4
<MEAN> 25
 -8.472382e-01 -2.271128e+00 -5.843745e+00 -3.527894e+00 2.164311e+00 -7.112296e+00 -5.656545e-01 5.900885e-01 9.392030e-01 1.983828e+00 -5.815169e+00 3.609958e-01 2.315621e+00 -1.477658e+00 1.975619e+00 -3.679661e+00 -2.838763e+00 8.770867e-01 -1.690703e+00 8.468986e-01 -1.463544e+00 -1.043360e+00 -2.142972e+00 -1.612830e+00 2.681607e+00
<VARIANCE> 25
 2.801709e+01 3.935586e+01 5.048528e+01 6.613979e+01 7.945130e+01 4.911033e+01 4.921630e+01 3.630849e+01 3.217506e+01 5.236299e+01 5.076474e+01 3.656655e+01 1.853522e+00 5.341557e+00 5.930135e+00 6.671460e+00 6.186516e+00 7.197230e+00 5.758333e+00 4.710997e+00 4.632041e+00 3.458010e+00 4.472314e+00 3.982495e+00 4.023101e+00
<GCONST> 1.118917e+02
<TRANSP> 5
 0.000000e+00 1.000000e+00 0.000000e+00 0.000000e+00 0.000000e+00
 0.000000e+00 8.069187e-01 1.930813e-01 0.000000e+00 0.000000e+00
 0.000000e+00 0.000000e+00 6.165823e-01 3.834177e-01 0.000000e+00
 0.000000e+00 0.000000e+00 0.000000e+00 5.364011e-01 4.635989e-01
 0.000000e+00 0.000000e+00 0.000000e+00 0.000000e+00 0.000000e+00
<ENDHMM>
~h "l"
<BEGINHMM>
<NUMSTATES> 5
<STATE> 2
<MEAN> 25
 3.899217e+00 -1.030839e+00 -3.999719e-02 -8.670545e+00 -4.113476e-01 -9.158386e-01 -8.340588e+00 -3.352490e+00 8.481300e-01 1.963051e+00 -8.875545e-01 -8.939517e-01 8.149009e-01 -8.444474e-01 2.467298e-01 -2.338857e+00 4.438046e-01 -1.626086e-01 -2.123614e+00 -1.256394e-01 6.266678e-01 3.214301e-01 -5.747023e-01 -5.490233e-01 1.504552e+00
<VARIANCE> 25
 3.028405e+01 4.403993e+01 2.923967e+01 1.331092e+02 5.471471e+01 5.033041e+01 1.197829e+02 5.155793e+01 5.349000e+01 3.461726e+01 5.586007e+01 3.511012e+01 3.104778e+00 3.924976e+00 1.975399e+00 7.497147e+00 4.855941e+00 4.079735e+00 9.503703e+00 4.962209e+00 3.325511e+00 3.884379e+00 3.853373e+00 3.002799e+00 3.696658e+00
<GCONST> 1.115135e+02
<STATE> 3
<MEAN> 25
 5.791904e+00 -3.367259e+00 1.157730e+00 -2.230204e+01 -1.628090e+00 -1.603841e+00 -1.310915e+01 -3.311288e+00 -1.813962e+00 5.751650e+00 -4.726651e+00 -7.257946e-01 -4.347197e-02 -7.411349e-01 -1.377854e-01 -1.219389e-02 2.390297e-01 3.165350e-02 1.249325e-02 2.315091e-01 7.435169e-01 -1.420134e-01 -4.771928e-01 -6.406540e-01 4.458031e-01
<VARIANCE> 25
 7.839326e+00 4.046262e+01 4.498257e+01 6.310130e+01 4.957354e+01 5.317173e+01 8.567937e+01 3.860551e+01 5.893739e+01 4.931211e+01 4.643774e+01 4.432716e+01 2.809336e-01 1.441715e+00 1.125320e+00 1.677322e+00 1.507406e+00 1.911542e+00 2.919745e+00 2.445263e+00 2.221542e+00 2.318766e+00 3.437898e+00 1.643290e+00 5.832287e-01
<GCONST> 9.682985e+01
<STATE> 4
<MEAN> 25
 6.134540e+00 -4.279611e+00 -3.061665e+00 -1.450473e+01 -1.135334e+00 6.066185e-01 -1.215405e+01 -3.446622e+00 -7.139416e-02 1.204865e+00 -5.349658e+00 -4.972861e+00 -2.458345e-01 4.170727e-01 -8.130632e-02 1.015568e+00 2.632833e-01 -1.625437e-02 7.303220e-01 -7.283770e-02 2.069219e-02 -4.773567e-01 1.586693e-01 1.405306e-01 -7.449706e-01
<VARIANCE> 25
 1.012408e+01 4.207238e+01 2.333001e+01 6.885708e+01 6.087629e+01 7.073604e+01 9.416925e+01 3.284809e+01 3.562215e+01 4.986655e+01 4.090855e+01 2.744155e+01 6.685495e-01 1.549764e+00 1.376800e+00 2.725968e+00 1.912383e+00 2.547839e+00 2.450122e+00 2.042693e+00 2.131576e+00 2.648473e+00 2.418230e+00 1.697528e+00 1.175775e+00
<GCONST> 9.815054e+01
<TRANSP> 5
 0.000000e+00 1.000000e+00 0.000000e+00 0.000000e+00 0.000000e+00
 0.000000e+00 6.211038e-01 3.788962e-01 0.000000e+00 0.000000e+00
 0.000000e+00 0.000000e+00 7.201220e-01 2.798780e-01 0.000000e+00
 0.000000e+00 0.000000e+00 0.000000e+00 8.450906e-01 1.549093e-01
 0.000000e+00 0.000000e+00 0.000000e+00 0.000000e+00 0.000000e+00
<ENDHMM>
~h "m"
<BEGINHMM>
<NUMSTATES> 5
<STATE> 2
<MEAN> 25
 5.799688e+00 -2.670660e+00 2.831614e-01 -5.203330e+00 7.505888e-01 -2.154182e-01 -8.603426e+00 -9.198383e+00 -8.810341e+00 -1.862062e+00 -3.401726e+00 -6.063468e+00 -1.696346e-01 1.248662e+00 6.940024e-01 1.562841e+00 1.006890e+00 1.844911e-01 3.808302e-02 -1.605618e+00 -1.396782e+00 -9.245521e-02 3.239083e-01 2.680436e-01 -1.324244e+00
<VARIANCE> 25
 1.349267e+01 4.396484e+01 3.057531e+01 5.209245e+01 4.800374e+01 4.350316e+01 6.858807e+01 8.165734e+01 8.021654e+01 5.535283e+01 5.773384e+01 4.001460e+01 1.007638e+00 2.153060e+00 2.789873e+00 3.412495e+00 3.203568e+00 2.643259e+00 4.500756e+00 5.515765e+00 5.244496e+00 4.067431e+00 4.476294e+00 2.542769e+00 1.665561e+00
<GCONST> 1.065025e+02
<STATE> 3
<MEAN> 25
 2.453792e+00 3.432000e+00 1.184050e+00 3.653549e+00 4.180738e+00 2.184182e+00 -2.105731e+00 -7.075045e+00 -9.024275e+00 -4.853936e+00 -2.009160e+00 -3.782093e+00 -6.002976e-01 -1.949774e-02 -2.570938e-01 6.821848e-01 6.313895e-02 2.952054e-01 1.251089e+00 1.303755e+00 1.539097e+00 6.090398e-01 6.123246e-01 4.895980e-01 -1.062627e+00
<VARIANCE> 25
 1.384859e+01 2.960940e+01 2.099509e+01 3.188096e+01 3.578022e+01 3.210632e+01 5.534970e+01 6.437993e+01 9.165865e+01 4.600471e+01 4.366639e+01 2.995877e+01 8.036822e-01 1.654312e+00 1.237033e+00 1.881611e+00 1.770679e+00 1.973694e+00 2.991488e+00 3.510923e+00 3.887902e+00 3.360713e+00 3.213071e+00 2.602272e+00 1.240455e+00
<GCONST> 9.885936e+01
<STATE> 4
<MEAN> 25
 -9.890181e-01 5.721444e-01 -1.397740e+00 6.428997e+00 4.428782e+00 2.669473e+00 5.162751e+00 1.807446e+00 4.059394e+00 1.634033e+00 4.801484e+00 1.769590e+00 8.389638e-03 6.439842e-02 1.001737e-02 2.235335e-02 -7.122930e-02 1.865947e-02 1.335459e-02 -1.178715e-03 7.643800e-02 4.099490e-02 -2.903499e-02 3.447011e-05 -7.099565e-02
<VARIANCE> 25
 7.364736e+00 1.433417e+01 1.227083e+01 1.481030e+01 2.294148e+01 2.053656e+01 2.675199e+01 3.091214e+01 3.537067e+01 2.397429e+01 2.293210e+01 1.794440e+01 3.618475e-01 6.205930e-01 7.479365e-01 1.003869e+00 1.366281e+00 1.388206e+00 1.433493e+00 1.835850e+00 2.113325e+00 2.001320e+00 1.743989e+00 1.428662e+00 4.376864e-01
<GCONST> 8.280067e+01
<TRANSP> 5
 0.000000e+00 1.000000e+00 0.000000e+00 0.000000e+00 0.000000e+00
 0.000000e+00 7.657765e-01 2.342234e-01 0.000000e+00 0.000000e+00
 0.000000e+00 0.000000e+00 7.198951e-01 2.801049e-01 0.000000e+00
 0.000000e+00 0.000000e+00 0.000000e+00 8.448938e-01 1.551062e-01
 0.000000e+00 0.000000e+00 0.000000e+00 0.000000e+00 0.000000e+00
<ENDHMM>
~h "n"
<BEGINHMM>
<NUMSTATES> 5
<STATE> 2
<MEAN> 25
 5.121202e+00 -6.010868e+00 -6.122071e-02 -4.013413e+00 -4.114946e+00 -4.392045e+00 -7.763899e+00 3.691846e+00 -4.552357e+00 -6.102267e+00 -8.164642e+00 -3.601591e+00 3.634243e-01 2.584417e+00 1.212218e+00 1.153085e+00 -8.111726e-02 -1.304186e+00 6.760896e-01 -3.314483e+00 8.236731e-01 1.236058e+00 -7.433542e-01 -1.266737e-02 -2.159035e+00
<VARIANCE> 25
 7.710002e+00 3.348797e+01 3.259718e+01 2.503603e+01 4.428210e+01 4.535424e+01 4.234813e+01 7.815005e+01 5.571717e+01 4.011980e+01 2.971973e+01 3.248072e+01 7.485002e-01 1.597606e+00 2.768846e+00 1.844755e+00 3.644656e+00 2.934552e+00 2.704031e+00 6.007038e+00 4.276261e+00 4.379660e+00 3.112843e+00 2.445650e+00 1.188449e+00
<GCONST> 1.005991e+02
<STATE> 3
<MEAN> 25
 5.487720e+00 3.624441e+00 4.163193e+00 -9.926479e-01 -4.455625e+00 -5.300830e+00 -4.650605e+00 -8.223993e+00 -5.521382e+00 -4.378386e+00 -9.757142e+00 -2.353993e+00 -1.818362e-01 1.191628e+00 2.054214e-01 9.428746e-01 7.406920e-01 2.788510e-01 5.181581e-01 -5.702664e-01 -3.420476e-01 -3.771084e-01 2.069919e-01 -7.962103e-03 -1.261877e+00
<VARIANCE> 25
 6.420975e+00 2.548000e+01 1.723453e+01 2.515103e+01 5.384158e+01 4.568592e+01 3.298913e+01 4.068240e+01 3.731781e+01 5.739366e+01 3.958249e+01 3.246402e+01 5.411383e-01 1.303308e+00 1.247057e+00 1.724110e+00 2.118449e+00 2.334239e+00 2.153534e+00 3.584727e+00 2.303511e+00 2.063015e+00 2.374162e+00 1.539852e+00 7.662991e-01
<GCONST> 9.360118e+01
<STATE> 4
<MEAN> 25
 -2.309437e-01 6.512836e+00 3.276079e+00 7.331187e+00 3.707911e+00 -1.422478e+00 2.920673e+00 -3.535032e+00 -2.260304e+00 -3.194324e+00 -2.888453e+00 -1.567876e+00 -9.402709e-01 -4.568884e-01 -5.772424e-01 3.823334e-01 5.164491e-01 7.268576e-01 1.076300e+00 1.013587e+00 1.137906e+00 1.021099e+00 1.417581e+00 6.869799e-01 -9.362142e-01
<VARIANCE> 25
 1.741926e+01 1.589929e+01 1.831253e+01 2.106034e+01 3.623632e+01 3.230533e+01 3.637090e+01 3.986816e+01 4.139776e+01 4.581910e+01 4.514925e+01 2.779143e+01 7.927205e-01 1.313354e+00 1.252105e+00 1.939908e+00 2.143254e+00 2.567876e+00 2.442776e+00 3.050362e+00 3.465665e+00 3.557116e+00 2.880987e+00 2.257235e+00 1.038038e+00
<GCONST> 9.561605e+01
<TRANSP> 5
 0.000000e+00 1.000000e+00 0.000000e+00 0.000000e+00 0.000000e+00
 0.000000e+00 6.651800e-01 3.348199e-01 0.000000e+00 0.000000e+00
 0.000000e+00 0.000000e+00 8.170105e-01 1.829896e-01 0.000000e+00
 0.000000e+00 0.000000e+00 0.000000e+00 8.025362e-01 1.974638e-01
 0.000000e+00 0.000000e+00 0.000000e+00 0.000000e+00 0.000000e+00
<ENDHMM>
~h "o"
<BEGINHMM>
<NUMSTATES> 5
<STATE> 2
<MEAN> 25
 4.467585e+00 5.287260e-01 -4.440207e+00 -8.456271e+00 7.515043e-03 1.264093e+00 -5.567040e+00 -4.457841e+00 -2.643229e+00 -1.622618e+00 -1.579911e+00 -2.678169e+00 2.193944e+00 -1.869727e+00 -3.169741e-01 -4.573912e+00 -8.516051e-01 4.809069e-01 -1.939369e+00 1.313378e-01 -8.548155e-01 -5.221766e-01 -1.291464e+00 -6.273793e-01 2.468524e+00
<VARIANCE> 25
 2.894127e+01 3.848324e+01 4.351823e+01 1.270726e+02 4.416286e+01 5.311483e+01 7.035567e+01 4.289872e+01 7.354992e+01 3.575830e+01 3.665887e+01 2.547090e+01 4.086180e+00 5.116508e+00 4.967566e+00 1.420664e+01 4.741375e+00 6.478988e+00 8.106288e+00 6.844772e+00 6.505511e+00 3.637401e+00 4.490757e+00 2.304637e+00 5.250720e+00
<GCONST> 1.139640e+02
<STATE> 3
<MEAN> 25
 7.006722e+00 -5.044114e+00 -6.331386e+00 -1.933262e+01 5.074509e-01 2.354525e+00 -6.781900e+00 -7.402267e-01 -4.082955e+00 -6.333904e-01 -4.860336e+00 -3.703362e+00 2.794887e-02 -1.012079e+00 1.733498e-01 -1.183183e+00 6.697787e-01 7.024265e-01 7.683237e-01 6.165637e-01 -1.206037e-01 2.515350e-01 -3.464601e-01 -1.958880e-01 3.709682e-01
<VARIANCE> 25
 1.130008e+01 4.415766e+01 3.626166e+01 6.614529e+01 7.070332e+01 5.263078e+01 5.848663e+01 4.375181e+01 6.655562e+01 3.374750e+01 5.365810e+01 3.141547e+01 1.147944e+00 2.658489e+00 3.193011e+00 1.086855e+01 4.447777e+00 4.561681e+00 3.979535e+00 4.826287e+00 4.261206e+00 2.621609e+00 2.852201e+00 2.126381e+00 3.916702e+00
<GCONST> 1.073671e+02
<STATE> 4
<MEAN> 25
 6.833028e+00 -5.993451e+00 -6.311430e+00 -2.056889e+01 3.787560e-01 5.620818e+00 -6.263184e+00 -1.714907e+00 -2.918293e+00 -9.061893e-01 -3.867928e+00 -3.848430e+00 -2.287444e-01 3.281942e-01 1.505716e-01 1.140158e+00 7.806870e-02 -1.069296e-01 1.564799e-01 4.492752e-02 3.166707e-01 -2.042475e-01 2.285468e-01 7.364325e-02 -6.626866e-01
<VARIANCE> 25
 1.207630e+01 2.945712e+01 2.621987e+01 8.827761e+01 8.727393e+01 6.041181e+01 6.472058e+01 3.445137e+01 4.273375e+01 3.024027e+01 4.663807e+01 3.251082e+01 7.020519e-01 1.929634e+00 1.155541e+00 4.669277e+00 2.177049e+00 2.595248e+00 2.844427e+00 2.315891e+00 2.363321e+00 2.217304e+00 3.039322e+00 1.851782e+00 1.883111e+00
<GCONST> 9.995919e+01
<TRANSP> 5
 0.000000e+00 1.000000e+00 0.000000e+00 0.000000e+00 0.000000e+00
 0.000000e+00 5.719345e-01 4.280655e-01 0.000000e+00 0.000000e+00
 0.000000e+00 0.000000e+00 5.220822e-01 4.779179e-01 0.000000e+00
 0.000000e+00 0.000000e+00 0.000000e+00 8.645197e-01 1.354804e-01
 0.000000e+00 0.000000e+00 0.000000e+00 0.000000e+00 0.000000e+00
<ENDHMM>
~h "p"
<BEGINHMM>
<NUMSTATES> 5
<STATE> 2
<MEAN> 25
 5.156857e+00 2.967571e+00 -9.271133e-01 -4.040105e+00 -6.037718e-02 2.303922e+00 -1.097559e+00 -5.865517e+00 -2.878788e+00 -2.339524e+00 -1.741687e+00 -2.740312e+00 -1.143217e+00 1.712373e+00 1.013808e+00 3.904676e+00 1.527656e+00 4.587589e-01 1.432214e+00 6.515636e-01 9.568089e-01 -3.341140e-01 5.447824e-01 -1.198378e-01 -3.353887e+00
<VARIANCE> 25
 2.121887e+01 4.898069e+01 3.263633e+01 1.137652e+02 4.842073e+01 2.837391e+01 3.640245e+01 3.383881e+01 4.109334e+01 3.608306e+01 4.118793e+01 3.093857e+01 1.903926e+00 4.370760e+00 3.054843e+00 8.812688e+00 4.214323e+00 3.456579e+00 3.475425e+00 3.362963e+00 3.537138e+00 3.905323e+00 4.042680e+00 2.409719e+00 5.738963e+00
<GCONST> 1.071047e+02
<STATE> 3
<MEAN> 25
 -1.098470e+00 3.813004e+00 9.228993e-01 6.486826e+00 4.398854e+00 4.019957e+00 3.727787e+00 -1.201144e+00 1.638171e+00 -7.286150e-01 1.462478e+00 -7.581388e-01 -1.746242e+00 -1.098258e+00 -8.015382e-01 8.631764e-01 4.118983e-01 1.395289e-01 1.341380e+00 1.572504e+00 1.950792e+00 1.685045e+00 1.771459e+00 1.429204e+00 -8.601491e-01
<VARIANCE> 25
 1.268005e+01 2.035507e+01 1.705599e+01 1.568565e+01 1.738121e+01 2.987738e+01 2.196903e+01 2.662699e+01 3.380116e+01 3.027243e+01 2.927553e+01 2.425801e+01 1.507355e+00 1.128110e+00 1.701161e+00 3.403206e+00 2.647039e+00 2.200108e+00 2.681016e+00 2.925472e+00 3.333656e+00 3.303763e+00 3.020442e+00 2.696228e+00 4.503283e+00
<GCONST> 9.531953e+01
<STATE> 4
<MEAN> 25
 -2.549030e+00 1.915170e+00 -1.393709e+00 7.066955e+00 3.939589e+00 2.813129e+00 6.064905e+00 2.098495e+00 5.126787e+00 2.954929e+00 5.813191e+00 2.719364e+00 -7.656100e-02 6.745270e-02 -1.223898e-01 -1.060799e-03 -2.705581e-01 -3.748672e-01 2.827032e-03 -1.299685e-01 -8.718550e-02 -6.741099e-04 4.634233e-02 1.670144e-02 3.527513e-01
<VARIANCE> 25
 6.198305e+00 1.001610e+01 1.058962e+01 1.296109e+01 1.383958e+01 2.073491e+01 1.924726e+01 1.672019e+01 1.629262e+01 1.725544e+01 1.654727e+01 1.431981e+01 6.324051e-01 6.658310e-01 9.079659e-01 1.494282e+00 1.380644e+00 1.655069e+00 1.598940e+00 1.762655e+00 1.864095e+00 1.932408e+00 1.901339e+00 1.648141e+00 3.087393e+00
<GCONST> 8.239104e+01
<TRANSP> 5
 0.000000e+00 1.000000e+00 0.000000e+00 0.000000e+00 0.000000e+00
 0.000000e+00 5.627521e-01 4.372479e-01 0.000000e+00 0.000000e+00
 0.000000e+00 0.000000e+00 4.971103e-01 5.028897e-01 0.000000e+00
 0.000000e+00 0.000000e+00 0.000000e+00 8.629296e-01 1.370704e-01
 0.000000e+00 0.000000e+00 0.000000e+00 0.000000e+00 0.000000e+00
<ENDHMM>
~h "r"
<BEGINHMM>
<NUMSTATES> 5
<STATE> 2
<MEAN> 25
 4.964205e+00 -8.820954e+00 -2.230972e+00 -8.288639e+00 -6.206713e+00 -1.572545e+00 -1.018287e+01 6.120286e+00 5.251835e-02 -2.586569e+00 -9.142369e+00 -4.153478e+00 1.136247e-01 2.892045e-01 -3.444458e-02 9.273771e-01 -1.577810e-01 -2.260604e-01 -4.988309e-01 2.848781e-02 5.240333e-01 -6.232701e-01 5.697524e-01 -3.072764e-02 -3.529496e-01
<VARIANCE> 25
 1.766053e+01 4.291206e+01 1.928225e+01 6.182334e+01 5.918087e+01 3.938870e+01 9.017986e+01 6.419357e+01 3.573100e+01 5.856072e+01 5.521306e+01 2.632845e+01 9.515952e-01 2.873706e+00 1.516546e+00 4.939844e+00 4.049924e+00 3.778497e+00 3.074000e+00 5.258182e+00 3.958917e+00 3.201059e+00 5.056683e+00 2.080132e+00 3.025930e+00
<GCONST> 1.055369e+02
<STATE> 3
<MEAN> 25
 4.071528e+00 -2.632791e+00 -2.929472e+00 2.052159e-01 -3.319459e+00 -4.040868e+00 -7.759164e+00 9.735869e-01 3.768270e+00 -3.547324e+00 -1.032057e+00 -2.026887e+00 -1.599964e-01 7.799894e-01 1.846578e-01 1.218554e+00 1.499202e-01 -1.305500e+00 6.462008e-03 -6.825429e-01 5.935769e-01 -7.323507e-01 6.350759e-01 4.215237e-01 -2.719015e-03
<VARIANCE> 25
 3.109688e+01 3.709288e+01 2.590043e+01 5.016114e+01 5.720263e+01 4.378690e+01 8.985321e+01 7.001820e+01 3.672636e+01 5.547123e+01 3.785081e+01 2.904733e+01 4.919108e+00 7.039833e+00 2.749782e+00 8.690186e+00 5.886448e+00 4.310477e+00 1.064306e+01 8.585457e+00 4.971717e+00 4.978866e+00 6.188076e+00 3.536482e+00 7.126176e+00
<GCONST> 1.140874e+02
<STATE> 4
<MEAN> 25
 1.987611e+00 -1.290871e+00 1.170394e-02 1.442229e+00 -1.439736e+00 -4.472861e+00 -5.251448e+00 2.610744e+00 -3.683528e-01 -5.332840e+00 -2.049926e+00 -9.522581e-01 -4.452622e-01 2.443670e-01 3.288843e-01 3.080452e-01 4.955135e-01 3.840237e-01 6.605363e-01 2.043919e-02 -1.893667e-01 6.082287e-01 4.013473e-01 3.638374e-01 -8.904969e-01
<VARIANCE> 25
 2.548445e+01 3.522356e+01 3.731034e+01 6.598533e+01 9.131548e+01 5.013507e+01 7.299102e+01 6.409143e+01 5.433354e+01 6.011687e+01 4.951733e+01 3.212172e+01 2.597352e+00 3.639000e+00 2.276101e+00 5.181820e+00 4.839693e+00 2.886160e+00 6.523516e+00 4.021699e+00 5.320246e+00 5.165309e+00 4.394341e+00 2.694216e+00 3.520120e+00
<GCONST> 1.105595e+02
<TRANSP> 5
 0.000000e+00 1.000000e+00 0.000000e+00 0.000000e+00 0.000000e+00
 0.000000e+00 6.916160e-01 3.083840e-01 0.000000e+00 0.000000e+00
 0.000000e+00 0.000000e+00 4.239746e-01 5.760254e-01 0.000000e+00
 0.000000e+00 0.000000e+00 0.000000e+00 6.892619e-01 3.107381e-01
 0.000000e+00 0.000000e+00 0.000000e+00 0.000000e+00 0.000000e+00
<ENDHMM>
~h "s"
<BEGINHMM>
<NUMSTATES> 5
<STATE> 2
<MEAN> 25
 -5.160503e+00 6.100621e+00 -1.479552e+00 1.369605e+00 7.266263e-01 -6.630276e+00 -7.183635e-01 -3.916430e-01 -1.195852e+00 -3.994254e+00 -2.090566e+00 -1.615667e+00 -3.679502e+00 2.603893e+00 -1.207355e+00 2.813908e+00 1.513373e+00 2.475885e-01 2.863578e+00 3.462109e-02 9.242325e-01 -1.598799e-01 1.678054e+00 6.452991e-01 -6.848121e-01
<VARIANCE> 25
 5.567050e+01 4.370251e+01 3.255299e+01 6.457346e+01 7.622626e+01 3.983517e+01 8.738838e+01 5.383105e+01 5.015915e+01 4.187936e+01 4.321192e+01 2.436635e+01 2.586873e+00 5.415661e+00 3.982922e+00 6.744009e+00 6.059818e+00 6.404395e+00 6.902220e+00 5.811917e+00 4.853685e+00 5.880444e+00 4.248364e+00 2.874978e+00 2.234420e+00
<GCONST> 1.124172e+02
<STATE> 3
<MEAN> 25
 -1.692562e+01 1.059665e+01 -6.677973e+00 6.991328e+00 3.016141e+00 -4.551070e+00 7.248834e+00 -2.267363e-01 1.606241e+00 -3.085779e-01 3.219147e+00 1.881514e+00 -2.028087e-01 -9.551819e-02 -1.373647e-01 1.251971e-02 -1.183617e-01 9.407831e-02 1.482257e-01 -2.466474e-02 6.605615e-02 1.594212e-01 1.801798e-01 1.510046e-01 -2.593203e-02
<VARIANCE> 25
 6.594945e+00 1.351351e+01 1.613242e+01 2.137034e+01 2.701034e+01 3.059127e+01 2.701805e+01 2.890130e+01 2.157553e+01 1.994351e+01 1.689935e+01 1.707201e+01 9.194266e-01 6.102986e-01 8.551396e-01 8.437973e-01 1.232148e+00 1.261999e+00 1.519366e+00 1.537206e+00 1.582628e+00 1.557870e+00 1.391239e+00 1.325758e+00 5.200163e-01
<GCONST> 8.263251e+01
<STATE> 4
<MEAN> 25
 -1.183272e+01 6.523592e+00 -3.349482e+00 7.431383e+00 3.462191e+00 -2.514891e+00 6.965209e+00 1.647033e+00 3.027218e+00 -1.680340e-01 4.247292e+00 2.151076e+00 1.936772e+00 -7.062229e-01 7.271336e-01 -2.941501e-01 -5.913445e-01 -1.525488e-01 -1.007449e+00 -3.634992e-01 -3.125318e-02 -2.153588e-01 -5.053239e-01 -3.904330e-01 -5.472680e-01
<VARIANCE> 25
 3.479275e+01 2.299763e+01 1.684139e+01 2.428858e+01 2.525334e+01 3.718211e+01 2.954218e+01 3.372458e+01 2.688235e+01 2.183744e+01 2.061163e+01 1.920527e+01 3.235017e+00 2.109512e+00 2.410106e+00 2.415313e+00 2.980695e+00 3.355515e+00 3.921568e+00 3.703175e+00 2.993774e+00 2.267138e+00 2.380578e+00 1.813110e+00 2.545709e+00
<GCONST> 9.772282e+01
<TRANSP> 5
 0.000000e+00 1.000000e+00 0.000000e+00 0.000000e+00 0.000000e+00
 0.000000e+00 7.586485e-01 2.413515e-01 0.000000e+00 0.000000e+00
 0.000000e+00 0.000000e+00 8.776745e-01 1.223255e-01 0.000000e+00
 0.000000e+00 0.000000e+00 0.000000e+00 7.148175e-01 2.851826e-01
 0.000000e+00 0.000000e+00 0.000000e+00 0.000000e+00 0.000000e+00
<ENDHMM>
~h "t"
<BEGINHMM>
<NUMSTATES> 5
<STATE> 2
<MEAN> 25
 9.974217e-01 1.810973e+00 1.248626e+00 1.775713e+00 6.564337e-01 -7.087489e-01 -2.993615e+00 2.787588e-01 1.448057e+00 -2.691122e+00 -1.896808e+00 -2.327882e+00 -1.002447e+00 1.162934e+00 3.285509e-01 2.404915e+00 1.423630e+00 1.042150e+00 2.178791e+00 9.344859e-02 1.140006e+00 5.776225e-01 1.356145e+00 7.195889e-01 -3.221221e+00
<VARIANCE> 25
 2.002302e+01 4.182594e+01 4.167978e+01 6.765993e+01 6.308611e+01 4.566124e+01 7.670119e+01 5.362793e+01 4.151305e+01 3.982531e+01 4.476853e+01 2.969006e+01 1.498825e+00 5.929936e+00 3.311940e+00 6.689176e+00 4.550232e+00 4.034843e+00 5.096719e+00 5.439917e+00 3.563557e+00 5.007539e+00 4.579966e+00 2.695794e+00 5.850350e+00
<GCONST> 1.101892e+02
<STATE> 3
<MEAN> 25
 -3.150051e+00 2.690715e+00 -6.391178e-01 6.789396e+00 4.513258e+00 1.423000e+00 7.028150e+00 2.526708e+00 4.701733e+00 2.923800e+00 5.844502e+00 3.357464e+00 -1.403249e-01 -2.296782e-02 -2.159871e-01 4.172639e-02 1.105694e-02 -1.485301e-01 2.616774e-01 9.370781e-04 8.217508e-02 2.385144e-01 2.886625e-01 1.824253e-01 -3.292608e-02
<VARIANCE> 25
 6.596788e+00 1.134741e+01 1.034249e+01 1.134439e+01 1.795468e+01 1.735100e+01 2.096214e+01 1.885972e+01 1.900708e+01 2.038671e+01 2.119437e+01 1.540363e+01 7.106370e-01 8.171995e-01 9.880114e-01 1.081154e+00 1.429376e+00 1.620763e+00 1.684463e+00 1.907188e+00 2.150300e+00 1.929498e+00 2.165532e+00 1.602207e+00 1.699251e+00
<GCONST> 8.322357e+01
<STATE> 4
<MEAN> 25
 -4.839864e+00 2.746140e+00 -2.315313e+00 5.536758e+00 2.875060e+00 -2.056865e+00 6.081600e+00 5.037093e-01 3.504337e+00 1.092109e+00 3.803377e+00 2.080040e+00 1.709690e-01 -2.396279e-01 -4.076791e-01 -2.081112e+00 -2.157314e+00 -2.197030e+00 -2.622375e+00 -1.148887e+00 -9.181008e-01 -1.273720e+00 -1.727163e+00 -1.330814e+00 5.537369e+00
<VARIANCE> 25
 1.347374e+01 1.360097e+01 1.847112e+01 2.075686e+01 2.750865e+01 4.323875e+01 3.005275e+01 2.359158e+01 2.301900e+01 2.503790e+01 2.779377e+01 1.884628e+01 2.762885e+00 2.533931e+00 3.400252e+00 4.975684e+00 4.822248e+00 3.843471e+00 9.283164e+00 5.821754e+00 3.629945e+00 2.647948e+00 4.401404e+00 2.339534e+00 5.702111e+00
<GCONST> 1.013894e+02
<TRANSP> 5
 0.000000e+00 1.000000e+00 0.000000e+00 0.000000e+00 0.000000e+00
 0.000000e+00 6.938041e-01 3.061959e-01 0.000000e+00 0.000000e+00
 0.000000e+00 0.000000e+00 8.510337e-01 1.489663e-01 0.000000e+00
 0.000000e+00 0.000000e+00 0.000000e+00 5.894007e-01 4.105994e-01
 0.000000e+00 0.000000e+00 0.000000e+00 0.000000e+00 0.000000e+00
<ENDHMM>
~h "u"
<BEGINHMM>
<NUMSTATES> 5
<STATE> 2
<MEAN> 25
 2.023174e+00 3.527355e+00 -8.436698e-01 -4.615293e-01 -3.758422e+00 -4.118570e+00 -5.342219e+00 -5.942998e+00 -2.964617e+00 -3.381656e+00 -2.112531e+00 -1.655814e+00 2.308473e+00 -2.395690e-01 1.066212e-01 -3.954640e+00 -2.947608e+00 3.589318e-01 -3.932974e+00 -1.307926e+00 -2.023455e+00 -2.737070e-01 -3.865253e-01 -6.510100e-01 2.457699e+00
<VARIANCE> 25
 3.344576e+01 2.566058e+01 3.122167e+01 8.021310e+01 5.197166e+01 5.935868e+01 9.076298e+01 4.152094e+01 4.843037e+01 3.485360e+01 3.885213e+01 2.744802e+01 3.498446e+00 4.234672e+00 4.302063e+00 9.021563e+00 5.382556e+00 7.652366e+00 9.071822e+00 5.991327e+00 5.951532e+00 6.650109e+00 9.467182e+00 4.923905e+00 3.304381e+00
<GCONST> 1.139831e+02
<STATE> 3
<MEAN> 25
 6.723041e+00 4.366313e-01 -1.429824e+00 -1.150400e+01 -9.878534e+00 2.141929e+00 -1.614691e+01 -8.008759e+00 -6.609830e+00 5.512547e-01 5.049014e-01 -4.758854e+00 6.026583e-01 -1.502273e-01 -3.985983e-01 -1.988634e+00 -6.077820e-01 1.741640e+00 -5.788126e-01 -4.708514e-01 -1.085833e+00 8.586652e-01 9.490600e-01 -2.386671e-03 2.781412e-01
<VARIANCE> 25
 9.224124e+00 2.920307e+01 2.858018e+01 7.162869e+01 5.272355e+01 5.178506e+01 8.905472e+01 6.043945e+01 5.635693e+01 6.282503e+01 7.099477e+01 4.705207e+01 6.682299e-01 1.737882e+00 2.276785e+00 4.673866e+00 3.751724e+00 4.914142e+00 5.028014e+00 4.234245e+00 4.246922e+00 4.454765e+00 3.117784e+00 3.404148e+00 1.085538e+00
<GCONST> 1.058274e+02
<STATE> 4
<MEAN> 25
 7.853855e+00 3.726224e+00 -3.010222e+00 -1.350739e+01 -8.492393e+00 3.351588e+00 -9.880900e+00 -7.198338e+00 -9.113193e+00 -1.080676e+00 4.542814e-01 -1.371029e+00 -2.362370e-01 8.842188e-02 1.276319e-01 7.952182e-01 6.631517e-01 -4.480441e-01 8.020563e-01 4.093890e-01 4.393797e-01 -1.115338e-02 -2.908497e-01 2.108207e-01 -6.105076e-01
<VARIANCE> 25
 1.022361e+01 3.314943e+01 3.115334e+01 8.666610e+01 7.086301e+01 5.667029e+01 8.083599e+01 4.624490e+01 4.780772e+01 5.995897e+01 5.630487e+01 4.354864e+01 6.332608e-01 1.369573e+00 1.343801e+00 4.597428e+00 3.013783e+00 2.663211e+00 3.850667e+00 1.948320e+00 3.316149e+00 2.653394e+00 2.877015e+00 2.216291e+00 1.379736e+00
<GCONST> 1.020892e+02
<TRANSP> 5
 0.000000e+00 1.000000e+00 0.000000e+00 0.000000e+00 0.000000e+00
 0.000000e+00 6.437253e-01 3.562748e-01 0.000000e+00 0.000000e+00
 0.000000e+00 0.000000e+00 6.751618e-01 3.248381e-01 0.000000e+00
 0.000000e+00 0.000000e+00 0.000000e+00 8.686501e-01 1.313499e-01
 0.000000e+00 0.000000e+00 0.000000e+00 0.000000e+00 0.000000e+00
<ENDHMM>
~h "w"
<BEGINHMM>
<NUMSTATES> 5
<STATE> 2
<MEAN> 25
 7.051487e+00 4.677012e+00 -2.413632e+00 -1.085997e+01 -6.071571e+00 -3.675848e-01 -7.071603e+00 -7.989315e+00 -4.526894e+00 -6.023418e-01 3.831682e-01 -6.287704e-01 1.934028e+00 -3.730193e-01 -4.629228e-01 -3.322104e+00 -1.224870e+00 6.990449e-01 -6.596553e-01 -7.385003e-01 -1.013949e+00 1.598178e-01 -4.674252e-01 3.015635e-01 1.089656e+00
<VARIANCE> 25
 2.323819e+01 1.520434e+01 2.095436e+01 1.114712e+02 4.888888e+01 3.755616e+01 4.678991e+01 3.174745e+01 3.614798e+01 3.743861e+01 2.026288e+01 2.139691e+01 5.337948e+00 1.537514e+00 1.999354e+00 3.770727e+00 4.028114e+00 3.927003e+00 4.727163e+00 6.771375e+00 3.731841e+00 2.427108e+00 1.832273e+00 3.276595e+00 1.154430e+00
<GCONST> 1.021635e+02
<STATE> 3
<MEAN> 25
 8.350171e+00 -4.526700e+00 -5.842606e+00 -2.389725e+01 -4.390191e+00 5.328924e+00 -1.054881e+01 -4.476478e+00 -4.744391e+00 5.267738e+00 -5.515904e+00 -1.098891e+00 -4.115496e-01 -2.242225e+00 -1.526891e-01 -2.214658e-01 1.913374e+00 -1.333013e-03 3.751453e-01 4.807785e-01 1.620596e+00 3.539635e-02 -1.589313e+00 -1.169186e+00 1.288069e+00
<VARIANCE> 25
 3.325893e+00 3.307047e+01 2.259121e+01 3.393436e+01 6.738809e+01 5.441256e+01 4.180541e+01 3.080908e+01 5.116799e+01 4.573964e+01 3.435260e+01 3.074778e+01 2.102316e-01 6.145819e-01 6.376017e-01 2.559819e+00 1.507422e+00 1.813994e+00 1.755365e+00 1.809926e+00 1.623129e+00 5.406137e+00 2.835940e+00 2.086209e+00 2.909707e-01
<GCONST> 9.069827e+01
<STATE> 4
<MEAN> 25
 5.705468e+00 -1.396957e+01 -4.622642e+00 -1.934048e+01 4.489428e+00 -6.132658e-01 -5.672832e+00 -1.189008e+00 1.423121e+00 -3.894743e+00 -1.327733e+01 -4.418900e+00 -2.906795e-01 -2.229103e-01 4.965937e-01 1.008298e+00 -2.186440e-01 -1.019196e+00 5.520983e-01 8.416809e-01 -4.734576e-01 -1.280130e+00 1.259965e-01 3.395124e-01 -1.853958e-02
<VARIANCE> 25
 6.199892e+00 2.275132e+01 1.638364e+01 2.582939e+01 5.092636e+01 7.133496e+01 4.835115e+01 8.071614e+01 2.908699e+01 2.027264e+01 4.497017e+01 2.051233e+01 2.230720e-01 1.722698e+00 1.120223e+00 9.437495e-01 3.481669e+00 1.274696e+00 1.796157e+00 1.969812e+00 1.734233e+00 3.116434e+00 2.657518e+00 1.869221e+00 6.126754e-01
<GCONST> 9.127098e+01
<TRANSP> 5
 0.000000e+00 1.000000e+00 0.000000e+00 0.000000e+00 0.000000e+00
 0.000000e+00 7.486313e-01 2.513687e-01 0.000000e+00 0.000000e+00
 0.000000e+00 0.000000e+00 8.148288e-01 1.851712e-01 0.000000e+00
 0.000000e+00 0.000000e+00 0.000000e+00 8.411114e-01 1.588886e-01
 0.000000e+00 0.000000e+00 0.000000e+00 0.000000e+00 0.000000e+00
<ENDHMM>
~h "y"
<BEGINHMM>
<NUMSTATES> 5
<STATE> 2
<MEAN> 25
 -2.261664e+00 2.836988e+00 1.689665e+01 -6.423599e+00 -1.819132e+01 -3.309040e+00 -1.033586e+01 -5.851599e+00 -9.286588e+00 -3.269606e+00 -3.808424e-01 -5.704923e+00 3.179207e-01 -7.580656e-01 -4.124067e-01 -5.665863e-02 -5.191753e-01 -9.070063e-01 4.514858e-02 4.977296e-01 1.323446e-01 4.762140e-01 1.574053e-01 3.027654e-01 4.784453e-01
<VARIANCE> 25
 1.179812e+01 2.276713e+01 2.499409e+01 3.770551e+01 5.804825e+01 6.164373e+01 3.149466e+01 4.053191e+01 2.977412e+01 5.468870e+01 4.767334e+01 3.204102e+01 5.069863e-01 1.220964e+00 2.813285e+00 8.903894e-01 1.986603e+00 1.967669e+00 2.603183e+00 2.649783e+00 2.105017e+00 1.623105e+00 1.401404e+00 1.243398e+00 5.768452e-01
<GCONST> 9.341679e+01
<STATE> 3
<MEAN> 25
 3.943893e+00 -6.065413e+00 4.331531e+00 -9.415953e+00 -1.329076e+01 -9.116498e+00 -1.234575e+01 3.958613e+00 -1.016586e+00 3.404725e+00 -6.347576e+00 -4.459688e+00 9.121497e-01 -8.625255e-01 -2.266717e+00 -1.161836e+00 2.355034e+00 8.263468e-01 -9.749357e-01 4.152204e-01 1.751535e+00 9.932989e-01 -1.513699e+00 -7.820701e-01 8.376019e-02
<VARIANCE> 25
 1.267715e+01 1.639659e+01 3.557345e+01 5.400766e+01 7.028934e+01 5.022005e+01 6.751688e+01 3.456359e+01 3.913756e+01 4.612330e+01 7.466922e+01 3.011997e+01 4.959140e-01 8.130413e-01 1.427885e+00 1.451242e+00 3.014033e+00 3.529696e+00 3.435481e+00 4.459116e+00 2.468833e+00 3.234137e+00 2.509900e+00 2.476844e+00 2.267528e-01
<GCONST> 9.732012e+01
<STATE> 4
<MEAN> 25
 7.614309e+00 -5.984276e+00 -5.111939e+00 -1.914227e+01 -3.679566e+00 2.506546e+00 -1.491770e+01 -2.044797e+00 -2.498417e+00 6.200481e+00 -5.186975e+00 -4.808437e+00 1.760594e-01 3.119224e-01 -5.749324e-01 -6.535029e-01 5.320922e-01 8.530409e-01 4.054769e-01 -3.174113e-01 -7.284929e-01 -4.448181e-01 5.044401e-01 4.786361e-01 -4.987114e-01
<VARIANCE> 25
 7.519385e+00 1.777309e+01 3.311529e+01 3.588533e+01 7.887514e+01 5.044241e+01 8.293672e+01 2.390489e+01 3.594410e+01 4.009600e+01 7.004136e+01 5.263054e+01 2.499713e-01 4.458241e-01 6.804034e-01 1.395805e+00 1.752342e+00 2.408124e+00 1.591316e+00 1.480245e+00 1.388408e+00 1.456198e+00 1.950371e+00 1.297532e+00 2.760762e-01
<GCONST> 8.968501e+01
<TRANSP> 5
 0.000000e+00 1.000000e+00 0.000000e+00 0.000000e+00 0.000000e+00
 0.000000e+00 8.765991e-01 1.234008e-01 0.000000e+00 0.000000e+00
 0.000000e+00 0.000000e+00 7.686473e-01 2.313527e-01 0.000000e+00
 0.000000e+00 0.000000e+00 0.000000e+00 8.642268e-01 1.357732e-01
 0.000000e+00 0.000000e+00 0.000000e+00 0.000000e+00 0.000000e+00
<ENDHMM>
~h "z"
<BEGINHMM>
<NUMSTATES> 5
<STATE> 2
<MEAN> 25
 -8.156953e+00 1.207575e+01 -4.999300e+00 8.344147e+00 1.532271e+00 -8.363589e+00 4.181638e+00 -3.079834e+00 2.124743e+00 -1.865623e+00 3.435774e-01 2.912855e+00 -3.341036e-01 3.711780e-01 -1.920620e-01 4.186030e-02 -6.497762e-01 -5.536997e-01 -3.579984e-01 -5.183431e-01 -7.506796e-02 -5.101867e-01 -3.325162e-01 -3.115968e-02 1.121584e+00
<VARIANCE> 25
 2.825349e+01 2.599669e+01 1.375549e+01 2.201392e+01 5.004716e+01 3.589298e+01 5.243762e+01 3.662982e+01 3.993577e+01 3.680289e+01 3.156199e+01 1.338634e+01 1.929890e+00 2.298202e+00 1.361852e+00 1.355933e+00 1.643815e+00 2.823200e+00 3.974617e+00 2.332485e+00 3.136343e+00 2.362670e+00 2.428550e+00 1.419087e+00 1.742406e+00
<GCONST> 9.631236e+01
<STATE> 3
<MEAN> 25
 -3.686961e+00 3.910568e+00 -9.126517e-02 1.381479e+00 -1.234613e+01 -1.033102e+01 -8.068332e+00 -4.997847e+00 -2.127529e-01 -5.819467e+00 -3.936183e+00 -2.625609e-01 1.951583e+00 -3.361789e+00 2.043443e+00 -2.920731e+00 -2.841756e+00 1.899977e+00 -3.305222e+00 1.568982e+00 -1.064517e+00 6.090682e-01 -6.674347e-01 -1.530808e+00 1.749851e+00
<VARIANCE> 25
 1.509241e+01 3.668996e+01 2.548913e+01 2.854264e+01 6.108241e+01 2.104693e+01 7.242450e+01 6.784866e+01 2.592610e+01 1.209995e+01 2.912645e+01 2.009039e+01 1.723112e+00 1.492611e+00 3.053323e+00 1.576765e+00 7.916284e-01 2.104704e+00 3.294905e+00 6.876928e+00 4.630000e+00 3.033455e+00 1.326649e+00 1.143214e+00 3.612071e-01
<GCONST> 9.482018e+01
<STATE> 4
<MEAN> 25
 2.420135e+00 -8.860958e+00 5.492755e+00 -8.772139e+00 -2.302843e+01 -3.621318e+00 -1.514750e+01 6.148463e+00 -6.381682e+00 -8.651650e-02 -3.578221e+00 -6.885667e+00 5.141608e-01 8.837615e-02 1.246110e-01 1.938952e-02 1.040539e+00 1.058181e+00 4.208357e-01 -7.598277e-01 -2.893492e-01 6.294191e-02 1.901579e-01 -2.689840e-01 -1.148526e+00
<VARIANCE> 25
 1.010067e+01 2.169207e+01 2.226373e+01 1.674025e+01 6.691423e+01 1.195134e+01 3.850278e+01 6.774239e+01 2.786213e+01 1.662236e+01 3.330125e+01 9.573346e+00 3.482849e-01 3.746572e+00 1.534006e+00 2.905610e+00 7.108424e+00 3.438127e+00 5.057393e+00 4.412462e+00 1.771265e+00 2.761529e+00 1.118047e+00 1.525889e+00 3.626381e+00
<GCONST> 9.518253e+01
<TRANSP> 5
 0.000000e+00 1.000000e+00 0.000000e+00 0.000000e+00 0.000000e+00
 0.000000e+00 9.426011e-01 5.739890e-02 0.000000e+00 0.000000e+00
 0.000000e+00 0.000000e+00 7.511221e-01 2.488779e-01 0.000000e+00
 0.000000e+00 0.000000e+00 0.000000e+00 8.219115e-01 1.780885e-01
 0.000000e+00 0.000000e+00 0.000000e+00 0.000000e+00 0.000000e+00
<ENDHMM>
~h "aw"
<BEGINHMM>
<NUMSTATES> 5
<STATE> 2
<MEAN> 25
 5.430177e+00 -1.294044e+01 -2.569808e+00 -1.558548e+01 -3.674381e+00 2.641095e+00 -1.533519e+01 1.959836e+00 -9.548761e-01 -1.230769e+00 -8.124873e+00 -7.398908e+00 4.243739e-02 1.479755e-01 -6.775978e-02 -1.344684e+00 2.954499e-01 7.999999e-01 -5.038333e-01 -8.690500e-01 -5.749775e-01 1.726911e-01 -1.862800e-01 -1.449551e-01 3.322387e-01
<VARIANCE> 25
 7.895495e+00 5.057856e+01 6.527462e+00 6.018244e+01 1.689342e+01 1.785830e+01 4.737457e+01 4.987476e+01 2.622253e+01 2.374591e+01 4.943392e+01 2.540330e+01 1.178442e+00 7.796713e+00 7.995960e-01 6.776659e+00 2.124143e+00 3.897007e+00 4.621132e+00 2.740304e+00 3.075330e+00 3.982739e+00 5.888950e+00 2.199450e+00 4.270442e+00
<GCONST> 1.000351e+02
<STATE> 3
<MEAN> 25
 -9.934981e+00 7.035179e+00 -4.933718e+00 -1.223243e+00 4.062756e+00 -6.368775e+00 -2.559536e+00 -3.448245e-01 -3.240788e+00 1.520052e-01 -3.281385e+00 -4.822646e-01 3.739756e-01 -1.280703e+00 -1.494912e-01 -7.501997e-01 -5.398785e-02 2.095183e-01 -6.283258e-01 2.769060e-01 6.018853e-01 -2.949889e-01 -6.912733e-01 -9.518498e-02 1.031877e+00
<VARIANCE> 25
 1.100052e+02 1.250409e+02 1.209904e+01 7.246090e+01 2.165410e+01 4.985122e+01 9.727039e+01 3.373755e+01 2.216508e+01 3.320980e+01 2.628863e+01 2.334634e+01 1.308578e+01 1.205859e+01 1.128939e+00 1.147818e+01 2.737345e+00 4.582997e+00 1.440207e+01 4.854905e+00 2.692187e+00 4.304623e+00 3.278453e+00 3.277071e+00 6.163780e+00
<GCONST> 1.113963e+02
<STATE> 4
<MEAN> 25
 7.188581e+00 -8.364702e+00 -4.185388e+00 -1.848151e+01 -4.408339e+00 4.289361e+00 -9.618333e+00 3.389320e-01 -7.655355e-01 -3.216961e+00 -7.163587e+00 -2.052671e+00 4.170592e-02 4.870664e-01 9.307124e-02 2.525626e-01 9.991494e-02 4.806206e-03 2.417725e-01 8.596319e-03 -1.523576e-01 1.083144e-01 2.499574e-01 4.589096e-02 -4.766496e-01
<VARIANCE> 25
 7.697073e+00 9.415003e+01 9.322452e+00 6.652805e+01 5.481639e+01 3.615001e+01 4.935300e+01 4.814032e+01 5.587423e+01 2.491168e+01 2.046928e+01 1.663100e+01 4.590060e-01 3.098971e+00 7.991644e-01 1.878458e+00 2.200745e+00 1.810202e+00 1.241160e+00 1.914155e+00 1.973660e+00 1.720565e+00 1.651041e+00 1.433411e+00 1.013440e+00
<GCONST> 9.249969e+01
<TRANSP> 5
 0.000000e+00 1.000000e+00 0.000000e+00 0.000000e+00 0.000000e+00
 0.000000e+00 8.657976e-01 1.342024e-01 0.000000e+00 0.000000e+00
 0.000000e+00 0.000000e+00 8.599045e-01 1.400954e-01 0.000000e+00
 0.000000e+00 0.000000e+00 0.000000e+00 9.494981e-01 5.050181e-02
 0.000000e+00 0.000000e+00 0.000000e+00 0.000000e+00 0.000000e+00
<ENDHMM>
~h "ax"
<BEGINHMM>
<NUMSTATES> 5
<STATE> 2
<MEAN> 25
 -2.825876e+00 1.980673e+00 -1.281614e+00 3.632425e+00 8.519605e-01 -2.228936e+00 2.752689e+00 1.051712e+00 1.490887e+00 -1.226119e+00 1.179895e+00 4.915840e-01 3.981505e-01 -4.887460e-01 -2.896093e-02 -7.871745e-01 -3.054094e-01 -1.783143e-01 -8.476030e-01 -3.309373e-01 -3.656136e-01 -3.865929e-01 -4.111879e-01 -4.181774e-01 1.427547e+00
<VARIANCE> 25
 4.348177e+01 2.540012e+01 3.023088e+01 3.833710e+01 6.231516e+01 3.839841e+01 5.018109e+01 5.608743e+01 4.195016e+01 3.801192e+01 5.223474e+01 3.420182e+01 3.071301e+00 1.927620e+00 2.251508e+00 5.489127e+00 3.645857e+00 3.706288e+00 4.200912e+00 4.247641e+00 3.025060e+00 3.990380e+00 5.066473e+00 3.357822e+00 5.534822e+00
<GCONST> 1.074084e+02
<STATE> 3
<MEAN> 25
 -1.247895e-01 7.645202e-01 -4.232689e-01 9.684461e-01 -1.056752e+00 -2.733184e+00 -7.311898e-01 4.544182e-01 -1.240126e-01 -2.574761e+00 -1.140496e+00 -1.537256e+00 1.008142e+00 -1.424380e+00 -2.022471e-01 -2.207727e+00 -9.634116e-01 -1.253545e-01 -1.763365e+00 -1.914505e-01 -2.344478e-01 6.690932e-02 -8.245809e-01 -7.303914e-01 2.711926e+00
<VARIANCE> 25
 4.360775e+01 5.035965e+01 3.120289e+01 6.056581e+01 6.394297e+01 3.599622e+01 5.729630e+01 6.786192e+01 4.759844e+01 3.559159e+01 4.676074e+01 2.973883e+01 3.964171e+00 2.802071e+00 3.168424e+00 7.536527e+00 4.910614e+00 4.581107e+00 6.920246e+00 6.466390e+00 4.590401e+00 4.076082e+00 6.493048e+00 3.395066e+00 7.594298e+00
<GCONST> 1.124097e+02
<STATE> 4
<MEAN> 25
 3.282869e+00 -1.767589e+00 -1.277194e+00 -5.094565e+00 -4.176761e+00 -2.665147e+00 -5.869931e+00 -1.388383e+00 -7.025184e-01 -7.543755e-01 -2.174103e+00 -3.441955e+00 1.322597e+00 -2.200930e+00 1.509799e-02 -2.582961e+00 -1.320147e+00 7.757689e-02 -2.490245e+00 1.051096e+00 1.957466e-01 7.582166e-01 -1.238598e+00 -4.910352e-01 2.548827e+00
<VARIANCE> 25
 2.887065e+01 4.909398e+01 4.309006e+01 8.567522e+01 6.507923e+01 4.897795e+01 7.410425e+01 9.821154e+01 5.410160e+01 4.337271e+01 5.274967e+01 2.664664e+01 4.170784e+00 4.738697e+00 4.222479e+00 8.853209e+00 6.642881e+00 6.131647e+00 9.701976e+00 8.546414e+00 5.389594e+00 4.888154e+00 6.031355e+00 3.870319e+00 6.968103e+00
<GCONST> 1.164787e+02
<TRANSP> 5
 0.000000e+00 1.000000e+00 0.000000e+00 0.000000e+00 0.000000e+00
 0.000000e+00 4.794051e-01 5.205949e-01 0.000000e+00 0.000000e+00
 0.000000e+00 0.000000e+00 1.198409e-01 8.801591e-01 0.000000e+00
 0.000000e+00 0.000000e+00 0.000000e+00 5.106704e-01 4.893295e-01
 0.000000e+00 0.000000e+00 0.000000e+00 0.000000e+00 0.000000e+00
<ENDHMM>
~h "ay"
<BEGINHMM>
<NUMSTATES> 5
<STATE> 2
<MEAN> 25
 3.873689e+00 -5.648835e+00 -1.558440e-01 -6.537422e+00 4.562858e-01 -3.773913e+00 -7.843456e+00 1.329817e+00 -1.109931e+00 -3.595346e+00 -7.270868e+00 -2.632773e+00 3.755388e-01 -2.278944e+00 -2.542662e-01 -1.687693e+00 -4.711199e-02 5.171077e-01 -9.016836e-01 1.730825e+00 -8.184654e-01 -9.441057e-01 -1.181242e+00 -2.452542e-02 2.291007e+00
<VARIANCE> 25
 1.037012e+01 6.435297e+01 4.263830e+01 6.380184e+01 6.543633e+01 4.089647e+01 6.727731e+01 7.000066e+01 4.156546e+01 4.138547e+01 3.971552e+01 2.285090e+01 2.413807e+00 3.639727e+00 4.013886e+00 3.801954e+00 5.167109e+00 4.376492e+00 7.021848e+00 6.827281e+00 4.416214e+00 4.280747e+00 3.892291e+00 3.498446e+00 2.782246e+00
<GCONST> 1.094301e+02
<STATE> 3
<MEAN> 25
 1.187869e+00 -7.595953e+00 7.467484e+00 -1.241731e+01 -9.520187e+00 -6.479248e+00 -7.541858e+00 5.233058e+00 -6.777290e+00 -7.586776e-01 -7.616736e+00 6.176841e-01 3.602891e-02 -1.491841e-01 1.116878e-01 -6.175342e-02 -3.191358e-01 1.067372e-01 1.613202e-01 3.001976e-02 -1.331229e-01 -6.573743e-02 -1.161761e-01 6.379350e-02 1.149612e-02
<VARIANCE> 25
 1.192840e+01 5.578623e+01 7.994817e+01 2.774168e+01 1.055857e+02 8.941172e+01 5.483552e+01 5.397485e+01 4.271931e+01 6.015258e+01 6.903974e+01 2.201088e+01 3.015341e-01 2.126195e+00 2.185210e+00 5.957999e-01 3.361089e+00 1.279130e+00 3.400667e+00 2.985296e+00 1.948915e+00 3.065266e+00 3.487224e+00 1.122536e+00 4.182093e-01
<GCONST> 9.835084e+01
<STATE> 4
<MEAN> 25
 3.625477e+00 -1.165637e+01 3.407986e+00 -1.157934e+01 -9.797219e+00 6.010841e-01 -8.214599e+00 7.937736e+00 -5.758167e+00 -4.937957e+00 -7.853976e+00 -1.812888e+00 -2.877374e-01 1.066156e+00 9.086732e-01 2.845775e-01 -1.215291e+00 -3.111719e-01 2.412086e-01 -2.802449e-01 -4.578676e-01 5.462177e-01 7.057507e-01 -2.638089e-01 -5.315642e-01
<VARIANCE> 25
 1.365384e+01 7.620638e+01 4.558270e+01 1.826476e+01 1.236879e+02 3.559388e+01 2.094976e+01 4.053020e+01 3.890509e+01 4.806609e+01 3.621535e+01 1.650162e+01 2.615672e-01 1.373842e+00 1.184748e+00 1.368570e+00 3.709930e+00 1.250822e+00 1.871737e+00 2.912282e+00 1.396382e+00 2.795894e+00 2.099388e+00 1.056658e+00 6.319581e-01
<GCONST> 9.306998e+01
<TRANSP> 5
 0.000000e+00 1.000000e+00 0.000000e+00 0.000000e+00 0.000000e+00
 0.000000e+00 7.729951e-01 2.270049e-01 0.000000e+00 0.000000e+00
 0.000000e+00 0.000000e+00 8.687238e-01 1.312763e-01 0.000000e+00
 0.000000e+00 0.000000e+00 0.000000e+00 9.029139e-01 9.708612e-02
 0.000000e+00 0.000000e+00 0.000000e+00 0.000000e+00 0.000000e+00
<ENDHMM>
~h "ey"
<BEGINHMM>
<NUMSTATES> 5
<STATE> 2
<MEAN> 25
 4.057076e+00 -7.344961e+00 2.188878e+00 -5.569470e+00 -1.347945e+01 -3.891561e+00 -6.037367e+00 -2.558404e+00 -5.652511e+00 -3.467454e+00 -2.666381e+00 -7.818421e+00 3.852833e-01 -1.732293e+00 1.349292e+00 -2.406291e+00 -2.491396e+00 8.520058e-01 -3.178162e-01 2.416576e+00 -1.329651e+00 1.081237e+00 -5.067019e-01 -2.116463e-01 1.644236e+00
<VARIANCE> 25
 7.642218e+00 3.228457e+01 1.619380e+01 3.337696e+01 5.905516e+01 3.747374e+01 3.558947e+01 1.352037e+02 2.273664e+01 2.956325e+01 1.963594e+01 3.489696e+01 2.457608e+00 3.223959e+00 2.747781e+00 2.668473e+00 5.628476e+00 3.037234e+00 5.690275e+00 6.545993e+00 3.698583e+00 2.032456e+00 2.074514e+00 2.272182e+00 2.667256e+00
<GCONST> 1.020361e+02
<STATE> 3
<MEAN> 25
 1.763252e+00 -8.793465e+00 9.836929e+00 -1.509147e+01 -2.249261e+01 -1.164344e+00 -6.661277e+00 4.981408e+00 -1.146067e+01 4.923455e+00 -5.772683e+00 -3.972797e+00 -2.302271e-01 7.950694e-01 7.297753e-01 -2.608738e-01 1.251220e-01 3.584549e-01 -4.827963e-01 -7.325569e-01 -4.660846e-01 2.084306e-01 -2.130101e-01 1.284691e-01 -3.139805e-01
<VARIANCE> 25
 6.402014e+00 1.693857e+01 1.279740e+01 7.233546e+00 1.846729e+01 4.324269e+01 2.651166e+01 1.238440e+01 1.053622e+01 2.002464e+01 8.930615e+00 2.425749e+01 2.580934e-01 8.304918e-01 4.311951e-01 6.859817e-01 1.122707e+00 9.381905e-01 1.251703e+00 1.457878e+00 8.882266e-01 1.705362e+00 8.835520e-01 8.950934e-01 1.442918e-01
<GCONST> 7.450780e+01
<STATE> 4
<MEAN> 25
 -4.638150e-01 4.263993e+00 1.559364e+01 -9.254674e+00 -1.101588e+01 1.363736e+00 -9.980494e+00 -3.031502e+00 -9.643447e+00 -5.831118e-01 -3.704016e+00 -3.990690e+00 -1.023908e-01 4.902583e-01 -2.776599e-01 9.179399e-01 1.404426e+00 3.563435e-01 7.054852e-01 -4.080395e-01 6.686102e-01 -5.612947e-01 2.907425e-01 6.922444e-02 -1.068785e+00
<VARIANCE> 25
 7.144894e+00 3.145350e+01 2.588661e+01 5.998896e+01 1.098123e+02 2.141639e+01 5.845308e+01 2.255697e+01 3.661304e+01 3.368863e+01 1.278879e+01 2.337680e+01 4.277546e-01 1.538674e+00 2.035169e+00 1.595798e+00 1.602918e+00 1.405505e+00 1.976358e+00 2.448362e+00 1.624939e+00 2.422029e+00 1.175129e+00 1.307562e+00 4.673942e-01
<GCONST> 9.066239e+01
<TRANSP> 5
 0.000000e+00 1.000000e+00 0.000000e+00 0.000000e+00 0.000000e+00
 0.000000e+00 8.152308e-01 1.847693e-01 0.000000e+00 0.000000e+00
 0.000000e+00 0.000000e+00 8.937786e-01 1.062214e-01 0.000000e+00
 0.000000e+00 0.000000e+00 0.000000e+00 8.733792e-01 1.266208e-01
 0.000000e+00 0.000000e+00 0.000000e+00 0.000000e+00 0.000000e+00
<ENDHMM>
~h "ng"
<BEGINHMM>
<NUMSTATES> 5
<STATE> 2
<MEAN> 25
 5.822988e+00 -8.503601e+00 -6.010082e-01 -7.585411e+00 -1.507639e-01 2.151678e+00 -6.619689e+00 8.539542e-01 -1.544858e+00 -1.161691e+00 -4.748978e+00 -6.010109e+00 6.095133e-02 1.004280e+00 6.375641e-01 2.202580e-01 -8.208346e-01 -2.236354e-01 3.636801e-02 -3.373347e-01 -2.784335e-01 2.183939e-01 2.412499e-01 -1.670817e-01 -4.789743e-01
<VARIANCE> 25
 1.211305e+01 2.522573e+01 3.750268e+01 4.345119e+01 3.579027e+01 5.854894e+01 6.335262e+01 4.167377e+01 4.508330e+01 3.436897e+01 5.046256e+01 3.261203e+01 3.169225e-01 1.171144e+00 1.100464e+00 1.205246e+00 1.699733e+00 2.739362e+00 3.275215e+00 2.597407e+00 2.052112e+00 1.658024e+00 2.150120e+00 2.309822e+00 5.343099e-01
<GCONST> 9.451365e+01
<STATE> 3
<MEAN> 25
 5.913586e+00 -3.638280e+00 1.080502e+00 -8.670992e+00 -4.600502e+00 4.953482e+00 -5.466565e+00 -3.027033e+00 -5.119446e+00 -1.944970e+00 -4.609919e+00 -4.072169e+00 -2.308947e-02 1.294558e+00 4.304503e-01 6.454869e-02 -9.588522e-01 1.401024e-01 6.556168e-01 -6.345110e-01 -3.998661e-01 -2.519569e-01 2.779455e-01 5.870035e-01 -6.273044e-01
<VARIANCE> 25
 7.822330e+00 2.097420e+01 3.256326e+01 2.768468e+01 3.056422e+01 4.982892e+01 9.334309e+01 6.933346e+01 3.482610e+01 4.663732e+01 4.939377e+01 5.285584e+01 2.043723e-01 7.239344e-01 9.851090e-01 1.652761e+00 1.350844e+00 1.909272e+00 1.703063e+00 2.601187e+00 1.719379e+00 1.615717e+00 1.251707e+00 1.773861e+00 2.629274e-01
<GCONST> 9.071103e+01
<STATE> 4
<MEAN> 25
 4.076875e+00 3.994089e+00 6.817649e-02 -6.207074e+00 -8.071629e+00 -9.159124e-01 -1.166207e+00 -6.049078e+00 -6.497106e+00 -2.626313e+00 -3.764571e+00 -3.074761e+00 -5.432477e-01 1.348074e+00 1.015078e-02 7.937448e-01 -4.066488e-02 -3.345689e-01 8.640443e-01 -7.339705e-01 3.898495e-01 -7.907129e-02 4.985451e-01 4.081260e-01 -1.002578e+00
<VARIANCE> 25
 9.850445e+00 3.421078e+01 2.997078e+01 3.112411e+01 6.105460e+01 6.948642e+01 8.171412e+01 5.551053e+01 4.936434e+01 4.568681e+01 3.394497e+01 3.413187e+01 1.455258e+00 2.783772e+00 2.346844e+00 4.473729e+00 5.127420e+00 5.171850e+00 6.616820e+00 5.642471e+00 5.515594e+00 3.477910e+00 3.134625e+00 3.013822e+00 1.488756e+00
<GCONST> 1.063996e+02
<TRANSP> 5
 0.000000e+00 1.000000e+00 0.000000e+00 0.000000e+00 0.000000e+00
 0.000000e+00 3.013327e-01 6.986673e-01 0.000000e+00 0.000000e+00
 0.000000e+00 0.000000e+00 7.590479e-01 2.409521e-01 0.000000e+00
 0.000000e+00 0.000000e+00 0.000000e+00 8.099448e-01 1.900553e-01
 0.000000e+00 0.000000e+00 0.000000e+00 0.000000e+00 0.000000e+00
<ENDHMM>
~h "ny"
<BEGINHMM>
<NUMSTATES> 5
<STATE> 2
<MEAN> 25
 2.838160e+00 3.782970e+00 4.927853e+00 -4.814914e+00 -7.205438e+00 5.155580e-01 -2.119560e+00 -1.899212e+00 -8.791157e+00 -2.667704e-01 3.476780e+00 -2.396694e+00 4.614411e-01 -1.328867e+00 4.592475e-01 -1.418559e+00 -1.083946e+00 2.598735e-01 -8.915033e-01 1.142161e+00 -9.217156e-01 -6.900079e-01 -9.660635e-01 -2.806104e-01 2.104483e+00
<VARIANCE> 25
 1.996886e+01 6.755357e+01 2.905613e+01 8.955654e+01 6.230984e+01 3.709317e+01 5.373654e+01 9.017319e+01 6.442625e+01 4.139871e+01 7.040258e+01 3.051680e+01 3.323196e+00 5.175821e+00 2.767931e+00 5.024385e+00 4.454776e+00 3.961195e+00 3.728652e+00 9.039960e+00 7.023337e+00 3.186925e+00 5.129398e+00 3.455895e+00 1.550824e+00
<GCONST> 1.110985e+02
<STATE> 3
<MEAN> 25
 4.216848e+00 -1.397170e+01 1.230231e+00 -1.091508e+01 -4.311850e+00 5.104172e+00 -8.936282e+00 9.725456e+00 -4.376318e+00 -5.915026e+00 -8.615975e+00 -1.129370e+00 2.250558e-01 -3.013681e-01 -9.002166e-01 1.024670e-02 1.355259e+00 2.419420e-01 -2.745269e-01 -6.714609e-01 4.583884e-01 -6.990398e-02 -2.489120e-03 -3.656314e-01 4.587121e-02
<VARIANCE> 25
 8.399949e+00 1.465242e+01 1.454654e+01 1.789207e+01 3.500401e+01 3.098404e+01 3.029712e+01 3.637569e+01 3.397209e+01 1.432668e+01 4.277289e+01 1.207716e+01 1.418767e-01 1.015037e+00 1.667237e+00 7.059950e-01 3.109091e+00 6.622458e-01 1.971635e+00 1.738578e+00 2.420943e+00 1.635719e+00 2.111252e+00 9.912624e-01 1.724443e-01
<GCONST> 8.328661e+01
<STATE> 4
<MEAN> 25
 5.358827e+00 -6.912780e+00 1.727811e+00 -8.586605e+00 -6.528831e+00 1.186767e+00 -7.132093e+00 1.735260e+00 -8.147718e+00 -6.085034e+00 -2.625569e+00 -7.109496e+00 9.260682e-02 9.958024e-01 -1.541933e-01 -2.345883e-01 8.274540e-01 -1.033087e-01 1.748434e-01 -1.745971e+00 4.697421e-02 8.374000e-01 5.485483e-01 -7.771806e-01 -4.647643e-01
<VARIANCE> 25
 9.926543e+00 3.216692e+01 1.287228e+01 2.607055e+01 5.865060e+01 3.472400e+01 2.126036e+01 6.768079e+01 5.864927e+01 3.069973e+01 3.450215e+01 2.333681e+01 8.402107e-01 1.242954e+00 1.474849e+00 2.437701e+00 1.766319e+00 2.101708e+00 2.289838e+00 5.711353e+00 3.727830e+00 2.147564e+00 2.683786e+00 1.582137e+00 1.258812e+00
<GCONST> 9.556845e+01
<TRANSP> 5
 0.000000e+00 1.000000e+00 0.000000e+00 0.000000e+00 0.000000e+00
 0.000000e+00 8.976388e-01 1.023612e-01 0.000000e+00 0.000000e+00
 0.000000e+00 0.000000e+00 7.839403e-01 2.160596e-01 0.000000e+00
 0.000000e+00 0.000000e+00 0.000000e+00 6.293541e-01 3.706459e-01
 0.000000e+00 0.000000e+00 0.000000e+00 0.000000e+00 0.000000e+00
<ENDHMM>
~h "sp"
<BEGINHMM>
<NUMSTATES> 3
<STATE> 2
~s "silst"
<TRANSP> 3
 0.000000e+00 6.242904e-01 3.757096e-01
 0.000000e+00 9.598854e-01 4.011464e-02
 0.000000e+00 0.000000e+00 0.000000e+00
<ENDHMM>
~h "sil"
<BEGINHMM>
<NUMSTATES> 5
<STATE> 2
<MEAN> 25
 -2.938525e+00 1.881692e+00 -1.727530e+00 7.450931e+00 5.060533e+00 8.151973e-01 7.449196e+00 2.677585e+00 4.491138e+00 3.352139e+00 6.085742e+00 3.413579e+00 2.481432e-02 -2.934195e-03 -3.282576e-02 1.411232e-02 -4.784342e-02 -2.770443e-03 1.171058e-02 -2.898380e-02 -2.518568e-03 3.368041e-02 6.753920e-02 4.659293e-02 -9.155239e-02
<VARIANCE> 25
 5.853258e+00 1.363361e+01 1.202573e+01 1.221964e+01 1.757136e+01 1.939445e+01 2.267484e+01 2.228946e+01 1.779852e+01 2.202255e+01 2.216802e+01 1.478337e+01 2.511998e-01 3.885245e-01 5.599825e-01 6.969855e-01 1.029509e+00 1.130488e+00 1.286134e+00 1.509485e+00 1.502223e+00 1.510365e+00 1.444444e+00 1.292986e+00 1.701309e-01
<GCONST> 7.635668e+01
<STATE> 3
~s "silst"
<STATE> 4
<MEAN> 25
 -5.004641e+00 2.754313e+00 -1.799355e+00 5.798311e+00 2.736392e+00 -5.380635e-01 6.198771e+00 -5.569671e-01 2.841025e+00 2.522472e+00 4.504907e+00 2.869077e+00 -8.202621e-02 -4.288710e-02 8.601684e-03 -1.001952e-01 3.737451e-02 -1.065112e-01 -1.251741e-01 1.971682e-02 -6.034585e-02 -6.816571e-02 -3.880519e-02 -2.454969e-02 1.754030e-01
<VARIANCE> 25
 2.332407e+01 2.200236e+01 2.433411e+01 2.430781e+01 3.234589e+01 3.081525e+01 3.171124e+01 3.737919e+01 3.193141e+01 2.494420e+01 2.872603e+01 2.072821e+01 1.996109e+00 1.562421e+00 1.615433e+00 2.029692e+00 2.108852e+00 2.397419e+00 2.990641e+00 2.527321e+00 2.583058e+00 2.260878e+00 2.235811e+00 1.965218e+00 1.586299e+00
<GCONST> 9.529650e+01
<TRANSP> 5
 0.000000e+00 1.000000e+00 0.000000e+00 0.000000e+00 0.000000e+00
 0.000000e+00 8.435146e-01 1.069978e-01 4.948767e-02 0.000000e+00
 0.000000e+00 0.000000e+00 9.745674e-01 2.543260e-02 0.000000e+00
 0.000000e+00 1.616438e-01 0.000000e+00 7.059962e-01 1.323601e-01
 0.000000e+00 0.000000e+00 0.000000e+00 0.000000e+00 0.000000e+00
<ENDHMM>
