~o
<STREAMINFO> 1 25
<VECSIZE> 25<NULLD><MFCC_D_N_Z_0><DIAGC>
~h "a"
<BEGINHMM>
<NUMSTATES> 5
<STATE> 2
<MEAN> 25
 1.981994e+00 -6.730099e+00 3.742191e-01 -7.228067e+00 -1.356161e+00 -1.301128e+00 -4.158382e+00 1.760791e+00 -2.213015e+00 -2.884843e+00 -6.690967e+00 -2.030668e+00 2.260715e-01 -1.284253e+00 -1.590982e-01 -6.876058e-01 3.416122e-01 5.267880e-01 -2.755941e-01 4.625576e-01 -2.795079e-01 -6.772659e-01 -6.672015e-01 1.758414e-01 1.005528e+00
<VARIANCE> 25
 2.977575e+01 9.052800e+01 5.518749e+01 9.618240e+01 8.927452e+01 5.134180e+01 5.836955e+01 6.683163e+01 4.750077e+01 4.080174e+01 6.227974e+01 2.698038e+01 2.340005e+00 4.189085e+00 2.934190e+00 4.897063e+00 5.658369e+00 4.252754e+00 3.868140e+00 4.937248e+00 3.945222e+00 3.929507e+00 3.946573e+00 2.364985e+00 3.841995e+00
<GCONST> 1.115173e+02
<STATE> 3
<MEAN> 25
 3.793087e+00 -1.339191e+01 -2.826007e+00 -1.054915e+01 1.300097e+00 5.274976e-01 -6.116889e+00 4.339127e+00 -3.070322e+00 -6.000447e+00 -1.032480e+01 -1.260190e+00 -1.728099e-02 -6.041003e-03 -9.197702e-02 4.660420e-01 3.805836e-01 1.872160e-01 -7.402918e-02 -2.810165e-03 -1.597391e-01 -3.353738e-01 2.229731e-01 1.116222e-01 -3.291835e-01
<VARIANCE> 25
 1.312648e+01 4.711482e+01 2.965216e+01 4.820480e+01 4.669472e+01 5.099866e+01 5.509303e+01 5.211158e+01 5.516979e+01 3.429779e+01 4.038792e+01 2.605726e+01 3.820153e-01 1.326564e+00 9.320498e-01 1.465950e+00 1.936009e+00 1.981569e+00 1.868273e+00 2.401479e+00 1.912987e+00 1.919256e+00 1.858328e+00 1.426095e+00 9.771863e-01
<GCONST> 9.461150e+01
<STATE> 4
<MEAN> 25
 1.664329e+00 -5.521906e+00 -1.620715e+00 -1.912463e+00 2.977335e+00 1.212702e+00 -7.672018e-01 2.678418e+00 2.819531e-01 -2.273662e+00 -2.962544e+00 -3.599465e-01 -2.059733e-03 5.102253e-01 -2.163914e-02 3.466625e-01 -1.099656e-01 -7.531925e-02 1.870598e-02 1.606631e-02 -3.290456e-03 1.085924e-01 3.771003e-01 -1.569202e-01 -4.864563e-01
<VARIANCE> 25
 1.708730e+01 7.973167e+01 1.619885e+01 9.639812e+01 2.599481e+01 3.062300e+01 6.494597e+01 4.227422e+01 4.395236e+01 4.436951e+01 7.621595e+01 2.846561e+01 3.897953e-01 1.411807e+00 6.911157e-01 1.194020e+00 1.342684e+00 1.412677e+00 1.633288e+00 2.143204e+00 1.752513e+00 1.713091e+00 1.720283e+00 1.486064e+00 9.046063e-01
<GCONST> 9.341403e+01
<TRANSP> 5
 0.000000e+00 1.000000e+00 0.000000e+00 0.000000e+00 0.000000e+00
 0.000000e+00 6.934153e-01 3.065847e-01 0.000000e+00 0.000000e+00
 0.000000e+00 0.000000e+00 7.268869e-01 2.731130e-01 0.000000e+00
 0.000000e+00 0.000000e+00 0.000000e+00 8.600934e-01 1.399067e-01
 0.000000e+00 0.000000e+00 0.000000e+00 0.000000e+00 0.000000e+00
<ENDHMM>
~h "b"
<BEGINHMM>
<NUMSTATES> 5
<STATE> 2
<MEAN> 25
 -1.909911e+00 2.694664e+00 -1.140136e+00 6.763441e+00 4.347951e+00 4.722137e-01 6.423398e+00 2.277011e+00 3.193681e+00 3.382968e+00 4.903801e+00 3.423129e+00 -7.213205e-03 8.545057e-02 1.173657e-02 9.307256e-02 -7.517210e-02 -4.022714e-02 5.689041e-02 -3.640314e-02 -3.072079e-02 5.185000e-02 6.030261e-02 1.142689e-02 -9.046917e-02
<VARIANCE> 25
 4.184789e+00 8.982182e+00 7.729260e+00 1.048076e+01 1.959618e+01 1.539993e+01 1.613506e+01 1.491136e+01 1.455169e+01 1.735023e+01 1.723839e+01 1.438243e+01 2.458119e-01 4.492746e-01 6.268121e-01 7.862327e-01 1.055217e+00 1.051452e+00 1.309003e+00 1.469911e+00 1.548868e+00 1.683868e+00 1.523986e+00 1.318782e+00 2.611174e-01
<GCONST> 7.436678e+01
<STATE> 3
<MEAN> 25
 -2.685758e-01 4.508366e+00 4.055511e-01 7.042355e+00 4.310436e+00 9.709545e-01 5.285040e+00 -3.961056e-01 5.826190e-01 1.371491e+00 2.126009e+00 1.284952e+00 6.814813e-01 5.172179e-01 4.263636e-01 1.376346e-01 5.909626e-02 -1.624787e-02 -5.528178e-01 -8.593774e-01 -8.295327e-01 -8.272363e-01 -8.477750e-01 -8.466465e-01 4.746087e-01
<VARIANCE> 25
 1.325674e+01 2.347869e+01 1.214574e+01 3.176223e+01 2.056097e+01 1.578313e+01 2.393443e+01 2.466945e+01 3.093869e+01 3.459392e+01 3.991111e+01 2.498910e+01 9.181050e-01 1.945583e+00 9.650339e-01 1.612750e+00 9.814227e-01 1.188200e+00 2.000730e+00 2.243274e+00 2.631738e+00 2.896656e+00 3.040166e+00 2.296234e+00 1.282278e+00
<GCONST> 9.058742e+01
<STATE> 4
<MEAN> 25
 4.557570e+00 6.802992e+00 2.159572e+00 5.834040e+00 4.549386e+00 4.953700e-01 3.332944e+00 -4.100663e+00 -3.666880e+00 -3.549016e+00 -3.009011e+00 -2.272202e+00 5.757226e-01 3.422083e-01 7.307370e-02 -3.098864e-01 -2.999299e-01 -1.175089e-01 -4.869501e-01 -5.121380e-01 -3.458241e-01 -3.631513e-01 -4.287606e-01 -5.990310e-01 7.448372e-01
<VARIANCE> 25
 2.047448e+01 4.300364e+01 1.370493e+01 4.073213e+01 1.738695e+01 1.278714e+01 4.429740e+01 3.032363e+01 3.266868e+01 3.704596e+01 3.824299e+01 3.411827e+01 9.152008e-01 1.784490e+00 1.170686e+00 2.040805e+00 1.117376e+00 1.188552e+00 1.847607e+00 2.437534e+00 2.548145e+00 2.621523e+00 2.499002e+00 1.979982e+00 1.996139e+00
<GCONST> 9.327090e+01
<TRANSP> 5
 0.000000e+00 1.000000e+00 0.000000e+00 0.000000e+00 0.000000e+00
 0.000000e+00 9.609451e-01 3.905490e-02 0.000000e+00 0.000000e+00
 0.000000e+00 0.000000e+00 4.677975e-01 5.322025e-01 0.000000e+00
 0.000000e+00 0.000000e+00 0.000000e+00 6.893122e-01 3.106878e-01
 0.000000e+00 0.000000e+00 0.000000e+00 0.000000e+00 0.000000e+00
<ENDHMM>
~h "c"
<BEGINHMM>
<NUMSTATES> 5
<STATE> 2
<MEAN> 25
 -1.430110e+00 2.148874e+00 -1.038645e+00 7.351339e+00 3.948463e+00 1.105423e+00 5.828164e+00 2.094199e+00 3.876452e+00 2.550498e+00 5.135741e+00 1.584821e+00 -2.940363e-01 8.794497e-02 -5.809859e-02 1.328740e-01 1.096667e-02 -2.389850e-02 1.034656e-01 -1.321086e-01 2.117357e-02 1.088938e-01 8.625980e-02 -8.541749e-02 1.331651e-01
<VARIANCE> 25
 9.632863e+00 1.174084e+01 1.315331e+01 1.706374e+01 1.632045e+01 1.945955e+01 1.666115e+01 1.804623e+01 1.848935e+01 1.804547e+01 1.752576e+01 1.651644e+01 1.474962e+00 1.310959e+00 1.614208e+00 2.232666e+00 1.628495e+00 1.862210e+00 2.063490e+00 2.381474e+00 2.023993e+00 1.711489e+00 1.728893e+00 1.428841e+00 2.713426e+00
<GCONST> 8.682167e+01
<STATE> 3
<MEAN> 25
 -7.602609e+00 1.779124e+00 -9.719527e-01 2.972607e+00 3.759971e+00 -9.817217e-02 4.738851e+00 1.355333e+00 2.728311e+00 2.364960e+00 2.581514e+00 1.298331e+00 -1.311821e+00 3.726649e-01 2.548736e-03 -6.751102e-01 -7.534078e-01 2.195241e-02 -3.435390e-01 -6.405985e-01 -4.238335e-01 -2.740183e-01 -1.744391e-01 -4.361235e-01 2.604441e+00
<VARIANCE> 25
 4.591019e+01 4.204593e+01 2.208959e+01 4.501218e+01 3.831491e+01 2.908659e+01 2.802368e+01 2.719227e+01 2.107384e+01 2.550709e+01 3.428242e+01 1.974751e+01 4.624510e+00 3.659130e+00 2.393298e+00 3.616977e+00 3.392969e+00 2.634228e+00 2.835574e+00 3.335972e+00 2.570076e+00 2.037405e+00 2.224536e+00 1.914086e+00 8.165145e+00
<GCONST> 1.014996e+02
<STATE> 4
<MEAN> 25
 -6.074439e+00 4.389136e-01 -6.701823e-01 -1.812744e+00 -1.706802e+00 -2.501180e+00 2.542419e+00 -2.932187e-01 -2.197716e+00 -1.632222e+00 -1.948419e-01 -7.844852e-01 1.501359e+00 -1.248281e+00 1.934965e-01 -1.132627e+00 -1.148106e+00 -9.804353e-01 -5.121293e-01 3.894280e-01 -1.197408e+00 -8.699924e-01 -1.216151e+00 -4.403254e-01 1.312378e+00
<VARIANCE> 25
 8.097913e+01 7.306345e+01 2.458710e+01 8.547655e+01 6.560319e+01 4.834542e+01 4.143703e+01 2.841422e+01 4.973998e+01 3.717511e+01 5.206532e+01 2.636580e+01 7.179205e+00 8.789480e+00 2.011552e+00 8.103028e+00 5.408165e+00 5.161568e+00 4.684782e+00 3.884027e+00 3.612949e+00 2.911092e+00 4.560679e+00 2.979811e+00 4.687593e+00
<GCONST> 1.118365e+02
<TRANSP> 5
 0.000000e+00 1.000000e+00 0.000000e+00 0.000000e+00 0.000000e+00
 0.000000e+00 9.372343e-01 6.276572e-02 0.000000e+00 0.000000e+00
 0.000000e+00 0.000000e+00 6.981857e-01 3.018142e-01 0.000000e+00
 0.000000e+00 0.000000e+00 0.000000e+00 8.344761e-01 1.655240e-01
 0.000000e+00 0.000000e+00 0.000000e+00 0.000000e+00 0.000000e+00
<ENDHMM>
~h "d"
<BEGINHMM>
<NUMSTATES> 5
<STATE> 2
<MEAN> 25
 3.057385e+00 -1.283043e+00 5.319051e+00 -1.167899e+00 -6.390441e+00 -3.658854e+00 -6.400776e+00 1.400126e+00 -1.465873e+00 -4.821933e+00 -3.713140e+00 -4.522426e+00 8.166312e-01 3.189930e-01 4.888105e-01 1.718824e+00 -1.982107e-01 -9.568942e-01 4.288575e-02 3.348504e-01 7.042711e-01 -1.176383e+00 -4.777270e-01 2.615395e-01 -6.675988e-01
<VARIANCE> 25
 2.261422e+01 5.525964e+01 7.260066e+01 1.123271e+02 1.008171e+02 4.527347e+01 1.105303e+02 6.540660e+01 5.138396e+01 4.143497e+01 7.703718e+01 3.923959e+01 2.320532e+00 3.966718e+00 4.411565e+00 9.827488e+00 1.519994e+01 5.404707e+00 8.946575e+00 6.630440e+00 4.497713e+00 4.578342e+00 8.040121e+00 4.311209e+00 1.079578e+01
<GCONST> 1.185037e+02
<STATE> 3
<MEAN> 25
 4.159840e+00 1.039919e+00 6.960809e+00 2.626799e+00 -6.948999e+00 -6.116295e+00 -8.420374e+00 -5.500017e-01 -7.695655e-01 -7.184932e+00 -2.469133e+00 -2.707222e+00 1.998197e-02 -3.613316e-01 -8.269754e-02 -6.290405e-01 -6.916138e-01 -1.354932e-01 -1.011631e+00 3.111719e-01 -3.057083e-01 5.037249e-01 3.266089e-01 1.498271e-02 7.962102e-01
<VARIANCE> 25
 1.445962e+01 5.432164e+01 2.860484e+01 7.988113e+01 5.732247e+01 3.117443e+01 5.834047e+01 7.273421e+01 4.366275e+01 3.689075e+01 4.236002e+01 2.536761e+01 2.588310e+00 8.566904e+00 3.078795e+00 1.429751e+01 1.145996e+01 3.999235e+00 9.424506e+00 9.279018e+00 3.872045e+00 6.010451e+00 5.201659e+00 3.183599e+00 1.383750e+01
<GCONST> 1.143141e+02
<STATE> 4
<MEAN> 25
 4.860572e+00 -3.651856e+00 4.405786e+00 -5.375662e+00 -7.989237e+00 -5.204125e+00 -1.290760e+01 4.412725e+00 -2.308065e+00 -1.778641e+00 -3.998677e+00 -3.245107e+00 -3.913840e-02 3.824723e-01 -2.578532e-01 2.753710e-01 7.762209e-01 2.895182e-01 4.859954e-01 -4.527095e-01 3.240854e-01 2.846728e-02 -3.697397e-01 -1.803415e-01 -5.448356e-01
<VARIANCE> 25
 9.903711e+00 5.492178e+01 4.529992e+01 1.086058e+02 8.451021e+01 4.665059e+01 7.144315e+01 8.518428e+01 7.074381e+01 4.396235e+01 4.529425e+01 4.711460e+01 7.285549e-01 2.990618e+00 1.881047e+00 4.349088e+00 4.425270e+00 3.045012e+00 3.885504e+00 4.277333e+00 2.838723e+00 3.014063e+00 3.494358e+00 2.072592e+00 4.355669e+00
<GCONST> 1.073383e+02
<TRANSP> 5
 0.000000e+00 1.000000e+00 0.000000e+00 0.000000e+00 0.000000e+00
 0.000000e+00 5.583041e-01 4.416960e-01 0.000000e+00 0.000000e+00
 0.000000e+00 0.000000e+00 7.586543e-01 2.413457e-01 0.000000e+00
 0.000000e+00 0.000000e+00 0.000000e+00 8.561758e-01 1.438242e-01
 0.000000e+00 0.000000e+00 0.000000e+00 0.000000e+00 0.000000e+00
<ENDHMM>
~h "e"
<BEGINHMM>
<NUMSTATES> 5
<STATE> 2
<MEAN> 25
 6.465957e-01 -3.258813e+00 1.422979e+00 -2.893997e+00 -4.248734e+00 -2.709269e+00 -1.348944e+00 -8.056891e-01 -5.916256e-01 -1.328133e+00 -3.406964e+00 -3.029140e+00 1.132746e+00 -2.084817e+00 9.237905e-01 -2.573558e+00 -2.556638e+00 -1.300436e+00 -1.018648e+00 1.450610e+00 -1.115956e+00 -2.041291e-01 -1.849162e+00 -1.817984e-01 2.665907e+00
<VARIANCE> 25
 3.433176e+01 5.001133e+01 2.873248e+01 6.898302e+01 7.421728e+01 8.092944e+01 9.348807e+01 6.137755e+01 5.303039e+01 4.059484e+01 4.686930e+01 3.201809e+01 4.845191e+00 7.057156e+00 2.812409e+00 7.403272e+00 6.122549e+00 5.777792e+00 8.179741e+00 8.406931e+00 5.046395e+00 4.194988e+00 4.868442e+00 4.417675e+00 5.250984e+00
<GCONST> 1.154748e+02
<STATE> 3
<MEAN> 25
 2.570842e+00 -8.472772e+00 4.743446e+00 -9.665461e+00 -1.099065e+01 -5.887774e+00 -2.309155e+00 4.623828e+00 -4.318747e+00 -1.314285e+00 -7.396128e+00 -2.262554e+00 2.505862e-01 -1.479533e+00 8.466474e-01 -1.374705e+00 -1.489509e+00 2.119751e-01 3.184091e-01 1.339908e+00 -1.303585e+00 2.831113e-01 -7.479563e-01 1.326825e-01 1.231856e+00
<VARIANCE> 25
 1.229618e+01 4.374039e+01 2.465021e+01 6.789196e+01 6.853723e+01 5.945721e+01 6.760760e+01 5.021399e+01 6.680258e+01 3.763871e+01 5.580093e+01 2.613642e+01 1.587699e+00 3.568251e+00 1.943093e+00 4.745515e+00 3.837748e+00 2.924824e+00 4.098819e+00 4.050406e+00 3.172741e+00 3.459135e+00 3.198007e+00 2.044844e+00 3.887751e+00
<GCONST> 1.060295e+02
<STATE> 4
<MEAN> 25
 2.251222e+00 -7.919303e+00 6.020901e+00 -1.078032e+01 -1.186214e+01 -4.899817e+00 -2.756718e+00 3.884163e+00 -6.201506e+00 -7.877317e-01 -8.175606e+00 -1.982708e+00 5.066152e-02 2.655329e-01 -2.984667e-01 4.991989e-01 4.827857e-01 1.515097e-01 -3.001421e-02 -1.367867e-01 1.714539e-01 -1.184800e-01 1.305041e-01 4.295345e-02 -5.612510e-01
<VARIANCE> 25
 1.568997e+01 7.004810e+01 4.875914e+01 6.520489e+01 8.765689e+01 5.713749e+01 5.995070e+01 6.179760e+01 5.089382e+01 4.790159e+01 5.675789e+01 2.607358e+01 1.000995e+00 2.389251e+00 1.889426e+00 3.569951e+00 3.861633e+00 2.295050e+00 2.871082e+00 2.820605e+00 2.742791e+00 2.661420e+00 2.429984e+00 1.679779e+00 2.986374e+00
<GCONST> 1.043912e+02
<TRANSP> 5
 0.000000e+00 1.000000e+00 0.000000e+00 0.000000e+00 0.000000e+00
 0.000000e+00 6.596051e-01 3.403948e-01 0.000000e+00 0.000000e+00
 0.000000e+00 0.000000e+00 2.917278e-01 7.082722e-01 0.000000e+00
 0.000000e+00 0.000000e+00 0.000000e+00 9.004161e-01 9.958380e-02
 0.000000e+00 0.000000e+00 0.000000e+00 0.000000e+00 0.000000e+00
<ENDHMM>
~h "f"
<BEGINHMM>
<NUMSTATES> 5
<STATE> 2
<MEAN> 25
 -4.110533e+00 2.172946e+00 -1.104851e+00 5.769415e+00 1.910389e+00 -5.385227e-01 3.544001e+00 2.543075e-01 2.451891e+00 -7.031292e-02 1.642840e+00 3.861978e-01 -1.338540e+00 1.883253e-03 -8.155231e-01 9.504983e-01 7.838920e-01 5.784782e-01 6.743356e-01 7.349879e-01 9.503431e-01 2.170009e-01 6.389461e-01 4.541194e-01 -5.025864e-01
<VARIANCE> 25
 2.824389e+01 2.263168e+01 1.838585e+01 2.307398e+01 3.574317e+01 3.114355e+01 2.362042e+01 2.829062e+01 2.524500e+01 2.428566e+01 2.302730e+01 2.302505e+01 2.932756e+00 1.652336e+00 2.355346e+00 3.250003e+00 3.131581e+00 2.756336e+00 2.084638e+00 2.482860e+00 2.886281e+00 2.924580e+00 2.353249e+00 1.958758e+00 1.419804e+00
<GCONST> 9.609350e+01
<STATE> 3
<MEAN> 25
 -5.432064e+00 2.376831e+00 -2.672426e+00 7.527298e+00 2.912663e+00 2.386154e-01 5.505007e+00 1.456857e+00 3.915344e+00 1.892646e+00 4.059342e+00 2.324945e+00 -1.467483e-02 -2.526348e-02 -2.489035e-02 3.985743e-02 -7.740357e-02 -4.875348e-02 1.066176e-02 -7.648803e-04 -1.879500e-02 6.916691e-02 7.217135e-02 2.273289e-02 1.310825e-02
<VARIANCE> 25
 3.142959e+01 1.374076e+01 1.492539e+01 1.272064e+01 1.773460e+01 2.072978e+01 2.018460e+01 1.806559e+01 1.548550e+01 1.980987e+01 1.505638e+01 1.527692e+01 1.353742e+00 8.090565e-01 8.835168e-01 1.086819e+00 1.290962e+00 1.411718e+00 1.441226e+00 1.639353e+00 1.647867e+00 1.779124e+00 1.515228e+00 1.449351e+00 2.052218e+00
<GCONST> 8.432317e+01
<STATE> 4
<MEAN> 25
 -5.897061e+00 2.306314e+00 -1.077437e+00 6.820003e+00 -1.044741e-01 -2.742475e+00 2.667662e+00 -2.449669e-01 6.759381e-01 8.801600e-02 2.098538e+00 -4.767970e-01 2.485390e+00 -6.568078e-01 2.127258e+00 -2.150029e+00 -1.916138e+00 -1.643704e+00 -1.318830e+00 -1.392177e+00 -2.349084e+00 -7.183566e-01 -9.862476e-01 -1.059000e+00 1.521092e+00
<VARIANCE> 25
 3.383316e+01 2.668957e+01 3.599130e+01 2.264525e+01 2.571479e+01 5.043048e+01 2.952728e+01 2.543287e+01 3.735093e+01 2.613853e+01 2.024572e+01 2.455913e+01 5.237785e+00 3.205814e+00 8.431870e+00 5.690159e+00 4.922848e+00 7.131925e+00 3.963068e+00 3.938517e+00 4.788109e+00 3.285210e+00 2.702920e+00 3.356139e+00 3.503983e+00
<GCONST> 1.055502e+02
<TRANSP> 5
 0.000000e+00 1.000000e+00 0.000000e+00 0.000000e+00 0.000000e+00
 0.000000e+00 7.817015e-01 2.182985e-01 0.000000e+00 0.000000e+00
 0.000000e+00 0.000000e+00 9.244299e-01 7.557010e-02 0.000000e+00
 0.000000e+00 0.000000e+00 0.000000e+00 4.862575e-01 5.137424e-01
 0.000000e+00 0.000000e+00 0.000000e+00 0.000000e+00 0.000000e+00
<ENDHMM>
~h "g"
<BEGINHMM>
<NUMSTATES> 5
<STATE> 2
<MEAN> 25
 2.292982e+00 2.758782e+00 1.465171e+00 -2.951712e+00 -4.204490e+00 -9.517760e-01 -1.655980e+00 -6.175156e+00 -3.131050e+00 -8.761579e-02 -2.532691e+00 -3.500270e+00 4.211345e-01 -1.604340e+00 -1.407115e-01 -3.180403e+00 -7.947974e-01 -1.126088e+00 -1.373306e+00 1.860298e-01 -3.338543e-01 4.975781e-01 -2.157838e+00 -5.870164e-01 3.435590e+00
<VARIANCE> 25
 2.520790e+01 6.017115e+01 5.612965e+01 1.169072e+02 6.108872e+01 3.976665e+01 7.396773e+01 5.555134e+01 3.838163e+01 4.714513e+01 4.826981e+01 2.603585e+01 2.580157e+00 5.293781e+00 5.480744e+00 1.468675e+01 6.480919e+00 4.957498e+00 6.532722e+00 7.371123e+00 5.699997e+00 5.155861e+00 5.701074e+00 2.743535e+00 8.825322e+00
<GCONST> 1.154686e+02
<STATE> 3
<MEAN> 25
 3.387784e+00 -4.089302e+00 1.711108e+00 -1.073627e+01 -4.877744e+00 -5.983798e+00 -6.208851e+00 -1.618780e+00 -3.209881e+00 2.585299e-02 -1.167507e+01 -2.282629e+00 -5.574316e-02 -6.790713e-01 4.359107e-01 -4.127233e-01 -4.973531e-01 -3.957566e-01 -2.650867e-01 8.647266e-01 -2.964289e-01 1.997009e-01 -6.932693e-01 3.400411e-01 6.007681e-01
<VARIANCE> 25
 1.873782e+01 6.707751e+01 4.894118e+01 1.026382e+02 8.919073e+01 6.697238e+01 5.861067e+01 6.891185e+01 3.267126e+01 6.542044e+01 4.581537e+01 3.087341e+01 1.170856e+00 5.234806e+00 2.541645e+00 1.060703e+01 5.041937e+00 4.659142e+00 3.967953e+00 5.629128e+00 2.460095e+00 5.315967e+00 4.548933e+00 3.954749e+00 6.297627e+00
<GCONST> 1.121969e+02
<STATE> 4
<MEAN> 25
 1.875383e+00 -2.265517e+00 6.306943e+00 -9.005698e+00 -1.133369e+01 -5.186913e+00 -9.297793e+00 -1.853259e+00 -6.780069e+00 1.598646e+00 -9.933006e+00 -1.388748e+00 2.046509e-03 1.235817e-01 3.162405e-02 3.056676e-01 2.060064e-01 9.587253e-02 8.565941e-02 -6.166966e-02 4.249825e-02 -2.116502e-01 2.737641e-01 4.354676e-02 -3.211809e-01
<VARIANCE> 25
 2.346101e+01 6.726868e+01 2.917085e+01 9.909554e+01 7.300126e+01 4.042497e+01 8.590192e+01 9.337097e+01 4.123430e+01 6.301091e+01 5.601077e+01 3.661392e+01 1.262209e+00 3.087847e+00 2.170438e+00 6.939967e+00 4.852417e+00 3.098146e+00 5.044126e+00 6.121907e+00 3.309482e+00 5.335727e+00 4.065538e+00 2.489615e+00 5.133080e+00
<GCONST> 1.107830e+02
<TRANSP> 5
 0.000000e+00 1.000000e+00 0.000000e+00 0.000000e+00 0.000000e+00
 0.000000e+00 7.273144e-01 2.726857e-01 0.000000e+00 0.000000e+00
 0.000000e+00 0.000000e+00 7.724271e-01 2.275729e-01 0.000000e+00
 0.000000e+00 0.000000e+00 0.000000e+00 9.329728e-01 6.702717e-02
 0.000000e+00 0.000000e+00 0.000000e+00 0.000000e+00 0.000000e+00
<ENDHMM>
~h "h"
<BEGINHMM>
<NUMSTATES> 5
<STATE> 2
<MEAN> 25
 -1.468515e+00 1.610897e+00 -1.150636e+00 6.801405e+00 4.917798e+00 2.139276e+00 5.660608e+00 2.175036e+00 4.563201e+00 1.681537e+00 4.411344e+00 2.853648e+00 -1.681429e-01 -2.000535e-01 -2.339159e-01 1.525636e-01 -6.133934e-02 -4.307996e-02 3.288617e-01 2.161645e-01 3.284102e-01 2.830924e-01 4.126151e-01 2.278190e-01 -2.916586e-01
<VARIANCE> 25
 5.055579e+00 1.375086e+01 1.263749e+01 1.159621e+01 2.611104e+01 1.761340e+01 2.251004e+01 2.176614e+01 2.014866e+01 1.975898e+01 2.069703e+01 1.818629e+01 5.195369e-01 8.932610e-01 9.798651e-01 1.190298e+00 1.588184e+00 1.526947e+00 1.940569e+00 2.112387e+00 2.197912e+00 2.201081e+00 2.188156e+00 1.808547e+00 7.343298e-01
<GCONST> 8.374467e+01
<STATE> 3
<MEAN> 25
 -1.665980e+00 2.047372e+00 -1.433770e+00 7.551222e+00 4.453043e+00 5.030136e-01 6.891647e+00 1.935291e+00 4.182511e+00 2.718327e+00 5.934644e+00 2.967183e+00 -1.288673e-02 -1.195809e-02 9.291777e-03 -2.385464e-03 1.227573e-03 1.186300e-02 6.852495e-03 -4.518572e-02 -1.385901e-02 2.256257e-02 6.785783e-03 -1.934851e-02 1.801009e-02
<VARIANCE> 25
 4.028726e+00 1.226067e+01 7.335648e+00 7.325894e+00 1.226519e+01 1.440925e+01 1.735733e+01 1.623232e+01 1.560281e+01 1.793805e+01 1.704869e+01 1.437672e+01 1.730045e-01 3.987388e-01 4.351050e-01 5.229390e-01 7.873350e-01 9.901838e-01 1.110719e+00 1.251847e+00 1.284959e+00 1.347369e+00 1.346958e+00 1.161723e+00 2.058233e-01
<GCONST> 7.112487e+01
<STATE> 4
<MEAN> 25
 -5.931552e+00 -1.089054e+00 -1.946596e+00 4.190082e+00 7.622579e+00 2.694142e-01 6.977464e+00 1.122198e+00 3.150967e+00 1.800454e-02 4.133708e+00 2.796939e+00 -3.729452e-01 -2.799737e-01 4.649171e-02 -5.431601e-01 2.293058e-01 -7.797495e-02 -5.000509e-02 -2.502135e-01 -2.713786e-01 -4.342183e-01 -4.622198e-01 -1.892609e-01 1.127938e+00
<VARIANCE> 25
 2.702252e+01 4.337491e+01 1.854934e+01 2.144588e+01 4.982422e+01 2.833602e+01 2.796456e+01 2.327637e+01 2.702343e+01 2.634441e+01 2.169698e+01 2.072962e+01 1.464149e+00 1.563449e+00 8.620425e-01 1.313141e+00 1.900420e+00 1.474902e+00 1.858153e+00 1.982741e+00 2.111457e+00 1.819321e+00 1.908877e+00 1.563181e+00 1.142237e+00
<GCONST> 9.126608e+01
<TRANSP> 5
 0.000000e+00 1.000000e+00 0.000000e+00 0.000000e+00 0.000000e+00
 0.000000e+00 8.629016e-01 1.370984e-01 0.000000e+00 0.000000e+00
 0.000000e+00 0.000000e+00 9.438066e-01 5.619342e-02 0.000000e+00
 0.000000e+00 0.000000e+00 0.000000e+00 8.680418e-01 1.319582e-01
 0.000000e+00 0.000000e+00 0.000000e+00 0.000000e+00 0.000000e+00
<ENDHMM>
~h "i"
<BEGINHMM>
<NUMSTATES> 5
<STATE> 2
<MEAN> 25
 -1.552965e+00 3.205189e+00 8.636333e+00 -1.574595e+00 -1.024447e+01 -5.060736e+00 -4.405121e+00 -6.276070e+00 -6.456753e+00 -2.078111e+00 -1.394391e+00 -2.883084e+00 7.447078e-01 -3.223721e-01 3.107863e+00 -2.408017e+00 -3.454030e+00 1.002232e-01 -2.662656e+00 -8.809034e-01 -2.163690e+00 4.895326e-01 -8.485531e-01 -8.043270e-01 1.912408e+00
<VARIANCE> 25
 2.336151e+01 4.254941e+01 5.384455e+01 7.051142e+01 8.981664e+01 5.445703e+01 5.984911e+01 5.934396e+01 4.781731e+01 4.267749e+01 4.792719e+01 2.744368e+01 4.204065e+00 3.359470e+00 5.844845e+00 6.500348e+00 7.927514e+00 6.389743e+00 8.037560e+00 5.401597e+00 5.690436e+00 6.031790e+00 6.809923e+00 3.934106e+00 4.503129e+00
<GCONST> 1.148736e+02
<STATE> 3
<MEAN> 25
 -7.408949e-01 1.249431e+00 1.316061e+01 -7.850027e+00 -1.570281e+01 -2.707900e+00 -1.003917e+01 -5.648099e+00 -9.451199e+00 5.741393e-01 -3.957141e+00 -4.215827e+00 -1.751535e-01 1.908186e-01 7.766440e-01 -8.359352e-01 -6.679891e-01 8.943692e-01 -9.513354e-01 -4.360648e-02 -5.955277e-02 2.154597e-01 -1.831957e-01 -3.786623e-01 1.947369e-01
<VARIANCE> 25
 1.536991e+01 3.350362e+01 5.180944e+01 6.565601e+01 7.742632e+01 6.711529e+01 4.471742e+01 4.946755e+01 4.740163e+01 5.947044e+01 8.397867e+01 4.344434e+01 9.785587e-01 1.938643e+00 2.750725e+00 3.596394e+00 4.944468e+00 3.604535e+00 3.651800e+00 3.254050e+00 3.101445e+00 3.103557e+00 2.823488e+00 2.089593e+00 1.326771e+00
<GCONST> 1.053364e+02
<STATE> 4
<MEAN> 25
 -1.403914e+00 4.812021e+00 1.368273e+01 -6.470496e+00 -1.429611e+01 8.424764e-01 -9.010805e+00 -6.913058e+00 -7.462605e+00 -2.157636e+00 -2.600679e+00 -4.815886e+00 9.921032e-02 1.937619e-01 -7.457333e-01 8.381632e-01 1.083285e+00 -1.215781e-01 8.524986e-01 1.758549e-02 5.431057e-01 -1.632915e-01 1.341876e-01 2.730873e-01 -9.680985e-01
<VARIANCE> 25
 1.186773e+01 2.962579e+01 4.277156e+01 7.436785e+01 8.079443e+01 6.020989e+01 5.443118e+01 3.579594e+01 4.656707e+01 5.113246e+01 5.297680e+01 4.350970e+01 6.567752e-01 1.261172e+00 2.274786e+00 2.966124e+00 3.412452e+00 2.192649e+00 3.228251e+00 2.155054e+00 2.394737e+00 2.481156e+00 2.259748e+00 1.857551e+00 1.731322e+00
<GCONST> 1.008954e+02
<TRANSP> 5
 0.000000e+00 1.000000e+00 0.000000e+00 0.000000e+00 0.000000e+00
 0.000000e+00 6.260703e-01 3.739297e-01 0.000000e+00 0.000000e+00
 0.000000e+00 0.000000e+00 4.971177e-01 5.028824e-01 0.000000e+00
 0.000000e+00 0.000000e+00 0.000000e+00 8.707087e-01 1.292913e-01
 0.000000e+00 0.000000e+00 0.000000e+00 0.000000e+00 0.000000e+00
<ENDHMM>
~h "j"
<BEGINHMM>
<NUMSTATES> 5
<STATE> 2
<MEAN> 25
 -1.927540e+00 1.146851e+00 -1.128960e+00 7.014175e+00 4.306067e+00 2.123478e+00 5.241607e+00 3.081832e+00 4.185232e+00 2.395673e+00 4.422734e+00 2.947824e+00 -8.536252e-02 -4.874431e-02 -4.648206e-02 6.044589e-02 -1.676434e-01 2.031405e-03 1.927453e-01 1.346366e-01 1.930870e-01 2.527749e-01 3.721559e-01 2.071837e-01 -1.873314e-01
<VARIANCE> 25
 3.402829e+00 7.294956e+00 7.696526e+00 9.472825e+00 1.651627e+01 1.699251e+01 1.912006e+01 1.747194e+01 1.537880e+01 1.725616e+01 1.808730e+01 1.672153e+01 3.182531e-01 5.138533e-01 6.361051e-01 8.085256e-01 9.908128e-01 1.141981e+00 1.404435e+00 1.619236e+00 1.802940e+00 1.862533e+00 1.810845e+00 1.672758e+00 2.746406e-01
<GCONST> 7.568623e+01
<STATE> 3
<MEAN> 25
 -2.108114e+00 6.600488e-01 -1.952140e-01 7.196050e+00 2.645923e+00 1.380916e+00 5.582270e+00 3.222203e+00 4.072359e+00 1.992584e+00 5.801464e+00 2.758749e+00 2.477525e-02 1.025360e-01 7.801463e-02 7.883904e-02 -3.102969e-02 4.961609e-05 -4.361680e-02 -1.464823e-01 -7.566176e-02 -3.218120e-02 -6.300980e-02 -9.210521e-02 -1.292460e-02
<VARIANCE> 25
 3.899930e+00 1.142715e+01 7.002388e+00 1.000420e+01 1.386395e+01 1.713925e+01 1.430679e+01 1.581713e+01 1.342245e+01 1.819101e+01 1.406376e+01 1.385700e+01 2.951512e-01 3.774753e-01 6.097693e-01 6.931257e-01 9.215056e-01 1.067427e+00 1.064553e+00 1.354673e+00 1.174258e+00 1.331342e+00 1.228629e+00 1.192043e+00 2.161505e-01
<GCONST> 7.224637e+01
<STATE> 4
<MEAN> 25
 -2.037044e+00 3.339756e+00 1.688064e+00 8.604065e+00 2.516951e+00 2.175133e+00 5.075341e+00 1.098240e+00 2.928608e+00 7.843982e-01 4.010084e+00 2.763281e-01 -1.305942e-02 2.700563e-01 2.875507e-01 -2.268903e-03 1.106255e-02 -3.278188e-02 -1.790799e-01 -2.883642e-01 -2.975990e-01 -2.738299e-01 -3.637632e-01 -3.341621e-01 3.924993e-01
<VARIANCE> 25
 1.707158e+01 9.523507e+00 1.459647e+01 1.340610e+01 1.334493e+01 1.768020e+01 1.487877e+01 1.630549e+01 2.122218e+01 2.498902e+01 2.016349e+01 2.028347e+01 1.718244e+00 9.795624e-01 1.645387e+00 1.272181e+00 1.498733e+00 1.563708e+00 1.465961e+00 1.938550e+00 1.926041e+00 2.535792e+00 2.058765e+00 1.761567e+00 1.351975e+00
<GCONST> 8.588810e+01
<TRANSP> 5
 0.000000e+00 1.000000e+00 0.000000e+00 0.000000e+00 0.000000e+00
 0.000000e+00 9.368612e-01 6.313880e-02 0.000000e+00 0.000000e+00
 0.000000e+00 0.000000e+00 8.710753e-01 1.289248e-01 0.000000e+00
 0.000000e+00 0.000000e+00 0.000000e+00 8.843200e-01 1.156801e-01
 0.000000e+00 0.000000e+00 0.000000e+00 0.000000e+00 0.000000e+00
<ENDHMM>
~h "k"
<BEGINHMM>
<NUMSTATES> 5
<STATE> 2
<MEAN> 25
 -2.005129e+00 3.172457e+00 -2.836617e-01 4.384164e+00 2.601759e+00 1.805457e+00 4.381580e+00 -3.326921e-01 3.407422e+00 2.105801e+00 3.740664e+00 1.716206e+00 -6.686566e-01 -4.030041e-01 -6.106186e-01 9.014669e-01 8.801647e-01 -7.803154e-02 7.279105e-01 5.239298e-01 8.033178e-01 5.968716e-01 6.406319e-01 5.690963e-01 -7.623875e-01
<VARIANCE> 25
 1.527079e+01 1.855195e+01 2.540861e+01 3.464164e+01 3.360223e+01 2.700427e+01 3.480292e+01 3.202823e+01 3.354876e+01 3.370329e+01 3.579771e+01 2.319031e+01 1.772443e+00 2.700765e+00 2.717720e+00 4.427526e+00 3.636938e+00 4.350477e+00 3.537339e+00 3.358494e+00 3.470579e+00 3.685302e+00 3.931727e+00 2.358666e+00 6.434545e+00
<GCONST> 1.018801e+02
<STATE> 3
<MEAN> 25
 -4.668371e+00 -4.663291e-01 -6.278788e+00 4.305748e+00 6.245976e+00 -3.510185e+00 4.902927e+00 2.108971e-01 3.823183e+00 3.877746e+00 1.983194e+00 3.482174e+00 4.170358e-03 -1.229218e+00 -1.504046e+00 -1.549718e+00 1.998199e-01 -2.209563e+00 -1.196650e+00 -1.072028e-02 -6.416270e-01 -2.705933e-01 -2.021172e+00 -2.184700e-01 3.942908e+00
<VARIANCE> 25
 1.798613e+01 2.673784e+01 5.459037e+01 3.664626e+01 5.291537e+01 6.287786e+01 3.962462e+01 3.202935e+01 2.938800e+01 3.915316e+01 4.525060e+01 3.017010e+01 2.892631e+00 3.605075e+00 6.275743e+00 6.537572e+00 7.581592e+00 6.880305e+00 4.852515e+00 4.360426e+00 4.089509e+00 4.642202e+00 6.025749e+00 3.708001e+00 9.067459e+00
<GCONST> 1.105670e+02
<STATE> 4
<MEAN> 25
 -4.306602e-02 -4.323655e+00 -4.852602e+00 -4.961277e+00 1.150798e+00 -6.161131e+00 -9.820012e-01 1.292196e+00 3.257717e-01 5.312984e-01 -6.213027e+00 1.263094e-02 1.880133e+00 -1.764261e+00 1.324352e+00 -3.417579e+00 -2.126147e+00 8.113666e-01 -1.522267e+00 8.408166e-01 -1.386577e+00 -9.989755e-01 -2.085482e+00 -1.201986e+00 2.736703e+00
<VARIANCE> 25
 2.840323e+01 5.229608e+01 4.520973e+01 7.496847e+01 7.473803e+01 5.100356e+01 5.449193e+01 3.929737e+01 3.424801e+01 5.531792e+01 5.461073e+01 3.636273e+01 2.462821e+00 6.029665e+00 6.214341e+00 7.170153e+00 7.213598e+00 7.735928e+00 5.519171e+00 4.680713e+00 4.687308e+00 3.566049e+00 4.768739e+00 4.013555e+00 5.520265e+00
<GCONST> 1.136791e+02
<TRANSP> 5
 0.000000e+00 1.000000e+00 0.000000e+00 0.000000e+00 0.000000e+00
 0.000000e+00 7.928730e-01 2.071270e-01 0.000000e+00 0.000000e+00
 0.000000e+00 0.000000e+00 5.774471e-01 4.225529e-01 0.000000e+00
 0.000000e+00 0.000000e+00 0.000000e+00 6.353600e-01 3.646399e-01
 0.000000e+00 0.000000e+00 0.000000e+00 0.000000e+00 0.000000e+00
<ENDHMM>
~h "l"
<BEGINHMM>
<NUMSTATES> 5
<STATE> 2
<MEAN> 25
 5.535331e+00 -1.770594e+00 2.786819e-01 -1.531558e+01 -2.239711e+00 1.905262e-02 -1.046313e+01 -4.211681e+00 -2.642044e+00 1.883977e+00 -3.622098e+00 -8.562632e-01 2.581107e-01 -1.048261e+00 -1.269175e-02 -1.598922e+00 5.207457e-02 3.499556e-01 -9.828153e-01 4.090030e-01 5.343598e-01 2.873607e-01 -3.110979e-01 -4.585738e-01 1.079395e+00
<VARIANCE> 25
 1.841459e+01 7.209342e+01 3.685135e+01 1.053061e+02 6.599471e+01 5.735327e+01 8.807172e+01 4.752910e+01 6.947523e+01 5.216692e+01 5.496605e+01 4.096231e+01 1.276625e+00 3.474540e+00 1.434010e+00 5.252955e+00 3.170298e+00 2.716248e+00 6.081141e+00 3.765064e+00 3.045195e+00 2.840466e+00 3.198477e+00 2.569085e+00 2.854645e+00
<GCONST> 1.080006e+02
<STATE> 3
<MEAN> 25
 5.675553e+00 -4.189856e+00 3.378147e-02 -2.007220e+01 -2.384992e+00 1.541404e-01 -1.100148e+01 -2.482893e+00 -2.380634e+00 2.648355e+00 -4.788500e+00 -1.307580e+00 -2.176407e-02 -7.390099e-01 -2.218404e-01 -1.680612e-01 3.325820e-01 1.671408e-01 1.093678e-01 2.935123e-01 5.147151e-01 -1.072389e-01 -3.886100e-01 -5.626003e-01 4.248339e-01
<VARIANCE> 25
 1.363056e+01 5.696166e+01 4.422546e+01 8.091893e+01 6.400406e+01 5.505001e+01 8.688098e+01 4.586858e+01 6.905638e+01 5.534332e+01 4.942068e+01 4.220477e+01 3.672629e-01 1.743992e+00 1.246099e+00 2.009316e+00 1.660770e+00 1.823954e+00 3.338815e+00 2.624712e+00 2.670405e+00 2.793328e+00 3.639431e+00 1.843621e+00 7.771709e-01
<GCONST> 1.005454e+02
<STATE> 4
<MEAN> 25
 6.296508e+00 -5.442780e+00 -2.543032e+00 -1.681938e+01 -1.622300e+00 1.662070e+00 -1.302767e+01 -2.719655e+00 -1.053545e+00 7.382894e-01 -5.503533e+00 -4.625649e+00 -1.489749e-01 2.751074e-01 -5.424692e-02 7.896877e-01 2.469746e-01 -9.742473e-02 4.524904e-01 -2.355012e-02 6.403662e-02 -3.855150e-01 3.051457e-02 -3.086314e-02 -5.247828e-01
<VARIANCE> 25
 1.027856e+01 5.129614e+01 2.434043e+01 6.464725e+01 5.457850e+01 6.317618e+01 6.532037e+01 3.725302e+01 5.150689e+01 5.205510e+01 4.254481e+01 2.924499e+01 5.368994e-01 1.527984e+00 1.140420e+00 2.516658e+00 1.696735e+00 2.020518e+00 2.380403e+00 1.941289e+00 2.275302e+00 2.379794e+00 2.369372e+00 1.508282e+00 9.901450e-01
<GCONST> 9.711042e+01
<TRANSP> 5
 0.000000e+00 1.000000e+00 0.000000e+00 0.000000e+00 0.000000e+00
 0.000000e+00 5.595155e-01 4.404845e-01 0.000000e+00 0.000000e+00
 0.000000e+00 0.000000e+00 5.541400e-01 4.458600e-01 0.000000e+00
 0.000000e+00 0.000000e+00 0.000000e+00 8.836166e-01 1.163834e-01
 0.000000e+00 0.000000e+00 0.000000e+00 0.000000e+00 0.000000e+00
<ENDHMM>
~h "m"
<BEGINHMM>
<NUMSTATES> 5
<STATE> 2
<MEAN> 25
 5.146834e+00 -1.466874e+00 2.629930e-02 -3.474634e+00 2.988546e+00 -2.154503e-01 -7.239785e+00 -7.670575e+00 -6.899656e+00 -3.402027e+00 -3.654687e+00 -4.519908e+00 -4.134983e-01 8.575900e-01 3.871388e-01 1.398451e+00 8.189626e-01 3.227806e-01 4.851710e-01 -5.846628e-01 -5.938308e-01 5.404542e-02 5.329674e-01 4.589268e-01 -1.337288e+00
<VARIANCE> 25
 1.604960e+01 5.051061e+01 3.193789e+01 6.302108e+01 4.479193e+01 3.805115e+01 7.264848e+01 9.580176e+01 7.632014e+01 5.833234e+01 4.679932e+01 3.596893e+01 1.099736e+00 2.424060e+00 2.545490e+00 3.645247e+00 2.830144e+00 2.522034e+00 4.569153e+00 7.056361e+00 5.931901e+00 4.181554e+00 3.864299e+00 2.513596e+00 2.014516e+00
<GCONST> 1.072024e+02
<STATE> 3
<MEAN> 25
 2.450854e+00 3.237951e+00 1.004579e+00 3.169250e+00 4.933724e+00 1.703498e+00 -2.071551e+00 -6.596775e+00 -7.927511e+00 -3.700692e+00 -9.696100e-01 -2.804146e+00 -4.989232e-01 -5.039939e-02 -3.214556e-01 7.035207e-01 1.332282e-01 3.071824e-01 9.830109e-01 8.853298e-01 1.001582e+00 3.869146e-01 5.093289e-01 3.966414e-01 -9.015883e-01
<VARIANCE> 25
 1.454949e+01 3.491628e+01 2.238416e+01 3.299307e+01 3.363875e+01 2.840103e+01 6.093499e+01 7.416711e+01 9.574848e+01 4.615539e+01 3.808680e+01 2.628104e+01 6.877530e-01 1.479252e+00 1.238922e+00 2.016185e+00 1.807658e+00 1.655582e+00 2.536739e+00 2.973314e+00 3.430422e+00 3.255786e+00 2.680368e+00 2.239181e+00 1.228578e+00
<GCONST> 9.782320e+01
<STATE> 4
<MEAN> 25
 -1.468527e+00 2.215460e+00 -1.340018e+00 7.247257e+00 4.052714e+00 1.819330e+00 5.926456e+00 1.327952e+00 4.052495e+00 2.459682e+00 5.241670e+00 2.342206e+00 -2.435981e-02 5.721867e-03 -3.564171e-02 -9.048260e-03 -7.511362e-02 -1.567654e-03 3.117312e-02 -9.931490e-03 4.660912e-02 7.676994e-02 4.718597e-02 1.428491e-02 -1.735368e-02
<VARIANCE> 25
 5.195691e+00 1.087651e+01 9.348527e+00 1.162022e+01 1.599570e+01 1.839417e+01 1.841587e+01 2.162666e+01 2.386391e+01 2.010290e+01 1.749533e+01 1.536735e+01 3.572642e-01 5.305669e-01 7.125044e-01 9.400893e-01 1.153474e+00 1.270946e+00 1.423000e+00 1.829596e+00 2.008033e+00 1.832628e+00 1.635313e+00 1.392437e+00 5.168121e-01
<GCONST> 7.884952e+01
<TRANSP> 5
 0.000000e+00 1.000000e+00 0.000000e+00 0.000000e+00 0.000000e+00
 0.000000e+00 7.650971e-01 2.349029e-01 0.000000e+00 0.000000e+00
 0.000000e+00 0.000000e+00 5.910242e-01 4.089759e-01 0.000000e+00
 0.000000e+00 0.000000e+00 0.000000e+00 9.494704e-01 5.052957e-02
 0.000000e+00 0.000000e+00 0.000000e+00 0.000000e+00 0.000000e+00
<ENDHMM>
~h "n"
<BEGINHMM>
<NUMSTATES> 5
<STATE> 2
<MEAN> 25
 4.588778e+00 -5.431675e+00 2.816128e-01 -4.129192e+00 -3.978536e+00 -3.479184e+00 -7.224256e+00 2.859221e+00 -5.596073e+00 -6.074237e+00 -8.268911e+00 -3.246794e+00 3.168753e-01 1.839671e+00 8.434126e-01 7.240334e-01 2.485818e-02 -9.672034e-01 4.016189e-01 -2.087058e+00 3.731726e-01 6.061647e-01 -6.164374e-01 -1.289853e-01 -1.537225e+00
<VARIANCE> 25
 9.812881e+00 4.914429e+01 3.418985e+01 3.509098e+01 4.299571e+01 5.053849e+01 5.295690e+01 9.636230e+01 5.508659e+01 4.751053e+01 3.782220e+01 3.528054e+01 7.662413e-01 2.377812e+00 2.608304e+00 2.080798e+00 3.311632e+00 3.061700e+00 2.960906e+00 7.827976e+00 4.199473e+00 4.194273e+00 3.104174e+00 2.113416e+00 2.181284e+00
<GCONST> 1.037834e+02
<STATE> 3
<MEAN> 25
 4.945269e+00 2.773019e+00 4.009845e+00 -1.355651e+00 -3.698003e+00 -5.572532e+00 -4.086684e+00 -6.817382e+00 -4.779731e+00 -3.887550e+00 -9.766379e+00 -2.144415e+00 -8.669850e-02 1.260442e+00 3.560286e-01 7.682384e-01 4.975081e-01 -3.505957e-02 3.848149e-01 -9.996040e-01 -2.111423e-01 -1.075698e-01 1.778794e-03 3.305314e-02 -1.134038e+00
<VARIANCE> 25
 1.174569e+01 2.781279e+01 2.067065e+01 3.120997e+01 4.974942e+01 4.762152e+01 4.050568e+01 5.167571e+01 4.293592e+01 5.443239e+01 4.933134e+01 3.490423e+01 9.404073e-01 2.795125e+00 1.997681e+00 2.671759e+00 2.719105e+00 2.562435e+00 3.317376e+00 6.511291e+00 3.312739e+00 3.223004e+00 2.883827e+00 2.113688e+00 2.814479e+00
<GCONST> 1.016954e+02
<STATE> 4
<MEAN> 25
 1.070870e+00 6.258016e+00 3.017343e+00 5.195150e+00 1.905027e+00 -2.533771e+00 1.365919e+00 -4.829895e+00 -2.766951e+00 -2.628855e+00 -3.630121e+00 -1.444524e+00 -6.335616e-01 -9.896278e-02 -3.512729e-01 5.198101e-01 5.344272e-01 5.954036e-01 7.025681e-01 7.636160e-01 6.290129e-01 4.907948e-01 1.050318e+00 2.881274e-01 -7.655499e-01
<VARIANCE> 25
 2.384507e+01 1.921546e+01 2.096570e+01 3.381780e+01 4.267127e+01 3.463443e+01 4.823599e+01 4.316448e+01 4.948418e+01 5.272931e+01 6.286019e+01 3.013644e+01 1.141358e+00 1.921579e+00 1.303121e+00 2.272789e+00 2.166061e+00 2.399917e+00 2.638902e+00 3.634088e+00 3.799724e+00 3.740000e+00 3.000296e+00 2.247500e+00 1.678773e+00
<GCONST> 9.985188e+01
<TRANSP> 5
 0.000000e+00 1.000000e+00 0.000000e+00 0.000000e+00 0.000000e+00
 0.000000e+00 7.262266e-01 2.737734e-01 0.000000e+00 0.000000e+00
 0.000000e+00 0.000000e+00 6.333544e-01 3.666455e-01 0.000000e+00
 0.000000e+00 0.000000e+00 0.000000e+00 8.467857e-01 1.532143e-01
 0.000000e+00 0.000000e+00 0.000000e+00 0.000000e+00 0.000000e+00
<ENDHMM>
~h "o"
<BEGINHMM>
<NUMSTATES> 5
<STATE> 2
<MEAN> 25
 3.911601e+00 -3.230982e-01 -4.712535e+00 -8.155210e+00 9.034662e-01 1.171706e+00 -4.007700e+00 -2.745640e+00 -1.247354e+00 1.186216e-01 -1.625340e+00 -2.819394e+00 1.414542e+00 -1.180834e+00 -1.730670e-01 -2.987207e+00 -3.031890e-01 4.244577e-01 -9.791571e-01 -1.447471e-02 -7.809749e-01 -3.118728e-01 -9.062991e-01 -4.162110e-01 1.433470e+00
<VARIANCE> 25
 2.536632e+01 4.154941e+01 4.318271e+01 1.611991e+02 5.101406e+01 5.533714e+01 7.728899e+01 3.977499e+01 5.744169e+01 3.462043e+01 4.865864e+01 3.201645e+01 4.698954e+00 5.225849e+00 4.252092e+00 1.874186e+01 4.467618e+00 6.382458e+00 7.385691e+00 5.623228e+00 6.128067e+00 3.856864e+00 4.824426e+00 2.297768e+00 7.326681e+00
<GCONST> 1.148938e+02
<STATE> 3
<MEAN> 25
 5.910404e+00 -3.970497e+00 -5.412596e+00 -1.583484e+01 8.087503e-01 3.325469e+00 -4.608644e+00 -1.760303e+00 -3.005699e+00 1.033770e-01 -3.332184e+00 -2.773073e+00 1.325346e-01 -5.644962e-01 1.185953e-02 -9.768471e-01 3.814721e-01 5.211882e-01 3.576815e-01 3.359756e-01 -2.051110e-01 -1.537233e-01 -2.326931e-01 -3.745231e-02 3.545036e-01
<VARIANCE> 25
 1.845232e+01 4.362569e+01 3.387440e+01 1.314017e+02 6.592888e+01 5.797858e+01 6.417221e+01 4.550761e+01 5.873374e+01 3.529435e+01 4.918819e+01 3.146359e+01 1.603430e+00 3.649338e+00 2.712418e+00 1.259174e+01 3.728582e+00 4.146574e+00 4.620149e+00 4.479613e+00 3.688630e+00 2.802126e+00 3.197348e+00 1.938129e+00 4.753035e+00
<GCONST> 1.090323e+02
<STATE> 4
<MEAN> 25
 6.061376e+00 -5.413985e+00 -5.535043e+00 -1.830515e+01 7.059668e-01 4.484468e+00 -5.575448e+00 -1.825373e+00 -2.353187e+00 -1.375890e+00 -4.105333e+00 -3.585004e+00 -3.128717e-01 3.988435e-01 2.072215e-01 1.249494e+00 4.756332e-02 -2.159741e-01 1.758199e-01 1.541426e-01 3.154139e-01 -2.692252e-01 1.681760e-01 1.098580e-01 -6.415027e-01
<VARIANCE> 25
 1.625241e+01 3.604701e+01 2.412242e+01 1.243611e+02 8.203591e+01 6.990290e+01 7.416061e+01 3.603044e+01 4.318285e+01 3.566590e+01 4.618252e+01 3.258743e+01 1.089354e+00 2.560879e+00 1.318372e+00 6.200666e+00 2.450341e+00 2.902170e+00 3.222067e+00 2.669338e+00 2.741509e+00 2.327821e+00 3.323959e+00 1.887318e+00 2.530553e+00
<GCONST> 1.033861e+02
<TRANSP> 5
 0.000000e+00 1.000000e+00 0.000000e+00 0.000000e+00 0.000000e+00
 0.000000e+00 6.004885e-01 3.995115e-01 0.000000e+00 0.000000e+00
 0.000000e+00 0.000000e+00 4.794306e-01 5.205694e-01 0.000000e+00
 0.000000e+00 0.000000e+00 0.000000e+00 8.429589e-01 1.570411e-01
 0.000000e+00 0.000000e+00 0.000000e+00 0.000000e+00 0.000000e+00
<ENDHMM>
~h "p"
<BEGINHMM>
<NUMSTATES> 5
<STATE> 2
<MEAN> 25
 4.022573e+00 2.210243e+00 -1.359629e+00 -4.043271e+00 1.475020e+00 1.211792e+00 -7.859038e-01 -5.678294e+00 -2.464286e+00 -1.996338e+00 -1.823699e+00 -2.686255e+00 -7.359759e-01 9.956311e-01 5.590370e-01 2.386619e+00 8.790527e-01 2.189620e-01 7.879258e-01 3.670357e-01 6.919713e-01 -1.637682e-01 3.666213e-01 -1.132232e-01 -1.855416e+00
<VARIANCE> 25
 2.986282e+01 5.272760e+01 3.791235e+01 1.217905e+02 4.695806e+01 3.445331e+01 4.367819e+01 3.760372e+01 4.328553e+01 4.019121e+01 4.444324e+01 3.749943e+01 3.063074e+00 5.287007e+00 3.679670e+00 1.637455e+01 4.772023e+00 3.791421e+00 5.156877e+00 4.193759e+00 4.858608e+00 4.232330e+00 4.774747e+00 3.114929e+00 1.193414e+01
<GCONST> 1.124742e+02
<STATE> 3
<MEAN> 25
 -1.593977e-01 3.858884e+00 -9.002167e-02 3.803327e+00 2.730984e+00 2.118234e+00 2.273053e+00 -2.474161e+00 4.380091e-01 -9.232595e-01 6.535234e-01 -9.769711e-01 -8.257196e-01 -9.400791e-01 -4.145159e-01 4.466326e-01 3.100956e-01 3.236718e-01 6.514720e-01 1.178220e+00 1.400291e+00 1.122635e+00 8.915748e-01 6.922355e-01 -4.443681e-01
<VARIANCE> 25
 2.488706e+01 2.512401e+01 2.577410e+01 5.456856e+01 3.490380e+01 3.578810e+01 3.263235e+01 2.964289e+01 3.689476e+01 3.722075e+01 3.777513e+01 3.031534e+01 5.242087e+00 2.846569e+00 2.693169e+00 1.344341e+01 4.120833e+00 3.646600e+00 5.677166e+00 4.481096e+00 5.140471e+00 4.462579e+00 6.019560e+00 4.314153e+00 9.919369e+00
<GCONST> 1.088294e+02
<STATE> 4
<MEAN> 25
 -1.688698e+00 1.748657e+00 -1.681730e+00 6.081169e+00 3.531980e+00 2.476686e+00 5.419278e+00 1.190451e+00 4.518719e+00 2.402932e+00 4.810146e+00 1.965037e+00 6.736404e-02 -2.695343e-01 -1.402303e-01 -4.729831e-01 -1.624028e-01 -1.996050e-01 -1.369953e-01 -5.402964e-02 -3.397013e-02 5.444865e-02 -8.874323e-02 -6.535265e-02 5.725363e-01
<VARIANCE> 25
 1.056515e+01 1.413174e+01 1.320164e+01 4.170860e+01 1.861246e+01 2.330024e+01 2.430400e+01 2.050318e+01 1.912547e+01 1.907065e+01 2.360628e+01 1.878059e+01 1.339722e+00 1.562254e+00 1.134781e+00 4.856748e+00 1.743658e+00 1.943430e+00 2.450872e+00 2.077764e+00 2.207880e+00 2.124001e+00 2.708340e+00 2.098922e+00 4.411015e+00
<GCONST> 9.160176e+01
<TRANSP> 5
 0.000000e+00 1.000000e+00 0.000000e+00 0.000000e+00 0.000000e+00
 0.000000e+00 5.970128e-01 4.029872e-01 0.000000e+00 0.000000e+00
 0.000000e+00 0.000000e+00 4.161360e-01 5.838640e-01 0.000000e+00
 0.000000e+00 0.000000e+00 0.000000e+00 8.919234e-01 1.080767e-01
 0.000000e+00 0.000000e+00 0.000000e+00 0.000000e+00 0.000000e+00
<ENDHMM>
~h "r"
<BEGINHMM>
<NUMSTATES> 5
<STATE> 2
<MEAN> 25
 2.466670e+00 -4.305653e+00 -2.044530e+00 -2.712895e+00 -2.071028e+00 -1.230360e+00 -5.577347e+00 2.930978e+00 5.442284e-01 -2.582998e+00 -4.158314e+00 -2.420963e+00 8.014908e-02 2.082378e-01 -9.313071e-02 4.111513e-01 -2.341158e-01 -4.709298e-01 -3.751420e-01 -1.539475e-02 2.516440e-01 -3.689950e-01 4.656171e-01 1.160055e-01 -2.778643e-02
<VARIANCE> 25
 3.374861e+01 7.431575e+01 2.488958e+01 8.670250e+01 5.823632e+01 4.295969e+01 9.407423e+01 7.323335e+01 4.253743e+01 4.935360e+01 8.167227e+01 3.392361e+01 1.750416e+00 3.133553e+00 1.832442e+00 5.380220e+00 3.698389e+00 3.953500e+00 4.115553e+00 4.736938e+00 4.191634e+00 3.701816e+00 4.871646e+00 2.371326e+00 4.192858e+00
<GCONST> 1.099551e+02
<STATE> 3
<MEAN> 25
 2.509910e+00 -2.011053e+00 -2.010338e+00 -3.454911e-01 -2.593482e+00 -3.570468e+00 -5.339640e+00 9.894385e-01 1.367443e+00 -3.096245e+00 -1.640566e+00 -1.484309e+00 1.802191e-01 2.252654e-01 1.177142e-01 2.637130e-01 -1.062334e-01 -4.776618e-01 -3.657479e-01 -1.012417e-01 1.667955e-01 -1.728098e-01 2.345506e-01 2.429660e-01 1.567742e-01
<VARIANCE> 25
 3.692138e+01 5.563881e+01 3.240794e+01 6.730402e+01 6.277419e+01 4.343489e+01 8.989869e+01 6.871343e+01 4.576898e+01 5.846798e+01 5.564544e+01 3.075485e+01 3.624152e+00 5.924038e+00 2.420649e+00 7.513248e+00 4.043282e+00 4.375940e+00 6.922616e+00 7.322844e+00 5.032379e+00 4.353086e+00 5.214859e+00 3.068795e+00 6.083624e+00
<GCONST> 1.136703e+02
<STATE> 4
<MEAN> 25
 2.189628e+00 -2.643072e+00 1.707568e-01 -9.066865e-01 -3.649701e+00 -4.123741e+00 -6.048588e+00 2.671497e+00 -7.140981e-01 -3.250921e+00 -3.566257e+00 -1.218633e+00 -7.196897e-02 5.304165e-03 1.363780e-01 -6.562131e-02 2.622190e-01 2.259360e-01 9.299029e-02 1.087509e-01 -8.218176e-02 1.305530e-01 -8.852802e-03 8.674692e-02 -1.645587e-01
<VARIANCE> 25
 3.171908e+01 5.837523e+01 3.656425e+01 8.008449e+01 9.477832e+01 4.444358e+01 9.808514e+01 6.220076e+01 5.057630e+01 6.107518e+01 6.802047e+01 3.015129e+01 2.984807e+00 4.535841e+00 2.194731e+00 6.135612e+00 4.912309e+00 3.235040e+00 6.501025e+00 4.760841e+00 4.364171e+00 4.350632e+00 4.697073e+00 2.489277e+00 4.417430e+00
<GCONST> 1.124686e+02
<TRANSP> 5
 0.000000e+00 1.000000e+00 0.000000e+00 0.000000e+00 0.000000e+00
 0.000000e+00 4.961016e-01 5.038983e-01 0.000000e+00 0.000000e+00
 0.000000e+00 0.000000e+00 4.399003e-01 5.600997e-01 0.000000e+00
 0.000000e+00 0.000000e+00 0.000000e+00 7.449330e-01 2.550670e-01
 0.000000e+00 0.000000e+00 0.000000e+00 0.000000e+00 0.000000e+00
<ENDHMM>
~h "s"
<BEGINHMM>
<NUMSTATES> 5
<STATE> 2
<MEAN> 25
 -5.874727e+00 7.061570e+00 -1.662979e+00 3.057013e+00 1.305983e+00 -5.906659e+00 3.680017e-01 -3.004770e-01 -1.025264e+00 -4.960464e+00 -1.493620e+00 -1.727224e+00 -3.794499e+00 2.227344e+00 -1.325399e+00 2.747701e+00 1.732293e+00 7.860988e-01 3.037840e+00 1.368128e-01 1.188482e+00 3.974584e-01 1.889051e+00 8.462130e-01 -1.088511e+00
<VARIANCE> 25
 5.599624e+01 3.732930e+01 2.895882e+01 4.591289e+01 6.713332e+01 4.166301e+01 6.731607e+01 4.914981e+01 4.186217e+01 3.741923e+01 3.287295e+01 2.122746e+01 2.714621e+00 6.251317e+00 3.548382e+00 6.131311e+00 5.868878e+00 5.360569e+00 5.880493e+00 5.753999e+00 4.687940e+00 5.271309e+00 3.768595e+00 2.685118e+00 1.648091e+00
<GCONST> 1.096326e+02
<STATE> 3
<MEAN> 25
 -1.397157e+01 8.700476e+00 -5.005422e+00 7.228761e+00 3.983526e+00 -3.077851e+00 7.026301e+00 8.947237e-01 2.452714e+00 -7.262665e-02 3.473556e+00 1.984108e+00 -4.053023e-01 4.657181e-02 -2.784849e-01 1.394942e-01 -3.026752e-02 8.834732e-02 2.724118e-01 -1.878431e-02 1.904736e-01 2.888644e-01 2.617215e-01 2.443272e-01 -9.266526e-02
<VARIANCE> 25
 4.168130e+01 2.372418e+01 2.244523e+01 2.175700e+01 2.724181e+01 3.392171e+01 2.540380e+01 2.811322e+01 2.275844e+01 2.235736e+01 1.750776e+01 1.718899e+01 1.396170e+00 9.290535e-01 9.619356e-01 9.708845e-01 1.311102e+00 1.484905e+00 1.688223e+00 1.711199e+00 1.778936e+00 1.756488e+00 1.505407e+00 1.378083e+00 9.264960e-01
<GCONST> 8.808506e+01
<STATE> 4
<MEAN> 25
 -9.944483e+00 6.582660e+00 -3.288238e+00 7.136760e+00 3.543848e+00 -2.717052e+00 7.360719e+00 8.676192e-01 2.976048e+00 1.226873e+00 3.914886e+00 2.475847e+00 9.268842e-01 -4.196868e-01 4.299223e-01 -3.269221e-01 -4.432214e-01 -1.978262e-01 -6.507317e-01 -2.263685e-01 -1.548799e-01 -2.067709e-01 -3.268025e-01 -2.467496e-01 1.138102e-02
<VARIANCE> 25
 5.459709e+01 2.491910e+01 1.990082e+01 1.825263e+01 2.245890e+01 3.231603e+01 2.606199e+01 2.743247e+01 2.332366e+01 2.112771e+01 1.758110e+01 1.613959e+01 3.020211e+00 1.617802e+00 1.704327e+00 1.806101e+00 2.284185e+00 2.154501e+00 3.592880e+00 2.493423e+00 2.142179e+00 1.699599e+00 1.937416e+00 1.462113e+00 1.455003e+00
<GCONST> 9.327059e+01
<TRANSP> 5
 0.000000e+00 1.000000e+00 0.000000e+00 0.000000e+00 0.000000e+00
 0.000000e+00 6.994413e-01 3.005587e-01 0.000000e+00 0.000000e+00
 0.000000e+00 0.000000e+00 8.561461e-01 1.438539e-01 0.000000e+00
 0.000000e+00 0.000000e+00 0.000000e+00 8.818755e-01 1.181245e-01
 0.000000e+00 0.000000e+00 0.000000e+00 0.000000e+00 0.000000e+00
<ENDHMM>
~h "t"
<BEGINHMM>
<NUMSTATES> 5
<STATE> 2
<MEAN> 25
 8.870733e-01 1.756858e+00 1.119859e+00 2.096488e+00 1.277404e+00 -4.497347e-01 -1.969725e+00 1.744759e-01 1.438282e+00 -2.285501e+00 -1.506899e+00 -1.708839e+00 -8.938366e-01 1.065283e+00 2.031915e-01 2.077276e+00 1.152397e+00 8.600408e-01 1.842190e+00 5.646093e-02 1.136151e+00 6.076937e-01 1.241953e+00 6.977698e-01 -2.724609e+00
<VARIANCE> 25
 2.057618e+01 4.190165e+01 3.759565e+01 6.744102e+01 5.541077e+01 4.262657e+01 7.927028e+01 5.555455e+01 3.970203e+01 4.432801e+01 5.194188e+01 3.093287e+01 1.497481e+00 5.764470e+00 3.004746e+00 6.810993e+00 4.811910e+00 4.159454e+00 5.077589e+00 5.695347e+00 3.811924e+00 5.149982e+00 4.482764e+00 2.733816e+00 7.579697e+00
<GCONST> 1.106007e+02
<STATE> 3
<MEAN> 25
 -2.908906e+00 3.064242e+00 -3.843723e-02 6.797397e+00 3.856839e+00 1.905082e+00 6.366682e+00 1.404320e+00 4.682964e+00 2.553349e+00 4.916770e+00 2.542249e+00 -2.517434e-01 -9.161878e-02 -2.284114e-01 4.712711e-02 1.649690e-02 -2.684101e-02 3.932665e-01 8.477037e-02 2.155665e-01 3.448486e-01 4.562171e-01 3.014921e-01 -1.485920e-01
<VARIANCE> 25
 8.629859e+00 1.343205e+01 1.402626e+01 1.560968e+01 1.738448e+01 2.029507e+01 2.810614e+01 2.117632e+01 2.079039e+01 2.266089e+01 2.324996e+01 1.760767e+01 8.809020e-01 1.260031e+00 1.256668e+00 1.762333e+00 1.704697e+00 2.163327e+00 2.525936e+00 2.219150e+00 2.200821e+00 2.257547e+00 2.608091e+00 1.849042e+00 2.936395e+00
<GCONST> 8.869500e+01
<STATE> 4
<MEAN> 25
 -3.675384e+00 2.729226e+00 -1.521300e+00 5.001174e+00 2.730775e+00 -1.107191e+00 5.711928e+00 1.050563e+00 4.122614e+00 1.978961e+00 4.289340e+00 2.254135e+00 3.202078e-01 -4.055794e-01 -3.100581e-02 -1.359318e+00 -1.223324e+00 -9.359169e-01 -1.563847e+00 -3.400385e-01 -4.651746e-01 -5.804184e-01 -9.537479e-01 -7.202084e-01 2.772184e+00
<VARIANCE> 25
 1.442151e+01 1.597566e+01 1.746046e+01 2.845435e+01 3.441819e+01 3.353294e+01 5.244632e+01 2.528479e+01 2.356920e+01 2.720827e+01 3.262132e+01 2.139009e+01 2.248209e+00 2.614354e+00 2.550653e+00 5.418753e+00 5.079757e+00 4.227484e+00 8.907879e+00 4.799382e+00 3.205726e+00 2.657444e+00 4.716807e+00 2.424463e+00 1.048019e+01
<GCONST> 1.029956e+02
<TRANSP> 5
 0.000000e+00 1.000000e+00 0.000000e+00 0.000000e+00 0.000000e+00
 0.000000e+00 6.589047e-01 3.410953e-01 0.000000e+00 0.000000e+00
 0.000000e+00 0.000000e+00 7.843900e-01 2.156099e-01 0.000000e+00
 0.000000e+00 0.000000e+00 0.000000e+00 8.020964e-01 1.979036e-01
 0.000000e+00 0.000000e+00 0.000000e+00 0.000000e+00 0.000000e+00
<ENDHMM>
~h "u"
<BEGINHMM>
<NUMSTATES> 5
<STATE> 2
<MEAN> 25
 2.796880e+00 2.423234e+00 -5.667443e-01 -1.833392e+00 -4.642885e+00 -3.285764e+00 -7.313433e+00 -5.783027e+00 -2.810230e+00 -2.524968e+00 -2.159774e+00 -2.318202e+00 1.802723e+00 -3.706920e-01 1.319498e-01 -3.077778e+00 -2.194672e+00 7.696294e-01 -3.222581e+00 -1.150995e+00 -1.624739e+00 7.101070e-02 -1.659338e-01 -6.966512e-01 1.913287e+00
<VARIANCE> 25
 2.956928e+01 3.091962e+01 3.275221e+01 8.348959e+01 6.595164e+01 6.475874e+01 1.246774e+02 4.710288e+01 5.059536e+01 4.415206e+01 4.905673e+01 3.700113e+01 3.803963e+00 3.828494e+00 4.181468e+00 9.102982e+00 7.114752e+00 8.704161e+00 1.103580e+01 5.981255e+00 5.892896e+00 6.546109e+00 8.867541e+00 4.770236e+00 4.469297e+00
<GCONST> 1.164600e+02
<STATE> 3
<MEAN> 25
 5.744627e+00 4.321364e-01 -8.041915e-01 -9.901932e+00 -7.878034e+00 1.575035e+00 -1.244796e+01 -7.393557e+00 -6.538244e+00 -5.627370e-02 -1.390701e+00 -3.349006e+00 4.472442e-01 -2.181343e-02 -1.489773e-01 -1.753264e+00 -4.275957e-01 1.111363e+00 -3.719488e-01 -2.765712e-01 -9.477118e-01 6.147370e-01 5.463274e-01 1.563215e-01 3.044041e-01
<VARIANCE> 25
 1.876071e+01 3.618475e+01 3.292382e+01 9.170401e+01 7.195264e+01 5.856401e+01 1.148725e+02 6.247084e+01 5.414507e+01 6.873133e+01 7.969462e+01 4.900774e+01 1.392851e+00 2.075130e+00 2.594338e+00 6.163839e+00 4.365261e+00 5.498593e+00 5.692048e+00 4.002489e+00 4.720527e+00 4.614541e+00 3.818419e+00 3.415685e+00 1.938216e+00
<GCONST> 1.106455e+02
<STATE> 4
<MEAN> 25
 7.408580e+00 2.758447e+00 -2.604966e+00 -1.257028e+01 -8.095575e+00 2.965108e+00 -1.036969e+01 -7.700220e+00 -8.422996e+00 -6.926290e-01 -4.686980e-02 -1.904824e+00 -2.267804e-01 2.314732e-01 8.635616e-02 6.411133e-01 6.104124e-01 -4.048849e-01 8.121090e-01 3.509909e-01 3.313260e-01 -1.004325e-01 -2.004659e-01 2.043250e-01 -5.731945e-01
<VARIANCE> 25
 1.204123e+01 3.571280e+01 3.296373e+01 8.254663e+01 7.146240e+01 5.815316e+01 8.531860e+01 4.751375e+01 4.993385e+01 5.967841e+01 5.789151e+01 4.239511e+01 9.079511e-01 1.754876e+00 1.539562e+00 4.965457e+00 3.666391e+00 3.139857e+00 4.316115e+00 2.366656e+00 3.548600e+00 3.104975e+00 3.075256e+00 2.238736e+00 1.604620e+00
<GCONST> 1.044333e+02
<TRANSP> 5
 0.000000e+00 1.000000e+00 0.000000e+00 0.000000e+00 0.000000e+00
 0.000000e+00 6.796050e-01 3.203949e-01 0.000000e+00 0.000000e+00
 0.000000e+00 0.000000e+00 5.932592e-01 4.067408e-01 0.000000e+00
 0.000000e+00 0.000000e+00 0.000000e+00 8.771102e-01 1.228898e-01
 0.000000e+00 0.000000e+00 0.000000e+00 0.000000e+00 0.000000e+00
<ENDHMM>
~h "w"
<BEGINHMM>
<NUMSTATES> 5
<STATE> 2
<MEAN> 25
 5.904047e+00 3.688301e+00 -2.913240e+00 -1.023844e+01 -4.955164e+00 8.256980e-02 -7.292949e+00 -7.626643e+00 -3.785536e+00 7.321885e-01 4.621063e-01 8.105808e-02 1.996797e+00 -5.689173e-01 -6.468927e-01 -3.019365e+00 -9.954661e-01 6.505983e-01 -3.605541e-01 -5.946762e-01 -6.237253e-01 3.540052e-01 -3.677860e-01 1.785108e-01 7.865258e-01
<VARIANCE> 25
 2.903560e+01 2.284607e+01 2.252741e+01 1.184946e+02 5.142269e+01 4.296609e+01 5.148406e+01 3.734130e+01 3.846998e+01 4.738257e+01 2.407922e+01 2.222434e+01 6.217696e+00 1.931486e+00 1.603045e+00 5.171168e+00 4.793867e+00 4.058204e+00 4.335433e+00 6.723313e+00 4.590207e+00 2.950200e+00 2.202611e+00 3.194649e+00 1.025637e+00
<GCONST> 1.049098e+02
<STATE> 3
<MEAN> 25
 7.767553e+00 -3.461915e+00 -4.721498e+00 -2.163911e+01 -3.151048e+00 3.742193e+00 -7.490963e+00 -5.528196e+00 -2.522220e+00 4.833334e+00 -4.124177e+00 4.536058e-01 -3.433466e-01 -2.185421e+00 -1.448974e-01 -4.805381e-01 1.884648e+00 2.621742e-01 5.681249e-01 6.462624e-01 1.475155e+00 -1.618115e-01 -1.667054e+00 -1.272682e+00 1.234144e+00
<VARIANCE> 25
 8.254024e+00 3.276369e+01 2.729083e+01 8.224698e+01 6.725200e+01 6.574692e+01 5.257439e+01 3.576903e+01 3.865720e+01 4.531425e+01 4.133710e+01 2.578998e+01 2.796867e-01 8.852588e-01 4.962893e-01 2.749940e+00 2.020676e+00 1.783051e+00 1.960933e+00 1.771526e+00 1.628975e+00 4.883396e+00 2.554705e+00 2.572643e+00 4.934033e-01
<GCONST> 9.432916e+01
<STATE> 4
<MEAN> 25
 5.043674e+00 -1.131437e+01 -4.825443e+00 -1.588422e+01 5.854742e+00 9.183919e-01 -4.468410e+00 -1.858433e+00 1.142408e+00 -2.368513e+00 -1.137360e+01 -3.695599e+00 -2.870342e-01 -3.957684e-01 2.349298e-01 1.076451e+00 3.259501e-01 -6.337395e-01 5.575725e-01 5.595451e-01 5.135776e-02 -1.192743e+00 -2.874501e-01 1.428721e-01 -2.018970e-01
<VARIANCE> 25
 9.626329e+00 4.117233e+01 1.553432e+01 9.140546e+01 5.251057e+01 5.637295e+01 5.718133e+01 4.899518e+01 3.431635e+01 3.530331e+01 6.072095e+01 2.586436e+01 3.238346e-01 1.936373e+00 7.179818e-01 1.618146e+00 2.512975e+00 1.368777e+00 1.615062e+00 1.667440e+00 1.980414e+00 2.866269e+00 2.496040e+00 1.962248e+00 1.582334e+00
<GCONST> 9.527058e+01
<TRANSP> 5
 0.000000e+00 1.000000e+00 0.000000e+00 0.000000e+00 0.000000e+00
 0.000000e+00 7.128731e-01 2.871270e-01 0.000000e+00 0.000000e+00
 0.000000e+00 0.000000e+00 7.053917e-01 2.946083e-01 0.000000e+00
 0.000000e+00 0.000000e+00 0.000000e+00 8.663425e-01 1.336575e-01
 0.000000e+00 0.000000e+00 0.000000e+00 0.000000e+00 0.000000e+00
<ENDHMM>
~h "y"
<BEGINHMM>
<NUMSTATES> 5
<STATE> 2
<MEAN> 25
 -1.191430e+00 1.095009e+00 1.641552e+01 -7.555621e+00 -1.857606e+01 -5.460397e+00 -1.049726e+01 -3.962995e+00 -9.979240e+00 -1.629369e+00 -6.610062e-01 -4.476022e+00 2.679986e-01 -5.976734e-01 -4.937708e-01 -1.496128e-01 -2.174200e-01 -8.364170e-01 7.873374e-02 6.229686e-01 3.085966e-01 5.744870e-01 1.309865e-01 4.230717e-01 3.107795e-01
<VARIANCE> 25
 1.171276e+01 2.629248e+01 2.926898e+01 3.950086e+01 4.548832e+01 5.723463e+01 3.818422e+01 5.027971e+01 2.633452e+01 4.478405e+01 5.193958e+01 3.361100e+01 5.088627e-01 1.369240e+00 2.846540e+00 8.850841e-01 2.197741e+00 2.057652e+00 2.675882e+00 3.014624e+00 2.535122e+00 1.661728e+00 1.613826e+00 1.166533e+00 4.492356e-01
<GCONST> 9.412205e+01
<STATE> 3
<MEAN> 25
 3.523866e+00 -5.740914e+00 5.607881e+00 -1.053350e+01 -1.319899e+01 -9.209602e+00 -1.058447e+01 3.974387e+00 -1.793030e+00 4.703438e+00 -6.173734e+00 -3.598315e+00 7.422143e-01 -7.712476e-01 -1.918531e+00 -9.433475e-01 1.853061e+00 1.013508e+00 -4.033051e-01 2.537631e-01 1.287405e+00 9.410601e-01 -1.436822e+00 -8.076419e-01 2.616106e-02
<VARIANCE> 25
 1.521976e+01 1.535475e+01 4.551392e+01 4.819084e+01 6.315570e+01 5.457454e+01 7.948595e+01 4.192120e+01 5.275574e+01 4.180903e+01 6.331179e+01 3.463404e+01 3.743389e-01 7.015557e-01 1.260149e+00 1.419747e+00 2.930719e+00 2.699171e+00 3.073812e+00 3.624889e+00 2.434998e+00 2.812610e+00 2.396164e+00 2.264422e+00 2.022593e-01
<GCONST> 9.648302e+01
<STATE> 4
<MEAN> 25
 7.648473e+00 -5.925340e+00 -5.257734e+00 -1.901517e+01 -3.265926e+00 2.290138e+00 -1.325592e+01 -1.669593e+00 -2.272413e+00 6.481350e+00 -5.953129e+00 -4.478238e+00 1.129733e-01 2.293200e-01 -5.758713e-01 -2.872448e-01 5.605056e-01 6.953680e-01 4.738232e-01 -3.324175e-01 -3.882621e-01 -4.020475e-01 4.589660e-01 4.027261e-01 -6.423395e-01
<VARIANCE> 25
 8.341738e+00 1.548394e+01 3.852769e+01 4.540041e+01 7.225285e+01 4.721191e+01 8.746426e+01 3.095656e+01 3.454845e+01 3.248386e+01 7.301878e+01 5.431652e+01 2.819214e-01 6.430114e-01 8.710477e-01 1.921888e+00 2.020040e+00 2.154115e+00 1.725251e+00 1.700474e+00 1.844886e+00 1.514450e+00 2.105434e+00 1.306472e+00 4.996704e-01
<GCONST> 9.232201e+01
<TRANSP> 5
 0.000000e+00 1.000000e+00 0.000000e+00 0.000000e+00 0.000000e+00
 0.000000e+00 8.700540e-01 1.299460e-01 0.000000e+00 0.000000e+00
 0.000000e+00 0.000000e+00 7.449726e-01 2.550274e-01 0.000000e+00
 0.000000e+00 0.000000e+00 0.000000e+00 8.704929e-01 1.295071e-01
 0.000000e+00 0.000000e+00 0.000000e+00 0.000000e+00 0.000000e+00
<ENDHMM>
~h "z"
<BEGINHMM>
<NUMSTATES> 5
<STATE> 2
<MEAN> 25
 -8.302031e+00 1.162441e+01 -4.408830e+00 8.179672e+00 1.396075e+00 -8.267306e+00 4.668365e+00 -2.893369e+00 1.854941e+00 -1.189183e+00 6.505033e-01 3.126492e+00 -7.884561e-02 -4.037768e-02 7.371655e-02 -2.519916e-01 -7.675247e-01 -2.448039e-01 -4.948719e-01 -1.825594e-01 -2.345868e-01 -2.612713e-01 -2.481717e-01 -1.084570e-01 9.399644e-01
<VARIANCE> 25
 2.673237e+01 2.789481e+01 1.636741e+01 2.175564e+01 6.274152e+01 3.368085e+01 5.670338e+01 3.648349e+01 3.547146e+01 3.861975e+01 3.367533e+01 1.289772e+01 2.320536e+00 2.967533e+00 1.656263e+00 1.807633e+00 1.983654e+00 2.491576e+00 4.510016e+00 2.839368e+00 2.935028e+00 1.941392e+00 2.393334e+00 1.641477e+00 1.338110e+00
<GCONST> 9.759688e+01
<STATE> 3
<MEAN> 25
 -4.118578e+00 5.262675e+00 1.879592e-01 1.401605e+00 -1.247699e+01 -8.752735e+00 -6.162144e+00 -4.873204e+00 -3.664314e+00 -4.557902e+00 -1.831509e+00 -2.070250e+00 1.106717e+00 -2.368428e+00 1.675503e+00 -2.369804e+00 -2.148928e+00 1.430465e+00 -1.853926e+00 8.679098e-01 -8.115284e-01 6.416244e-01 -6.104348e-01 -1.197276e+00 1.219546e+00
<VARIANCE> 25
 1.804646e+01 8.005293e+01 4.076491e+01 4.634111e+01 1.120080e+02 1.793187e+01 8.268185e+01 9.632191e+01 2.600498e+01 1.050450e+01 2.078872e+01 1.248225e+01 1.863426e+00 2.163329e+00 3.174771e+00 1.787018e+00 1.626674e+00 2.070739e+00 5.912735e+00 7.374697e+00 2.648853e+00 2.381861e+00 1.061233e+00 1.521198e+00 5.494720e-01
<GCONST> 9.836465e+01
<STATE> 4
<MEAN> 25
 4.741438e-01 -1.290121e+00 7.472193e+00 -4.334132e+00 -1.828853e+01 1.124229e+00 -8.445292e+00 -4.813529e+00 -5.195319e+00 -5.247496e+00 -2.122957e+00 -5.181012e+00 4.689965e-01 -1.125022e-01 1.678199e-02 -2.136386e-02 3.905223e-01 6.836094e-01 -1.045598e-01 -2.221112e-01 -2.862578e-02 6.184764e-04 1.180269e-02 -1.924529e-01 -6.257505e-01
<VARIANCE> 25
 2.771328e+01 6.650165e+01 3.659566e+01 3.399484e+01 1.033601e+02 5.670332e+01 9.365579e+01 1.582262e+02 2.895859e+01 3.297351e+01 2.931584e+01 1.423872e+01 7.536088e-01 2.840043e+00 2.315626e+00 2.955492e+00 4.863481e+00 3.816657e+00 4.852928e+00 3.525383e+00 1.850434e+00 1.655716e+00 1.095936e+00 1.480970e+00 2.369762e+00
<GCONST> 1.026793e+02
<TRANSP> 5
 0.000000e+00 1.000000e+00 0.000000e+00 0.000000e+00 0.000000e+00
 0.000000e+00 9.410263e-01 5.897375e-02 0.000000e+00 0.000000e+00
 0.000000e+00 0.000000e+00 5.172663e-01 4.827337e-01 0.000000e+00
 0.000000e+00 0.000000e+00 0.000000e+00 8.803542e-01 1.196458e-01
 0.000000e+00 0.000000e+00 0.000000e+00 0.000000e+00 0.000000e+00
<ENDHMM>
~h "aw"
<BEGINHMM>
<NUMSTATES> 5
<STATE> 2
<MEAN> 25
 6.163618e+00 -1.223600e+01 -2.313644e+00 -1.635657e+01 -3.066747e+00 3.098325e+00 -1.553098e+01 8.428549e-01 -1.860769e+00 -1.285729e+00 -7.742812e+00 -7.121905e+00 -1.955527e-01 2.008724e-01 5.237961e-03 -7.671807e-01 4.026807e-01 4.884084e-01 -3.000689e-01 -6.670524e-01 -5.357085e-01 3.037158e-02 -2.081818e-01 -1.330472e-01 3.247544e-01
<VARIANCE> 25
 6.401264e+00 6.231816e+01 7.689421e+00 4.604972e+01 2.061642e+01 2.373771e+01 4.136517e+01 4.757513e+01 3.030031e+01 2.686065e+01 4.708624e+01 2.490526e+01 1.510076e+00 7.363523e+00 7.749199e-01 7.032531e+00 2.325024e+00 3.599272e+00 5.204274e+00 3.729625e+00 3.722323e+00 4.122493e+00 5.304126e+00 1.697335e+00 4.249148e+00
<GCONST> 1.009216e+02
<STATE> 3
<MEAN> 25
 -9.328357e+00 7.754024e+00 -4.555535e+00 -1.587972e+00 3.046490e+00 -6.155783e+00 -2.904316e+00 -5.436118e-01 -5.106716e+00 -8.812598e-01 -3.658935e+00 -1.354284e+00 3.209282e-01 -5.442322e-01 -1.300750e-01 -2.400028e-01 -2.522997e-01 -8.092420e-02 -1.210178e-01 5.189424e-01 7.980889e-01 4.968123e-02 -3.573017e-01 1.565662e-01 1.903550e-01
<VARIANCE> 25
 1.154385e+02 9.887874e+01 1.427383e+01 7.880579e+01 3.141065e+01 3.844833e+01 9.744874e+01 4.394635e+01 6.393377e+01 4.057818e+01 2.217381e+01 2.592762e+01 1.212649e+01 8.438996e+00 1.376934e+00 8.317550e+00 2.835294e+00 3.034625e+00 1.178570e+01 4.245465e+00 3.928083e+00 3.915746e+00 2.607196e+00 3.050911e+00 2.242500e+00
<GCONST> 1.107349e+02
<STATE> 4
<MEAN> 25
 7.800089e+00 -8.944679e+00 -4.009787e+00 -1.942498e+01 -2.932563e+00 4.679527e+00 -1.021242e+01 4.213679e-01 -5.701858e-01 -3.430285e+00 -7.640477e+00 -1.787829e+00 4.828010e-02 4.660832e-01 7.242072e-02 2.960302e-01 2.692471e-01 7.959997e-02 4.069455e-01 3.393339e-02 -8.808640e-02 -3.139791e-02 2.292107e-01 7.108527e-02 -5.539537e-01
<VARIANCE> 25
 7.855965e+00 8.576950e+01 7.247798e+00 5.512186e+01 7.617870e+01 2.100936e+01 3.511259e+01 5.537658e+01 5.524321e+01 2.669335e+01 2.091507e+01 1.643310e+01 3.554223e-01 2.649984e+00 6.259456e-01 1.768656e+00 1.875802e+00 1.286914e+00 1.392973e+00 1.898286e+00 1.702337e+00 1.540048e+00 1.848887e+00 1.575263e+00 1.002840e+00
<GCONST> 9.046800e+01
<TRANSP> 5
 0.000000e+00 1.000000e+00 0.000000e+00 0.000000e+00 0.000000e+00
 0.000000e+00 8.518116e-01 1.481884e-01 0.000000e+00 0.000000e+00
 0.000000e+00 0.000000e+00 8.463364e-01 1.536637e-01 0.000000e+00
 0.000000e+00 0.000000e+00 0.000000e+00 9.247275e-01 7.527250e-02
 0.000000e+00 0.000000e+00 0.000000e+00 0.000000e+00 0.000000e+00
<ENDHMM>
~h "ax"
<BEGINHMM>
<NUMSTATES> 5
<STATE> 2
<MEAN> 25
 -7.044514e-01 1.527618e+00 -5.809571e-01 2.806547e+00 2.093143e+00 1.128079e-01 3.884296e+00 1.369789e+00 2.285835e+00 1.737469e+00 2.459937e+00 1.023990e+00 2.909642e-01 -2.636426e-01 2.108049e-01 -1.193448e-01 -2.350536e-02 1.485906e-01 -3.527385e-01 -1.088480e-01 -2.760353e-01 -2.663745e-01 -2.738499e-01 -5.244602e-02 2.493472e-01
<VARIANCE> 25
 2.363283e+01 4.011897e+01 1.804951e+01 6.591702e+01 4.209342e+01 3.319624e+01 6.932112e+01 4.252254e+01 3.612986e+01 3.696052e+01 5.966463e+01 2.780935e+01 1.366670e+00 2.130619e+00 1.481093e+00 3.415965e+00 1.827937e+00 2.534327e+00 2.830345e+00 4.079302e+00 2.806643e+00 2.941973e+00 3.246067e+00 2.121574e+00 2.198845e+00
<GCONST> 1.012232e+02
<STATE> 3
<MEAN> 25
 1.080296e+00 3.058159e-01 8.609548e-03 1.189489e+00 1.176267e+00 3.714782e-02 7.322174e-01 7.509208e-01 7.992733e-01 -3.973363e-01 -3.802385e-01 -2.633592e-01 5.251912e-02 -1.431192e-01 1.242846e-01 3.874076e-02 -8.742616e-02 8.745419e-02 -3.516771e-01 -3.396812e-01 -1.061822e-01 -1.783320e-01 -2.676663e-02 -8.565730e-02 2.974988e-01
<VARIANCE> 25
 2.965972e+01 5.651037e+01 2.254558e+01 7.826212e+01 5.446766e+01 3.646116e+01 7.881898e+01 7.281686e+01 5.264207e+01 4.459406e+01 6.454484e+01 2.973511e+01 1.224763e+00 2.339691e+00 1.674613e+00 4.007988e+00 2.618893e+00 2.985183e+00 3.485551e+00 4.990466e+00 2.801384e+00 3.220859e+00 3.239387e+00 2.238530e+00 3.638993e+00
<GCONST> 1.057584e+02
<STATE> 4
<MEAN> 25
 1.587063e+00 2.373148e-01 -1.256999e-01 3.359719e-01 -2.599883e-02 -2.430789e-01 -1.254992e+00 -7.902182e-01 7.655525e-01 -5.168819e-01 -2.238071e-01 -1.223419e+00 6.379258e-02 -5.166390e-01 -1.284716e-01 -6.148903e-01 -7.366260e-01 -3.228942e-01 -1.019624e+00 6.632234e-02 2.302040e-01 -2.761101e-02 -6.289820e-02 -3.650995e-01 1.192558e+00
<VARIANCE> 25
 3.120163e+01 5.525124e+01 2.611261e+01 7.663891e+01 5.431974e+01 3.512818e+01 8.646279e+01 8.533198e+01 4.847018e+01 3.978843e+01 6.059433e+01 3.310476e+01 1.344326e+00 3.807280e+00 2.186367e+00 6.262464e+00 4.304855e+00 3.184260e+00 6.161679e+00 4.958407e+00 3.552094e+00 3.956738e+00 3.648765e+00 2.562926e+00 6.390694e+00
<GCONST> 1.096497e+02
<TRANSP> 5
 0.000000e+00 1.000000e+00 0.000000e+00 0.000000e+00 0.000000e+00
 0.000000e+00 6.347775e-01 3.652225e-01 0.000000e+00 0.000000e+00
 0.000000e+00 0.000000e+00 4.553215e-01 5.446785e-01 0.000000e+00
 0.000000e+00 0.000000e+00 0.000000e+00 5.839134e-01 4.160866e-01
 0.000000e+00 0.000000e+00 0.000000e+00 0.000000e+00 0.000000e+00
<ENDHMM>
~h "ay"
<BEGINHMM>
<NUMSTATES> 5
<STATE> 2
<MEAN> 25
 3.564525e+00 -9.720625e+00 6.521225e-01 -1.147076e+01 -3.536670e-01 -5.042321e+00 -6.460750e+00 3.680350e+00 -2.620660e+00 -4.879403e+00 -8.496910e+00 -1.197783e+00 3.816637e-02 -1.330804e+00 8.871429e-02 -8.271799e-01 -1.439929e-01 5.827827e-01 -1.931649e-01 1.020592e+00 -6.825817e-01 -5.881153e-01 -7.103440e-01 3.992274e-01 9.515533e-01
<VARIANCE> 25
 1.048859e+01 4.497775e+01 4.922609e+01 4.574366e+01 7.798077e+01 7.927600e+01 8.033120e+01 6.022202e+01 4.623953e+01 4.283142e+01 4.241583e+01 2.468379e+01 1.110293e+00 4.600896e+00 2.745804e+00 3.625818e+00 4.814801e+00 3.562356e+00 5.035956e+00 5.721982e+00 3.414131e+00 4.665686e+00 4.443419e+00 2.083824e+00 2.074311e+00
<GCONST> 1.074367e+02
<STATE> 3
<MEAN> 25
 2.130984e+00 -9.091475e+00 5.882931e+00 -1.266133e+01 -7.471626e+00 -4.248928e+00 -7.745036e+00 5.312736e+00 -5.396796e+00 -1.905821e+00 -8.681702e+00 -1.726372e-01 4.331025e-02 -2.301859e-01 -5.882232e-02 -1.501623e-02 -3.320193e-02 1.414049e-01 2.345794e-01 1.640607e-02 -1.136316e-01 -2.566490e-01 -1.351777e-01 1.247505e-02 3.860826e-02
<VARIANCE> 25
 1.353003e+01 5.925752e+01 7.766337e+01 2.797294e+01 1.025575e+02 9.252180e+01 4.954094e+01 5.417989e+01 3.990519e+01 5.757610e+01 6.087960e+01 2.080916e+01 2.824425e-01 1.759314e+00 1.958912e+00 6.871124e-01 3.255512e+00 1.398050e+00 2.621296e+00 2.739180e+00 1.576021e+00 2.632741e+00 2.533486e+00 9.617745e-01 4.207696e-01
<GCONST> 9.678664e+01
<STATE> 4
<MEAN> 25
 3.881091e+00 -1.119490e+01 2.403696e+00 -1.067375e+01 -7.576941e+00 2.456199e-01 -7.876457e+00 7.223239e+00 -5.789451e+00 -5.879895e+00 -8.383142e+00 -2.109924e+00 -2.044734e-01 1.026468e+00 5.589213e-01 4.678980e-01 -7.024351e-01 -2.705152e-01 1.306785e-01 -2.363794e-01 -2.073285e-01 3.802162e-01 5.949283e-01 -2.215166e-01 -6.656739e-01
<VARIANCE> 25
 1.279438e+01 7.652983e+01 4.362484e+01 3.095587e+01 1.181222e+02 3.484274e+01 2.892937e+01 4.626423e+01 3.914018e+01 5.157394e+01 3.561628e+01 1.806534e+01 3.305245e-01 1.750117e+00 1.615380e+00 1.769979e+00 4.185154e+00 1.450793e+00 2.077601e+00 2.786432e+00 1.957438e+00 2.807011e+00 2.115368e+00 1.202640e+00 8.283083e-01
<GCONST> 9.615247e+01
<TRANSP> 5
 0.000000e+00 1.000000e+00 0.000000e+00 0.000000e+00 0.000000e+00
 0.000000e+00 7.523491e-01 2.476509e-01 0.000000e+00 0.000000e+00
 0.000000e+00 0.000000e+00 8.861917e-01 1.138083e-01 0.000000e+00
 0.000000e+00 0.000000e+00 0.000000e+00 9.148291e-01 8.517092e-02
 0.000000e+00 0.000000e+00 0.000000e+00 0.000000e+00 0.000000e+00
<ENDHMM>
~h "ey"
<BEGINHMM>
<NUMSTATES> 5
<STATE> 2
<MEAN> 25
 1.599744e+00 5.878551e-01 5.661551e+00 -5.207380e+00 -1.185203e+01 -4.330691e-01 -7.037501e+00 -6.075852e+00 -6.006226e+00 -5.959848e+00 -1.722620e+00 -8.821946e+00 2.371377e-01 -7.867663e-01 6.317236e-01 -1.208034e+00 -1.390945e+00 3.643292e-01 -1.767012e-01 4.834166e-01 -8.341002e-01 2.624092e-01 -3.012531e-01 -4.550278e-01 1.140152e+00
<VARIANCE> 25
 1.936333e+01 1.028159e+02 3.702978e+01 4.022715e+01 6.204845e+01 3.608340e+01 3.963227e+01 1.172522e+02 2.036156e+01 3.965560e+01 1.779934e+01 3.164788e+01 1.582198e+00 3.359279e+00 4.435988e+00 4.940914e+00 4.972345e+00 2.742415e+00 5.892313e+00 6.771025e+00 4.296858e+00 2.900674e+00 1.464484e+00 3.503352e+00 1.891709e+00
<GCONST> 1.058874e+02
<STATE> 3
<MEAN> 25
 1.758936e+00 -8.735956e+00 9.603503e+00 -1.468384e+01 -2.243153e+01 -2.037232e+00 -7.190693e+00 4.693998e+00 -1.080064e+01 4.889425e+00 -5.080259e+00 -3.818140e+00 -3.158268e-01 9.515544e-01 8.009158e-01 -3.127098e-01 -9.888411e-04 5.811104e-01 -5.986156e-01 -1.000297e+00 -4.690044e-01 2.265140e-01 -2.113276e-01 4.079698e-03 -3.231747e-01
<VARIANCE> 25
 6.102641e+00 2.034076e+01 1.353096e+01 1.082839e+01 2.724655e+01 4.312707e+01 2.640034e+01 2.048708e+01 1.047041e+01 2.638470e+01 1.150447e+01 3.088640e+01 2.966380e-01 8.170102e-01 3.954213e-01 6.934464e-01 1.147723e+00 1.207238e+00 1.153242e+00 2.189682e+00 9.151910e-01 2.240663e+00 9.256381e-01 8.505489e-01 1.736326e-01
<GCONST> 7.788148e+01
<STATE> 4
<MEAN> 25
 3.322779e-01 1.446418e+00 1.507292e+01 -1.189368e+01 -1.517681e+01 2.119569e+00 -9.990885e+00 -1.488432e+00 -1.077871e+01 9.863126e-01 -4.750398e+00 -5.145098e+00 2.825066e-03 6.293663e-01 6.851999e-02 7.553091e-01 1.251421e+00 1.259510e-01 3.579042e-01 -4.714376e-01 2.890454e-01 -4.292579e-01 1.595933e-02 1.523655e-01 -8.990000e-01
<VARIANCE> 25
 6.524307e+00 4.762374e+01 2.599997e+01 3.842644e+01 7.844994e+01 2.367063e+01 4.531594e+01 2.649016e+01 2.195542e+01 3.795290e+01 1.123961e+01 1.913031e+01 2.537781e-01 9.661450e-01 1.395699e+00 1.469849e+00 1.425367e+00 1.251648e+00 1.687818e+00 1.470292e+00 1.637047e+00 1.823186e+00 1.075972e+00 1.287798e+00 5.276997e-01
<GCONST> 8.688687e+01
<TRANSP> 5
 0.000000e+00 1.000000e+00 0.000000e+00 0.000000e+00 0.000000e+00
 0.000000e+00 9.044936e-01 9.550644e-02 0.000000e+00 0.000000e+00
 0.000000e+00 0.000000e+00 8.374104e-01 1.625896e-01 0.000000e+00
 0.000000e+00 0.000000e+00 0.000000e+00 8.911811e-01 1.088189e-01
 0.000000e+00 0.000000e+00 0.000000e+00 0.000000e+00 0.000000e+00
<ENDHMM>
~h "ng"
<BEGINHMM>
<NUMSTATES> 5
<STATE> 2
<MEAN> 25
 2.211601e-01 8.714914e-03 -7.181199e-01 4.260450e+00 2.059826e+00 3.693492e+00 3.330402e+00 9.640815e-01 2.063758e+00 1.036897e+00 3.906273e+00 6.268820e-01 1.769702e-02 3.584752e-01 1.117684e-01 -1.375775e-02 -2.098217e-01 3.427611e-02 2.479420e-01 -3.465448e-01 -2.658599e-02 3.802225e-02 1.795609e-01 1.511709e-01 -2.106303e-01
<VARIANCE> 25
 1.826246e+01 2.492466e+01 1.634435e+01 6.009344e+01 2.142398e+01 2.166676e+01 4.479560e+01 2.540435e+01 3.463171e+01 2.158042e+01 4.375786e+01 3.160760e+01 2.084651e-01 8.034938e-01 6.162724e-01 8.058913e-01 1.079810e+00 1.346279e+00 1.508702e+00 2.134980e+00 1.569157e+00 1.527625e+00 1.478693e+00 1.475877e+00 2.832713e-01
<GCONST> 8.543385e+01
<STATE> 3
<MEAN> 25
 4.016070e+00 -1.007240e+00 4.856667e-01 -4.893728e+00 -3.287620e+00 4.782532e+00 -1.868651e-01 -3.964963e+00 -3.104949e+00 -6.796901e-01 -1.977111e+00 -1.308091e+00 1.674279e-02 1.027003e+00 2.007582e-01 -2.344139e-01 -7.451473e-01 2.885790e-01 3.415806e-01 -3.725885e-01 -2.534030e-01 -1.564746e-01 2.432163e-01 2.563593e-01 -4.195960e-01
<VARIANCE> 25
 1.746737e+01 2.512761e+01 2.510347e+01 6.986385e+01 3.801198e+01 4.005879e+01 8.201486e+01 7.351699e+01 5.641328e+01 4.099553e+01 5.568377e+01 5.076978e+01 2.207741e-01 8.922811e-01 8.154370e-01 1.231676e+00 1.432407e+00 1.516183e+00 1.370705e+00 1.964235e+00 1.712224e+00 1.207807e+00 1.246520e+00 1.761901e+00 3.670127e-01
<GCONST> 9.188333e+01
<STATE> 4
<MEAN> 25
 3.962576e+00 2.078009e+00 5.227046e-01 -6.091784e+00 -7.904817e+00 3.529780e+00 -1.961244e+00 -3.793666e+00 -4.656175e+00 -3.100007e+00 -2.318200e+00 -3.102475e+00 -4.023511e-01 1.074447e+00 1.975252e-02 4.584544e-01 -2.997464e-01 -4.078428e-01 4.167446e-01 -3.817331e-01 3.274500e-01 -1.400296e-01 8.344089e-02 4.802014e-01 -5.953006e-01
<VARIANCE> 25
 1.288347e+01 3.521531e+01 2.763839e+01 4.671472e+01 5.744357e+01 4.298171e+01 8.500859e+01 5.374176e+01 4.473480e+01 4.575428e+01 3.360061e+01 4.443614e+01 9.685829e-01 2.002292e+00 2.142771e+00 3.051907e+00 3.633220e+00 3.395234e+00 4.509840e+00 4.339443e+00 3.937068e+00 2.512501e+00 2.394274e+00 2.421160e+00 1.848592e+00
<GCONST> 1.030890e+02
<TRANSP> 5
 0.000000e+00 1.000000e+00 0.000000e+00 0.000000e+00 0.000000e+00
 0.000000e+00 8.514822e-01 1.485178e-01 0.000000e+00 0.000000e+00
 0.000000e+00 0.000000e+00 5.155498e-01 4.844502e-01 0.000000e+00
 0.000000e+00 0.000000e+00 0.000000e+00 7.106208e-01 2.893792e-01
 0.000000e+00 0.000000e+00 0.000000e+00 0.000000e+00 0.000000e+00
<ENDHMM>
~h "ny"
<BEGINHMM>
<NUMSTATES> 5
<STATE> 2
<MEAN> 25
 2.628859e+00 -7.252309e+00 6.215656e+00 -1.171784e+01 -9.944199e+00 3.677108e+00 -4.393374e+00 8.432416e+00 -9.411781e+00 -2.175150e+00 -3.606458e+00 -9.194287e-01 1.503415e-01 -2.346981e+00 -6.890074e-01 -3.109366e-01 9.795973e-01 3.021690e-01 -4.487541e-01 1.647003e+00 3.183850e-01 -6.953828e-01 -2.069007e+00 4.051962e-01 1.077106e+00
<VARIANCE> 25
 4.978310e+00 6.003280e+01 3.278885e+01 3.392254e+01 4.267139e+01 4.173597e+01 3.809393e+01 5.190747e+01 4.611215e+01 2.229450e+01 8.769051e+01 1.844868e+01 5.302741e-01 2.470376e+00 2.568761e+00 3.808267e+00 4.549728e+00 2.634849e+00 2.016401e+00 9.412586e+00 4.795232e+00 2.283212e+00 3.312880e+00 1.933644e+00 1.409012e+00
<GCONST> 1.006309e+02
<STATE> 3
<MEAN> 25
 4.237180e+00 -1.325738e+01 -4.856532e-01 -1.022814e+01 -1.263898e+00 4.034329e+00 -1.112616e+01 5.514308e+00 -7.213761e+00 -5.397476e+00 -8.679703e+00 -2.469292e+00 1.886900e-01 2.938643e-01 -3.186715e-01 5.122015e-02 6.321061e-01 -2.032769e-02 -5.105381e-02 -5.353456e-01 4.508163e-01 1.695563e-01 1.593129e-01 -4.953323e-01 -2.999033e-01
<VARIANCE> 25
 6.134418e+00 3.974077e+01 1.698373e+01 2.274345e+01 3.565618e+01 3.182420e+01 4.394753e+01 6.774026e+01 5.839915e+01 3.509168e+01 4.069992e+01 1.621397e+01 2.301893e-01 1.241083e+00 1.334322e+00 1.257213e+00 2.107279e+00 1.577307e+00 2.277220e+00 4.113113e+00 3.330132e+00 1.781269e+00 1.750431e+00 1.614309e+00 6.199002e-01
<GCONST> 9.159353e+01
<STATE> 4
<MEAN> 25
 4.935466e+00 -6.851948e+00 2.201990e-01 -7.675916e+00 1.208730e-01 1.846034e+00 -5.626774e+00 2.044380e+00 -1.409776e+00 -2.201769e+00 -5.419850e+00 -5.160752e+00 -1.365389e-01 9.513510e-01 4.967581e-02 -2.326973e-02 5.797163e-01 -2.055185e-01 4.527828e-01 -1.173690e+00 7.839574e-01 8.698704e-01 7.030045e-02 -2.858065e-01 -6.383187e-01
<VARIANCE> 25
 1.243232e+01 5.536432e+01 2.083431e+01 4.690220e+01 3.929974e+01 7.155336e+01 3.144774e+01 4.527267e+01 5.143211e+01 5.147525e+01 5.916931e+01 2.288901e+01 5.830351e-01 2.654049e+00 1.552746e+00 2.918781e+00 2.037577e+00 3.321482e+00 2.495972e+00 4.548221e+00 2.387701e+00 3.421165e+00 1.717846e+00 1.565965e+00 2.310271e+00
<GCONST> 9.987755e+01
<TRANSP> 5
 0.000000e+00 1.000000e+00 0.000000e+00 0.000000e+00 0.000000e+00
 0.000000e+00 7.855373e-01 2.144627e-01 0.000000e+00 0.000000e+00
 0.000000e+00 0.000000e+00 8.345119e-01 1.654881e-01 0.000000e+00
 0.000000e+00 0.000000e+00 0.000000e+00 4.297311e-01 5.702689e-01
 0.000000e+00 0.000000e+00 0.000000e+00 0.000000e+00 0.000000e+00
<ENDHMM>
~h "sil"
<BEGINHMM>
<NUMSTATES> 5
<STATE> 2
<MEAN> 25
 -2.310409e+00 2.181331e+00 -1.175649e+00 7.530282e+00 4.036906e+00 1.917172e+00 6.679167e+00 2.107837e+00 4.468604e+00 3.015117e+00 5.965142e+00 2.806555e+00 -4.889643e-03 -6.846606e-04 -1.164326e-02 1.428614e-02 -2.996618e-02 -1.680310e-02 1.914492e-04 -2.816867e-03 -8.245269e-03 2.306030e-02 4.545382e-02 1.983454e-02 -3.274638e-02
<VARIANCE> 25
 5.438448e+00 9.312814e+00 1.071669e+01 9.785803e+00 1.504881e+01 1.718147e+01 1.957848e+01 1.718194e+01 1.564625e+01 1.842896e+01 1.662118e+01 1.464274e+01 2.641117e-01 3.593230e-01 5.308034e-01 6.850089e-01 8.937724e-01 1.085695e+00 1.213472e+00 1.356523e+00 1.415546e+00 1.392454e+00 1.350391e+00 1.262119e+00 1.842811e-01
<GCONST> 7.367895e+01
<STATE> 3
<MEAN> 25
 -1.961324e+00 2.609974e+00 -8.259804e-01 7.853806e+00 3.466260e+00 1.834425e+00 6.533492e+00 1.332540e+00 4.260393e+00 3.262710e+00 5.985288e+00 2.685440e+00 2.103881e-05 2.629116e-03 -1.053941e-03 -1.132956e-04 -1.235261e-03 -4.063894e-03 -3.161655e-03 -4.420154e-03 -8.953316e-04 1.715467e-03 -7.128436e-04 -2.819788e-03 6.076447e-04
<VARIANCE> 25
 2.947875e+00 5.918570e+00 6.275094e+00 7.626874e+00 9.323765e+00 1.392498e+01 1.575329e+01 1.198714e+01 1.275878e+01 1.497330e+01 1.312640e+01 1.241695e+01 9.051162e-02 1.880000e-01 3.285345e-01 4.919959e-01 6.639658e-01 8.479602e-01 9.979320e-01 1.106761e+00 1.148644e+00 1.209182e+00 1.179525e+00 1.087574e+00 3.336580e-02
<GCONST> 6.393398e+01
<STATE> 4
<MEAN> 25
 -6.348420e-01 6.965473e-02 8.540075e-02 -1.317260e+00 -5.427004e-01 -2.125720e-01 -6.791204e-01 -6.147205e-01 -8.028575e-01 2.292335e-02 -3.242698e-01 1.124217e-01 2.545565e-03 -7.935143e-03 5.499363e-03 -1.846331e-02 -3.674628e-03 -7.300429e-03 -2.306928e-02 -8.047460e-03 -1.346067e-02 -1.669456e-02 -1.969323e-02 -1.007765e-02 3.502153e-02
<VARIANCE> 25
 3.231160e+01 6.233265e+01 4.603331e+01 1.291457e+02 8.916100e+01 4.067297e+01 1.015310e+02 5.050853e+01 6.076091e+01 4.338037e+01 6.941157e+01 3.183283e+01 1.417240e+00 2.419487e+00 1.775357e+00 4.523974e+00 3.133566e+00 2.508150e+00 3.912904e+00 3.130471e+00 2.882587e+00 2.611431e+00 3.010911e+00 2.002425e+00 3.279276e+00
<GCONST> 1.074468e+02
<TRANSP> 5
 0.000000e+00 1.000000e+00 0.000000e+00 0.000000e+00 0.000000e+00
 0.000000e+00 9.646878e-01 3.531230e-02 0.000000e+00 0.000000e+00
 0.000000e+00 0.000000e+00 9.806338e-01 1.936619e-02 0.000000e+00
 0.000000e+00 0.000000e+00 0.000000e+00 9.731484e-01 2.685156e-02
 0.000000e+00 0.000000e+00 0.000000e+00 0.000000e+00 0.000000e+00
<ENDHMM>
~h "sp"
<BEGINHMM>
<NUMSTATES> 3
<STATE> 2
<MEAN> 25
 -1.961324e+00 2.609974e+00 -8.259804e-01 7.853806e+00 3.466260e+00 1.834425e+00 6.533492e+00 1.332540e+00 4.260393e+00 3.262710e+00 5.985288e+00 2.685440e+00 2.103881e-05 2.629116e-03 -1.053941e-03 -1.132956e-04 -1.235261e-03 -4.063894e-03 -3.161655e-03 -4.420154e-03 -8.953316e-04 1.715467e-03 -7.128436e-04 -2.819788e-03 6.076447e-04
<VARIANCE> 25
 2.947875e+00 5.918570e+00 6.275094e+00 7.626874e+00 9.323765e+00 1.392498e+01 1.575329e+01 1.198714e+01 1.275878e+01 1.497330e+01 1.312640e+01 1.241695e+01 9.051162e-02 1.880000e-01 3.285345e-01 4.919959e-01 6.639658e-01 8.479602e-01 9.979320e-01 1.106761e+00 1.148644e+00 1.209182e+00 1.179525e+00 1.087574e+00 3.336580e-02
<GCONST> 6.393398e+01
<TRANSP> 3
 0.0 1.0 0.0
 0.0 0.9 0.1
 0.0 0.0 0.0
<ENDHMM>
