~o
<STREAMINFO> 1 25
<VECSIZE> 25<NULLD><MFCC_D_N_Z_0><DIAGC>
~s "silst"
<MEAN> 25
 -1.668988e+00 2.507518e+00 -8.523169e-01 7.728115e+00 3.590603e+00 2.015394e+00 6.267602e+00 1.511609e+00 4.298156e+00 3.077622e+00 5.704823e+00 2.522248e+00 -5.378316e-03 1.643873e-02 1.850450e-03 1.526986e-02 -2.162972e-02 -1.522840e-02 1.515940e-02 -7.867474e-03 -2.060572e-03 2.388714e-02 2.521967e-02 -5.764264e-03 -1.983590e-02
<VARIANCE> 25
 2.961268e+00 5.595981e+00 6.964344e+00 7.611868e+00 1.023283e+01 1.471858e+01 1.445974e+01 1.208459e+01 1.324470e+01 1.454499e+01 1.302235e+01 1.279293e+01 1.126447e-01 2.288328e-01 3.846872e-01 5.442219e-01 7.093766e-01 8.979799e-01 1.033720e+00 1.172611e+00 1.221026e+00 1.266293e+00 1.221828e+00 1.131489e+00 5.452402e-02
<GCONST> 6.564949e+01
~h "a"
<BEGINHMM>
<NUMSTATES> 5
<STATE> 2
<MEAN> 25
 2.865632e+00 -6.812942e+00 -2.493273e-01 -9.395631e+00 -3.100035e+00 -2.574715e+00 -5.483518e+00 5.591259e-01 -2.573864e+00 -1.752934e+00 -5.710596e+00 -2.187275e+00 9.469398e-01 -2.906661e+00 -5.018977e-01 -2.545051e+00 3.049382e-01 7.405638e-01 -8.578632e-01 1.174888e+00 -5.554395e-01 -9.610962e-01 -1.882257e+00 -1.924534e-01 2.401607e+00
<VARIANCE> 25
 1.904398e+01 6.262786e+01 5.719196e+01 7.559106e+01 1.032089e+02 5.731899e+01 6.188842e+01 8.033799e+01 5.430883e+01 4.290333e+01 5.937560e+01 2.962564e+01 2.250941e+00 3.525218e+00 3.288430e+00 6.943056e+00 6.172856e+00 4.996263e+00 6.455262e+00 7.120252e+00 5.600974e+00 4.895188e+00 3.808954e+00 3.342919e+00 5.046450e+00
<GCONST> 1.137560e+02
<STATE> 3
<MEAN> 25
 4.250656e+00 -1.524404e+01 -2.718980e+00 -1.261728e+01 1.412030e+00 4.501406e-01 -6.762909e+00 4.248743e+00 -3.377073e+00 -6.525693e+00 -1.153722e+01 -1.636149e+00 5.265331e-02 -6.073648e-02 -1.194369e-01 3.321711e-01 2.758244e-01 1.526204e-01 -1.953651e-01 1.447167e-01 -2.489457e-01 -4.524180e-01 1.111192e-01 -2.870946e-02 -1.645708e-01
<VARIANCE> 25
 1.000343e+01 1.682725e+01 2.298922e+01 2.474625e+01 3.428917e+01 4.838669e+01 5.092345e+01 5.449625e+01 4.696580e+01 2.815999e+01 2.426454e+01 2.459699e+01 2.357848e-01 8.486198e-01 6.310402e-01 9.541250e-01 1.619892e+00 1.684920e+00 1.480056e+00 1.809695e+00 1.381900e+00 1.473758e+00 1.367087e+00 1.257077e+00 3.467450e-01
<GCONST> 8.640459e+01
<STATE> 4
<MEAN> 25
 3.195352e+00 -8.396803e+00 -3.746848e+00 -6.656281e+00 4.283942e+00 -8.111224e-01 -4.356468e+00 3.548026e+00 -1.827830e+00 -6.675170e+00 -7.171660e+00 -1.796330e+00 -1.057339e-01 1.912881e+00 1.968054e-01 1.464153e+00 -2.901467e-01 -5.867545e-02 4.583250e-01 -2.628388e-01 6.780322e-01 7.405686e-01 1.235515e+00 -1.646248e-01 -2.128536e+00
<VARIANCE> 25
 1.490686e+01 4.437519e+01 2.850731e+01 7.531649e+01 5.690528e+01 4.865517e+01 5.995980e+01 6.292535e+01 6.622083e+01 4.919984e+01 5.025412e+01 3.440729e+01 1.172022e+00 2.780419e+00 1.821916e+00 3.886615e+00 3.840312e+00 3.695806e+00 3.131435e+00 3.576043e+00 3.049165e+00 3.453715e+00 2.770252e+00 2.726003e+00 2.340590e+00
<GCONST> 1.052531e+02
<TRANSP> 5
 0.000000e+00 1.000000e+00 0.000000e+00 0.000000e+00 0.000000e+00
 0.000000e+00 6.923944e-01 3.076056e-01 0.000000e+00 0.000000e+00
 0.000000e+00 0.000000e+00 8.706026e-01 1.293974e-01 0.000000e+00
 0.000000e+00 0.000000e+00 0.000000e+00 6.945320e-01 3.054680e-01
 0.000000e+00 0.000000e+00 0.000000e+00 0.000000e+00 0.000000e+00
<ENDHMM>
~h "b"
<BEGINHMM>
<NUMSTATES> 5
<STATE> 2
<MEAN> 25
 -3.026364e+00 3.766540e+00 -1.449908e+00 6.579578e+00 4.639826e+00 -9.218481e-01 7.633322e+00 2.984906e+00 2.794488e+00 4.376928e+00 5.497988e+00 4.801558e+00 1.226357e-03 9.556003e-02 3.428436e-02 7.017623e-02 -1.164978e-02 -1.968317e-02 4.735299e-02 -5.099844e-02 -5.831845e-02 1.030060e-02 2.510447e-02 -2.174034e-02 -5.247764e-02
<VARIANCE> 25
 3.940742e+00 1.190654e+01 7.212539e+00 9.793994e+00 2.066891e+01 1.055596e+01 1.578145e+01 1.834876e+01 1.516925e+01 1.641292e+01 1.668630e+01 1.461350e+01 1.504132e-01 3.325870e-01 4.993804e-01 6.331814e-01 9.340333e-01 8.956450e-01 1.238833e+00 1.375135e+00 1.288126e+00 1.387455e+00 1.363731e+00 1.133049e+00 1.349245e-01
<GCONST> 7.134097e+01
<STATE> 3
<MEAN> 25
 6.814461e-01 6.409090e+00 2.352353e+00 9.045508e+00 4.784007e+00 5.534935e-01 4.415162e+00 -2.508463e+00 -1.957151e+00 -9.508420e-01 5.033982e-01 -1.246469e+00 1.693814e+00 1.684294e+00 1.407126e+00 5.602576e-01 1.131220e-01 -1.828344e-01 -1.481743e+00 -2.495033e+00 -2.584887e+00 -2.358671e+00 -2.416281e+00 -2.132665e+00 9.278796e-01
<VARIANCE> 25
 1.102601e+01 1.448174e+01 1.170018e+01 1.302052e+01 1.952091e+01 1.406740e+01 2.992650e+01 3.471633e+01 3.119132e+01 3.094866e+01 3.122937e+01 2.880768e+01 1.054441e+00 4.307793e-01 6.779165e-01 8.776846e-01 8.430715e-01 1.391638e+00 2.426967e+00 3.112474e+00 2.803942e+00 2.661613e+00 1.998748e+00 1.955358e+00 4.670908e-01
<GCONST> 8.576728e+01
<STATE> 4
<MEAN> 25
 7.201704e+00 9.796358e+00 3.457170e+00 6.101498e+00 4.043046e+00 1.495762e+00 2.568970e+00 -8.153040e+00 -7.574303e+00 -5.786820e+00 -3.816364e+00 -3.544647e+00 3.128375e-01 -6.318893e-02 -4.091938e-01 -7.365094e-01 -5.132834e-01 2.264528e-02 -2.963741e-01 -3.116238e-01 7.659630e-02 1.328093e-01 1.131206e-01 -8.504782e-02 1.094969e+00
<VARIANCE> 25
 5.186238e+00 8.165751e+00 9.820348e+00 1.602772e+01 1.730419e+01 1.462605e+01 4.247696e+01 2.886645e+01 2.224962e+01 1.765292e+01 2.217472e+01 2.683803e+01 1.198211e+00 6.569937e-01 9.630232e-01 1.006311e+00 1.225933e+00 1.775123e+00 2.025404e+00 2.491794e+00 1.829728e+00 1.476418e+00 1.447008e+00 1.402631e+00 1.502396e+00
<GCONST> 8.399345e+01
<TRANSP> 5
 0.000000e+00 1.000000e+00 0.000000e+00 0.000000e+00 0.000000e+00
 0.000000e+00 9.271413e-01 7.285872e-02 0.000000e+00 0.000000e+00
 0.000000e+00 0.000000e+00 6.290531e-01 3.709469e-01 0.000000e+00
 0.000000e+00 0.000000e+00 0.000000e+00 7.926790e-01 2.073210e-01
 0.000000e+00 0.000000e+00 0.000000e+00 0.000000e+00 0.000000e+00
<ENDHMM>
~h "c"
<BEGINHMM>
<NUMSTATES> 5
<STATE> 2
<MEAN> 25
 -1.490679e+00 2.711482e+00 1.685524e-01 7.366779e+00 4.078571e+00 1.351376e+00 5.772609e+00 2.762554e+00 3.855615e+00 2.956955e+00 5.122256e+00 1.345934e+00 -2.828121e-01 -6.337645e-02 -1.060027e-01 -4.055667e-02 1.293807e-02 6.286495e-02 1.011022e-01 -6.730678e-02 1.720682e-01 1.395775e-01 1.363813e-01 6.963794e-02 7.128189e-02
<VARIANCE> 25
 6.699472e+00 1.161304e+01 1.522015e+01 1.690623e+01 1.662861e+01 2.001108e+01 1.712771e+01 2.370003e+01 1.998804e+01 2.027991e+01 1.723388e+01 1.979414e+01 1.331419e+00 1.322934e+00 2.326137e+00 2.120460e+00 1.849092e+00 2.510855e+00 2.316519e+00 2.622905e+00 2.506537e+00 2.039199e+00 1.932806e+00 1.846590e+00 1.843792e+00
<GCONST> 8.851919e+01
<STATE> 3
<MEAN> 25
 -1.176287e+01 3.800108e+00 -1.246108e+00 2.995569e+00 2.746124e+00 6.897055e-01 4.850475e+00 -5.698255e-01 3.275921e+00 2.418391e+00 3.319338e+00 8.005697e-01 -1.876371e+00 8.684675e-01 -6.158664e-02 -6.626456e-01 -1.297875e+00 -1.847044e-01 -2.941138e-01 -9.795230e-01 -8.017197e-01 -3.877438e-01 -1.599327e-01 -6.826384e-01 3.789261e+00
<VARIANCE> 25
 3.681531e+01 3.157384e+01 2.468340e+01 2.792276e+01 2.496758e+01 2.930653e+01 2.493832e+01 2.375314e+01 1.901728e+01 1.380314e+01 1.481327e+01 1.751313e+01 4.048761e+00 2.899448e+00 2.715225e+00 2.881278e+00 2.205254e+00 2.476777e+00 2.636010e+00 2.724488e+00 2.098029e+00 2.133495e+00 1.974522e+00 1.663486e+00 4.891642e+00
<GCONST> 9.611391e+01
<STATE> 4
<MEAN> 25
 -9.220067e+00 5.440297e+00 1.172815e+00 2.269434e+00 -5.537565e+00 -3.620248e+00 5.182824e+00 -1.881696e+00 -2.205590e+00 -2.224557e+00 1.701343e+00 -1.505792e+00 4.192922e+00 -1.827309e+00 2.023437e-01 -1.547877e+00 -1.994766e+00 -3.002173e+00 -1.699297e+00 7.053815e-01 -2.226897e+00 -1.543780e+00 -2.333191e+00 -6.672470e-01 7.400621e-01
<VARIANCE> 25
 4.739690e+01 2.299680e+01 1.658416e+01 3.419875e+01 3.439270e+01 3.952739e+01 2.552042e+01 2.218683e+01 2.760007e+01 2.475036e+01 2.729123e+01 2.658772e+01 2.474732e+00 6.749502e+00 2.377906e+00 1.001813e+01 4.917880e+00 3.890590e+00 7.488215e+00 5.230357e+00 2.807782e+00 2.136977e+00 3.289970e+00 2.925091e+00 1.344912e+00
<GCONST> 1.029068e+02
<TRANSP> 5
 0.000000e+00 1.000000e+00 0.000000e+00 0.000000e+00 0.000000e+00
 0.000000e+00 8.850948e-01 1.149051e-01 0.000000e+00 0.000000e+00
 0.000000e+00 0.000000e+00 8.122706e-01 1.877294e-01 0.000000e+00
 0.000000e+00 0.000000e+00 0.000000e+00 6.477517e-01 3.522482e-01
 0.000000e+00 0.000000e+00 0.000000e+00 0.000000e+00 0.000000e+00
<ENDHMM>
~h "d"
<BEGINHMM>
<NUMSTATES> 5
<STATE> 2
<MEAN> 25
 5.438735e+00 -3.729266e+00 6.411736e+00 -1.791681e+00 -8.854161e+00 -5.398897e+00 -1.023002e+01 1.839785e+00 -1.958785e+00 -4.945538e+00 -4.304269e+00 -3.596894e+00 1.035042e-01 1.612856e+00 7.106567e-01 3.025481e+00 1.337697e+00 -1.310226e-01 1.135801e+00 -1.229250e+00 7.805610e-01 -1.532174e+00 -3.378198e-01 -5.098745e-03 -2.579623e+00
<VARIANCE> 25
 7.051656e+00 5.326310e+01 4.558865e+01 8.599300e+01 7.682860e+01 3.908289e+01 9.807361e+01 6.692574e+01 5.016835e+01 5.121965e+01 5.095281e+01 3.288588e+01 1.148403e+00 4.329811e+00 3.892657e+00 5.849827e+00 1.272810e+01 5.596045e+00 6.763155e+00 6.579391e+00 4.309260e+00 4.282034e+00 6.907810e+00 3.437728e+00 4.375829e+00
<GCONST> 1.125708e+02
<STATE> 3
<MEAN> 25
 3.832294e+00 3.543540e+00 8.792271e+00 5.160275e+00 -6.038132e+00 -5.134894e+00 -7.146585e+00 -3.254630e+00 -1.933360e+00 -7.041811e+00 -2.828242e+00 -3.078893e+00 -1.988619e-01 -7.799048e-01 -3.059385e-01 -1.245911e+00 -9.819172e-01 -1.953422e-01 -7.931331e-01 1.003763e+00 -1.413682e-01 1.195879e+00 5.189293e-01 1.453037e-01 1.116932e+00
<VARIANCE> 25
 1.315095e+01 4.592524e+01 1.750892e+01 6.012247e+01 6.221841e+01 2.881765e+01 5.418295e+01 5.029165e+01 3.314033e+01 3.873083e+01 4.214572e+01 2.532877e+01 1.847290e+00 5.127495e+00 2.256380e+00 8.959900e+00 8.917670e+00 3.562731e+00 5.916304e+00 6.361110e+00 2.838749e+00 4.945771e+00 4.140259e+00 2.614083e+00 1.048451e+01
<GCONST> 1.085566e+02
<STATE> 4
<MEAN> 25
 4.830685e+00 -2.966186e+00 4.821320e+00 -5.019964e+00 -6.794166e+00 -5.603177e+00 -1.243009e+01 5.418911e+00 -2.776137e-01 -5.294324e-02 -4.538003e+00 -2.172993e+00 -9.219699e-02 5.140963e-01 -4.297526e-01 4.276095e-01 1.103900e+00 1.934817e-01 8.365216e-01 -3.543424e-01 5.552369e-01 -4.305596e-02 -4.383359e-01 -1.509224e-01 -7.087201e-01
<VARIANCE> 25
 1.026362e+01 4.505668e+01 3.693649e+01 1.171535e+02 9.858511e+01 3.435682e+01 9.283418e+01 7.130885e+01 6.778053e+01 3.786674e+01 4.603042e+01 4.794074e+01 4.904909e-01 1.891683e+00 1.437271e+00 2.823229e+00 3.016974e+00 2.718248e+00 2.756762e+00 3.339077e+00 2.024780e+00 2.481040e+00 2.796228e+00 1.910372e+00 2.899744e+00
<GCONST> 1.029354e+02
<TRANSP> 5
 0.000000e+00 1.000000e+00 0.000000e+00 0.000000e+00 0.000000e+00
 0.000000e+00 6.959826e-01 3.040174e-01 0.000000e+00 0.000000e+00
 0.000000e+00 0.000000e+00 6.830871e-01 3.169129e-01 0.000000e+00
 0.000000e+00 0.000000e+00 0.000000e+00 8.114794e-01 1.885206e-01
 0.000000e+00 0.000000e+00 0.000000e+00 0.000000e+00 0.000000e+00
<ENDHMM>
~h "e"
<BEGINHMM>
<NUMSTATES> 5
<STATE> 2
<MEAN> 25
 6.347852e-01 -9.138254e-01 1.387563e+00 -2.241604e+00 -4.458345e+00 -3.809061e+00 -1.986621e+00 -3.271109e+00 -1.288005e+00 -1.420552e+00 -3.526241e+00 -3.772041e+00 1.902125e+00 -2.714652e+00 1.056831e+00 -3.802413e+00 -3.392066e+00 -2.038874e+00 -1.696834e+00 1.482575e+00 -1.285954e+00 -2.636648e-01 -2.550924e+00 -5.331816e-01 3.817085e+00
<VARIANCE> 25
 3.185852e+01 4.690253e+01 2.920648e+01 7.416060e+01 6.225612e+01 5.825819e+01 8.206583e+01 6.257007e+01 5.492096e+01 4.759437e+01 4.350937e+01 3.196521e+01 4.776668e+00 5.987817e+00 2.879397e+00 6.572050e+00 5.065080e+00 5.687956e+00 8.590878e+00 8.698364e+00 4.686542e+00 4.410588e+00 4.506728e+00 5.062690e+00 5.155250e+00
<GCONST> 1.145477e+02
<STATE> 3
<MEAN> 25
 3.165473e+00 -1.065732e+01 5.150753e+00 -1.128152e+01 -1.293297e+01 -7.758906e+00 -3.862328e+00 6.222253e+00 -3.761048e+00 -1.882108e+00 -8.729604e+00 -2.961604e+00 -1.164110e-01 -1.700473e+00 1.265727e+00 -1.375735e+00 -1.774975e+00 1.756308e-01 7.482149e-01 2.006778e+00 -1.511938e+00 2.881619e-01 -7.126743e-01 5.594018e-01 1.201975e+00
<VARIANCE> 25
 6.437013e+00 2.105569e+01 2.363276e+01 3.231414e+01 4.815178e+01 5.828895e+01 6.048044e+01 4.318144e+01 5.774182e+01 3.441489e+01 4.704125e+01 2.129023e+01 9.363115e-01 2.864300e+00 1.946180e+00 3.308701e+00 2.959039e+00 3.074776e+00 3.637380e+00 4.467894e+00 2.985090e+00 4.337393e+00 3.037089e+00 1.769194e+00 1.438386e+00
<GCONST> 1.002566e+02
<STATE> 4
<MEAN> 25
 2.522057e+00 -1.019244e+01 7.404331e+00 -1.177126e+01 -1.529678e+01 -4.384168e+00 -1.974227e+00 5.979544e+00 -8.293821e+00 -1.101065e-02 -8.392817e+00 -1.829129e+00 1.050251e-01 3.268613e-01 -3.139029e-01 6.139746e-01 5.718737e-01 1.332508e-01 -1.160945e-01 -2.010046e-01 1.933614e-01 -2.141916e-01 1.214085e-01 -2.543871e-02 -6.614086e-01
<VARIANCE> 25
 9.565771e+00 4.365265e+01 3.785408e+01 3.608765e+01 5.032065e+01 5.013552e+01 5.248980e+01 4.883038e+01 3.477587e+01 4.864542e+01 4.903139e+01 1.914017e+01 5.541709e-01 1.310019e+00 1.243561e+00 2.065607e+00 2.604863e+00 1.621235e+00 2.300366e+00 1.896470e+00 2.432511e+00 1.999167e+00 1.628746e+00 1.444835e+00 1.652242e+00
<GCONST> 9.563732e+01
<TRANSP> 5
 0.000000e+00 1.000000e+00 0.000000e+00 0.000000e+00 0.000000e+00
 0.000000e+00 6.492279e-01 3.507721e-01 0.000000e+00 0.000000e+00
 0.000000e+00 0.000000e+00 5.697391e-01 4.302609e-01 0.000000e+00
 0.000000e+00 0.000000e+00 0.000000e+00 8.807167e-01 1.192832e-01
 0.000000e+00 0.000000e+00 0.000000e+00 0.000000e+00 0.000000e+00
<ENDHMM>
~h "f"
<BEGINHMM>
<NUMSTATES> 5
<STATE> 2
<MEAN> 25
 -3.802672e+00 3.791782e+00 -1.104133e+00 5.023142e+00 -7.281147e-01 -2.996617e+00 8.649344e-01 -2.887767e+00 -2.181436e-01 -1.501011e+00 -1.319499e-02 -1.198842e+00 -2.356633e+00 3.968053e-01 -1.130185e+00 1.699517e+00 1.408125e+00 9.977233e-01 1.163740e+00 1.118477e+00 1.554084e+00 2.410359e-01 1.130272e+00 6.080846e-01 -6.595445e-01
<VARIANCE> 25
 3.437788e+01 2.299775e+01 2.244642e+01 2.957589e+01 4.318419e+01 3.430619e+01 3.370192e+01 2.909024e+01 3.067608e+01 3.675746e+01 2.589088e+01 2.209271e+01 2.843882e+00 3.687605e+00 3.430985e+00 5.773189e+00 4.706695e+00 4.091804e+00 3.554304e+00 3.335894e+00 4.422551e+00 5.007515e+00 3.791038e+00 2.582921e+00 2.305420e+00
<GCONST> 1.036651e+02
<STATE> 3
<MEAN> 25
 -9.024208e+00 2.697258e+00 -4.233498e+00 7.325638e+00 1.853740e+00 -7.822983e-01 4.719069e+00 1.859884e+00 3.752130e+00 1.492467e+00 3.230179e+00 2.228473e+00 -3.160091e-01 -9.059353e-02 -1.267247e-01 6.151326e-02 -1.641566e-01 -1.484370e-01 -3.849017e-03 3.277981e-02 4.812539e-02 1.325949e-01 1.007702e-01 3.041853e-02 2.692142e-01
<VARIANCE> 25
 2.060219e+01 1.729218e+01 1.263916e+01 1.404160e+01 2.116241e+01 2.217372e+01 2.062701e+01 2.063359e+01 1.442194e+01 1.950521e+01 1.493784e+01 1.675271e+01 1.278785e+00 8.784443e-01 8.058240e-01 1.166351e+00 1.335128e+00 1.291143e+00 1.432807e+00 1.644762e+00 1.625356e+00 1.703710e+00 1.466199e+00 1.580627e+00 1.793251e+00
<GCONST> 8.426710e+01
<STATE> 4
<MEAN> 25
 -9.184965e+00 1.294866e+00 -3.310828e+00 7.399820e+00 1.649733e-01 -2.133294e+00 3.650558e+00 -1.295013e-01 2.100577e+00 8.613106e-01 2.245842e+00 4.240001e-01 3.232362e+00 -5.786795e-01 1.715310e+00 -2.243497e+00 -1.563693e+00 -8.308297e-01 -1.664096e+00 -1.867383e+00 -2.485070e+00 -1.046768e+00 -1.314441e+00 -1.315634e+00 8.961235e-01
<VARIANCE> 25
 1.066516e+01 1.822735e+01 1.890013e+01 1.501615e+01 1.968960e+01 2.160934e+01 2.406181e+01 2.654011e+01 1.792943e+01 2.083456e+01 1.821732e+01 1.869186e+01 2.400423e+00 3.469741e+00 7.101120e+00 6.293182e+00 4.204687e+00 4.963194e+00 4.167894e+00 3.731330e+00 3.849619e+00 2.835200e+00 2.400010e+00 3.296738e+00 4.415524e+00
<GCONST> 9.877664e+01
<TRANSP> 5
 0.000000e+00 1.000000e+00 0.000000e+00 0.000000e+00 0.000000e+00
 0.000000e+00 6.945247e-01 3.054753e-01 0.000000e+00 0.000000e+00
 0.000000e+00 0.000000e+00 8.724365e-01 1.275635e-01 0.000000e+00
 0.000000e+00 0.000000e+00 0.000000e+00 4.467661e-01 5.532339e-01
 0.000000e+00 0.000000e+00 0.000000e+00 0.000000e+00 0.000000e+00
<ENDHMM>
~h "g"
<BEGINHMM>
<NUMSTATES> 5
<STATE> 2
<MEAN> 25
 4.351479e+00 5.127125e+00 5.788538e+00 3.456898e+00 -2.100308e+00 -5.457164e+00 -3.382768e+00 -7.280556e+00 -4.581503e+00 -3.694685e+00 -6.060639e+00 -2.935255e+00 -3.855199e-01 3.958990e-01 -2.058617e-01 7.559592e-01 1.243492e+00 -1.035215e+00 -4.368097e-01 -3.323085e-01 5.391651e-01 5.080787e-01 -5.693431e-01 4.231963e-01 -2.896917e-02
<VARIANCE> 25
 7.087141e+00 3.640450e+01 6.668491e+01 8.987599e+01 6.665083e+01 4.368162e+01 4.051847e+01 4.150961e+01 2.263750e+01 4.510475e+01 3.744548e+01 2.352172e+01 1.316406e+00 5.970089e+00 5.252290e+00 3.502740e+00 6.125746e+00 3.051655e+00 4.612441e+00 4.745587e+00 4.098854e+00 5.152067e+00 3.147674e+00 1.980325e+00 6.214421e+00
<GCONST> 1.070067e+02
<STATE> 3
<MEAN> 25
 2.221885e+00 3.696153e+00 6.771938e+00 4.050262e-01 -4.349018e+00 -9.890759e+00 -7.921533e+00 -5.061354e+00 -5.581000e+00 -1.169752e+00 -8.850446e+00 -2.459295e-01 -6.500765e-01 -1.894434e-01 3.999451e-01 -4.298953e-01 -1.366957e+00 1.416925e-01 2.098882e-02 1.299086e-01 -2.623022e-01 5.862570e-01 3.124396e-01 1.716924e-01 8.551898e-01
<VARIANCE> 25
 1.557857e+01 3.899981e+01 2.609932e+01 8.053391e+01 7.592203e+01 5.451961e+01 4.752347e+01 4.285129e+01 1.683883e+01 5.902924e+01 3.269136e+01 4.842572e+01 2.427079e+00 7.403949e+00 3.698646e+00 2.050810e+01 1.049588e+01 6.281127e+00 6.256309e+00 8.852056e+00 2.189769e+00 1.074551e+01 5.136306e+00 6.119909e+00 1.624002e+01
<GCONST> 1.150369e+02
<STATE> 4
<MEAN> 25
 2.514078e+00 -8.707657e-01 8.052129e+00 -9.386299e+00 -1.263919e+01 -6.834178e+00 -6.791423e+00 -7.650280e+00 -8.340811e+00 7.621043e+00 -1.041310e+01 -1.045709e-01 3.097371e-01 6.590466e-02 -8.599588e-02 9.181256e-02 8.096197e-01 8.666407e-01 -5.484940e-01 -3.104298e-01 4.510872e-01 -5.366155e-01 4.663055e-01 -8.136831e-01 -5.001028e-01
<VARIANCE> 25
 2.208275e+01 5.198116e+01 1.396247e+01 1.471150e+02 6.450501e+01 2.414360e+01 8.278136e+01 7.329476e+01 4.013315e+01 7.140919e+01 4.670227e+01 3.015988e+01 1.956744e+00 2.607399e+00 1.650674e+00 6.725730e+00 4.777475e+00 3.046348e+00 5.304169e+00 5.646123e+00 3.395710e+00 4.587619e+00 4.204471e+00 2.099557e+00 5.001189e+00
<GCONST> 1.085401e+02
<TRANSP> 5
 0.000000e+00 1.000000e+00 0.000000e+00 0.000000e+00 0.000000e+00
 0.000000e+00 6.589880e-01 3.410120e-01 0.000000e+00 0.000000e+00
 0.000000e+00 0.000000e+00 7.492397e-01 2.507603e-01 0.000000e+00
 0.000000e+00 0.000000e+00 0.000000e+00 7.891657e-01 2.108343e-01
 0.000000e+00 0.000000e+00 0.000000e+00 0.000000e+00 0.000000e+00
<ENDHMM>
~h "h"
<BEGINHMM>
<NUMSTATES> 5
<STATE> 2
<MEAN> 25
 -2.268687e+00 6.590987e-01 -9.231300e-01 6.020654e+00 5.975321e+00 5.051755e-01 5.367576e+00 2.359778e+00 3.621461e+00 -3.926467e-01 2.929214e+00 2.833477e+00 -2.638429e-01 -3.156301e-01 -2.742318e-01 3.344910e-01 1.400824e-01 1.227609e-01 5.124794e-01 4.156786e-01 6.540357e-01 3.982086e-01 6.050824e-01 2.594469e-01 -5.617164e-01
<VARIANCE> 25
 8.847888e+00 2.940889e+01 2.275823e+01 1.510285e+01 4.468861e+01 2.379854e+01 3.195487e+01 4.256400e+01 3.582033e+01 2.623682e+01 2.782898e+01 2.567317e+01 1.098764e+00 1.530392e+00 1.317065e+00 1.891790e+00 2.642832e+00 2.067130e+00 3.126901e+00 3.012289e+00 3.284618e+00 2.894147e+00 2.930413e+00 2.082282e+00 1.377226e+00
<GCONST> 9.470409e+01
<STATE> 3
<MEAN> 25
 -1.731696e+00 2.611884e+00 -1.568695e+00 7.758480e+00 4.745814e+00 2.323393e-01 7.308628e+00 1.777597e+00 4.113391e+00 3.038306e+00 6.005179e+00 3.035295e+00 8.371030e-03 -2.571227e-02 -2.304718e-02 -1.859307e-03 1.538936e-02 4.594142e-02 3.139190e-02 -4.128130e-02 -2.001165e-02 1.783118e-02 1.638048e-02 -2.170338e-02 -9.240817e-04
<VARIANCE> 25
 3.269073e+00 1.218069e+01 7.418296e+00 7.884604e+00 1.272398e+01 1.325258e+01 1.765931e+01 1.611972e+01 1.664257e+01 1.890839e+01 1.688040e+01 1.481477e+01 1.304138e-01 4.038167e-01 4.655977e-01 5.652771e-01 7.821201e-01 9.226761e-01 1.166014e+00 1.207512e+00 1.330945e+00 1.516394e+00 1.377269e+00 1.097700e+00 1.101609e-01
<GCONST> 7.039943e+01
<STATE> 4
<MEAN> 25
 -6.219597e+00 -3.644561e+00 -2.565353e+00 3.257541e+00 9.015031e+00 1.146187e+00 6.941044e+00 1.200157e+00 2.746059e+00 -1.029028e+00 2.913219e+00 2.544919e+00 -4.215595e-01 -4.379808e-01 1.006587e-01 -7.142511e-01 2.611391e-01 -1.452014e-01 -1.489982e-01 -4.440014e-01 -4.190921e-01 -5.811212e-01 -6.601848e-01 -2.359218e-01 1.530265e+00
<VARIANCE> 25
 2.411497e+01 4.234350e+01 2.349464e+01 2.284334e+01 5.841185e+01 3.960464e+01 3.352957e+01 3.040178e+01 3.169244e+01 2.699127e+01 2.751016e+01 2.430118e+01 1.903230e+00 2.107239e+00 1.105479e+00 1.521354e+00 2.500708e+00 1.844740e+00 2.365981e+00 2.402587e+00 2.392782e+00 2.016770e+00 2.325141e+00 1.779467e+00 9.563318e-01
<GCONST> 9.521594e+01
<TRANSP> 5
 0.000000e+00 1.000000e+00 0.000000e+00 0.000000e+00 0.000000e+00
 0.000000e+00 8.082057e-01 1.917943e-01 0.000000e+00 0.000000e+00
 0.000000e+00 0.000000e+00 9.203306e-01 7.966939e-02 0.000000e+00
 0.000000e+00 0.000000e+00 0.000000e+00 8.829909e-01 1.170091e-01
 0.000000e+00 0.000000e+00 0.000000e+00 0.000000e+00 0.000000e+00
<ENDHMM>
~h "i"
<BEGINHMM>
<NUMSTATES> 5
<STATE> 2
<MEAN> 25
 -2.189158e+00 3.700887e+00 9.470957e+00 -1.407254e+00 -1.134898e+01 -5.089883e+00 -4.674977e+00 -7.098826e+00 -6.873671e+00 -2.618654e+00 -1.011199e+00 -3.462858e+00 5.043771e-01 -2.980688e-01 3.486933e+00 -2.995417e+00 -3.844440e+00 1.641695e-01 -3.051975e+00 -8.299994e-01 -2.223342e+00 5.552877e-01 -1.100760e+00 -8.268867e-01 2.348769e+00
<VARIANCE> 25
 2.128786e+01 3.963457e+01 5.132965e+01 6.711415e+01 8.233541e+01 4.804019e+01 5.481082e+01 5.405740e+01 4.376133e+01 3.848851e+01 4.456478e+01 2.668258e+01 4.450912e+00 3.152961e+00 4.244785e+00 5.243242e+00 6.493267e+00 7.091265e+00 6.157640e+00 5.214173e+00 5.371905e+00 5.821755e+00 6.985322e+00 4.267853e+00 4.281144e+00
<GCONST> 1.129510e+02
<STATE> 3
<MEAN> 25
 -2.484919e+00 3.717841e+00 1.537950e+01 -1.183434e+01 -1.768758e+01 1.023192e+00 -1.299845e+01 -6.181963e+00 -9.582644e+00 -9.346187e-01 -5.089588e+00 -4.911629e+00 -5.963571e-02 1.817024e-01 2.256994e-01 -3.534524e-01 -2.740633e-02 4.200523e-01 -2.647933e-01 -6.384528e-02 3.835374e-02 3.085236e-02 -2.053923e-01 -9.962502e-02 -1.059170e-01
<VARIANCE> 25
 8.541559e+00 2.533185e+01 2.462181e+01 6.371443e+01 3.864624e+01 6.228280e+01 2.993557e+01 3.377368e+01 3.308584e+01 5.359001e+01 7.645596e+01 4.825084e+01 3.686811e-01 9.505991e-01 9.576819e-01 1.307086e+00 1.558710e+00 1.678626e+00 1.771360e+00 1.532590e+00 1.492186e+00 1.725481e+00 1.390182e+00 1.187832e+00 4.891656e-01
<GCONST> 9.094930e+01
<STATE> 4
<MEAN> 25
 -1.542304e+00 6.040296e+00 1.212248e+01 -4.773404e+00 -1.010416e+01 6.900182e-01 -6.031786e+00 -7.118935e+00 -5.272463e+00 -8.648720e-01 -2.364785e+00 -2.573728e+00 3.041084e-01 -5.299736e-02 -1.494026e+00 2.015284e+00 1.949194e+00 -3.659491e-01 1.818123e+00 3.837189e-01 1.055563e+00 -9.192400e-02 6.889433e-01 5.221547e-01 -1.931129e+00
<VARIANCE> 25
 1.241735e+01 3.427320e+01 4.197218e+01 7.437415e+01 9.555690e+01 5.322932e+01 5.712229e+01 3.402377e+01 5.803156e+01 4.336053e+01 5.559762e+01 4.924590e+01 1.199870e+00 2.034715e+00 2.453923e+00 3.588496e+00 3.657884e+00 3.060103e+00 3.442752e+00 3.261944e+00 3.115785e+00 3.562212e+00 3.843178e+00 2.768656e+00 2.173438e+00
<GCONST> 1.053484e+02
<TRANSP> 5
 0.000000e+00 1.000000e+00 0.000000e+00 0.000000e+00 0.000000e+00
 0.000000e+00 6.762774e-01 3.237226e-01 0.000000e+00 0.000000e+00
 0.000000e+00 0.000000e+00 8.416916e-01 1.583084e-01 0.000000e+00
 0.000000e+00 0.000000e+00 0.000000e+00 8.020886e-01 1.979115e-01
 0.000000e+00 0.000000e+00 0.000000e+00 0.000000e+00 0.000000e+00
<ENDHMM>
~h "j"
<BEGINHMM>
<NUMSTATES> 5
<STATE> 2
<MEAN> 25
 -3.002753e+00 2.230839e+00 1.161403e+00 6.203055e+00 4.011052e+00 1.005220e+00 3.484947e+00 2.970605e+00 2.616110e+00 7.577549e-01 2.485152e+00 1.125960e+00 -1.235847e-01 -1.219665e-01 3.412110e-02 4.193251e-01 -1.209681e-01 1.864030e-01 4.638540e-01 3.455474e-01 4.783399e-01 2.765742e-01 4.056392e-01 3.111090e-01 -5.063664e-01
<VARIANCE> 25
 1.921947e+01 2.165261e+01 3.326307e+01 1.560285e+01 3.122208e+01 2.980185e+01 3.227256e+01 4.254463e+01 3.952228e+01 2.926903e+01 3.699274e+01 2.548806e+01 2.121636e+00 1.566852e+00 2.154862e+00 1.958924e+00 2.095845e+00 2.330801e+00 2.546478e+00 3.471058e+00 3.399551e+00 2.626313e+00 2.780445e+00 2.594842e+00 1.729162e+00
<GCONST> 9.731239e+01
<STATE> 3
<MEAN> 25
 -1.539290e+00 6.722557e-01 9.231597e-01 7.292664e+00 1.708733e+00 1.851066e+00 5.052421e+00 2.231262e+00 3.772430e+00 7.440850e-01 4.911713e+00 1.812314e+00 8.938783e-03 7.730927e-02 3.513247e-02 1.054570e-01 3.272933e-02 4.021719e-03 -9.175812e-03 -7.450205e-02 -2.222942e-02 -2.101690e-02 -5.035216e-02 -7.800959e-02 -1.240763e-02
<VARIANCE> 25
 4.530525e+00 1.185266e+01 1.056012e+01 1.030260e+01 1.158776e+01 1.515773e+01 1.492494e+01 1.673140e+01 1.527544e+01 1.708749e+01 1.691797e+01 1.493930e+01 3.891679e-01 5.277535e-01 6.247129e-01 8.298683e-01 8.676363e-01 1.013613e+00 1.159968e+00 1.431735e+00 1.444950e+00 1.421095e+00 1.332682e+00 1.323283e+00 2.211368e-01
<GCONST> 7.432237e+01
<STATE> 4
<MEAN> 25
 -3.910566e+00 7.231824e+00 5.639663e+00 7.412288e+00 1.587681e+00 6.150872e-01 1.716068e+00 -3.036694e+00 -2.142137e+00 -3.257604e+00 -5.659075e-01 -3.377335e+00 -7.706896e-01 3.965105e-01 4.700314e-01 -7.184547e-01 -9.739840e-01 -6.591643e-01 -6.559205e-01 -4.758036e-01 -5.045832e-01 -2.162648e-01 6.449310e-02 -6.918502e-02 2.142302e+00
<VARIANCE> 25
 5.571892e+01 3.075442e+01 3.379024e+01 2.681409e+01 2.798074e+01 2.465460e+01 2.845573e+01 3.062306e+01 2.695597e+01 3.367691e+01 2.828417e+01 2.087486e+01 5.228611e+00 2.336465e+00 5.795095e+00 3.066381e+00 6.724336e+00 2.892773e+00 2.450056e+00 3.237166e+00 2.874851e+00 3.798741e+00 3.120751e+00 2.262139e+00 3.524250e+00
<GCONST> 1.027246e+02
<TRANSP> 5
 0.000000e+00 1.000000e+00 0.000000e+00 0.000000e+00 0.000000e+00
 0.000000e+00 7.220381e-01 2.779618e-01 0.000000e+00 0.000000e+00
 0.000000e+00 0.000000e+00 9.134767e-01 8.652324e-02 0.000000e+00
 0.000000e+00 0.000000e+00 0.000000e+00 8.901920e-01 1.098080e-01
 0.000000e+00 0.000000e+00 0.000000e+00 0.000000e+00 0.000000e+00
<ENDHMM>
~h "k"
<BEGINHMM>
<NUMSTATES> 5
<STATE> 2
<MEAN> 25
 -2.251019e+00 2.501345e+00 -1.575551e-01 5.344191e+00 3.092629e+00 2.638968e+00 4.927961e+00 5.887854e-01 3.834034e+00 2.526116e+00 4.610948e+00 1.851983e+00 -4.931029e-01 -3.714410e-01 -4.718117e-01 7.297275e-01 5.904962e-01 6.860400e-02 6.384696e-01 5.462258e-01 6.772528e-01 5.235876e-01 6.139318e-01 4.678202e-01 -8.097621e-01
<VARIANCE> 25
 1.007730e+01 1.531348e+01 2.021365e+01 2.061899e+01 2.603947e+01 2.405870e+01 2.610572e+01 2.611897e+01 3.025920e+01 2.588509e+01 2.416514e+01 1.919954e+01 1.635857e+00 1.740666e+00 2.018907e+00 3.409404e+00 2.934290e+00 3.275482e+00 2.883703e+00 2.915983e+00 3.158567e+00 3.120402e+00 3.063834e+00 1.995954e+00 3.831810e+00
<GCONST> 9.559665e+01
<STATE> 3
<MEAN> 25
 -4.698034e+00 -4.019434e-01 -5.889835e+00 5.001760e+00 5.512352e+00 -2.966129e+00 5.583586e+00 4.639748e-01 4.082825e+00 3.765761e+00 2.720389e+00 3.630077e+00 -4.293787e-01 -1.384018e+00 -2.233950e+00 -1.456692e+00 5.936232e-01 -2.800655e+00 -1.103671e+00 -2.341641e-01 -6.610542e-01 -1.645388e-01 -2.150313e+00 8.785332e-02 4.417125e+00
<VARIANCE> 25
 1.570816e+01 2.778171e+01 4.688374e+01 3.289684e+01 5.019457e+01 6.142562e+01 3.631020e+01 2.822127e+01 2.766737e+01 3.281865e+01 3.930373e+01 2.546535e+01 1.987021e+00 3.136196e+00 4.191394e+00 6.050357e+00 6.773036e+00 5.603706e+00 4.048626e+00 4.050334e+00 3.979091e+00 4.516590e+00 5.445704e+00 3.050186e+00 6.843120e+00
<GCONST> 1.071708e+02
<STATE> 4
<MEAN> 25
 -2.110342e+00 -1.200337e+00 -6.962578e+00 -1.549233e+00 3.842903e+00 -7.265298e+00 4.310177e-01 1.663133e-01 1.713821e+00 2.747723e+00 -4.701668e+00 1.154358e+00 2.286608e+00 -1.083310e+00 1.968227e+00 -3.450041e+00 -2.890556e+00 5.352218e-01 -1.724072e+00 6.715916e-01 -1.382837e+00 -9.275978e-01 -2.164412e+00 -1.726659e+00 2.751301e+00
<VARIANCE> 25
 2.843803e+01 2.904659e+01 5.479342e+01 5.735044e+01 7.714775e+01 5.351337e+01 4.640374e+01 3.574430e+01 3.297402e+01 4.862627e+01 5.325250e+01 3.764058e+01 1.820884e+00 4.833613e+00 6.183579e+00 7.056452e+00 5.936491e+00 7.153036e+00 5.712675e+00 4.546587e+00 4.384781e+00 3.207795e+00 4.434851e+00 3.780438e+00 4.264205e+00
<GCONST> 1.113085e+02
<TRANSP> 5
 0.000000e+00 1.000000e+00 0.000000e+00 0.000000e+00 0.000000e+00
 0.000000e+00 7.964159e-01 2.035842e-01 0.000000e+00 0.000000e+00
 0.000000e+00 0.000000e+00 5.975453e-01 4.024546e-01 0.000000e+00
 0.000000e+00 0.000000e+00 0.000000e+00 5.103586e-01 4.896413e-01
 0.000000e+00 0.000000e+00 0.000000e+00 0.000000e+00 0.000000e+00
<ENDHMM>
~h "l"
<BEGINHMM>
<NUMSTATES> 5
<STATE> 2
<MEAN> 25
 3.975787e+00 -6.454016e-01 9.095573e-02 -8.566762e+00 -9.233602e-01 -9.817831e-01 -8.096516e+00 -3.751449e+00 7.112861e-01 2.184833e+00 -5.063565e-01 -6.384655e-01 7.577764e-01 -8.913651e-01 2.888249e-01 -1.976084e+00 5.226998e-01 -2.350189e-01 -1.953948e+00 -2.582816e-01 6.593304e-01 3.527880e-01 -4.667737e-01 -5.406981e-01 1.369901e+00
<VARIANCE> 25
 3.041705e+01 4.393058e+01 2.907665e+01 1.358332e+02 5.827082e+01 5.447444e+01 1.148891e+02 5.698774e+01 5.500641e+01 3.757697e+01 5.273796e+01 3.784089e+01 3.120306e+00 3.812070e+00 2.069458e+00 9.006234e+00 4.558936e+00 4.987087e+00 9.444697e+00 5.883783e+00 3.368478e+00 4.646848e+00 4.151859e+00 3.405476e+00 3.725213e+00
<GCONST> 1.127657e+02
<STATE> 3
<MEAN> 25
 6.076053e+00 -3.735512e+00 6.331902e-01 -2.156220e+01 -2.184365e+00 -1.151636e+00 -1.375449e+01 -3.259444e+00 -1.337763e+00 5.818578e+00 -4.518366e+00 -1.502602e+00 -3.313475e-02 -4.726450e-01 -1.450295e-01 -2.759624e-02 2.060184e-01 5.699118e-02 -3.222552e-02 1.544947e-01 4.935477e-01 -8.939718e-02 -3.052742e-01 -4.395798e-01 2.834623e-01
<VARIANCE> 25
 7.280187e+00 3.389342e+01 3.652489e+01 5.738203e+01 4.681456e+01 5.458625e+01 7.606750e+01 3.612171e+01 5.225243e+01 4.382340e+01 4.294458e+01 4.110427e+01 2.791638e-01 1.246822e+00 9.596046e-01 1.456551e+00 1.347015e+00 1.769452e+00 2.323495e+00 2.071725e+00 1.961102e+00 2.006614e+00 2.753845e+00 1.557200e+00 5.756201e-01
<GCONST> 9.407281e+01
<STATE> 4
<MEAN> 25
 5.887660e+00 -3.330658e+00 -3.472317e+00 -1.296846e+01 -2.545606e-01 5.801105e-01 -1.081714e+01 -3.681819e+00 -1.454276e-02 7.400551e-01 -4.794349e+00 -5.102219e+00 -3.598864e-01 4.909942e-01 -1.381369e-01 1.311129e+00 3.569351e-01 2.254231e-03 9.411543e-01 -4.376071e-02 6.141177e-02 -5.568016e-01 1.588109e-01 1.138936e-01 -9.119006e-01
<VARIANCE> 25
 1.220207e+01 3.875369e+01 2.500510e+01 7.291761e+01 6.468474e+01 7.341028e+01 1.111957e+02 3.458236e+01 3.812223e+01 4.682038e+01 4.382309e+01 2.986594e+01 7.926465e-01 1.689177e+00 1.567632e+00 3.161997e+00 2.044750e+00 2.774125e+00 2.682441e+00 2.297305e+00 2.365979e+00 2.841864e+00 2.750250e+00 1.881544e+00 1.295995e+00
<GCONST> 1.002538e+02
<TRANSP> 5
 0.000000e+00 1.000000e+00 0.000000e+00 0.000000e+00 0.000000e+00
 0.000000e+00 6.294553e-01 3.705448e-01 0.000000e+00 0.000000e+00
 0.000000e+00 0.000000e+00 7.886699e-01 2.113301e-01 0.000000e+00
 0.000000e+00 0.000000e+00 0.000000e+00 8.057929e-01 1.942071e-01
 0.000000e+00 0.000000e+00 0.000000e+00 0.000000e+00 0.000000e+00
<ENDHMM>
~h "m"
<BEGINHMM>
<NUMSTATES> 5
<STATE> 2
<MEAN> 25
 5.673762e+00 -2.640800e+00 6.316267e-01 -4.881151e+00 3.303831e-01 -4.198965e-02 -8.453455e+00 -9.407613e+00 -9.092919e+00 -1.345765e+00 -3.029085e+00 -5.914173e+00 -1.393690e-01 1.145850e+00 7.270195e-01 1.404853e+00 1.133577e+00 2.466855e-01 -1.074095e-01 -1.753207e+00 -1.595140e+00 -1.942690e-01 2.559496e-01 2.920253e-01 -1.167542e+00
<VARIANCE> 25
 1.398908e+01 4.196849e+01 2.922121e+01 4.758248e+01 5.244204e+01 4.089255e+01 7.041109e+01 8.301819e+01 8.159111e+01 5.013078e+01 5.612455e+01 3.817982e+01 9.987952e-01 1.931958e+00 2.617401e+00 3.190272e+00 3.106542e+00 2.504327e+00 4.278618e+00 5.236189e+00 4.900511e+00 3.637394e+00 4.294161e+00 2.457155e+00 1.836203e+00
<GCONST> 1.056747e+02
<STATE> 3
<MEAN> 25
 3.017557e+00 3.647272e+00 1.309083e+00 3.062241e+00 3.993906e+00 2.307696e+00 -2.790128e+00 -8.236945e+00 -9.906046e+00 -5.281723e+00 -2.709045e+00 -4.079633e+00 -5.726011e-01 5.649218e-02 -2.210460e-01 7.202742e-01 6.668764e-02 2.596616e-01 1.220510e+00 1.291306e+00 1.469000e+00 4.093190e-01 4.887190e-01 3.393253e-01 -1.004727e+00
<VARIANCE> 25
 1.189900e+01 2.850557e+01 1.916993e+01 3.423714e+01 3.634208e+01 3.275486e+01 5.580244e+01 6.211216e+01 8.511669e+01 4.436602e+01 4.343171e+01 3.109299e+01 7.227467e-01 1.669448e+00 1.108320e+00 1.830098e+00 1.694826e+00 1.962746e+00 3.067699e+00 3.631980e+00 3.865118e+00 3.101305e+00 3.070497e+00 2.509961e+00 1.223425e+00
<GCONST> 9.817280e+01
<STATE> 4
<MEAN> 25
 -8.796672e-01 -3.549063e-02 -1.839345e+00 5.718431e+00 4.739025e+00 2.793817e+00 4.786035e+00 1.490072e+00 3.695920e+00 1.401997e+00 4.070055e+00 1.713588e+00 8.172899e-03 5.921018e-02 -6.508054e-03 2.048314e-03 -9.549072e-02 1.674965e-02 3.546277e-02 6.004601e-02 9.086055e-02 1.382509e-02 -4.697296e-02 1.326277e-02 -6.662496e-02
<VARIANCE> 25
 8.991262e+00 1.417103e+01 1.410813e+01 1.882397e+01 2.554954e+01 2.158660e+01 3.337183e+01 3.880882e+01 4.589475e+01 2.614121e+01 2.497696e+01 2.098808e+01 3.862598e-01 7.348972e-01 8.719786e-01 1.220021e+00 1.464049e+00 1.430758e+00 1.553174e+00 2.090620e+00 2.493871e+00 2.144362e+00 1.961465e+00 1.602258e+00 6.279351e-01
<GCONST> 8.628331e+01
<TRANSP> 5
 0.000000e+00 1.000000e+00 0.000000e+00 0.000000e+00 0.000000e+00
 0.000000e+00 7.553977e-01 2.446022e-01 0.000000e+00 0.000000e+00
 0.000000e+00 0.000000e+00 7.082086e-01 2.917913e-01 0.000000e+00
 0.000000e+00 0.000000e+00 0.000000e+00 7.874424e-01 2.125576e-01
 0.000000e+00 0.000000e+00 0.000000e+00 0.000000e+00 0.000000e+00
<ENDHMM>
~h "n"
<BEGINHMM>
<NUMSTATES> 5
<STATE> 2
<MEAN> 25
 5.260036e+00 -4.740812e+00 5.522364e-01 -3.797190e+00 -4.706214e+00 -5.014886e+00 -7.259547e+00 2.103150e+00 -3.957978e+00 -5.230845e+00 -8.408750e+00 -3.265316e+00 2.924896e-01 2.696726e+00 1.312583e+00 1.179548e+00 -7.410714e-02 -1.151240e+00 6.977897e-01 -3.798388e+00 8.550254e-01 1.376124e+00 -8.467233e-01 1.710156e-01 -2.218089e+00
<VARIANCE> 25
 7.513315e+00 3.880188e+01 3.070846e+01 2.510428e+01 4.465869e+01 4.678502e+01 4.299615e+01 8.686566e+01 5.065639e+01 4.315380e+01 3.266806e+01 3.307351e+01 7.455564e-01 1.567844e+00 2.869129e+00 1.927693e+00 3.569229e+00 3.473583e+00 2.804866e+00 5.197362e+00 4.465762e+00 4.300879e+00 3.294663e+00 2.528981e+00 1.070169e+00
<GCONST> 1.010213e+02
<STATE> 3
<MEAN> 25
 5.414571e+00 3.673168e+00 4.229810e+00 -4.507206e-01 -3.970251e+00 -4.847447e+00 -4.632132e+00 -7.767799e+00 -5.550581e+00 -4.661680e+00 -9.375988e+00 -2.703047e+00 -2.313291e-01 1.085139e+00 1.713420e-01 9.572581e-01 7.957061e-01 2.790745e-01 5.532094e-01 -3.538035e-01 -3.602495e-01 -3.949291e-01 2.575444e-01 -2.940278e-02 -1.222595e+00
<VARIANCE> 25
 6.130541e+00 2.771554e+01 1.731585e+01 2.612840e+01 5.719564e+01 4.582907e+01 3.348795e+01 4.154956e+01 3.704086e+01 5.502146e+01 4.038263e+01 3.237903e+01 5.090691e-01 1.127758e+00 1.079524e+00 1.601202e+00 1.916260e+00 2.144586e+00 1.997718e+00 2.575871e+00 2.031547e+00 1.748180e+00 2.057180e+00 1.406851e+00 6.330605e-01
<GCONST> 9.201871e+01
<STATE> 4
<MEAN> 25
 -4.493495e-01 6.436040e+00 3.203539e+00 7.517403e+00 3.936743e+00 -1.226254e+00 3.297367e+00 -3.416375e+00 -2.084792e+00 -3.081504e+00 -2.716168e+00 -1.423551e+00 -9.614571e-01 -5.584827e-01 -6.685170e-01 2.885676e-01 4.400664e-01 7.334812e-01 1.109566e+00 1.095452e+00 1.263899e+00 1.167167e+00 1.520493e+00 7.751261e-01 -9.189615e-01
<VARIANCE> 25
 1.576855e+01 1.574577e+01 1.776664e+01 2.187510e+01 3.688647e+01 3.200538e+01 3.723707e+01 4.021934e+01 4.191498e+01 4.547781e+01 4.488483e+01 2.721210e+01 7.873859e-01 1.216744e+00 1.231754e+00 1.844770e+00 2.100254e+00 2.593852e+00 2.511405e+00 3.075311e+00 3.532999e+00 3.670024e+00 2.985198e+00 2.305787e+00 1.002801e+00
<GCONST> 9.548185e+01
<TRANSP> 5
 0.000000e+00 1.000000e+00 0.000000e+00 0.000000e+00 0.000000e+00
 0.000000e+00 6.489532e-01 3.510467e-01 0.000000e+00 0.000000e+00
 0.000000e+00 0.000000e+00 8.252187e-01 1.747813e-01 0.000000e+00
 0.000000e+00 0.000000e+00 0.000000e+00 7.805412e-01 2.194588e-01
 0.000000e+00 0.000000e+00 0.000000e+00 0.000000e+00 0.000000e+00
<ENDHMM>
~h "o"
<BEGINHMM>
<NUMSTATES> 5
<STATE> 2
<MEAN> 25
 4.799686e+00 4.704907e-01 -4.205083e+00 -8.425645e+00 -3.235590e-01 1.526357e+00 -5.555860e+00 -4.885268e+00 -3.029524e+00 -1.499123e+00 -1.630337e+00 -2.710462e+00 2.159220e+00 -1.826918e+00 -4.035434e-01 -4.594020e+00 -9.392933e-01 4.593706e-01 -1.968265e+00 1.763316e-01 -7.795764e-01 -4.492589e-01 -1.205563e+00 -6.456460e-01 2.537126e+00
<VARIANCE> 25
 2.315050e+01 3.532404e+01 4.720126e+01 1.228875e+02 4.479699e+01 5.292248e+01 6.973643e+01 4.118220e+01 7.907413e+01 3.632486e+01 3.456195e+01 2.522503e+01 3.977428e+00 4.586496e+00 5.113748e+00 1.339518e+01 4.503029e+00 6.132009e+00 7.770111e+00 6.793258e+00 6.635310e+00 3.488432e+00 4.374580e+00 2.367681e+00 4.874103e+00
<GCONST> 1.132649e+02
<STATE> 3
<MEAN> 25
 7.027570e+00 -6.201899e+00 -6.807271e+00 -2.102704e+01 1.092834e+00 1.675789e+00 -8.104165e+00 1.522208e-01 -3.711218e+00 -1.542647e-01 -5.637343e+00 -3.766119e+00 1.278496e-01 -1.231226e+00 1.090068e-01 -1.523615e+00 7.784061e-01 8.092246e-01 5.176729e-01 3.463275e-01 -2.216072e-01 2.252177e-01 -5.485979e-01 -2.079663e-01 6.597841e-01
<VARIANCE> 25
 1.178090e+01 3.730524e+01 2.645996e+01 4.660888e+01 6.912495e+01 5.421739e+01 5.487626e+01 3.848892e+01 5.621412e+01 3.234734e+01 5.825140e+01 2.915553e+01 1.004384e+00 2.246542e+00 2.653617e+00 8.008765e+00 4.149849e+00 4.506170e+00 3.349532e+00 4.618618e+00 3.972001e+00 2.334371e+00 2.919112e+00 1.995322e+00 2.390447e+00
<GCONST> 1.043757e+02
<STATE> 4
<MEAN> 25
 7.012683e+00 -5.740484e+00 -6.571517e+00 -2.114932e+01 1.370753e-01 6.044477e+00 -6.521511e+00 -2.008196e+00 -3.032285e+00 -8.482825e-01 -3.463978e+00 -3.737109e+00 -2.129492e-01 3.704131e-01 1.524832e-01 1.168333e+00 6.934318e-02 -1.153452e-01 2.470792e-01 8.172952e-02 2.942578e-01 -2.513800e-01 2.477948e-01 5.077785e-02 -7.464105e-01
<VARIANCE> 25
 1.156503e+01 3.005218e+01 2.632476e+01 7.737838e+01 8.851646e+01 5.778207e+01 6.510529e+01 3.292697e+01 4.265722e+01 2.882106e+01 4.381292e+01 3.357861e+01 6.808766e-01 1.862307e+00 1.161014e+00 4.761266e+00 2.169321e+00 2.487172e+00 2.983660e+00 2.220481e+00 2.261529e+00 2.189878e+00 2.898236e+00 1.814602e+00 2.049304e+00
<GCONST> 9.953638e+01
<TRANSP> 5
 0.000000e+00 1.000000e+00 0.000000e+00 0.000000e+00 0.000000e+00
 0.000000e+00 5.895151e-01 4.104850e-01 0.000000e+00 0.000000e+00
 0.000000e+00 0.000000e+00 5.157355e-01 4.842646e-01 0.000000e+00
 0.000000e+00 0.000000e+00 0.000000e+00 8.641258e-01 1.358742e-01
 0.000000e+00 0.000000e+00 0.000000e+00 0.000000e+00 0.000000e+00
<ENDHMM>
~h "p"
<BEGINHMM>
<NUMSTATES> 5
<STATE> 2
<MEAN> 25
 4.990280e+00 4.276660e+00 -3.971683e-01 -2.778893e+00 -1.754864e-01 2.497979e+00 -8.135903e-01 -6.116253e+00 -3.284050e+00 -2.865917e+00 -1.692891e+00 -2.848873e+00 -1.385686e+00 1.492348e+00 1.075779e+00 4.127569e+00 1.732612e+00 4.512594e-01 1.609389e+00 8.970624e-01 1.135644e+00 -3.344844e-01 4.807148e-01 -2.131157e-02 -3.434795e+00
<VARIANCE> 25
 1.993652e+01 3.813597e+01 2.993502e+01 9.922676e+01 4.906141e+01 2.722967e+01 3.306501e+01 3.161029e+01 3.922934e+01 3.487512e+01 3.742568e+01 3.045821e+01 1.650435e+00 4.294756e+00 2.777327e+00 7.684426e+00 3.853334e+00 3.414160e+00 3.368722e+00 3.404483e+00 3.561681e+00 3.970273e+00 3.955443e+00 2.468117e+00 4.816338e+00
<GCONST> 1.055216e+02
<STATE> 3
<MEAN> 25
 -1.405751e+00 3.435803e+00 6.322725e-01 6.490772e+00 4.509463e+00 4.032508e+00 4.042162e+00 -7.916096e-01 2.081455e+00 -1.634101e-01 1.792531e+00 -3.158743e-01 -1.583247e+00 -1.137049e+00 -8.995708e-01 6.646708e-01 2.839974e-01 1.135915e-01 1.358819e+00 1.582480e+00 2.002807e+00 1.836141e+00 1.906051e+00 1.560477e+00 -8.976706e-01
<VARIANCE> 25
 1.123360e+01 1.927207e+01 1.700572e+01 1.563461e+01 1.658794e+01 2.880344e+01 2.157391e+01 2.631414e+01 3.299720e+01 2.848883e+01 2.789429e+01 2.319456e+01 1.482975e+00 1.026519e+00 1.521332e+00 2.708760e+00 2.287331e+00 1.989184e+00 2.331181e+00 2.511592e+00 2.881995e+00 2.809114e+00 2.616419e+00 2.295521e+00 3.307109e+00
<GCONST> 9.293546e+01
<STATE> 4
<MEAN> 25
 -2.399965e+00 1.868738e+00 -1.488501e+00 7.113292e+00 4.007497e+00 2.789836e+00 6.029178e+00 2.202465e+00 5.084498e+00 2.800841e+00 5.806240e+00 2.821868e+00 -9.160738e-02 7.125010e-02 -8.026353e-02 5.643737e-02 -2.301702e-01 -3.397203e-01 -5.287525e-03 -1.316418e-01 -8.567671e-02 -2.558938e-02 3.493306e-02 9.067018e-03 2.942837e-01
<VARIANCE> 25
 5.315293e+00 9.492802e+00 9.918303e+00 1.236724e+01 1.338722e+01 1.994329e+01 1.865746e+01 1.564560e+01 1.596668e+01 1.773385e+01 1.616697e+01 1.411958e+01 4.839782e-01 5.630356e-01 7.966438e-01 1.142313e+00 1.253620e+00 1.555482e+00 1.438068e+00 1.571284e+00 1.693197e+00 1.769683e+00 1.710259e+00 1.500417e+00 2.296671e+00
<GCONST> 7.997749e+01
<TRANSP> 5
 0.000000e+00 1.000000e+00 0.000000e+00 0.000000e+00 0.000000e+00
 0.000000e+00 5.642797e-01 4.357203e-01 0.000000e+00 0.000000e+00
 0.000000e+00 0.000000e+00 5.304785e-01 4.695215e-01 0.000000e+00
 0.000000e+00 0.000000e+00 0.000000e+00 8.710485e-01 1.289515e-01
 0.000000e+00 0.000000e+00 0.000000e+00 0.000000e+00 0.000000e+00
<ENDHMM>
~h "r"
<BEGINHMM>
<NUMSTATES> 5
<STATE> 2
<MEAN> 25
 5.207206e+00 -9.331690e+00 -1.513950e+00 -9.794596e+00 -7.506790e+00 -2.100902e+00 -1.040379e+01 6.465292e+00 -1.922116e-01 -2.218613e+00 -1.004897e+01 -4.153097e+00 1.658881e-01 1.059738e-01 -8.233976e-02 6.621171e-01 3.398201e-02 -2.103738e-03 -4.109400e-01 8.147226e-02 1.951407e-01 -6.045792e-01 3.738229e-01 -6.493152e-03 -3.439330e-01
<VARIANCE> 25
 1.415373e+01 3.283765e+01 1.841431e+01 5.108712e+01 5.554551e+01 4.083974e+01 8.439220e+01 5.454569e+01 3.790049e+01 5.544068e+01 4.725448e+01 2.230650e+01 6.358492e-01 2.194560e+00 1.372409e+00 3.710747e+00 3.070016e+00 3.278421e+00 2.536609e+00 3.964648e+00 3.438279e+00 2.918009e+00 3.993790e+00 1.588753e+00 1.954934e+00
<GCONST> 1.011094e+02
<STATE> 3
<MEAN> 25
 5.093856e+00 -3.584216e+00 -2.529322e+00 -9.444735e-01 -4.098957e+00 -3.889100e+00 -9.732981e+00 1.170677e+00 3.260845e+00 -4.024049e+00 -1.465209e+00 -1.982842e+00 -6.434297e-01 1.358384e+00 1.960858e-01 2.019889e+00 6.462198e-01 -1.443882e+00 6.716182e-01 -1.252262e+00 6.037188e-01 -6.203426e-01 9.145747e-01 4.837116e-01 -7.032814e-01
<VARIANCE> 25
 2.369378e+01 3.574752e+01 2.759286e+01 4.970757e+01 5.281063e+01 4.441085e+01 8.925622e+01 7.186028e+01 4.321142e+01 5.599609e+01 3.534565e+01 2.769765e+01 3.626365e+00 6.376627e+00 2.486988e+00 8.004245e+00 6.363864e+00 3.720696e+00 1.063610e+01 7.908399e+00 4.882045e+00 4.550369e+00 6.020712e+00 3.170199e+00 6.979028e+00
<GCONST> 1.128380e+02
<STATE> 4
<MEAN> 25
 8.895302e-01 -3.144939e-01 -8.210978e-01 3.928061e+00 1.544825e+00 -2.983746e+00 -3.022487e+00 2.547829e+00 4.579190e-01 -4.489380e+00 -9.831930e-01 -1.139848e+00 -5.428496e-01 3.347761e-01 2.825552e-01 4.293286e-01 5.809624e-01 4.155762e-01 8.397641e-01 -2.675028e-02 -3.603175e-03 7.692431e-01 5.149675e-01 3.728768e-01 -1.031881e+00
<VARIANCE> 25
 2.161658e+01 2.280028e+01 3.314357e+01 4.248363e+01 7.823170e+01 5.256698e+01 6.436211e+01 5.025753e+01 5.014984e+01 5.242757e+01 4.677105e+01 3.666690e+01 2.445282e+00 2.531207e+00 2.126683e+00 3.903238e+00 4.241680e+00 2.876469e+00 5.779810e+00 3.498363e+00 5.106976e+00 4.656576e+00 4.151807e+00 3.002498e+00 2.724955e+00
<GCONST> 1.072639e+02
<TRANSP> 5
 0.000000e+00 1.000000e+00 0.000000e+00 0.000000e+00 0.000000e+00
 0.000000e+00 7.651932e-01 2.348068e-01 0.000000e+00 0.000000e+00
 0.000000e+00 0.000000e+00 4.818862e-01 5.181138e-01 0.000000e+00
 0.000000e+00 0.000000e+00 0.000000e+00 6.848823e-01 3.151176e-01
 0.000000e+00 0.000000e+00 0.000000e+00 0.000000e+00 0.000000e+00
<ENDHMM>
~h "s"
<BEGINHMM>
<NUMSTATES> 5
<STATE> 2
<MEAN> 25
 -5.699255e+00 6.360718e+00 -1.444407e+00 1.381789e+00 1.286055e+00 -6.552317e+00 -2.784922e-01 -2.616828e-01 -9.310045e-01 -3.425568e+00 -1.738168e+00 -1.387219e+00 -3.596369e+00 2.469384e+00 -1.138079e+00 2.570619e+00 1.440157e+00 1.841935e-01 2.612992e+00 1.499892e-01 7.963778e-01 -1.749867e-01 1.511168e+00 6.357434e-01 -5.053819e-01
<VARIANCE> 25
 5.584394e+01 4.211585e+01 3.048715e+01 6.720853e+01 7.260049e+01 3.992863e+01 9.127934e+01 5.008456e+01 4.718436e+01 4.282340e+01 4.273257e+01 2.539241e+01 2.856299e+00 5.256694e+00 3.864401e+00 6.914660e+00 5.903918e+00 6.323136e+00 7.100547e+00 5.582353e+00 4.715566e+00 5.852353e+00 4.307868e+00 2.782229e+00 2.395798e+00
<GCONST> 1.123045e+02
<STATE> 3
<MEAN> 25
 -1.710990e+01 1.075592e+01 -6.619043e+00 6.816925e+00 3.132239e+00 -4.722228e+00 7.211772e+00 -9.496364e-02 1.410096e+00 -1.329854e-01 3.078724e+00 1.914899e+00 -1.383018e-01 -1.301616e-01 -1.122020e-01 8.200344e-04 -1.436843e-01 7.526635e-02 1.162864e-01 -2.937073e-02 5.911939e-02 1.253738e-01 1.510838e-01 1.321542e-01 -1.113357e-02
<VARIANCE> 25
 5.266350e+00 1.260298e+01 1.619729e+01 2.149061e+01 2.713536e+01 3.069230e+01 2.646997e+01 2.915363e+01 2.177733e+01 2.031223e+01 1.688464e+01 1.656584e+01 8.362476e-01 5.901253e-01 8.639439e-01 8.566157e-01 1.221140e+00 1.244621e+00 1.477780e+00 1.529005e+00 1.544365e+00 1.541017e+00 1.348676e+00 1.303812e+00 5.130806e-01
<GCONST> 8.208459e+01
<STATE> 4
<MEAN> 25
 -1.258939e+01 6.721403e+00 -3.467466e+00 7.295385e+00 3.486912e+00 -2.830472e+00 6.764272e+00 1.646236e+00 2.851245e+00 -3.591914e-01 4.235701e+00 2.144733e+00 2.444477e+00 -9.001723e-01 9.127092e-01 -4.215963e-01 -8.590413e-01 -2.910139e-01 -1.387383e+00 -5.244032e-01 -8.179510e-02 -2.871351e-01 -7.010080e-01 -4.997150e-01 -5.434964e-01
<VARIANCE> 25
 2.795378e+01 2.154853e+01 1.654041e+01 2.625143e+01 2.653887e+01 3.963149e+01 3.068641e+01 3.357029e+01 2.728805e+01 2.182878e+01 2.096382e+01 1.948527e+01 3.013958e+00 2.161509e+00 2.627838e+00 2.910479e+00 3.530074e+00 3.754412e+00 4.641394e+00 4.180890e+00 3.304451e+00 2.505366e+00 2.669853e+00 1.893259e+00 2.742296e+00
<GCONST> 9.892030e+01
<TRANSP> 5
 0.000000e+00 1.000000e+00 0.000000e+00 0.000000e+00 0.000000e+00
 0.000000e+00 7.758648e-01 2.241351e-01 0.000000e+00 0.000000e+00
 0.000000e+00 0.000000e+00 8.822653e-01 1.177347e-01 0.000000e+00
 0.000000e+00 0.000000e+00 0.000000e+00 6.839516e-01 3.160484e-01
 0.000000e+00 0.000000e+00 0.000000e+00 0.000000e+00 0.000000e+00
<ENDHMM>
~h "t"
<BEGINHMM>
<NUMSTATES> 5
<STATE> 2
<MEAN> 25
 4.744186e-01 2.602684e+00 1.687911e+00 3.088649e+00 4.068651e-01 -5.827380e-01 -1.949055e+00 -1.362365e-02 1.615935e+00 -2.283517e+00 -9.781767e-01 -2.201174e+00 -9.818094e-01 8.374244e-01 2.473481e-01 2.179938e+00 1.515178e+00 1.054198e+00 2.184946e+00 2.159041e-01 1.033382e+00 5.165830e-01 1.249956e+00 7.973760e-01 -3.014644e+00
<VARIANCE> 25
 1.981764e+01 3.348030e+01 3.993419e+01 5.377061e+01 6.731022e+01 4.331630e+01 7.304628e+01 5.117318e+01 4.183510e+01 3.820418e+01 3.957538e+01 3.011122e+01 1.597880e+00 5.377742e+00 3.306113e+00 6.929996e+00 4.485703e+00 3.882651e+00 5.267096e+00 5.363953e+00 3.517538e+00 4.718906e+00 4.595409e+00 2.627946e+00 5.761386e+00
<GCONST> 1.093133e+02
<STATE> 3
<MEAN> 25
 -3.176390e+00 2.825995e+00 -6.202562e-01 6.778692e+00 4.617036e+00 1.290583e+00 7.289299e+00 2.497861e+00 4.688523e+00 3.120218e+00 5.984554e+00 3.457781e+00 -1.216177e-01 -2.092947e-02 -1.972209e-01 3.941024e-02 8.576474e-03 -1.359001e-01 2.418272e-01 -5.759274e-03 5.600287e-02 2.142545e-01 2.687304e-01 1.596949e-01 -4.482137e-02
<VARIANCE> 25
 6.243538e+00 1.095710e+01 9.788508e+00 1.058629e+01 1.709543e+01 1.652287e+01 2.009595e+01 1.828688e+01 1.849809e+01 2.032138e+01 2.071583e+01 1.531925e+01 6.367617e-01 7.207380e-01 9.206201e-01 9.989295e-01 1.329633e+00 1.496546e+00 1.570815e+00 1.777471e+00 2.049953e+00 1.835135e+00 2.096452e+00 1.530987e+00 1.382095e+00
<GCONST> 8.171977e+01
<STATE> 4
<MEAN> 25
 -4.809363e+00 2.703016e+00 -1.912346e+00 5.800018e+00 3.287852e+00 -1.719603e+00 6.460044e+00 6.574679e-01 3.310626e+00 1.478983e+00 4.020680e+00 2.311932e+00 -7.214201e-02 -4.345185e-02 -3.771127e-01 -1.839200e+00 -2.124571e+00 -2.274226e+00 -2.419584e+00 -1.454028e+00 -1.044281e+00 -1.223138e+00 -1.486126e+00 -1.293330e+00 5.506126e+00
<VARIANCE> 25
 1.288348e+01 1.331451e+01 1.752084e+01 1.982385e+01 2.498070e+01 4.320969e+01 2.603967e+01 2.297099e+01 2.264699e+01 2.411278e+01 2.805040e+01 1.784373e+01 2.372193e+00 2.064329e+00 3.471142e+00 4.343042e+00 5.115200e+00 3.488770e+00 8.643520e+00 5.040658e+00 3.655849e+00 2.556590e+00 4.052856e+00 2.285856e+00 5.229223e+00
<GCONST> 9.991167e+01
<TRANSP> 5
 0.000000e+00 1.000000e+00 0.000000e+00 0.000000e+00 0.000000e+00
 0.000000e+00 6.846416e-01 3.153584e-01 0.000000e+00 0.000000e+00
 0.000000e+00 0.000000e+00 8.487341e-01 1.512659e-01 0.000000e+00
 0.000000e+00 0.000000e+00 0.000000e+00 5.690010e-01 4.309991e-01
 0.000000e+00 0.000000e+00 0.000000e+00 0.000000e+00 0.000000e+00
<ENDHMM>
~h "u"
<BEGINHMM>
<NUMSTATES> 5
<STATE> 2
<MEAN> 25
 2.223442e+00 3.532735e+00 -1.080649e+00 -8.319308e-01 -3.625765e+00 -3.952879e+00 -5.128843e+00 -6.069895e+00 -3.073794e+00 -3.223188e+00 -2.304081e+00 -1.500596e+00 2.279813e+00 -1.579802e-01 1.106990e-01 -4.046176e+00 -2.864850e+00 3.550449e-01 -3.842871e+00 -1.284792e+00 -2.057951e+00 -2.496798e-01 -4.556438e-01 -6.013633e-01 2.467614e+00
<VARIANCE> 25
 3.161729e+01 2.557594e+01 3.106237e+01 8.639237e+01 4.983458e+01 6.018704e+01 8.877090e+01 4.054390e+01 5.135187e+01 3.659695e+01 3.944790e+01 2.773267e+01 3.393837e+00 4.176035e+00 4.347717e+00 8.831847e+00 5.462102e+00 7.197200e+00 9.271135e+00 6.008442e+00 5.857391e+00 6.664691e+00 9.236440e+00 4.909604e+00 3.363561e+00
<GCONST> 1.139509e+02
<STATE> 3
<MEAN> 25
 6.753085e+00 -1.506010e-01 -1.823058e+00 -1.108375e+01 -1.121600e+01 3.094610e+00 -1.745675e+01 -8.656079e+00 -6.257149e+00 1.074518e-01 2.025337e+00 -5.715887e+00 5.867915e-01 -2.099364e-02 -4.231791e-01 -1.912267e+00 -5.926920e-01 1.798886e+00 -4.243025e-01 -3.031309e-01 -1.161984e+00 6.146486e-01 8.947604e-01 3.696129e-02 1.158509e-01
<VARIANCE> 25
 8.813330e+00 2.726959e+01 2.627071e+01 6.180482e+01 4.614115e+01 4.879445e+01 7.170717e+01 5.611814e+01 5.374231e+01 5.798481e+01 6.747324e+01 4.019067e+01 5.906399e-01 1.461405e+00 1.950586e+00 3.527808e+00 3.503748e+00 4.063331e+00 4.829947e+00 3.304666e+00 3.534177e+00 3.979048e+00 3.028198e+00 2.884548e+00 9.276841e-01
<GCONST> 1.027340e+02
<STATE> 4
<MEAN> 25
 7.899761e+00 4.250509e+00 -2.985229e+00 -1.387385e+01 -7.834217e+00 3.040792e+00 -8.965648e+00 -6.804907e+00 -9.456235e+00 -9.915640e-01 -1.603961e-01 -7.579216e-01 -2.717628e-01 4.472322e-02 1.482029e-01 8.768960e-01 6.783614e-01 -5.034186e-01 7.819585e-01 3.966155e-01 5.300557e-01 6.714256e-02 -2.706534e-01 2.026107e-01 -6.017024e-01
<VARIANCE> 25
 1.021966e+01 3.104975e+01 3.202758e+01 9.134469e+01 7.264664e+01 5.755877e+01 7.954201e+01 4.659575e+01 4.764780e+01 6.228887e+01 5.647208e+01 4.234967e+01 6.269929e-01 1.396697e+00 1.395925e+00 4.791883e+00 3.032665e+00 2.627451e+00 3.987950e+00 2.019242e+00 3.362897e+00 2.714013e+00 2.988523e+00 2.348869e+00 1.506799e+00
<GCONST> 1.025188e+02
<TRANSP> 5
 0.000000e+00 1.000000e+00 0.000000e+00 0.000000e+00 0.000000e+00
 0.000000e+00 6.467345e-01 3.532655e-01 0.000000e+00 0.000000e+00
 0.000000e+00 0.000000e+00 6.996344e-01 3.003657e-01 0.000000e+00
 0.000000e+00 0.000000e+00 0.000000e+00 8.584732e-01 1.415267e-01
 0.000000e+00 0.000000e+00 0.000000e+00 0.000000e+00 0.000000e+00
<ENDHMM>
~h "w"
<BEGINHMM>
<NUMSTATES> 5
<STATE> 2
<MEAN> 25
 7.538754e+00 4.766313e+00 -2.502573e+00 -1.157490e+01 -6.433812e+00 -2.816401e-01 -7.225413e+00 -8.232233e+00 -4.781639e+00 -6.064109e-01 3.585017e-01 -4.848526e-01 1.749190e+00 -4.289490e-01 -4.553392e-01 -3.321398e+00 -1.136390e+00 7.760382e-01 -5.636382e-01 -5.715354e-01 -9.128148e-01 1.454721e-01 -4.916687e-01 4.077239e-01 1.129887e+00
<VARIANCE> 25
 1.698567e+01 1.492450e+01 2.103679e+01 1.064236e+02 4.755972e+01 3.832868e+01 4.625114e+01 2.964248e+01 3.329824e+01 3.779754e+01 2.004775e+01 2.230234e+01 4.833071e+00 1.550274e+00 2.007258e+00 3.732085e+00 4.052285e+00 3.604280e+00 4.591806e+00 6.342700e+00 3.726787e+00 2.403444e+00 1.801422e+00 2.919555e+00 1.099353e+00
<GCONST> 1.011959e+02
<STATE> 3
<MEAN> 25
 8.332823e+00 -4.561297e+00 -5.864531e+00 -2.401272e+01 -4.300253e+00 5.308160e+00 -1.064917e+01 -4.381706e+00 -4.861854e+00 5.406796e+00 -5.566267e+00 -1.175451e+00 -4.253655e-01 -2.256918e+00 -1.630557e-01 -1.809523e-01 1.937808e+00 -1.048472e-02 3.667310e-01 4.767850e-01 1.626787e+00 3.802960e-02 -1.599309e+00 -1.209602e+00 1.298684e+00
<VARIANCE> 25
 3.340379e+00 3.147162e+01 2.172263e+01 3.398099e+01 6.864546e+01 5.503286e+01 4.145809e+01 3.023274e+01 5.171964e+01 4.551258e+01 3.463337e+01 3.019265e+01 2.106052e-01 6.158948e-01 6.331255e-01 2.506062e+00 1.483986e+00 1.752111e+00 1.789185e+00 1.824724e+00 1.636914e+00 5.553814e+00 2.891869e+00 2.047183e+00 2.891070e-01
<GCONST> 9.059561e+01
<STATE> 4
<MEAN> 25
 5.923846e+00 -1.405441e+01 -5.405442e+00 -2.001840e+01 4.898491e+00 9.595836e-01 -6.760313e+00 -2.289424e+00 2.154888e+00 -2.643743e+00 -1.388272e+01 -5.241784e+00 -3.589393e-01 -8.062297e-01 4.842574e-01 1.068355e+00 2.687459e-01 -9.448285e-01 5.862581e-01 9.908677e-01 -1.966773e-01 -1.841770e+00 -2.723355e-01 2.927425e-01 3.038175e-01
<VARIANCE> 25
 5.613430e+00 2.286477e+01 1.905176e+01 2.527319e+01 4.605242e+01 6.330646e+01 3.598903e+01 7.023048e+01 2.700903e+01 1.950280e+01 4.775943e+01 1.854483e+01 1.491591e-01 8.264408e-01 8.003585e-01 8.388777e-01 2.287037e+00 1.026526e+00 2.027159e+00 1.836468e+00 1.649544e+00 2.622261e+00 1.855069e+00 1.730060e+00 3.017918e-01
<GCONST> 8.695321e+01
<TRANSP> 5
 0.000000e+00 1.000000e+00 0.000000e+00 0.000000e+00 0.000000e+00
 0.000000e+00 7.487487e-01 2.512514e-01 0.000000e+00 0.000000e+00
 0.000000e+00 0.000000e+00 8.098896e-01 1.901104e-01 0.000000e+00
 0.000000e+00 0.000000e+00 0.000000e+00 7.632619e-01 2.367381e-01
 0.000000e+00 0.000000e+00 0.000000e+00 0.000000e+00 0.000000e+00
<ENDHMM>
~h "y"
<BEGINHMM>
<NUMSTATES> 5
<STATE> 2
<MEAN> 25
 -2.252139e+00 3.022336e+00 1.687212e+01 -5.403540e+00 -1.814074e+01 -2.887872e+00 -9.703274e+00 -6.588758e+00 -8.738173e+00 -3.979513e+00 4.220681e-01 -6.205997e+00 3.490822e-01 -8.296293e-01 -3.654261e-01 -8.107673e-02 -6.734594e-01 -9.971468e-01 -8.073969e-02 5.261682e-01 6.269534e-02 4.212362e-01 1.398159e-01 2.393802e-01 6.278555e-01
<VARIANCE> 25
 1.180469e+01 2.331094e+01 3.049229e+01 3.319541e+01 6.904259e+01 6.331773e+01 2.967635e+01 4.000973e+01 3.010495e+01 5.164892e+01 3.566997e+01 2.915772e+01 5.800344e-01 1.274236e+00 3.578787e+00 1.198415e+00 2.267359e+00 2.095366e+00 2.973122e+00 3.153311e+00 2.323632e+00 1.857144e+00 1.599267e+00 1.441446e+00 8.440092e-01
<GCONST> 9.532067e+01
<STATE> 3
<MEAN> 25
 3.767489e+00 -6.095124e+00 4.641957e+00 -9.509913e+00 -1.366445e+01 -9.090579e+00 -1.225023e+01 3.772245e+00 -1.443610e+00 3.236685e+00 -6.368835e+00 -4.424493e+00 9.253381e-01 -9.473581e-01 -2.289766e+00 -1.120172e+00 2.325903e+00 6.352125e-01 -9.300195e-01 6.107955e-01 1.818007e+00 9.445881e-01 -1.510528e+00 -6.899144e-01 1.197644e-01
<VARIANCE> 25
 1.322020e+01 1.684932e+01 3.588549e+01 5.491365e+01 6.969830e+01 4.996889e+01 6.184304e+01 3.578644e+01 4.040989e+01 4.659645e+01 7.533297e+01 2.885959e+01 5.360499e-01 9.208006e-01 1.517228e+00 1.445690e+00 3.027169e+00 3.869766e+00 3.578994e+00 4.805804e+00 2.406013e+00 3.312261e+00 2.482146e+00 2.634746e+00 2.469210e-01
<GCONST> 9.796176e+01
<STATE> 4
<MEAN> 25
 7.657765e+00 -6.113285e+00 -4.679595e+00 -1.869283e+01 -4.374367e+00 2.281741e+00 -1.536279e+01 -1.856264e+00 -2.070953e+00 6.548174e+00 -5.349111e+00 -5.107131e+00 2.118566e-01 3.040204e-01 -5.892788e-01 -7.961759e-01 6.000839e-01 9.184136e-01 3.407860e-01 -3.397216e-01 -8.447996e-01 -3.961654e-01 4.841160e-01 5.290822e-01 -4.539391e-01
<VARIANCE> 25
 7.193329e+00 1.726471e+01 3.061864e+01 3.235736e+01 7.158260e+01 5.061421e+01 8.547089e+01 2.381141e+01 3.720341e+01 4.012329e+01 6.993929e+01 5.200777e+01 2.368871e-01 3.980915e-01 6.719571e-01 1.253785e+00 1.807122e+00 2.590305e+00 1.545684e+00 1.596243e+00 1.213106e+00 1.547206e+00 1.949356e+00 1.274860e+00 2.320982e-01
<GCONST> 8.898135e+01
<TRANSP> 5
 0.000000e+00 1.000000e+00 0.000000e+00 0.000000e+00 0.000000e+00
 0.000000e+00 8.494174e-01 1.505826e-01 0.000000e+00 0.000000e+00
 0.000000e+00 0.000000e+00 7.755800e-01 2.244201e-01 0.000000e+00
 0.000000e+00 0.000000e+00 0.000000e+00 8.516611e-01 1.483389e-01
 0.000000e+00 0.000000e+00 0.000000e+00 0.000000e+00 0.000000e+00
<ENDHMM>
~h "z"
<BEGINHMM>
<NUMSTATES> 5
<STATE> 2
<MEAN> 25
 -8.036963e+00 1.200464e+01 -4.881118e+00 8.165249e+00 1.532624e+00 -8.378074e+00 4.004944e+00 -2.992887e+00 2.035429e+00 -1.852973e+00 2.901135e-01 2.834015e+00 -3.450347e-01 3.882413e-01 -1.963807e-01 1.616387e-02 -6.285569e-01 -5.846735e-01 -3.799940e-01 -5.244144e-01 -1.156540e-01 -5.241409e-01 -3.709025e-01 -3.983850e-02 1.163011e+00
<VARIANCE> 25
 2.916065e+01 2.644742e+01 1.549276e+01 2.487494e+01 4.970531e+01 3.575630e+01 5.656830e+01 3.856832e+01 4.022063e+01 3.643500e+01 3.137589e+01 1.379466e+01 1.891221e+00 2.236686e+00 1.371761e+00 1.449993e+00 1.681305e+00 2.922379e+00 4.099544e+00 2.320695e+00 3.229819e+00 2.370843e+00 2.518598e+00 1.413495e+00 1.876664e+00
<GCONST> 9.698958e+01
<STATE> 3
<MEAN> 25
 -3.695074e+00 3.987289e+00 -5.435202e-01 1.503057e+00 -1.186220e+01 -1.098801e+01 -8.432431e+00 -4.172780e+00 3.452715e-01 -5.580003e+00 -3.940653e+00 3.440687e-01 2.097081e+00 -3.458544e+00 1.922232e+00 -3.016157e+00 -2.889969e+00 1.778410e+00 -3.458767e+00 1.728166e+00 -1.118961e+00 6.570152e-01 -6.923297e-01 -1.591712e+00 1.822338e+00
<VARIANCE> 25
 1.557222e+01 3.678020e+01 1.911075e+01 2.937597e+01 6.408175e+01 1.671108e+01 6.690611e+01 5.233108e+01 2.517690e+01 1.143678e+01 2.966007e+01 1.869648e+01 1.538705e+00 1.409015e+00 2.757580e+00 1.471116e+00 7.747216e-01 2.229778e+00 2.988483e+00 6.659988e+00 4.832845e+00 3.039786e+00 1.421954e+00 1.093772e+00 3.522882e-01
<GCONST> 9.354314e+01
<STATE> 4
<MEAN> 25
 2.407046e+00 -8.783392e+00 5.338386e+00 -8.667487e+00 -2.283593e+01 -3.795046e+00 -1.504656e+01 6.237444e+00 -6.317797e+00 -1.398467e-01 -3.713010e+00 -6.852092e+00 5.134391e-01 5.582720e-02 2.062256e-01 5.043935e-02 1.034116e+00 1.095747e+00 4.616853e-01 -8.025847e-01 -2.521983e-01 4.951201e-02 1.500082e-01 -2.405531e-01 -1.146868e+00
<VARIANCE> 25
 9.915038e+00 2.289024e+01 2.111665e+01 1.755710e+01 6.774053e+01 1.129008e+01 4.201847e+01 6.297122e+01 2.766103e+01 1.628459e+01 3.369233e+01 9.619101e+00 3.501424e-01 3.974400e+00 1.975764e+00 3.005419e+00 7.180772e+00 3.499213e+00 4.882209e+00 4.508711e+00 1.821322e+00 2.797870e+00 1.145102e+00 1.577389e+00 3.854442e+00
<GCONST> 9.569517e+01
<TRANSP> 5
 0.000000e+00 1.000000e+00 0.000000e+00 0.000000e+00 0.000000e+00
 0.000000e+00 9.428886e-01 5.711144e-02 0.000000e+00 0.000000e+00
 0.000000e+00 0.000000e+00 7.378702e-01 2.621299e-01 0.000000e+00
 0.000000e+00 0.000000e+00 0.000000e+00 8.252134e-01 1.747867e-01
 0.000000e+00 0.000000e+00 0.000000e+00 0.000000e+00 0.000000e+00
<ENDHMM>
~h "aw"
<BEGINHMM>
<NUMSTATES> 5
<STATE> 2
<MEAN> 25
 4.945496e+00 -1.530255e+01 -2.639039e+00 -1.452504e+01 -3.896452e+00 1.866144e+00 -1.492338e+01 5.615922e+00 4.750696e-01 -2.386098e+00 -1.035489e+01 -7.361998e+00 2.750294e-01 -4.120999e-01 1.152167e-01 -1.822561e+00 2.832751e-01 1.405584e+00 -3.180732e-01 -8.105471e-01 -5.421878e-01 4.989055e-01 2.053043e-02 -1.270643e-01 2.086479e-01
<VARIANCE> 25
 1.005806e+01 4.201059e+01 5.887777e+00 7.144603e+01 1.729626e+01 2.630722e+01 4.131086e+01 3.153748e+01 1.946595e+01 2.374187e+01 4.564264e+01 2.859995e+01 3.363892e-01 4.212762e+00 9.427143e-01 3.372307e+00 1.613009e+00 2.588120e+00 2.592909e+00 4.126721e+00 3.872174e+00 1.920657e+00 6.489443e+00 2.131502e+00 2.002551e+00
<GCONST> 9.527026e+01
<STATE> 3
<MEAN> 25
 3.982163e+00 -9.801529e+00 -2.621385e+00 -7.923297e+00 7.024349e-01 4.891773e+00 -8.630321e+00 -5.190044e+00 -4.909435e-01 -2.133449e+00 -2.709860e+00 -1.815535e+00 1.048592e+00 -3.687571e+00 -3.747201e-01 -3.893793e+00 -1.993610e-01 1.888948e+00 -2.953156e+00 -1.694933e+00 -4.932018e-01 -1.076846e+00 -1.603057e+00 -6.005387e-01 4.192092e+00
<VARIANCE> 25
 2.270032e+01 8.667294e+01 9.408719e+00 1.586972e+02 4.043767e+01 2.895978e+01 1.005958e+02 2.986916e+01 2.570454e+01 5.625396e+01 3.501264e+01 2.099312e+01 1.885411e+00 1.115808e+01 1.114264e+00 9.050377e+00 2.074326e+00 3.084692e+00 5.704879e+00 4.717477e+00 2.416243e+00 1.008002e+01 5.079652e+00 2.947525e+00 1.164068e+01
<GCONST> 1.086496e+02
<STATE> 4
<MEAN> 25
 7.182619e+00 -5.988842e+00 -4.230651e+00 -2.023869e+01 -5.983704e+00 4.248217e+00 -8.569294e+00 -1.919056e+00 -3.656348e+00 -2.485309e+00 -5.490137e+00 -1.623652e+00 -8.639114e-02 8.458096e-01 3.290137e-02 3.091433e-01 2.304574e-03 -3.980259e-01 2.225623e-01 2.834114e-02 -2.468376e-01 1.206202e-01 1.183812e-01 1.011632e-02 -4.352161e-01
<VARIANCE> 25
 7.621536e+00 1.061805e+02 1.055077e+01 7.208456e+01 4.987236e+01 4.088811e+01 5.628746e+01 3.405844e+01 4.684255e+01 2.828749e+01 1.525736e+01 1.995883e+01 5.643901e-01 3.293028e+00 8.716100e-01 2.467800e+00 2.733935e+00 1.726861e+00 1.321790e+00 1.713397e+00 2.065677e+00 2.060700e+00 1.459725e+00 1.930979e+00 1.015619e+00
<GCONST> 9.361939e+01
<TRANSP> 5
 0.000000e+00 1.000000e+00 0.000000e+00 0.000000e+00 0.000000e+00
 0.000000e+00 8.420588e-01 1.579413e-01 0.000000e+00 0.000000e+00
 0.000000e+00 0.000000e+00 5.605208e-01 4.394793e-01 0.000000e+00
 0.000000e+00 0.000000e+00 0.000000e+00 9.316884e-01 6.831162e-02
 0.000000e+00 0.000000e+00 0.000000e+00 0.000000e+00 0.000000e+00
<ENDHMM>
~h "ax"
<BEGINHMM>
<NUMSTATES> 5
<STATE> 2
<MEAN> 25
 -5.126621e+00 2.648258e+00 -1.304377e+00 4.605854e+00 5.134607e-01 -2.818032e+00 3.411730e+00 -1.088524e-01 9.008027e-01 -8.772318e-01 2.450031e+00 1.101971e+00 5.315704e-01 -4.479350e-01 -1.889754e-01 -1.054898e+00 -9.200202e-01 -6.551217e-01 -1.113731e+00 -1.919460e-01 -1.997510e-01 -4.826042e-01 -2.496920e-01 -6.952543e-01 2.344688e+00
<VARIANCE> 25
 4.244386e+01 1.935983e+01 3.678683e+01 3.094418e+01 5.649422e+01 4.485640e+01 4.339146e+01 5.500011e+01 4.386574e+01 3.739391e+01 4.913829e+01 3.291634e+01 3.288552e+00 1.790312e+00 2.686969e+00 6.180957e+00 4.528728e+00 3.953815e+00 4.737848e+00 4.223913e+00 3.859575e+00 4.386030e+00 5.192124e+00 3.533818e+00 7.831798e+00
<GCONST> 1.083630e+02
<STATE> 3
<MEAN> 25
 -2.293923e-01 3.101684e+00 -1.413505e+00 1.434904e+00 -3.081146e+00 -4.927889e+00 -1.209844e+00 -1.023788e+00 2.917887e-01 -3.219161e+00 2.406258e-01 -2.765455e+00 2.239953e+00 -2.350615e+00 -1.284167e-01 -3.764779e+00 -1.946765e+00 -2.841600e-01 -3.191647e+00 4.984023e-01 1.614437e-03 3.525158e-01 -1.462200e+00 -9.308693e-01 4.026531e+00
<VARIANCE> 25
 2.458090e+01 3.241145e+01 3.327778e+01 4.342492e+01 5.470219e+01 3.692889e+01 4.216451e+01 6.161822e+01 4.560159e+01 3.162967e+01 3.381182e+01 2.344543e+01 5.519754e+00 2.634506e+00 4.377204e+00 8.110406e+00 6.728220e+00 6.075002e+00 1.043907e+01 7.929071e+00 6.915029e+00 5.746798e+00 7.543184e+00 3.931473e+00 6.764296e+00
<GCONST> 1.126831e+02
<STATE> 4
<MEAN> 25
 4.882115e+00 -4.738457e+00 -3.362323e-01 -8.000542e+00 -6.804805e+00 -3.486257e+00 -9.435318e+00 2.158480e+00 -2.047926e-01 5.766916e-02 -3.447458e+00 -3.477014e+00 1.445545e+00 -2.696304e+00 2.247179e-01 -2.688887e+00 -1.092670e+00 4.211016e-01 -2.360117e+00 1.638211e+00 -9.180063e-02 7.181206e-01 -1.612710e+00 -3.088854e-01 2.089670e+00
<VARIANCE> 25
 1.350553e+01 3.490318e+01 3.959890e+01 6.526041e+01 6.613594e+01 4.962751e+01 7.549915e+01 9.800507e+01 6.153354e+01 4.850601e+01 4.851989e+01 2.374984e+01 3.206361e+00 3.651112e+00 3.459210e+00 6.488434e+00 5.588549e+00 5.468330e+00 8.989869e+00 7.586789e+00 4.711462e+00 4.768294e+00 5.474283e+00 3.582719e+00 3.607853e+00
<GCONST> 1.126007e+02
<TRANSP> 5
 0.000000e+00 1.000000e+00 0.000000e+00 0.000000e+00 0.000000e+00
 0.000000e+00 5.645882e-01 4.354118e-01 0.000000e+00 0.000000e+00
 0.000000e+00 0.000000e+00 8.902492e-02 9.109750e-01 0.000000e+00
 0.000000e+00 0.000000e+00 0.000000e+00 5.226211e-01 4.773789e-01
 0.000000e+00 0.000000e+00 0.000000e+00 0.000000e+00 0.000000e+00
<ENDHMM>
~h "ay"
<BEGINHMM>
<NUMSTATES> 5
<STATE> 2
<MEAN> 25
 3.897911e+00 -4.049407e+00 -3.885561e-01 -5.458011e+00 3.958174e-01 -3.354490e+00 -8.355816e+00 5.844476e-01 -3.483697e-01 -2.724669e+00 -6.425494e+00 -3.053029e+00 4.840886e-01 -2.480463e+00 -3.772271e-01 -2.041315e+00 6.293178e-02 4.562328e-01 -1.114728e+00 1.828093e+00 -6.765488e-01 -1.146296e+00 -1.518889e+00 -1.677576e-01 2.679914e+00
<VARIANCE> 25
 1.199406e+01 6.308372e+01 4.343030e+01 7.374022e+01 5.926550e+01 3.547006e+01 6.298724e+01 7.233116e+01 3.772263e+01 3.978249e+01 3.970821e+01 2.341975e+01 2.673364e+00 3.354842e+00 4.123531e+00 4.066192e+00 4.743086e+00 4.589644e+00 7.774365e+00 7.218821e+00 4.536648e+00 4.127286e+00 3.996160e+00 3.775261e+00 2.763398e+00
<GCONST> 1.096525e+02
<STATE> 3
<MEAN> 25
 6.230378e-01 -6.534502e+00 8.555696e+00 -1.239107e+01 -1.035077e+01 -7.609188e+00 -6.953106e+00 4.618785e+00 -6.850518e+00 -3.622985e-01 -7.107920e+00 6.732460e-01 -1.693481e-02 -1.434312e-01 2.425902e-01 -5.316862e-02 -4.341178e-01 3.557319e-02 1.932909e-01 1.133826e-01 -2.550194e-01 2.346783e-02 -1.334710e-01 1.122362e-01 3.024565e-02
<VARIANCE> 25
 1.085441e+01 5.272169e+01 7.418511e+01 3.055174e+01 1.067081e+02 8.225060e+01 6.495774e+01 5.655521e+01 4.341959e+01 6.131162e+01 7.197524e+01 2.477227e+01 3.369259e-01 2.499372e+00 2.309535e+00 8.035784e-01 3.772365e+00 1.615477e+00 3.894667e+00 3.577731e+00 2.321175e+00 3.515817e+00 3.823450e+00 1.346425e+00 4.743595e-01
<GCONST> 1.005646e+02
<STATE> 4
<MEAN> 25
 3.915572e+00 -1.272817e+01 2.673944e+00 -1.213788e+01 -8.298099e+00 1.289236e+00 -8.583607e+00 7.720948e+00 -5.199304e+00 -5.313415e+00 -8.345183e+00 -1.757734e+00 -2.525731e-01 9.122401e-01 8.708680e-01 1.824549e-01 -1.280071e+00 -2.625706e-01 2.091198e-01 -1.884443e-01 -4.605882e-01 4.933192e-01 6.275734e-01 -1.855281e-01 -4.093896e-01
<VARIANCE> 25
 1.338310e+01 6.728719e+01 4.651012e+01 1.603715e+01 1.269906e+02 3.645110e+01 2.103993e+01 3.960648e+01 3.830693e+01 4.638224e+01 3.397371e+01 1.609176e+01 2.501957e-01 1.537416e+00 1.114940e+00 9.872380e-01 2.969965e+00 1.215359e+00 1.647892e+00 2.707653e+00 1.193899e+00 2.709511e+00 2.035333e+00 1.053929e+00 4.950608e-01
<GCONST> 9.147023e+01
<TRANSP> 5
 0.000000e+00 1.000000e+00 0.000000e+00 0.000000e+00 0.000000e+00
 0.000000e+00 7.655213e-01 2.344787e-01 0.000000e+00 0.000000e+00
 0.000000e+00 0.000000e+00 8.515747e-01 1.484253e-01 0.000000e+00
 0.000000e+00 0.000000e+00 0.000000e+00 9.122696e-01 8.773039e-02
 0.000000e+00 0.000000e+00 0.000000e+00 0.000000e+00 0.000000e+00
<ENDHMM>
~h "ey"
<BEGINHMM>
<NUMSTATES> 5
<STATE> 2
<MEAN> 25
 3.880041e+00 -8.294197e+00 2.507522e+00 -6.700105e+00 -1.428422e+01 -4.268049e+00 -6.197351e+00 -1.573261e-01 -5.502841e+00 -2.499171e+00 -3.098197e+00 -7.002098e+00 4.307173e-01 -1.787707e+00 1.513404e+00 -2.640852e+00 -2.847061e+00 9.255547e-01 -2.138906e-01 2.474891e+00 -1.439679e+00 1.082887e+00 -6.738656e-01 -8.534432e-02 1.782033e+00
<VARIANCE> 25
 8.133355e+00 3.159183e+01 1.825955e+01 3.190783e+01 6.104296e+01 4.145400e+01 3.770897e+01 1.162866e+02 2.521215e+01 2.854299e+01 2.019988e+01 3.639602e+01 2.808656e+00 3.649553e+00 2.810926e+00 2.415080e+00 4.965019e+00 3.224057e+00 6.588338e+00 7.040503e+00 3.861032e+00 2.312892e+00 2.137372e+00 2.482281e+00 2.821605e+00
<GCONST> 1.030124e+02
<STATE> 3
<MEAN> 25
 1.593436e+00 -8.333405e+00 1.015698e+01 -1.512714e+01 -2.258184e+01 -8.630023e-01 -7.052516e+00 4.751949e+00 -1.162580e+01 4.842304e+00 -5.785432e+00 -4.125501e+00 -2.165929e-01 8.105126e-01 7.088686e-01 -1.913046e-01 2.254230e-01 3.361715e-01 -5.315794e-01 -7.597554e-01 -3.876020e-01 1.500099e-01 -2.071745e-01 1.149182e-01 -3.473161e-01
<VARIANCE> 25
 6.648061e+00 1.844247e+01 1.379860e+01 7.104207e+00 1.814816e+01 4.248966e+01 2.840187e+01 1.184897e+01 1.092771e+01 2.052385e+01 8.847584e+00 2.384845e+01 2.531191e-01 8.425230e-01 4.125289e-01 6.362357e-01 1.054687e+00 9.250622e-01 1.067675e+00 1.374245e+00 8.967699e-01 1.713102e+00 8.254939e-01 8.951072e-01 1.445789e-01
<GCONST> 7.424114e+01
<STATE> 4
<MEAN> 25
 -5.370143e-02 4.929021e+00 1.497397e+01 -7.384416e+00 -7.827416e+00 6.360602e-01 -7.838713e+00 -3.067983e+00 -8.825784e+00 2.741549e-01 -3.322015e+00 -2.885300e+00 -1.728638e-01 4.466293e-01 -4.671288e-01 1.210673e+00 1.630019e+00 3.858357e-01 9.098308e-01 -4.240076e-01 7.618875e-01 -8.553796e-01 3.788886e-01 1.645471e-01 -1.291444e+00
<VARIANCE> 25
 7.287992e+00 3.545889e+01 3.404334e+01 6.858779e+01 1.126331e+02 2.209681e+01 6.178830e+01 1.816959e+01 3.907788e+01 2.305622e+01 1.403818e+01 2.191073e+01 4.713133e-01 1.955180e+00 2.522819e+00 1.627360e+00 1.535428e+00 1.459255e+00 2.153985e+00 2.690125e+00 1.598339e+00 2.034385e+00 1.373533e+00 1.395167e+00 3.718229e-01
<GCONST> 9.136701e+01
<TRANSP> 5
 0.000000e+00 1.000000e+00 0.000000e+00 0.000000e+00 0.000000e+00
 0.000000e+00 8.033082e-01 1.966917e-01 0.000000e+00 0.000000e+00
 0.000000e+00 0.000000e+00 8.967756e-01 1.032244e-01 0.000000e+00
 0.000000e+00 0.000000e+00 0.000000e+00 8.307045e-01 1.692955e-01
 0.000000e+00 0.000000e+00 0.000000e+00 0.000000e+00 0.000000e+00
<ENDHMM>
~h "ng"
<BEGINHMM>
<NUMSTATES> 5
<STATE> 2
<MEAN> 25
 5.722980e+00 -8.260009e+00 -3.111762e-01 -9.038379e+00 -6.730198e-01 6.197159e-01 -8.927961e+00 4.450375e-02 -1.875168e+00 -7.274435e-01 -6.955433e+00 -7.044784e+00 1.163351e-01 1.058584e+00 6.645540e-01 5.775630e-01 -1.201406e+00 1.267876e-02 -4.649318e-01 -2.943658e-01 -2.802805e-01 5.023636e-01 8.883078e-02 -3.159781e-01 -6.283011e-01
<VARIANCE> 25
 8.591176e+00 3.346043e+01 3.919138e+01 3.716523e+01 3.439043e+01 8.235719e+01 4.473241e+01 4.678666e+01 4.826331e+01 3.051905e+01 5.879878e+01 3.412191e+01 3.874232e-01 1.045664e+00 1.449329e+00 1.729086e+00 2.677656e+00 3.870431e+00 3.160669e+00 3.087692e+00 2.636489e+00 1.806351e+00 2.679707e+00 2.781899e+00 4.740332e-01
<GCONST> 9.684083e+01
<STATE> 3
<MEAN> 25
 5.988709e+00 -2.788910e+00 1.433367e+00 -8.270537e+00 -5.616753e+00 5.454721e+00 -5.401513e+00 -3.485391e+00 -5.465676e+00 -1.949243e+00 -4.788200e+00 -4.024195e+00 -4.836854e-02 1.282358e+00 4.244992e-01 7.374348e-02 -8.965517e-01 2.230425e-01 7.522300e-01 -7.106122e-01 -2.504361e-01 -3.644260e-01 3.495860e-01 6.930928e-01 -6.200969e-01
<VARIANCE> 25
 8.147607e+00 1.828128e+01 3.081712e+01 2.585078e+01 3.189696e+01 3.555571e+01 9.517085e+01 6.805879e+01 3.085247e+01 4.872218e+01 4.834908e+01 4.842305e+01 2.287933e-01 8.517721e-01 1.263378e+00 1.632148e+00 1.282035e+00 1.817496e+00 1.564387e+00 2.533316e+00 1.935183e+00 1.666124e+00 1.320665e+00 1.702941e+00 2.713026e-01
<GCONST> 9.050228e+01
<STATE> 4
<MEAN> 25
 4.046923e+00 5.820828e+00 6.336308e-01 -5.408185e+00 -8.848329e+00 -3.478580e-01 4.667143e-01 -6.947595e+00 -6.235545e+00 -2.113610e+00 -2.878771e+00 -2.399701e+00 -8.469238e-01 1.131091e+00 -1.290535e-01 8.622721e-01 4.632384e-01 -6.155185e-01 9.931375e-01 -4.612635e-01 4.458225e-01 -9.083113e-02 6.336579e-01 5.928844e-01 -8.740813e-01
<VARIANCE> 25
 9.633651e+00 2.371997e+01 2.539388e+01 2.896324e+01 5.588656e+01 6.021486e+01 7.709542e+01 5.314148e+01 4.834669e+01 4.668730e+01 3.337608e+01 3.052920e+01 1.458686e+00 3.132162e+00 2.248015e+00 4.917464e+00 4.967316e+00 4.319793e+00 6.832471e+00 5.955199e+00 5.940938e+00 3.604069e+00 3.407291e+00 2.574648e+00 1.748538e+00
<GCONST> 1.055552e+02
<TRANSP> 5
 0.000000e+00 1.000000e+00 0.000000e+00 0.000000e+00 0.000000e+00
 0.000000e+00 6.447134e-01 3.552866e-01 0.000000e+00 0.000000e+00
 0.000000e+00 0.000000e+00 7.689876e-01 2.310125e-01 0.000000e+00
 0.000000e+00 0.000000e+00 0.000000e+00 7.795058e-01 2.204942e-01
 0.000000e+00 0.000000e+00 0.000000e+00 0.000000e+00 0.000000e+00
<ENDHMM>
~h "ny"
<BEGINHMM>
<NUMSTATES> 5
<STATE> 2
<MEAN> 25
 2.424095e+00 5.535307e+00 4.392181e+00 -3.703704e+00 -6.361509e+00 1.181263e-01 -1.538779e+00 -3.518107e+00 -8.263695e+00 3.453407e-01 4.158965e+00 -2.417867e+00 4.687178e-01 -1.126364e+00 7.156146e-01 -1.572103e+00 -1.440521e+00 2.423498e-01 -8.778319e-01 1.126558e+00 -1.170761e+00 -6.343924e-01 -7.809885e-01 -3.677883e-01 2.192595e+00
<VARIANCE> 25
 2.505474e+01 5.354919e+01 2.939459e+01 9.169721e+01 6.852603e+01 3.644431e+01 6.291325e+01 7.340092e+01 6.640417e+01 4.330978e+01 6.466776e+01 3.311583e+01 3.657672e+00 5.872652e+00 2.309156e+00 5.073142e+00 3.596374e+00 4.148798e+00 4.224072e+00 9.542607e+00 7.083148e+00 3.508293e+00 4.746821e+00 3.570965e+00 1.589127e+00
<GCONST> 1.113756e+02
<STATE> 3
<MEAN> 25
 3.485286e+00 -1.274685e+01 3.201178e+00 -1.066519e+01 -6.815012e+00 4.536419e+00 -7.137187e+00 1.032604e+01 -5.894142e+00 -5.138207e+00 -7.615609e+00 -8.852709e-01 2.545588e-01 -9.619441e-01 -1.345857e+00 3.122276e-01 2.012366e+00 1.724055e-01 -4.192298e-01 -5.524294e-01 8.649075e-01 -5.035058e-01 -7.815900e-01 3.272150e-02 2.857278e-01
<VARIANCE> 25
 9.237774e+00 1.162472e+01 1.878308e+01 1.979594e+01 3.108183e+01 3.596365e+01 2.705479e+01 2.960283e+01 4.620855e+01 1.101276e+01 4.477389e+01 1.340929e+01 1.083017e-01 1.201347e+00 1.470132e+00 9.447477e-01 2.346659e+00 7.727571e-01 1.826236e+00 1.614734e+00 2.001482e+00 2.075919e+00 2.924444e+00 1.378257e+00 1.895967e-01
<GCONST> 8.399756e+01
<STATE> 4
<MEAN> 25
 4.960371e+00 -6.919601e+00 1.985287e+00 -7.790943e+00 -8.546321e+00 2.184507e-01 -7.033882e+00 1.520367e+00 -8.764086e+00 -8.337474e+00 -3.731188e+00 -5.862987e+00 1.057506e-01 8.198307e-01 -1.333613e-01 -2.860527e-03 8.692119e-01 1.164496e-02 3.618283e-01 -1.566238e+00 -3.137439e-03 5.710067e-01 5.527844e-01 -7.500356e-01 -5.185395e-01
<VARIANCE> 25
 7.926675e+00 3.700171e+01 1.312225e+01 2.128055e+01 5.529274e+01 2.687689e+01 1.731604e+01 1.048985e+02 4.184686e+01 2.690095e+01 3.750423e+01 2.875408e+01 7.169121e-01 1.159183e+00 1.797082e+00 1.912183e+00 1.964708e+00 2.132441e+00 2.988916e+00 5.602901e+00 3.026789e+00 1.666556e+00 2.737654e+00 1.265652e+00 1.144752e+00
<GCONST> 9.437444e+01
<TRANSP> 5
 0.000000e+00 1.000000e+00 0.000000e+00 0.000000e+00 0.000000e+00
 0.000000e+00 8.950219e-01 1.049780e-01 0.000000e+00 0.000000e+00
 0.000000e+00 0.000000e+00 7.795063e-01 2.204936e-01 0.000000e+00
 0.000000e+00 0.000000e+00 0.000000e+00 6.527376e-01 3.472624e-01
 0.000000e+00 0.000000e+00 0.000000e+00 0.000000e+00 0.000000e+00
<ENDHMM>
~h "sp"
<BEGINHMM>
<NUMSTATES> 3
<STATE> 2
~s "silst"
<TRANSP> 3
 0.000000e+00 6.302878e-01 3.697122e-01
 0.000000e+00 9.597347e-01 4.026526e-02
 0.000000e+00 0.000000e+00 0.000000e+00
<ENDHMM>
~h "sil"
<BEGINHMM>
<NUMSTATES> 5
<STATE> 2
<MEAN> 25
 -3.218268e+00 2.648633e+00 -1.467886e+00 7.503649e+00 5.369531e+00 -4.804835e-02 8.489552e+00 2.442548e+00 4.599178e+00 4.143045e+00 6.498453e+00 4.055364e+00 2.637575e-02 2.794709e-03 -3.073441e-02 1.732234e-02 -4.055357e-02 -5.214079e-03 1.513804e-04 -3.427747e-02 -1.570911e-03 2.710899e-02 7.655985e-02 4.816496e-02 -8.147172e-02
<VARIANCE> 25
 4.467839e+00 1.716460e+01 9.484249e+00 1.156205e+01 1.624006e+01 1.503270e+01 2.223113e+01 2.231205e+01 1.680102e+01 2.218074e+01 2.235117e+01 1.360169e+01 1.884857e-01 3.204753e-01 4.807964e-01 6.203747e-01 9.214612e-01 1.041655e+00 1.192469e+00 1.407425e+00 1.451988e+00 1.443935e+00 1.389869e+00 1.232763e+00 1.275148e-01
<GCONST> 7.400573e+01
<STATE> 3
~s "silst"
<STATE> 4
<MEAN> 25
 -4.908612e+00 2.789853e+00 -1.869178e+00 5.929516e+00 2.584332e+00 -2.445226e-01 6.198214e+00 -5.342997e-01 2.872207e+00 2.586578e+00 4.724230e+00 2.676467e+00 -6.118404e-02 -3.767554e-02 1.093478e-02 -7.721671e-02 3.546029e-02 -9.085122e-02 -1.080156e-01 4.190139e-03 -5.834619e-02 -4.882583e-02 -3.384207e-02 -2.279647e-02 1.369255e-01
<VARIANCE> 25
 2.230062e+01 1.905527e+01 2.394726e+01 2.281004e+01 3.084675e+01 3.115813e+01 2.842326e+01 3.499560e+01 3.017133e+01 2.471539e+01 2.618673e+01 2.015421e+01 1.895575e+00 1.435973e+00 1.525194e+00 1.889539e+00 2.007923e+00 2.270754e+00 2.840749e+00 2.443036e+00 2.448235e+00 2.159124e+00 2.139356e+00 1.910251e+00 1.411903e+00
<GCONST> 9.388753e+01
<TRANSP> 5
 0.000000e+00 1.000000e+00 0.000000e+00 0.000000e+00 0.000000e+00
 0.000000e+00 8.610674e-01 9.784142e-02 4.109117e-02 0.000000e+00
 0.000000e+00 0.000000e+00 9.745831e-01 2.541686e-02 0.000000e+00
 0.000000e+00 1.323144e-01 0.000000e+00 7.498354e-01 1.178501e-01
 0.000000e+00 0.000000e+00 0.000000e+00 0.000000e+00 0.000000e+00
<ENDHMM>
