~o
<STREAMINFO> 1 25
<VECSIZE> 25<NULLD><MFCC_D_N_Z_0><DIAGC>
~h "a"
<BEGINHMM>
<NUMSTATES> 5
<STATE> 2
<MEAN> 25
 1.527536e+00 -5.814279e+00 -6.597717e-01 -4.205151e+00 9.185780e-01 1.471063e-01 -1.746023e+00 2.158602e+00 -5.700580e-01 -2.334807e+00 -4.816002e+00 -9.234095e-01 1.094191e-02 -4.294195e-01 -2.770581e-02 2.072736e-02 1.248332e-01 2.978580e-01 -4.031462e-02 1.669738e-01 -9.384561e-02 -2.997433e-01 -1.294024e-02 1.285940e-01 1.973198e-01
<VARIANCE> 25
 2.543627e+01 9.093069e+01 3.536606e+01 9.641264e+01 5.168190e+01 4.467506e+01 6.392960e+01 5.226886e+01 4.769201e+01 4.265720e+01 7.729129e+01 2.743562e+01 1.314420e+00 3.001804e+00 1.671962e+00 3.063548e+00 3.118301e+00 2.962237e+00 2.660710e+00 3.238684e+00 2.718064e+00 2.822461e+00 2.958111e+00 1.856930e+00 2.862439e+00
<GCONST> 1.051395e+02
<STATE> 3
<MEAN> 25
 1.737827e+00 -6.319560e+00 -7.780010e-01 -3.726705e+00 1.124442e+00 3.555487e-01 -1.758229e+00 2.432383e+00 -6.394539e-01 -2.714637e+00 -4.606895e+00 -6.347785e-01 2.135793e-02 -1.688109e-02 -3.864837e-02 2.206517e-01 7.716055e-02 6.433143e-02 1.589902e-02 6.066244e-02 -5.693357e-02 -1.045874e-01 9.519496e-02 3.565875e-02 -1.628487e-01
<VARIANCE> 25
 2.277821e+01 9.293193e+01 3.411835e+01 9.204236e+01 5.183338e+01 4.495389e+01 6.652242e+01 5.234887e+01 4.919922e+01 4.439463e+01 7.714536e+01 2.732030e+01 8.701679e-01 2.513200e+00 1.408478e+00 2.392172e+00 2.585109e+00 2.307207e+00 2.227215e+00 3.180553e+00 2.397750e+00 2.483560e+00 2.573950e+00 1.702150e+00 2.220328e+00
<GCONST> 1.027082e+02
<STATE> 4
<MEAN> 25
 1.329346e+00 -4.561416e+00 -9.932656e-01 -1.593144e+00 1.942441e+00 6.202741e-01 -5.657614e-01 2.041826e+00 1.698960e-01 -1.981217e+00 -3.151873e+00 -5.695047e-01 -1.661874e-02 4.205146e-01 -3.146620e-02 2.731851e-01 -3.500691e-02 -4.427408e-02 4.018074e-02 -1.175502e-01 -2.570384e-02 4.907105e-02 2.202625e-01 -9.879361e-02 -3.835965e-01
<VARIANCE> 25
 2.250808e+01 9.196392e+01 2.395043e+01 9.562691e+01 3.970053e+01 3.681601e+01 7.127303e+01 4.757365e+01 4.684603e+01 4.611258e+01 8.414470e+01 2.939698e+01 6.884312e-01 2.224306e+00 1.134712e+00 1.931016e+00 1.925783e+00 1.878574e+00 2.053504e+00 2.963357e+00 2.240868e+00 2.167932e+00 2.289072e+00 1.640870e+00 1.887187e+00
<GCONST> 1.000675e+02
<TRANSP> 5
 0.000000e+00 1.000000e+00 0.000000e+00 0.000000e+00 0.000000e+00
 0.000000e+00 6.111158e-01 3.888842e-01 0.000000e+00 0.000000e+00
 0.000000e+00 0.000000e+00 6.093215e-01 3.906785e-01 0.000000e+00
 0.000000e+00 0.000000e+00 0.000000e+00 8.036051e-01 1.963949e-01
 0.000000e+00 0.000000e+00 0.000000e+00 0.000000e+00 0.000000e+00
<ENDHMM>
~h "b"
<BEGINHMM>
<NUMSTATES> 5
<STATE> 2
<MEAN> 25
 2.374569e-02 3.461024e-01 -9.705328e-01 1.762583e+00 3.753605e+00 -1.554174e-01 3.732236e+00 9.509052e-01 1.694020e+00 1.866774e+00 2.781672e-01 1.907899e+00 4.055372e-02 3.468785e-02 3.592258e-02 -2.087315e-01 -1.251255e-01 -3.986327e-02 4.827111e-02 -6.442741e-02 -8.134635e-02 -1.089165e-01 -8.315904e-02 -6.186289e-02 1.567588e-01
<VARIANCE> 25
 1.805357e+01 5.594991e+01 1.646641e+01 9.206097e+01 5.023271e+01 2.498571e+01 7.277563e+01 3.412885e+01 2.900729e+01 4.460055e+01 5.973558e+01 3.584903e+01 8.286318e-01 2.079185e+00 1.156080e+00 3.370003e+00 1.890175e+00 1.801857e+00 2.539721e+00 2.246367e+00 2.300227e+00 2.628290e+00 2.509439e+00 1.920713e+00 2.847878e+00
<GCONST> 9.926501e+01
<STATE> 3
<MEAN> 25
 3.540375e-01 2.145749e-01 -8.613969e-01 7.637535e-01 3.188888e+00 -2.250013e-01 3.248682e+00 4.599555e-01 1.250175e+00 1.328747e+00 -2.005672e-01 1.420677e+00 9.691671e-02 6.941128e-02 9.838688e-02 -1.512427e-01 -1.631361e-01 -7.336600e-02 -9.959731e-02 -1.326172e-01 -1.152588e-01 -1.029684e-01 -9.651159e-02 -1.115107e-01 1.757534e-01
<VARIANCE> 25
 1.970465e+01 5.789568e+01 1.911735e+01 1.039954e+02 6.045103e+01 2.622192e+01 7.947884e+01 3.766430e+01 3.114166e+01 4.793202e+01 6.101194e+01 3.954164e+01 8.479172e-01 2.275051e+00 1.058757e+00 4.213357e+00 1.976816e+00 1.831697e+00 2.569616e+00 2.156591e+00 1.957483e+00 2.350608e+00 2.534490e+00 1.816061e+00 3.489326e+00
<GCONST> 1.005049e+02
<STATE> 4
<MEAN> 25
 8.725237e-01 3.714929e-01 -5.807197e-01 5.454624e-02 2.764473e+00 -4.822951e-01 2.888772e+00 -2.331272e-01 4.597558e-01 7.542405e-01 -7.698042e-01 9.109790e-01 9.288677e-02 1.259133e-01 9.761410e-02 8.889103e-02 -1.890201e-01 -6.374072e-02 -1.106658e-01 -1.116621e-01 -1.711401e-01 -1.572876e-01 -2.787440e-02 -1.023761e-01 8.108851e-02
<VARIANCE> 25
 2.155552e+01 6.131678e+01 2.126052e+01 1.133325e+02 7.632846e+01 2.862496e+01 8.430106e+01 4.194317e+01 3.471074e+01 5.240788e+01 6.117687e+01 4.024083e+01 7.888162e-01 2.448112e+00 1.113299e+00 4.239319e+00 2.171725e+00 1.784175e+00 2.551019e+00 2.211933e+00 2.013641e+00 2.410257e+00 2.530331e+00 1.867580e+00 3.453278e+00
<GCONST> 1.017622e+02
<TRANSP> 5
 0.000000e+00 1.000000e+00 0.000000e+00 0.000000e+00 0.000000e+00
 0.000000e+00 6.063086e-01 3.936914e-01 0.000000e+00 0.000000e+00
 0.000000e+00 0.000000e+00 5.884202e-01 4.115798e-01 0.000000e+00
 0.000000e+00 0.000000e+00 0.000000e+00 6.881611e-01 3.118390e-01
 0.000000e+00 0.000000e+00 0.000000e+00 0.000000e+00 0.000000e+00
<ENDHMM>
~h "c"
<BEGINHMM>
<NUMSTATES> 5
<STATE> 2
<MEAN> 25
 -1.166968e+00 8.962077e-02 -1.666602e+00 2.722034e+00 2.364146e+00 6.482861e-01 2.911551e+00 1.611257e+00 2.032334e+00 6.108290e-02 1.369457e+00 1.516732e-01 -2.678173e-01 -1.823159e-01 -3.016979e-02 -3.534059e-01 -1.118467e-01 -1.442133e-01 5.489442e-02 6.536263e-02 -1.980322e-01 -2.163008e-01 -1.875918e-01 -1.091002e-01 7.832136e-01
<VARIANCE> 25
 2.372749e+01 5.650221e+01 2.084974e+01 8.675021e+01 5.082669e+01 2.629263e+01 4.754257e+01 2.576543e+01 3.472715e+01 3.920921e+01 5.549862e+01 2.236669e+01 2.562244e+00 3.569927e+00 1.800170e+00 4.431129e+00 3.232522e+00 2.469216e+00 2.401322e+00 2.739104e+00 2.400710e+00 2.075845e+00 2.899750e+00 1.859488e+00 5.270948e+00
<GCONST> 1.025010e+02
<STATE> 3
<MEAN> 25
 -1.640874e+00 -3.937769e-01 -1.419420e+00 1.718351e+00 1.851454e+00 2.339919e-01 2.914150e+00 1.466000e+00 1.407264e+00 -3.860436e-01 9.778923e-01 1.000366e-01 -6.624491e-02 -3.390764e-01 1.994810e-02 -5.045105e-01 -2.037134e-01 -1.598523e-01 -6.705872e-02 4.713061e-02 -3.030667e-01 -2.977411e-01 -3.096213e-01 -2.659103e-02 8.570826e-01
<VARIANCE> 25
 2.909710e+01 5.818656e+01 2.022443e+01 9.135753e+01 5.615239e+01 2.899099e+01 4.344461e+01 2.657970e+01 4.004120e+01 4.280164e+01 6.029352e+01 2.338106e+01 3.132794e+00 3.929913e+00 1.702241e+00 4.503583e+00 3.639254e+00 2.869462e+00 2.605598e+00 2.406980e+00 2.408238e+00 2.142502e+00 3.229197e+00 2.041667e+00 5.496924e+00
<GCONST> 1.040076e+02
<STATE> 4
<MEAN> 25
 -1.558789e+00 -2.612384e+00 -1.511500e+00 -8.546190e-01 5.859751e-01 -5.023571e-01 2.139910e+00 1.598318e+00 -4.910053e-01 -2.246299e+00 -7.150552e-01 -9.508604e-02 3.209639e-01 -5.770333e-01 -5.794324e-03 -5.323154e-01 -1.711202e-01 -1.766146e-01 -2.955505e-01 3.119527e-02 -3.461632e-01 -3.846890e-01 -4.816683e-01 -1.479976e-01 7.863141e-01
<VARIANCE> 25
 4.264555e+01 6.733878e+01 2.297935e+01 9.270562e+01 5.878633e+01 3.429839e+01 4.277935e+01 2.640749e+01 5.332325e+01 4.774649e+01 6.808639e+01 2.993660e+01 4.636790e+00 4.326414e+00 1.616670e+00 4.915594e+00 3.875072e+00 3.536058e+00 2.802718e+00 2.193636e+00 2.448115e+00 2.443379e+00 3.656936e+00 2.647506e+00 5.283320e+00
<GCONST> 1.069032e+02
<TRANSP> 5
 0.000000e+00 1.000000e+00 0.000000e+00 0.000000e+00 0.000000e+00
 0.000000e+00 6.006070e-01 3.993931e-01 0.000000e+00 0.000000e+00
 0.000000e+00 0.000000e+00 6.091258e-01 3.908742e-01 0.000000e+00
 0.000000e+00 0.000000e+00 0.000000e+00 7.680722e-01 2.319278e-01
 0.000000e+00 0.000000e+00 0.000000e+00 0.000000e+00 0.000000e+00
<ENDHMM>
~h "d"
<BEGINHMM>
<NUMSTATES> 5
<STATE> 2
<MEAN> 25
 2.289171e+00 -1.093353e+00 5.155028e+00 -5.095022e-01 -5.474665e+00 -4.025199e+00 -6.626525e+00 1.685897e+00 -1.189082e+00 -2.710243e+00 -1.979674e+00 -2.970188e+00 3.064969e-01 4.623475e-02 8.152077e-02 5.426024e-01 7.254061e-02 -3.188923e-01 -1.324180e-01 8.842053e-02 2.296347e-01 -3.072760e-01 -2.211954e-01 5.958851e-02 -1.710253e-01
<VARIANCE> 25
 2.770359e+01 5.089441e+01 6.850049e+01 9.759677e+01 9.664280e+01 4.487530e+01 9.431520e+01 7.010229e+01 5.677079e+01 4.457714e+01 5.448525e+01 3.908848e+01 1.799505e+00 3.483889e+00 3.650698e+00 7.987954e+00 9.469328e+00 4.479070e+00 6.367361e+00 5.820806e+00 4.211832e+00 3.794702e+00 5.331474e+00 3.137104e+00 7.229395e+00
<GCONST> 1.148126e+02
<STATE> 3
<MEAN> 25
 3.042418e+00 -8.204460e-01 5.686978e+00 2.417867e-01 -5.651952e+00 -4.721544e+00 -7.589294e+00 1.312045e+00 -1.102469e+00 -3.411654e+00 -2.192749e+00 -2.733602e+00 1.161583e-01 -1.929408e-03 -5.233916e-02 -1.042031e-03 5.746862e-03 9.552316e-03 -3.670936e-01 -1.804822e-01 1.689062e-02 2.005489e-02 -2.698554e-02 2.166676e-02 1.470709e-01
<VARIANCE> 25
 2.152221e+01 5.036085e+01 5.419625e+01 9.333842e+01 8.280545e+01 4.514769e+01 9.189194e+01 7.614449e+01 5.741750e+01 4.640680e+01 4.934285e+01 3.799910e+01 1.885365e+00 4.213626e+00 3.859297e+00 9.202368e+00 9.689317e+00 4.225731e+00 7.551923e+00 5.870260e+00 4.265372e+00 4.380708e+00 5.283566e+00 3.214611e+00 8.499650e+00
<GCONST> 1.150143e+02
<STATE> 4
<MEAN> 25
 3.428068e+00 -1.935094e+00 5.922718e+00 -3.418576e+00 -6.938620e+00 -5.015285e+00 -1.026989e+01 2.345701e+00 -2.298861e+00 -2.080706e+00 -3.004677e+00 -2.231978e+00 -3.632972e-02 1.987491e-01 -2.316380e-01 -4.277657e-02 2.789644e-01 1.529309e-01 -1.518827e-02 -3.639201e-01 3.802315e-02 1.814646e-01 3.704581e-03 -3.233649e-02 -1.494257e-01
<VARIANCE> 25
 1.706118e+01 5.488519e+01 6.856229e+01 1.054701e+02 8.832852e+01 4.820676e+01 8.511971e+01 7.657172e+01 6.960962e+01 4.701946e+01 4.975566e+01 4.402864e+01 1.034010e+00 3.243760e+00 2.952013e+00 6.008305e+00 6.723710e+00 3.153884e+00 5.510923e+00 4.260818e+00 3.435647e+00 3.903486e+00 4.255030e+00 2.393086e+00 5.555562e+00
<GCONST> 1.115273e+02
<TRANSP> 5
 0.000000e+00 1.000000e+00 0.000000e+00 0.000000e+00 0.000000e+00
 0.000000e+00 5.885955e-01 4.114045e-01 0.000000e+00 0.000000e+00
 0.000000e+00 0.000000e+00 6.201773e-01 3.798227e-01 0.000000e+00
 0.000000e+00 0.000000e+00 0.000000e+00 7.880073e-01 2.119927e-01
 0.000000e+00 0.000000e+00 0.000000e+00 0.000000e+00 0.000000e+00
<ENDHMM>
~h "e"
<BEGINHMM>
<NUMSTATES> 5
<STATE> 2
<MEAN> 25
 1.042858e-02 -2.286636e+00 2.025877e+00 -1.777943e-01 -2.508005e+00 -1.993061e+00 1.721369e+00 2.247494e+00 3.445851e-01 1.762622e-01 -3.716629e-04 -1.691691e-01 2.278323e-01 -4.357289e-01 2.998221e-01 -4.897404e-01 -5.210738e-01 -9.667692e-02 -1.041788e-01 3.681176e-01 -2.322625e-01 -5.844996e-02 -3.086184e-01 -7.174409e-02 3.997380e-01
<VARIANCE> 25
 2.040571e+01 5.233323e+01 3.343924e+01 1.041321e+02 9.026534e+01 6.754285e+01 6.769801e+01 4.231066e+01 5.105362e+01 3.435416e+01 6.116798e+01 2.489000e+01 2.437425e+00 4.732355e+00 2.106785e+00 5.579559e+00 4.568365e+00 3.358102e+00 3.837396e+00 4.037322e+00 3.192836e+00 2.734635e+00 3.644549e+00 2.107823e+00 4.743900e+00
<GCONST> 1.086923e+02
<STATE> 3
<MEAN> 25
 2.139149e-01 -3.024671e+00 2.686380e+00 -1.392737e+00 -3.727078e+00 -1.998272e+00 1.532699e+00 2.643019e+00 -4.559189e-01 3.975113e-03 -7.403803e-01 -4.515829e-01 9.896618e-02 -1.736724e-01 1.233439e-01 -2.466158e-01 -3.259306e-01 4.540359e-02 -5.979685e-02 1.347356e-01 -2.117584e-01 -1.023923e-01 -1.848702e-01 -6.110864e-02 3.014144e-01
<VARIANCE> 25
 2.043462e+01 5.718425e+01 3.599554e+01 1.119549e+02 9.622279e+01 6.718433e+01 6.343002e+01 4.265497e+01 5.514902e+01 3.528493e+01 6.822166e+01 2.444178e+01 2.018564e+00 4.029121e+00 1.772242e+00 5.005382e+00 4.171927e+00 2.844955e+00 3.473555e+00 3.199066e+00 2.740833e+00 2.531813e+00 3.236243e+00 2.039363e+00 5.028815e+00
<GCONST> 1.075817e+02
<STATE> 4
<MEAN> 25
 8.658464e-01 -4.014789e+00 4.262000e+00 -3.209352e+00 -6.675667e+00 -2.530929e+00 6.749486e-01 2.890798e+00 -1.803820e+00 -1.993667e-02 -2.269079e+00 -1.057873e+00 8.745743e-02 5.350954e-02 -1.807055e-01 1.888793e-01 1.371192e-01 6.684111e-02 -9.941435e-02 3.154294e-02 6.001402e-02 -1.118297e-01 -9.573788e-02 -2.390272e-02 -1.320011e-01
<VARIANCE> 25
 2.179432e+01 6.901882e+01 4.704199e+01 1.054801e+02 1.079588e+02 6.288275e+01 6.234205e+01 4.834239e+01 5.367864e+01 3.994200e+01 6.908775e+01 2.407461e+01 1.717831e+00 3.273733e+00 1.795397e+00 3.935395e+00 4.458700e+00 2.517936e+00 3.463197e+00 2.968059e+00 2.584160e+00 2.370706e+00 2.759341e+00 1.775525e+00 3.984300e+00
<GCONST> 1.069081e+02
<TRANSP> 5
 0.000000e+00 1.000000e+00 0.000000e+00 0.000000e+00 0.000000e+00
 0.000000e+00 5.632312e-01 4.367688e-01 0.000000e+00 0.000000e+00
 0.000000e+00 0.000000e+00 5.629093e-01 4.370907e-01 0.000000e+00
 0.000000e+00 0.000000e+00 0.000000e+00 7.536930e-01 2.463069e-01
 0.000000e+00 0.000000e+00 0.000000e+00 0.000000e+00 0.000000e+00
<ENDHMM>
~h "f"
<BEGINHMM>
<NUMSTATES> 5
<STATE> 2
<MEAN> 25
 -3.896455e+00 1.582776e+00 -1.157480e+00 4.299250e+00 6.837147e-01 -9.527293e-01 2.474405e+00 2.403226e-01 1.519807e+00 4.231265e-01 8.075655e-01 5.752229e-01 -7.596000e-01 1.276911e-01 -6.204745e-01 5.706392e-01 4.275729e-01 8.736515e-02 2.554693e-01 2.659328e-01 4.316756e-01 -1.699707e-01 3.640222e-01 1.062679e-01 -2.825534e-02
<VARIANCE> 25
 4.093355e+01 2.759810e+01 4.393337e+01 5.933189e+01 5.012279e+01 4.171312e+01 3.977334e+01 3.563236e+01 3.630228e+01 2.540425e+01 3.578447e+01 2.197571e+01 2.850661e+00 1.813350e+00 2.663828e+00 3.508967e+00 3.298540e+00 2.848164e+00 2.176772e+00 2.603485e+00 3.098611e+00 3.129370e+00 2.568146e+00 1.959184e+00 2.363036e+00
<GCONST> 1.018385e+02
<STATE> 3
<MEAN> 25
 -5.695895e+00 1.873600e+00 -2.107844e+00 5.114394e+00 7.231076e-01 -1.112937e+00 2.557149e+00 4.490268e-01 1.905985e+00 4.247521e-01 1.459068e+00 6.709232e-01 -1.510000e-01 -1.480745e-02 -6.496796e-02 1.225950e-01 -1.084127e-02 -1.132068e-01 2.551723e-02 -5.678975e-02 -7.905383e-02 -1.320371e-02 1.686285e-01 -2.777757e-02 1.167978e-01
<VARIANCE> 25
 4.384152e+01 2.657725e+01 3.799453e+01 5.173555e+01 3.871479e+01 3.938922e+01 3.670171e+01 3.150942e+01 3.374939e+01 2.602341e+01 2.969111e+01 2.223038e+01 3.451711e+00 1.684399e+00 3.566939e+00 3.171266e+00 3.010026e+00 3.504056e+00 2.340689e+00 2.430229e+00 3.531474e+00 2.701465e+00 2.294592e+00 2.074684e+00 2.709958e+00
<GCONST> 1.013375e+02
<STATE> 4
<MEAN> 25
 -4.446741e+00 1.216497e+00 2.002213e-01 4.171310e+00 -8.353106e-01 -3.520345e+00 1.667811e+00 -4.404342e-01 -3.154310e-01 1.318204e-01 1.283087e+00 -1.438463e-01 5.329064e-01 -7.219806e-02 8.228703e-01 -5.112718e-01 -5.804450e-01 -3.791406e-01 -2.566020e-01 -3.268382e-01 -6.729425e-01 1.087949e-02 -8.525535e-02 -2.065093e-01 2.979163e-01
<VARIANCE> 25
 4.628628e+01 2.816896e+01 7.012037e+01 5.668743e+01 5.183464e+01 7.718722e+01 3.681626e+01 3.147332e+01 5.703727e+01 2.803725e+01 2.873061e+01 2.435885e+01 4.059199e+00 1.885222e+00 6.398948e+00 4.531889e+00 4.440022e+00 5.679805e+00 3.059433e+00 3.006121e+00 5.215238e+00 3.022763e+00 2.616963e+00 2.383840e+00 3.410583e+00
<GCONST> 1.073494e+02
<TRANSP> 5
 0.000000e+00 1.000000e+00 0.000000e+00 0.000000e+00 0.000000e+00
 0.000000e+00 6.808469e-01 3.191532e-01 0.000000e+00 0.000000e+00
 0.000000e+00 0.000000e+00 6.432538e-01 3.567462e-01 0.000000e+00
 0.000000e+00 0.000000e+00 0.000000e+00 7.125033e-01 2.874967e-01
 0.000000e+00 0.000000e+00 0.000000e+00 0.000000e+00 0.000000e+00
<ENDHMM>
~h "g"
<BEGINHMM>
<NUMSTATES> 5
<STATE> 2
<MEAN> 25
 2.706082e+00 -1.278070e+00 3.021417e+00 -6.233392e+00 -7.532489e+00 -2.194228e+00 -3.095659e+00 -3.147560e+00 -5.869879e+00 -8.893845e-01 -5.645981e+00 -2.342365e+00 2.701697e-01 -5.553782e-01 1.357057e-01 -1.230709e+00 -7.330483e-01 -6.524554e-01 -8.095801e-01 2.657035e-01 -2.842968e-01 1.934223e-01 -9.364929e-01 -2.058685e-01 1.454655e+00
<VARIANCE> 25
 2.155322e+01 7.861256e+01 5.056955e+01 1.185144e+02 7.448787e+01 5.298529e+01 8.320795e+01 5.775246e+01 4.888103e+01 5.375673e+01 5.498832e+01 3.318065e+01 1.490757e+00 4.618165e+00 2.932154e+00 1.122677e+01 4.835660e+00 3.476678e+00 4.731831e+00 5.077002e+00 4.420860e+00 3.847302e+00 5.090168e+00 2.440625e+00 9.230521e+00
<GCONST> 1.132217e+02
<STATE> 3
<MEAN> 25
 3.143109e+00 -2.867285e+00 3.231101e+00 -8.613606e+00 -9.087368e+00 -4.067696e+00 -5.494566e+00 -1.198368e+00 -5.600217e+00 -2.379273e-02 -7.613701e+00 -2.164588e+00 6.989868e-02 -4.423147e-01 5.594848e-02 -5.877092e-01 -2.962633e-01 -4.323584e-01 -5.065429e-01 5.790592e-01 1.262450e-01 2.008963e-01 -5.145339e-01 5.617111e-02 6.329780e-01
<VARIANCE> 25
 1.923641e+01 7.623933e+01 5.086571e+01 1.053278e+02 8.211261e+01 5.975868e+01 7.799979e+01 6.829340e+01 5.325578e+01 6.045693e+01 5.766178e+01 3.939281e+01 1.260460e+00 4.533740e+00 2.477448e+00 9.483873e+00 4.179308e+00 3.785494e+00 4.386739e+00 5.020910e+00 3.504140e+00 4.139924e+00 4.401455e+00 2.658844e+00 6.471491e+00
<GCONST> 1.124632e+02
<STATE> 4
<MEAN> 25
 2.009424e+00 -2.513032e+00 5.898337e+00 -8.638793e+00 -1.053236e+01 -4.313455e+00 -9.860274e+00 -1.141960e+00 -5.689895e+00 -4.446283e-02 -8.577324e+00 -1.592551e+00 -1.830822e-02 4.939334e-02 3.593982e-02 1.644591e-01 1.926870e-01 3.697983e-02 -9.322194e-03 3.263906e-02 1.133475e-01 -3.849065e-02 8.226395e-02 6.737992e-02 -2.350918e-01
<VARIANCE> 25
 2.572310e+01 8.602893e+01 4.122982e+01 9.839499e+01 8.708277e+01 5.874488e+01 7.643433e+01 8.553246e+01 5.732875e+01 6.866886e+01 6.100293e+01 4.537579e+01 1.211544e+00 3.169812e+00 2.137392e+00 6.743090e+00 4.714923e+00 3.190293e+00 4.380895e+00 4.844115e+00 3.677488e+00 4.795624e+00 4.126341e+00 2.495663e+00 4.935755e+00
<GCONST> 1.120645e+02
<TRANSP> 5
 0.000000e+00 1.000000e+00 0.000000e+00 0.000000e+00 0.000000e+00
 0.000000e+00 6.832730e-01 3.167270e-01 0.000000e+00 0.000000e+00
 0.000000e+00 0.000000e+00 7.115798e-01 2.884202e-01 0.000000e+00
 0.000000e+00 0.000000e+00 0.000000e+00 9.539907e-01 4.600929e-02
 0.000000e+00 0.000000e+00 0.000000e+00 0.000000e+00 0.000000e+00
<ENDHMM>
~h "h"
<BEGINHMM>
<NUMSTATES> 5
<STATE> 2
<MEAN> 25
 -1.484956e+00 1.191954e+00 -1.406603e+00 5.359218e+00 4.777392e+00 1.358233e+00 5.379316e+00 1.948697e+00 3.263014e+00 1.174887e+00 3.986726e+00 2.771079e+00 -1.902814e-01 -1.820636e-01 -9.185795e-02 1.242986e-01 8.607238e-02 -2.074120e-02 1.953907e-01 5.204757e-02 1.390911e-01 7.682560e-02 2.097533e-01 1.047298e-01 -8.489964e-02
<VARIANCE> 25
 1.643700e+01 3.421787e+01 1.390770e+01 3.503558e+01 4.190639e+01 2.203121e+01 4.997688e+01 3.176786e+01 3.384194e+01 2.955338e+01 3.142309e+01 2.516010e+01 6.331450e-01 9.328787e-01 9.010168e-01 1.147512e+00 1.619458e+00 1.402489e+00 1.766152e+00 1.942327e+00 2.014849e+00 1.856490e+00 2.058511e+00 1.611421e+00 9.644951e-01
<GCONST> 9.028868e+01
<STATE> 3
<MEAN> 25
 -2.087317e+00 6.859332e-01 -1.430456e+00 5.441643e+00 4.935670e+00 8.985690e-01 5.640944e+00 1.738133e+00 3.190560e+00 1.080754e+00 4.305531e+00 2.778724e+00 -1.301134e-01 -1.034570e-01 1.383725e-02 -2.852181e-02 3.621579e-02 -6.197181e-02 3.442026e-02 -6.748306e-02 -4.973167e-03 -3.565291e-02 -5.890521e-03 -1.553384e-02 1.687003e-01
<VARIANCE> 25
 2.016678e+01 3.900685e+01 1.375726e+01 3.581750e+01 3.986749e+01 2.159339e+01 4.842400e+01 2.898654e+01 3.325799e+01 3.034409e+01 3.334359e+01 2.336410e+01 6.032232e-01 8.955935e-01 7.682757e-01 9.443840e-01 1.389906e+00 1.314729e+00 1.484655e+00 1.728727e+00 1.734845e+00 1.614588e+00 1.674733e+00 1.443111e+00 9.590498e-01
<GCONST> 8.887396e+01
<STATE> 4
<MEAN> 25
 -2.537291e+00 2.778690e-01 -1.409995e+00 5.096991e+00 5.377544e+00 6.564068e-01 5.501983e+00 1.364167e+00 3.108761e+00 5.882466e-01 4.393140e+00 2.304573e+00 -2.832840e-02 -5.728406e-02 3.969079e-02 -2.227840e-01 2.963186e-02 -7.517259e-02 -7.395395e-02 -1.129373e-01 -1.072991e-01 -1.067431e-01 -2.093694e-01 -1.135321e-01 3.415264e-01
<VARIANCE> 25
 2.906982e+01 4.259236e+01 1.340176e+01 3.352510e+01 4.894379e+01 2.315161e+01 3.825527e+01 2.733841e+01 3.222895e+01 2.993099e+01 3.123142e+01 2.037817e+01 1.012901e+00 1.060836e+00 7.145307e-01 1.262525e+00 1.665822e+00 1.360570e+00 1.729576e+00 1.699842e+00 1.878533e+00 1.705788e+00 1.778338e+00 1.421453e+00 9.971803e-01
<GCONST> 9.044349e+01
<TRANSP> 5
 0.000000e+00 1.000000e+00 0.000000e+00 0.000000e+00 0.000000e+00
 0.000000e+00 7.628469e-01 2.371531e-01 0.000000e+00 0.000000e+00
 0.000000e+00 0.000000e+00 7.485182e-01 2.514818e-01 0.000000e+00
 0.000000e+00 0.000000e+00 0.000000e+00 8.853956e-01 1.146044e-01
 0.000000e+00 0.000000e+00 0.000000e+00 0.000000e+00 0.000000e+00
<ENDHMM>
~h "i"
<BEGINHMM>
<NUMSTATES> 5
<STATE> 2
<MEAN> 25
 -1.254933e+00 2.189133e+00 7.231837e+00 -1.469548e+00 -8.021093e+00 -2.037694e+00 -3.441059e+00 -3.335543e+00 -3.813122e+00 -8.339468e-01 1.452422e-01 -2.151364e+00 3.124244e-01 -4.796063e-02 1.396414e+00 -7.433779e-01 -1.341398e+00 2.211935e-01 -1.011246e+00 -4.079517e-01 -6.977974e-01 1.497838e-01 -1.672145e-01 -4.080839e-01 4.734581e-01
<VARIANCE> 25
 1.968687e+01 3.676699e+01 8.194086e+01 8.027539e+01 1.331697e+02 5.386855e+01 8.172917e+01 6.313852e+01 6.457127e+01 4.504268e+01 5.111470e+01 3.710190e+01 2.135418e+00 2.165138e+00 5.898290e+00 4.745306e+00 8.149992e+00 3.962776e+00 6.809613e+00 3.714059e+00 4.743326e+00 3.707139e+00 3.885694e+00 2.665938e+00 2.980216e+00
<GCONST> 1.121382e+02
<STATE> 3
<MEAN> 25
 -1.047125e+00 2.232345e+00 9.417092e+00 -2.645492e+00 -9.943487e+00 -1.291451e+00 -4.903975e+00 -4.030069e+00 -4.686646e+00 -6.248067e-01 -2.193182e-01 -2.937124e+00 7.089857e-02 4.527150e-02 4.601032e-01 -2.735698e-01 -3.881038e-01 2.582522e-01 -3.376250e-01 -1.655553e-01 -1.258148e-01 5.274472e-02 -5.870241e-02 -2.314710e-01 9.193732e-02
<VARIANCE> 25
 1.683969e+01 3.475878e+01 8.842625e+01 7.964822e+01 1.367749e+02 5.508965e+01 7.847103e+01 5.649575e+01 6.612972e+01 4.904044e+01 5.324429e+01 3.984646e+01 1.154650e+00 1.702996e+00 4.517579e+00 4.015177e+00 6.885714e+00 3.350769e+00 5.132219e+00 3.227954e+00 3.907093e+00 3.041837e+00 2.905936e+00 2.298780e+00 2.960484e+00
<GCONST> 1.092273e+02
<STATE> 4
<MEAN> 25
 -9.752342e-01 3.607759e+00 1.035205e+01 -3.207901e+00 -1.050772e+01 1.206934e-01 -5.369692e+00 -5.014082e+00 -5.122819e+00 -1.384439e+00 -4.600210e-01 -3.562871e+00 4.202989e-02 1.054103e-01 -5.383606e-01 4.466117e-01 6.838401e-01 -6.484651e-02 5.285721e-01 6.500147e-02 3.466799e-01 5.937622e-03 7.856260e-02 2.034648e-01 -5.971674e-01
<VARIANCE> 25
 1.453903e+01 3.160294e+01 7.792991e+01 7.672845e+01 1.234137e+02 5.340760e+01 7.560205e+01 5.053194e+01 6.429728e+01 4.909412e+01 4.356235e+01 4.151134e+01 8.165833e-01 1.358222e+00 3.139814e+00 3.164094e+00 4.647732e+00 2.535329e+00 3.697654e+00 2.712119e+00 3.004277e+00 2.509736e+00 2.368482e+00 2.079138e+00 2.423462e+00
<GCONST> 1.050434e+02
<TRANSP> 5
 0.000000e+00 1.000000e+00 0.000000e+00 0.000000e+00 0.000000e+00
 0.000000e+00 5.934024e-01 4.065976e-01 0.000000e+00 0.000000e+00
 0.000000e+00 0.000000e+00 6.027863e-01 3.972138e-01 0.000000e+00
 0.000000e+00 0.000000e+00 0.000000e+00 8.488730e-01 1.511270e-01
 0.000000e+00 0.000000e+00 0.000000e+00 0.000000e+00 0.000000e+00
<ENDHMM>
~h "j"
<BEGINHMM>
<NUMSTATES> 5
<STATE> 2
<MEAN> 25
 -2.027387e+00 1.011567e+00 -6.469646e-01 5.740432e+00 4.235146e+00 1.495776e+00 4.256983e+00 2.600136e+00 2.902123e+00 1.337378e+00 2.575189e+00 2.060796e+00 -1.839590e-01 -8.479790e-02 -6.070787e-02 1.279418e-01 -5.916181e-02 4.373871e-02 2.678531e-01 2.207004e-01 2.723335e-01 1.723127e-01 3.746747e-01 2.300482e-01 -2.102345e-01
<VARIANCE> 25
 8.957680e+00 1.827794e+01 1.315189e+01 2.905371e+01 2.761771e+01 2.172449e+01 3.399796e+01 2.718952e+01 2.997269e+01 2.789000e+01 3.825842e+01 2.489472e+01 7.851499e-01 9.416667e-01 1.109486e+00 1.128301e+00 1.478694e+00 1.268031e+00 1.737891e+00 2.085816e+00 2.345213e+00 2.128696e+00 2.236383e+00 2.017604e+00 6.185738e-01
<GCONST> 8.827785e+01
<STATE> 3
<MEAN> 25
 -2.145633e+00 1.180446e+00 -2.553487e-01 5.838891e+00 3.436260e+00 1.301221e+00 4.541208e+00 2.497364e+00 2.898887e+00 1.330535e+00 3.208664e+00 1.996175e+00 -9.315265e-03 9.894413e-02 5.494852e-02 9.262529e-02 -2.012004e-02 -7.076347e-04 5.566213e-02 -5.878359e-02 -4.793052e-04 -3.532574e-02 9.354493e-02 -6.741060e-03 -4.435334e-02
<VARIANCE> 25
 1.179748e+01 2.208938e+01 1.639020e+01 3.557350e+01 2.678318e+01 2.214184e+01 3.313402e+01 2.689573e+01 2.744801e+01 2.973799e+01 3.931902e+01 2.372793e+01 8.454509e-01 8.180878e-01 1.273704e+00 9.962823e-01 1.568800e+00 1.292814e+00 1.578993e+00 1.965319e+00 1.897488e+00 2.143886e+00 2.038664e+00 1.820384e+00 7.553723e-01
<GCONST> 8.874210e+01
<STATE> 4
<MEAN> 25
 -1.788791e+00 2.034280e+00 8.801908e-01 7.115712e+00 2.789093e+00 1.442584e+00 4.400657e+00 1.327627e+00 2.071470e+00 2.521776e-01 3.199370e+00 1.059678e+00 -5.996460e-02 1.510653e-01 1.695264e-01 3.068272e-02 2.033450e-02 -1.222932e-02 -4.440754e-02 -1.116109e-01 -1.513125e-01 -1.364373e-01 -8.703683e-02 -1.185974e-01 1.865982e-01
<VARIANCE> 25
 1.276184e+01 2.021621e+01 2.252699e+01 2.723842e+01 2.093851e+01 2.051766e+01 2.529904e+01 2.510057e+01 3.123674e+01 3.367079e+01 3.305687e+01 2.457681e+01 1.149981e+00 8.383514e-01 1.454040e+00 1.168826e+00 1.811116e+00 1.359821e+00 1.529393e+00 1.978673e+00 2.084065e+00 2.723065e+00 2.021055e+00 1.703973e+00 1.184958e+00
<GCONST> 8.973875e+01
<TRANSP> 5
 0.000000e+00 1.000000e+00 0.000000e+00 0.000000e+00 0.000000e+00
 0.000000e+00 8.184662e-01 1.815338e-01 0.000000e+00 0.000000e+00
 0.000000e+00 0.000000e+00 7.530680e-01 2.469320e-01 0.000000e+00
 0.000000e+00 0.000000e+00 0.000000e+00 8.816150e-01 1.183849e-01
 0.000000e+00 0.000000e+00 0.000000e+00 0.000000e+00 0.000000e+00
<ENDHMM>
~h "k"
<BEGINHMM>
<NUMSTATES> 5
<STATE> 2
<MEAN> 25
 -1.462584e+00 1.850115e+00 -1.507310e+00 2.079039e+00 1.986611e+00 3.452752e-01 2.890157e+00 -1.034271e+00 1.968051e+00 1.413914e+00 1.541354e+00 9.435786e-01 -3.182229e-01 -3.664900e-01 -5.970181e-01 2.802006e-01 6.332363e-01 -4.529475e-01 1.732734e-01 3.710859e-01 4.357580e-01 2.365524e-01 -2.762145e-02 2.705030e-01 6.659522e-02
<VARIANCE> 25
 2.541178e+01 3.828800e+01 3.856599e+01 6.185960e+01 5.070338e+01 4.418237e+01 5.179326e+01 4.056437e+01 4.239595e+01 4.999120e+01 5.699690e+01 3.135387e+01 2.534781e+00 3.794715e+00 3.709538e+00 6.265486e+00 5.171751e+00 5.383040e+00 4.496446e+00 4.164309e+00 4.154490e+00 4.324994e+00 5.335818e+00 3.159210e+00 1.009677e+01
<GCONST> 1.108078e+02
<STATE> 3
<MEAN> 25
 -1.898439e+00 1.401736e-01 -2.980535e+00 1.580362e+00 2.981614e+00 -1.474615e+00 2.433233e+00 5.745931e-02 2.448128e+00 1.899306e+00 4.718595e-01 1.212730e+00 1.572709e-01 -7.148017e-01 -2.729725e-01 -6.444639e-01 -5.496202e-02 -4.634033e-01 -3.700978e-01 3.928128e-01 -6.052788e-02 -6.218012e-04 -6.720733e-01 -1.275996e-01 1.167440e+00
<VARIANCE> 25
 2.608467e+01 4.085682e+01 4.489938e+01 6.572896e+01 5.553381e+01 5.664762e+01 5.202151e+01 3.829130e+01 3.953526e+01 4.978894e+01 6.244028e+01 3.214516e+01 3.083437e+00 3.909320e+00 5.166465e+00 7.243527e+00 6.716667e+00 6.602986e+00 5.013279e+00 4.157197e+00 4.231526e+00 4.414469e+00 5.987585e+00 3.607475e+00 1.020062e+01
<GCONST> 1.130118e+02
<STATE> 4
<MEAN> 25
 -6.332638e-01 -2.193741e+00 -2.993709e+00 -1.107276e+00 1.696454e+00 -2.191108e+00 1.180139e+00 1.330026e+00 1.492597e+00 1.001109e+00 -2.177746e+00 3.932580e-01 5.494381e-01 -8.974980e-01 1.967126e-01 -1.131943e+00 -5.215921e-01 2.048620e-01 -4.731154e-01 3.927108e-01 -4.746331e-01 -3.960258e-01 -8.534775e-01 -3.054196e-01 1.291022e+00
<VARIANCE> 25
 2.562368e+01 5.190990e+01 4.163604e+01 8.899529e+01 5.686885e+01 5.385622e+01 5.520999e+01 3.944199e+01 4.382892e+01 4.529850e+01 7.311132e+01 3.089713e+01 2.761583e+00 4.104995e+00 4.994464e+00 7.570076e+00 6.238373e+00 6.275280e+00 4.725868e+00 3.870032e+00 4.157866e+00 3.854409e+00 5.125317e+00 3.273728e+00 7.489220e+00
<GCONST> 1.126288e+02
<TRANSP> 5
 0.000000e+00 1.000000e+00 0.000000e+00 0.000000e+00 0.000000e+00
 0.000000e+00 6.333812e-01 3.666188e-01 0.000000e+00 0.000000e+00
 0.000000e+00 0.000000e+00 6.317965e-01 3.682035e-01 0.000000e+00
 0.000000e+00 0.000000e+00 0.000000e+00 7.325286e-01 2.674715e-01
 0.000000e+00 0.000000e+00 0.000000e+00 0.000000e+00 0.000000e+00
<ENDHMM>
~h "l"
<BEGINHMM>
<NUMSTATES> 5
<STATE> 2
<MEAN> 25
 4.761734e+00 -2.259877e+00 -2.174740e-01 -1.150740e+01 -1.828219e+00 1.181905e+00 -7.433608e+00 -2.941614e+00 -1.751061e+00 7.318232e-01 -2.624540e+00 -1.803483e+00 8.594635e-02 -3.538806e-01 5.909298e-03 -7.381831e-01 6.856664e-02 1.080096e-01 -2.333530e-01 1.251008e-01 1.470402e-01 1.030463e-01 -1.426327e-01 -2.003772e-01 4.479101e-01
<VARIANCE> 25
 2.449662e+01 6.969886e+01 3.111742e+01 1.449504e+02 6.772440e+01 5.438653e+01 1.120646e+02 4.687696e+01 6.442616e+01 4.981056e+01 5.528349e+01 3.597525e+01 1.056500e+00 2.281386e+00 1.310314e+00 4.492812e+00 2.404824e+00 2.201604e+00 4.086732e+00 2.944965e+00 3.002610e+00 2.914366e+00 2.870817e+00 2.135394e+00 1.946612e+00
<GCONST> 1.057065e+02
<STATE> 3
<MEAN> 25
 4.665169e+00 -3.091792e+00 -3.254497e-01 -1.243382e+01 -1.695222e+00 1.237921e+00 -7.565857e+00 -2.568173e+00 -1.319628e+00 7.820097e-01 -2.938775e+00 -2.219068e+00 -4.687223e-02 -2.717929e-01 -8.477787e-02 -1.527199e-01 1.049718e-01 6.429298e-03 1.090365e-01 1.544212e-01 1.478556e-01 -5.923110e-02 -1.360797e-01 -1.422293e-01 2.019831e-01
<VARIANCE> 25
 2.396746e+01 6.594272e+01 3.252097e+01 1.383883e+02 6.466483e+01 5.254064e+01 1.103512e+02 5.074593e+01 6.344820e+01 4.891570e+01 5.650081e+01 3.569506e+01 8.081985e-01 2.128004e+00 1.330652e+00 3.723208e+00 2.163226e+00 2.081942e+00 3.518416e+00 2.764505e+00 2.931113e+00 2.807380e+00 3.036900e+00 1.923088e+00 1.694604e+00
<GCONST> 1.044574e+02
<STATE> 4
<MEAN> 25
 4.974974e+00 -3.673102e+00 -1.036297e+00 -1.316909e+01 -1.396097e+00 1.446423e+00 -8.970142e+00 -2.188226e+00 -1.071905e+00 7.274435e-01 -3.899574e+00 -3.024311e+00 -1.638699e-01 -8.151436e-04 -8.966778e-02 6.240463e-01 2.251011e-01 1.238848e-02 2.957664e-01 1.173469e-01 1.456699e-01 -1.695310e-01 1.371303e-02 -3.550502e-02 -2.939692e-01
<VARIANCE> 25
 2.162559e+01 6.416901e+01 2.850182e+01 1.177625e+02 5.554522e+01 5.156260e+01 9.373357e+01 4.403184e+01 5.982078e+01 4.690346e+01 5.138538e+01 3.328917e+01 7.357445e-01 1.839835e+00 1.253844e+00 3.280602e+00 1.947531e+00 1.949426e+00 2.902956e+00 2.342864e+00 2.914857e+00 2.546765e+00 2.680291e+00 1.812328e+00 1.454248e+00
<GCONST> 1.018983e+02
<TRANSP> 5
 0.000000e+00 1.000000e+00 0.000000e+00 0.000000e+00 0.000000e+00
 0.000000e+00 6.224174e-01 3.775826e-01 0.000000e+00 0.000000e+00
 0.000000e+00 0.000000e+00 6.160505e-01 3.839494e-01 0.000000e+00
 0.000000e+00 0.000000e+00 0.000000e+00 8.532106e-01 1.467894e-01
 0.000000e+00 0.000000e+00 0.000000e+00 0.000000e+00 0.000000e+00
<ENDHMM>
~h "m"
<BEGINHMM>
<NUMSTATES> 5
<STATE> 2
<MEAN> 25
 1.981454e+00 1.570048e-01 -4.330719e-01 5.136822e-01 2.326235e+00 1.166747e+00 -9.887567e-01 -3.119964e+00 -1.924611e+00 -5.008639e-01 5.645063e-02 -1.554905e+00 -1.481413e-01 3.110385e-01 1.462670e-01 5.255161e-01 3.704610e-01 1.235391e-01 2.007264e-01 -4.390149e-01 -4.258434e-01 -2.033175e-03 2.562504e-01 2.156685e-01 -5.170057e-01
<VARIANCE> 25
 2.081112e+01 4.210829e+01 2.780270e+01 8.002769e+01 4.567402e+01 3.328514e+01 8.172055e+01 8.167809e+01 8.245843e+01 4.482731e+01 5.621027e+01 3.724444e+01 9.242401e-01 1.813405e+00 1.850462e+00 2.855871e+00 2.532891e+00 2.041536e+00 2.971195e+00 5.048286e+00 4.548585e+00 3.115599e+00 2.848621e+00 2.151562e+00 1.939313e+00
<GCONST> 1.040835e+02
<STATE> 3
<MEAN> 25
 1.266861e+00 9.845487e-01 -2.933594e-01 2.307893e+00 3.311791e+00 1.470867e+00 2.786210e-01 -3.158716e+00 -2.123259e+00 -6.533466e-01 8.552496e-01 -7.043681e-01 -1.248178e-01 1.126817e-01 -1.915603e-03 2.653914e-01 1.374681e-01 5.779732e-02 2.359480e-01 4.328923e-02 -4.029845e-02 -5.368947e-02 9.891959e-02 1.152062e-01 -2.553917e-01
<VARIANCE> 25
 1.763954e+01 3.612580e+01 2.736584e+01 6.565986e+01 4.028254e+01 2.929983e+01 7.495457e+01 7.988815e+01 9.412083e+01 4.534748e+01 5.207565e+01 3.079859e+01 8.170075e-01 1.533342e+00 1.450248e+00 2.493890e+00 2.219095e+00 1.832093e+00 2.492692e+00 4.064843e+00 3.964824e+00 2.715826e+00 2.384021e+00 1.875072e+00 1.934902e+00
<GCONST> 1.011712e+02
<STATE> 4
<MEAN> 25
 -1.372170e-01 1.478495e+00 -1.025660e+00 4.940338e+00 3.810838e+00 2.217554e+00 3.204655e+00 -7.390469e-01 8.594137e-01 3.953695e-01 2.909871e+00 6.895391e-01 -5.543993e-02 -3.240100e-02 -5.176724e-02 -1.844462e-02 -7.785365e-02 6.693000e-02 1.099416e-01 1.271551e-01 1.248115e-01 1.939786e-02 -2.004232e-02 2.524722e-02 2.484211e-02
<VARIANCE> 25
 1.255607e+01 2.334369e+01 1.986962e+01 4.300364e+01 2.685833e+01 2.380421e+01 4.748112e+01 5.386236e+01 7.479877e+01 3.661966e+01 3.894317e+01 2.527504e+01 6.946266e-01 1.135572e+00 1.156632e+00 1.892630e+00 1.621764e+00 1.530989e+00 2.061698e+00 3.069729e+00 3.364340e+00 2.392701e+00 2.127531e+00 1.682676e+00 1.535021e+00
<GCONST> 9.458278e+01
<TRANSP> 5
 0.000000e+00 1.000000e+00 0.000000e+00 0.000000e+00 0.000000e+00
 0.000000e+00 6.322298e-01 3.677702e-01 0.000000e+00 0.000000e+00
 0.000000e+00 0.000000e+00 6.372063e-01 3.627937e-01 0.000000e+00
 0.000000e+00 0.000000e+00 0.000000e+00 8.638577e-01 1.361423e-01
 0.000000e+00 0.000000e+00 0.000000e+00 0.000000e+00 0.000000e+00
<ENDHMM>
~h "n"
<BEGINHMM>
<NUMSTATES> 5
<STATE> 2
<MEAN> 25
 2.564661e+00 -2.042575e+00 3.743342e-01 -1.399931e+00 -1.832598e+00 -2.110449e+00 -2.804837e+00 5.694770e-01 -3.103969e+00 -3.460313e+00 -5.046866e+00 -1.931931e+00 3.173844e-02 8.526508e-01 2.910819e-01 3.573071e-01 1.124940e-01 -3.829679e-01 1.488870e-01 -7.806114e-01 1.217873e-01 1.215167e-01 -2.855933e-01 -1.816582e-02 -6.592977e-01
<VARIANCE> 25
 2.156554e+01 7.142461e+01 3.208318e+01 5.718455e+01 5.343927e+01 5.374683e+01 7.282650e+01 9.847238e+01 5.881487e+01 5.906596e+01 6.897227e+01 3.898830e+01 1.177314e+00 3.175047e+00 2.328487e+00 2.839794e+00 3.167425e+00 3.730297e+00 3.304803e+00 7.940912e+00 3.973549e+00 3.530481e+00 3.534184e+00 2.187374e+00 3.828383e+00
<GCONST> 1.086650e+02
<STATE> 3
<MEAN> 25
 2.445015e+00 6.795790e-01 1.357142e+00 -1.480321e-01 -1.078986e+00 -2.753009e+00 -1.874752e+00 -2.056580e+00 -2.724666e+00 -2.923942e+00 -5.482211e+00 -1.622740e+00 -8.631749e-02 5.751619e-01 1.822751e-01 3.136093e-01 2.521479e-01 -4.157623e-02 2.547254e-01 -4.312617e-01 1.394019e-01 1.460258e-01 -2.564393e-02 1.054870e-01 -6.562094e-01
<VARIANCE> 25
 2.335020e+01 5.940704e+01 2.996827e+01 5.534116e+01 5.323448e+01 4.819888e+01 6.810814e+01 8.463860e+01 5.510993e+01 5.735751e+01 7.318015e+01 3.850595e+01 1.279171e+00 3.472775e+00 2.262211e+00 3.130556e+00 3.041767e+00 3.511365e+00 3.629843e+00 7.825845e+00 4.172233e+00 3.748104e+00 3.662944e+00 2.349935e+00 3.777129e+00
<GCONST> 1.085026e+02
<STATE> 4
<MEAN> 25
 1.578031e+00 2.718242e+00 1.689932e+00 1.819921e+00 3.602412e-01 -2.154913e+00 -3.223841e-01 -2.874025e+00 -2.410093e+00 -2.372620e+00 -4.295136e+00 -1.182425e+00 -2.984523e-01 3.677043e-02 -1.712829e-01 3.190530e-01 3.530857e-01 2.751099e-01 3.700609e-01 3.254571e-01 2.955418e-01 2.270817e-01 5.048158e-01 2.311020e-01 -5.474565e-01
<VARIANCE> 25
 2.359149e+01 4.808932e+01 2.832776e+01 5.909697e+01 5.349498e+01 4.206475e+01 6.661475e+01 6.515623e+01 5.500253e+01 5.394212e+01 7.040935e+01 3.498663e+01 1.209473e+00 2.838138e+00 1.739372e+00 3.031648e+00 2.625754e+00 2.837914e+00 3.380791e+00 5.346144e+00 3.936785e+00 3.696054e+00 3.804055e+00 2.436920e+00 2.861945e+00
<GCONST> 1.060578e+02
<TRANSP> 5
 0.000000e+00 1.000000e+00 0.000000e+00 0.000000e+00 0.000000e+00
 0.000000e+00 6.389576e-01 3.610424e-01 0.000000e+00 0.000000e+00
 0.000000e+00 0.000000e+00 6.363513e-01 3.636487e-01 0.000000e+00
 0.000000e+00 0.000000e+00 0.000000e+00 7.583058e-01 2.416941e-01
 0.000000e+00 0.000000e+00 0.000000e+00 0.000000e+00 0.000000e+00
<ENDHMM>
~h "o"
<BEGINHMM>
<NUMSTATES> 5
<STATE> 2
<MEAN> 25
 2.339818e+00 -8.656335e-01 -4.171040e+00 -6.503768e+00 9.511487e-01 2.244250e+00 -1.893674e+00 -1.779658e+00 1.100620e-01 1.836356e+00 -4.716898e-01 -1.168470e+00 4.107287e-01 -1.995860e-01 -9.752467e-02 -9.948663e-01 -1.487875e-02 1.321361e-01 -1.511995e-02 -5.185627e-02 -2.931840e-01 -1.884623e-01 -1.646164e-01 -5.980112e-02 3.808933e-01
<VARIANCE> 25
 4.086458e+01 3.999323e+01 3.797614e+01 2.000597e+02 6.260158e+01 5.474430e+01 8.804951e+01 3.530779e+01 4.344197e+01 3.395853e+01 5.740626e+01 3.388390e+01 3.017951e+00 2.626725e+00 2.467164e+00 1.203180e+01 3.453552e+00 3.578498e+00 4.595708e+00 3.358922e+00 3.094368e+00 2.765599e+00 3.501408e+00 2.249907e+00 4.721899e+00
<GCONST> 1.098077e+02
<STATE> 3
<MEAN> 25
 3.181436e+00 -1.266407e+00 -4.209709e+00 -8.569643e+00 1.277310e+00 2.805204e+00 -1.664151e+00 -1.800303e+00 -5.109214e-01 1.022183e+00 -7.477870e-01 -1.274109e+00 1.390440e-01 -9.415140e-02 2.611801e-02 -3.921595e-01 7.177647e-02 5.101468e-02 2.887122e-02 5.669476e-02 -1.621021e-01 -1.968780e-01 -7.166178e-02 -4.642024e-03 1.654377e-01
<VARIANCE> 25
 3.649989e+01 4.065928e+01 3.495663e+01 2.159829e+02 6.179406e+01 5.870618e+01 8.193652e+01 3.596658e+01 4.444760e+01 3.458443e+01 5.288748e+01 3.388889e+01 2.684734e+00 2.681119e+00 2.299962e+00 1.191221e+01 3.179518e+00 3.261821e+00 4.303833e+00 3.086965e+00 3.124833e+00 2.786230e+00 3.286602e+00 2.170372e+00 4.260847e+00
<GCONST> 1.089809e+02
<STATE> 4
<MEAN> 25
 3.668679e+00 -1.983750e+00 -3.918698e+00 -9.612297e+00 1.367746e+00 2.896343e+00 -2.427670e+00 -1.574962e+00 -6.980773e-01 9.942752e-02 -1.199675e+00 -1.902723e+00 -2.281252e-01 1.212511e-01 1.737503e-01 6.819620e-01 2.665911e-02 -2.239581e-01 2.410216e-02 1.993675e-01 1.261563e-01 -1.472937e-01 2.606449e-02 -6.434900e-03 -1.901274e-01
<VARIANCE> 25
 3.073402e+01 4.082853e+01 3.007721e+01 2.220215e+02 6.437287e+01 6.132542e+01 8.887045e+01 3.418285e+01 4.434776e+01 3.832110e+01 5.191352e+01 3.532717e+01 2.069582e+00 2.828206e+00 1.832915e+00 9.021573e+00 2.672182e+00 3.155027e+00 3.761622e+00 2.893954e+00 3.132126e+00 2.821462e+00 3.422821e+00 2.116620e+00 3.517560e+00
<GCONST> 1.076492e+02
<TRANSP> 5
 0.000000e+00 1.000000e+00 0.000000e+00 0.000000e+00 0.000000e+00
 0.000000e+00 6.388801e-01 3.611198e-01 0.000000e+00 0.000000e+00
 0.000000e+00 0.000000e+00 6.444324e-01 3.555677e-01 0.000000e+00
 0.000000e+00 0.000000e+00 0.000000e+00 8.004694e-01 1.995306e-01
 0.000000e+00 0.000000e+00 0.000000e+00 0.000000e+00 0.000000e+00
<ENDHMM>
~h "p"
<BEGINHMM>
<NUMSTATES> 5
<STATE> 2
<MEAN> 25
 1.382638e+00 2.405987e+00 -5.428809e-01 -2.665726e-01 5.592636e-01 5.635678e-01 4.221320e-01 -3.371411e+00 -9.249746e-01 -3.704550e-01 -8.748356e-02 -3.611944e-01 -1.840640e-01 2.838874e-01 -3.014859e-02 2.890736e-01 1.177251e-01 -9.466038e-02 1.543749e-01 8.431137e-02 1.980575e-01 -5.005134e-02 1.192299e-02 -7.191056e-03 -1.512725e-01
<VARIANCE> 25
 3.454342e+01 4.535825e+01 3.291480e+01 1.240604e+02 4.649758e+01 4.134765e+01 5.973177e+01 4.773561e+01 5.435061e+01 4.318672e+01 5.304200e+01 3.276635e+01 2.961746e+00 3.831991e+00 2.941338e+00 1.374600e+01 4.188799e+00 3.529626e+00 5.640210e+00 4.274687e+00 4.713736e+00 3.975710e+00 4.444863e+00 3.151986e+00 9.697041e+00
<GCONST> 1.122042e+02
<STATE> 3
<MEAN> 25
 8.277119e-01 2.317686e+00 -8.153548e-01 -3.371525e-02 8.995844e-01 4.832770e-01 9.681147e-01 -2.496855e+00 -1.031686e-01 -5.210466e-02 1.097305e-01 -7.967864e-02 -9.685009e-02 -2.148453e-01 -7.571541e-02 -1.740539e-01 8.153912e-03 2.547994e-02 1.622424e-02 3.056428e-01 2.218543e-01 1.985677e-01 1.001637e-02 7.159024e-02 8.745962e-02
<VARIANCE> 25
 3.232930e+01 4.412143e+01 3.221568e+01 1.282346e+02 4.670520e+01 4.574101e+01 6.088699e+01 4.323669e+01 5.150985e+01 4.060653e+01 5.432106e+01 3.138175e+01 3.373868e+00 3.417951e+00 2.840177e+00 1.379741e+01 4.327553e+00 3.586282e+00 5.628409e+00 4.032719e+00 4.771804e+00 4.004772e+00 4.664575e+00 3.206624e+00 8.429157e+00
<GCONST> 1.119305e+02
<STATE> 4
<MEAN> 25
 4.032711e-01 1.374969e+00 -1.460420e+00 -1.278979e-01 1.448786e+00 5.614376e-01 2.052679e+00 -8.266224e-01 1.046774e+00 5.487131e-01 6.519237e-01 6.680060e-01 2.809993e-02 -2.889125e-01 -4.610567e-02 -2.966724e-01 -7.413873e-02 -4.729770e-02 -7.167321e-02 1.915633e-01 1.824313e-02 8.956371e-02 -7.068776e-02 3.057473e-02 2.657428e-01
<VARIANCE> 25
 2.742776e+01 4.350815e+01 2.491577e+01 1.459723e+02 4.251704e+01 4.704737e+01 5.866562e+01 3.856231e+01 4.629710e+01 3.626461e+01 5.865464e+01 2.889317e+01 2.301525e+00 2.462999e+00 2.100042e+00 9.800192e+00 3.210849e+00 3.209507e+00 3.802754e+00 3.259592e+00 3.703286e+00 3.223781e+00 3.908923e+00 2.548853e+00 5.572685e+00
<GCONST> 1.075226e+02
<TRANSP> 5
 0.000000e+00 1.000000e+00 0.000000e+00 0.000000e+00 0.000000e+00
 0.000000e+00 6.260750e-01 3.739250e-01 0.000000e+00 0.000000e+00
 0.000000e+00 0.000000e+00 6.152557e-01 3.847443e-01 0.000000e+00
 0.000000e+00 0.000000e+00 0.000000e+00 7.528335e-01 2.471665e-01
 0.000000e+00 0.000000e+00 0.000000e+00 0.000000e+00 0.000000e+00
<ENDHMM>
~h "r"
<BEGINHMM>
<NUMSTATES> 5
<STATE> 2
<MEAN> 25
 1.147308e+00 -1.787942e+00 -8.749740e-01 -8.438004e-01 -1.099902e+00 -1.684824e+00 -2.448719e+00 8.901139e-01 -2.749800e-01 -1.909622e+00 -2.528001e+00 -1.080036e+00 5.263127e-02 8.179467e-02 -1.128053e-02 1.106109e-01 -4.213618e-02 -2.241544e-01 -2.038783e-01 3.553170e-02 2.355364e-02 -2.956892e-02 9.866406e-02 1.551802e-02 9.822521e-02
<VARIANCE> 25
 3.807711e+01 7.035782e+01 3.154273e+01 9.054662e+01 6.264447e+01 4.886900e+01 8.699873e+01 5.854250e+01 4.578490e+01 5.125766e+01 7.595657e+01 3.164287e+01 2.255148e+00 3.230108e+00 1.803183e+00 4.735449e+00 3.325820e+00 3.378630e+00 4.391113e+00 4.533572e+00 3.633384e+00 3.540422e+00 4.416296e+00 2.441604e+00 4.382165e+00
<GCONST> 1.098557e+02
<STATE> 3
<MEAN> 25
 1.235120e+00 -1.365689e+00 -8.456088e-01 -3.084058e-01 -1.027592e+00 -2.057418e+00 -2.714498e+00 8.149206e-01 -1.010504e-01 -1.786746e+00 -2.022324e+00 -9.415579e-01 3.794472e-02 3.498684e-02 4.676509e-02 5.461635e-02 3.756138e-02 -6.678710e-02 -1.267477e-01 -8.024689e-03 6.219935e-02 6.551465e-02 1.420347e-01 5.003105e-02 1.107460e-01
<VARIANCE> 25
 3.853730e+01 6.314283e+01 3.287017e+01 8.465871e+01 6.223129e+01 4.893007e+01 8.504041e+01 5.573828e+01 4.705586e+01 5.226560e+01 7.166233e+01 3.016542e+01 2.749241e+00 3.718982e+00 1.977375e+00 4.984996e+00 3.531580e+00 3.677449e+00 4.951719e+00 4.736347e+00 3.865727e+00 3.800838e+00 4.384085e+00 2.529893e+00 4.595975e+00
<GCONST> 1.105972e+02
<STATE> 4
<MEAN> 25
 1.343286e+00 -1.698010e+00 -3.385215e-01 -4.062284e-01 -1.548596e+00 -2.479255e+00 -3.277868e+00 1.238371e+00 -4.003757e-01 -1.706263e+00 -2.749714e+00 -9.648162e-01 -1.944170e-02 -4.820125e-02 5.077773e-02 8.833835e-04 1.251364e-01 1.611063e-01 4.088046e-02 3.616012e-02 6.810496e-02 1.207301e-01 1.126884e-01 3.596979e-02 2.735201e-02
<VARIANCE> 25
 3.730384e+01 6.168733e+01 3.364791e+01 7.992913e+01 7.497372e+01 4.796719e+01 8.596185e+01 5.310038e+01 4.721724e+01 5.076999e+01 7.750755e+01 2.920564e+01 2.905260e+00 3.823134e+00 1.986991e+00 4.768295e+00 3.872225e+00 3.308583e+00 5.084325e+00 4.220995e+00 3.778628e+00 3.706048e+00 4.311442e+00 2.444183e+00 4.108085e+00
<GCONST> 1.103858e+02
<TRANSP> 5
 0.000000e+00 1.000000e+00 0.000000e+00 0.000000e+00 0.000000e+00
 0.000000e+00 5.705953e-01 4.294047e-01 0.000000e+00 0.000000e+00
 0.000000e+00 0.000000e+00 5.677956e-01 4.322044e-01 0.000000e+00
 0.000000e+00 0.000000e+00 0.000000e+00 7.011019e-01 2.988981e-01
 0.000000e+00 0.000000e+00 0.000000e+00 0.000000e+00 0.000000e+00
<ENDHMM>
~h "s"
<BEGINHMM>
<NUMSTATES> 5
<STATE> 2
<MEAN> 25
 -7.863733e+00 6.231155e+00 -2.364129e+00 4.637801e+00 2.809064e+00 -3.333845e+00 3.432975e+00 8.693658e-01 1.325097e+00 -1.773516e+00 1.269130e+00 1.364100e-01 -2.051047e+00 1.032443e+00 -7.126697e-01 1.155626e+00 7.235106e-01 2.218361e-01 1.361861e+00 1.174028e-01 4.729261e-01 2.071580e-01 8.337548e-01 5.115083e-01 -3.810176e-01
<VARIANCE> 25
 7.261868e+01 3.912270e+01 3.115142e+01 5.244544e+01 4.957445e+01 4.023980e+01 6.624728e+01 3.807340e+01 3.713868e+01 3.698432e+01 3.372744e+01 2.170770e+01 5.465800e+00 4.529761e+00 2.671843e+00 4.859166e+00 4.322450e+00 3.492642e+00 6.183155e+00 3.791993e+00 3.560582e+00 3.387987e+00 3.287302e+00 2.176822e+00 1.792926e+00
<GCONST> 1.072338e+02
<STATE> 3
<MEAN> 25
 -1.160808e+01 7.209559e+00 -3.812680e+00 6.258801e+00 3.566843e+00 -2.654393e+00 5.786013e+00 1.141769e+00 2.191283e+00 -6.081077e-01 2.905819e+00 1.441625e+00 -4.945175e-01 5.658306e-02 -2.028050e-01 2.219644e-01 -1.979810e-02 8.350979e-02 2.531119e-01 -2.697779e-02 9.665933e-02 1.785469e-01 2.536370e-01 2.029371e-01 -9.146501e-02
<VARIANCE> 25
 6.323717e+01 3.217992e+01 2.804193e+01 3.954654e+01 3.626833e+01 3.688072e+01 4.203542e+01 3.244209e+01 2.880824e+01 2.730535e+01 2.388471e+01 1.864948e+01 4.479363e+00 2.257212e+00 1.866734e+00 2.466275e+00 2.686203e+00 2.381834e+00 4.010285e+00 2.524612e+00 2.567219e+00 2.348133e+00 2.316996e+00 1.835841e+00 1.611407e+00
<GCONST> 9.949255e+01
<STATE> 4
<MEAN> 25
 -1.028049e+01 6.519759e+00 -3.278684e+00 6.342535e+00 2.934755e+00 -3.246858e+00 6.171776e+00 8.600556e-01 2.418052e+00 1.987496e-01 3.197131e+00 1.939458e+00 8.435358e-01 -4.428392e-01 4.293511e-01 -3.468003e-01 -5.734134e-01 -1.137579e-01 -5.835064e-01 -2.147842e-01 -2.028112e-01 -6.953663e-02 -2.174716e-01 -1.436612e-01 6.799895e-02
<VARIANCE> 25
 6.212560e+01 3.394840e+01 2.826106e+01 3.587428e+01 3.923491e+01 3.840325e+01 4.696770e+01 3.529175e+01 3.026910e+01 2.507540e+01 2.326299e+01 1.839684e+01 3.741742e+00 2.101137e+00 2.388767e+00 2.448434e+00 3.490671e+00 2.413693e+00 4.553463e+00 2.649829e+00 2.576834e+00 2.043498e+00 2.212445e+00 1.616613e+00 1.717646e+00
<GCONST> 9.987079e+01
<TRANSP> 5
 0.000000e+00 1.000000e+00 0.000000e+00 0.000000e+00 0.000000e+00
 0.000000e+00 7.025983e-01 2.974016e-01 0.000000e+00 0.000000e+00
 0.000000e+00 0.000000e+00 7.006584e-01 2.993416e-01 0.000000e+00
 0.000000e+00 0.000000e+00 0.000000e+00 8.717383e-01 1.282618e-01
 0.000000e+00 0.000000e+00 0.000000e+00 0.000000e+00 0.000000e+00
<ENDHMM>
~h "t"
<BEGINHMM>
<NUMSTATES> 5
<STATE> 2
<MEAN> 25
 -1.565784e-01 1.422281e+00 -2.549388e-03 2.546938e+00 8.154444e-01 -3.786080e-01 1.235183e+00 2.673982e-01 1.132612e+00 -4.889101e-01 3.146734e-01 4.158791e-02 -3.035109e-01 2.645963e-01 -8.746324e-02 6.017236e-01 3.748637e-01 8.119757e-02 4.211197e-01 7.547356e-02 5.247203e-01 1.310941e-01 3.573593e-01 1.445353e-01 -5.828606e-01
<VARIANCE> 25
 2.538472e+01 4.543242e+01 2.872568e+01 6.573300e+01 6.176014e+01 3.677075e+01 9.039317e+01 5.356431e+01 4.593019e+01 4.196703e+01 5.890589e+01 3.189934e+01 1.659343e+00 3.670788e+00 2.330268e+00 5.917212e+00 4.800343e+00 3.523792e+00 6.872049e+00 4.662465e+00 3.881171e+00 3.853821e+00 4.357180e+00 2.624938e+00 1.000026e+01
<GCONST> 1.100268e+02
<STATE> 3
<MEAN> 25
 -9.567046e-01 1.488251e+00 -2.655983e-01 3.421637e+00 1.474642e+00 6.016195e-04 2.229517e+00 8.379205e-01 2.424625e+00 9.102038e-02 1.251349e+00 6.496918e-01 -1.991667e-01 -1.205267e-01 -8.788522e-02 -4.498711e-02 -5.065975e-02 -1.423181e-02 -2.847882e-02 8.001972e-02 2.447336e-01 1.407858e-01 1.479676e-01 6.619333e-02 2.195520e-01
<VARIANCE> 25
 2.446584e+01 3.669040e+01 2.739077e+01 5.668545e+01 5.485273e+01 3.573718e+01 8.378515e+01 4.465019e+01 4.065678e+01 3.631348e+01 5.048778e+01 2.964516e+01 1.847570e+00 3.389552e+00 2.338762e+00 5.788931e+00 5.046273e+00 3.970932e+00 7.966389e+00 4.483228e+00 3.701449e+00 3.450427e+00 4.798179e+00 2.729879e+00 1.070145e+01
<GCONST> 1.090142e+02
<STATE> 4
<MEAN> 25
 -1.696551e+00 9.917192e-01 -7.936201e-01 2.964059e+00 1.284515e+00 -6.403059e-01 2.229584e+00 1.158489e+00 2.889587e+00 6.814779e-01 1.665773e+00 9.904727e-01 8.603857e-02 -2.565619e-01 1.112104e-01 -7.246050e-01 -6.588185e-01 -2.811504e-01 -8.344585e-01 -2.751103e-01 -2.745339e-01 -4.600422e-02 -3.260364e-01 -2.570449e-01 1.255850e+00
<VARIANCE> 25
 2.360623e+01 3.803464e+01 2.432374e+01 5.985078e+01 6.216949e+01 3.598132e+01 1.000277e+02 4.273644e+01 3.786890e+01 3.419416e+01 5.064189e+01 2.906791e+01 1.911450e+00 3.002943e+00 2.712626e+00 5.603146e+00 6.104003e+00 4.352545e+00 9.334323e+00 4.629007e+00 3.639694e+00 3.151366e+00 4.882257e+00 2.779769e+00 9.745430e+00
<GCONST> 1.094032e+02
<TRANSP> 5
 0.000000e+00 1.000000e+00 0.000000e+00 0.000000e+00 0.000000e+00
 0.000000e+00 5.992847e-01 4.007153e-01 0.000000e+00 0.000000e+00
 0.000000e+00 0.000000e+00 5.969412e-01 4.030587e-01 0.000000e+00
 0.000000e+00 0.000000e+00 0.000000e+00 7.344691e-01 2.655309e-01
 0.000000e+00 0.000000e+00 0.000000e+00 0.000000e+00 0.000000e+00
<ENDHMM>
~h "u"
<BEGINHMM>
<NUMSTATES> 5
<STATE> 2
<MEAN> 25
 3.357224e+00 1.621533e+00 -1.037920e+00 -3.775889e+00 -3.712687e+00 -6.470520e-02 -6.066147e+00 -4.989971e+00 -2.848923e+00 -5.728447e-01 -7.166762e-01 -1.667452e+00 6.882827e-01 1.443445e-02 3.523184e-02 -1.047452e+00 -8.735829e-01 4.451593e-01 -1.116984e+00 -7.290564e-01 -7.772201e-01 2.270445e-02 -2.693310e-02 -3.511820e-01 7.180959e-01
<VARIANCE> 25
 3.220643e+01 3.396990e+01 3.349929e+01 1.069480e+02 8.337604e+01 6.348295e+01 1.404160e+02 6.007209e+01 6.148003e+01 5.046915e+01 5.951906e+01 4.198112e+01 2.701157e+00 2.504272e+00 2.761498e+00 7.159450e+00 6.463346e+00 6.169176e+00 9.998863e+00 4.397418e+00 4.828396e+00 4.693033e+00 5.470668e+00 3.699503e+00 4.538410e+00
<GCONST> 1.146122e+02
<STATE> 3
<MEAN> 25
 4.680000e+00 1.656810e+00 -1.126284e+00 -6.062145e+00 -5.478112e+00 1.383130e+00 -7.500560e+00 -6.292974e+00 -4.599134e+00 -5.283390e-01 -4.882070e-01 -2.056012e+00 2.649756e-01 1.802931e-02 2.343810e-02 -5.731754e-01 -2.647203e-01 2.740763e-01 -1.839618e-01 -1.727765e-01 -3.627026e-01 1.028305e-01 7.034997e-02 8.667683e-03 1.672281e-01
<VARIANCE> 25
 2.868549e+01 3.542705e+01 3.092995e+01 1.046989e+02 8.258176e+01 6.047772e+01 1.275808e+02 5.984394e+01 6.102093e+01 5.751413e+01 6.524412e+01 4.115553e+01 2.077439e+00 2.201961e+00 2.380181e+00 6.904886e+00 5.890452e+00 5.373476e+00 7.650458e+00 3.888218e+00 4.807858e+00 4.334436e+00 4.462625e+00 3.271842e+00 3.266409e+00
<GCONST> 1.125379e+02
<STATE> 4
<MEAN> 25
 5.514662e+00 2.372055e+00 -1.964465e+00 -7.621720e+00 -5.522112e+00 2.015079e+00 -7.141102e+00 -6.724256e+00 -5.846875e+00 -3.963328e-01 -2.037859e-01 -1.620468e+00 -2.244658e-01 6.425912e-02 7.222129e-02 3.041021e-01 4.037738e-01 -1.706475e-01 4.945940e-01 3.118619e-01 2.547314e-01 1.329124e-02 1.871927e-02 1.470591e-01 -3.624634e-01
<VARIANCE> 25
 3.029975e+01 3.445396e+01 3.095016e+01 1.056480e+02 7.658060e+01 5.460630e+01 1.070646e+02 5.046660e+01 6.018478e+01 5.310669e+01 5.482888e+01 3.954885e+01 1.767050e+00 2.018766e+00 1.891508e+00 5.723814e+00 4.619004e+00 3.993190e+00 5.502872e+00 3.035046e+00 4.205756e+00 3.547793e+00 3.399687e+00 2.547571e+00 2.181659e+00
<GCONST> 1.087007e+02
<TRANSP> 5
 0.000000e+00 1.000000e+00 0.000000e+00 0.000000e+00 0.000000e+00
 0.000000e+00 6.443790e-01 3.556210e-01 0.000000e+00 0.000000e+00
 0.000000e+00 0.000000e+00 6.464252e-01 3.535748e-01 0.000000e+00
 0.000000e+00 0.000000e+00 0.000000e+00 8.209423e-01 1.790577e-01
 0.000000e+00 0.000000e+00 0.000000e+00 0.000000e+00 0.000000e+00
<ENDHMM>
~h "w"
<BEGINHMM>
<NUMSTATES> 5
<STATE> 2
<MEAN> 25
 3.355600e+00 2.929471e-01 -2.873177e+00 -9.229943e+00 1.532547e-01 1.785801e-01 -3.440171e+00 -3.920153e+00 -9.915745e-01 1.252204e+00 -5.064247e-01 1.019693e+00 8.900077e-01 -8.399100e-01 -2.474079e-01 -1.489564e+00 -4.818664e-02 2.061367e-01 3.933709e-02 -1.102896e-01 -4.322073e-02 -4.756449e-02 -6.387782e-01 -2.296830e-01 6.912659e-01
<VARIANCE> 25
 4.727319e+01 4.344856e+01 2.475455e+01 1.734253e+02 9.824555e+01 4.736370e+01 6.493228e+01 5.789204e+01 4.739701e+01 4.299506e+01 5.586773e+01 2.422379e+01 4.623703e+00 2.336024e+00 1.150354e+00 4.829926e+00 4.320237e+00 2.878282e+00 3.413115e+00 4.935450e+00 3.337103e+00 3.604214e+00 2.805528e+00 3.111053e+00 1.258082e+00
<GCONST> 1.077689e+02
<STATE> 3
<MEAN> 25
 4.436596e+00 -2.632954e+00 -3.334492e+00 -1.229693e+01 1.671723e+00 7.999147e-01 -2.857847e+00 -3.482955e+00 -4.559576e-01 1.124649e+00 -2.837679e+00 2.492979e-01 1.809996e-01 -1.143567e+00 -5.558323e-02 -6.596675e-01 6.130189e-01 1.393867e-01 2.429713e-01 1.678852e-01 2.857858e-01 -3.748296e-01 -8.340558e-01 -3.284961e-01 8.387673e-01
<VARIANCE> 25
 3.010132e+01 5.557694e+01 2.585967e+01 1.825920e+02 1.023192e+02 5.236378e+01 5.857631e+01 5.218990e+01 4.347247e+01 3.858741e+01 7.384836e+01 2.612294e+01 2.192694e+00 2.566882e+00 8.444677e-01 4.303049e+00 3.613733e+00 2.243258e+00 2.893778e+00 3.082799e+00 2.596924e+00 3.976865e+00 2.894865e+00 2.814450e+00 1.486547e+00
<GCONST> 1.055588e+02
<STATE> 4
<MEAN> 25
 3.964151e+00 -8.210204e+00 -4.043387e+00 -1.264543e+01 6.461180e+00 8.481143e-01 -2.720211e+00 -1.865231e+00 -5.544335e-01 -1.532605e+00 -6.815323e+00 -6.359580e-01 -1.387464e-01 -6.101851e-01 4.265459e-02 5.218347e-01 4.368894e-01 -1.296875e-01 3.473116e-01 2.019535e-01 1.097866e-01 -6.267746e-01 -2.493736e-01 -1.121510e-02 1.563754e-01
<VARIANCE> 25
 1.975223e+01 6.258448e+01 2.262593e+01 1.505200e+02 8.041949e+01 5.048043e+01 5.538194e+01 4.801052e+01 3.974237e+01 3.595893e+01 8.907037e+01 2.890391e+01 9.943826e-01 2.875863e+00 8.896316e-01 3.451454e+00 3.033028e+00 1.962778e+00 2.107021e+00 1.973645e+00 2.065868e+00 2.821855e+00 3.212378e+00 2.330058e+00 2.517034e+00
<GCONST> 1.025932e+02
<TRANSP> 5
 0.000000e+00 1.000000e+00 0.000000e+00 0.000000e+00 0.000000e+00
 0.000000e+00 5.820226e-01 4.179774e-01 0.000000e+00 0.000000e+00
 0.000000e+00 0.000000e+00 5.812636e-01 4.187364e-01 0.000000e+00
 0.000000e+00 0.000000e+00 0.000000e+00 7.873130e-01 2.126870e-01
 0.000000e+00 0.000000e+00 0.000000e+00 0.000000e+00 0.000000e+00
<ENDHMM>
~h "y"
<BEGINHMM>
<NUMSTATES> 5
<STATE> 2
<MEAN> 25
 5.080762e-01 -1.213310e-01 1.284157e+01 -7.046580e+00 -1.427161e+01 -5.843812e+00 -1.004565e+01 -1.998190e+00 -6.944768e+00 -5.038214e-01 -1.273672e+00 -4.127289e+00 2.264813e-01 -3.147387e-01 -4.187304e-01 -3.684877e-01 5.559404e-02 -3.406663e-01 -1.568645e-01 3.827730e-01 2.261487e-01 4.734214e-01 -1.131191e-01 1.776559e-01 1.485913e-01
<VARIANCE> 25
 2.047070e+01 3.492398e+01 9.057063e+01 4.669188e+01 8.528511e+01 6.937590e+01 6.453029e+01 5.013103e+01 5.452617e+01 4.866411e+01 5.092339e+01 3.475615e+01 6.664732e-01 1.376462e+00 3.710107e+00 1.660076e+00 3.714775e+00 2.894452e+00 2.740081e+00 2.853559e+00 2.851165e+00 1.956907e+00 2.119122e+00 1.738847e+00 9.661242e-01
<GCONST> 1.021506e+02
<STATE> 3
<MEAN> 25
 3.021515e+00 -3.149789e+00 5.985119e+00 -1.013666e+01 -1.071920e+01 -5.897354e+00 -1.061817e+01 1.130888e-02 -3.689462e+00 2.939879e+00 -3.335600e+00 -3.949594e+00 3.868306e-01 -3.901759e-01 -1.044282e+00 -4.956627e-01 6.858535e-01 2.593820e-01 3.010984e-02 1.868694e-01 3.559287e-01 4.238214e-01 -2.294834e-01 -8.542667e-02 -2.571270e-02
<VARIANCE> 25
 2.325645e+01 3.226003e+01 1.122713e+02 6.493578e+01 1.123313e+02 7.498511e+01 9.107639e+01 4.881247e+01 5.806430e+01 5.548839e+01 6.862157e+01 4.289211e+01 5.663397e-01 1.134360e+00 2.233800e+00 1.930470e+00 2.987668e+00 3.091502e+00 2.548473e+00 2.820269e+00 2.931385e+00 2.208010e+00 2.336721e+00 1.940751e+00 9.283001e-01
<GCONST> 1.034845e+02
<STATE> 4
<MEAN> 25
 5.124073e+00 -4.256873e+00 -9.705330e-01 -1.250430e+01 -5.374951e+00 -4.271502e-01 -9.688918e+00 -3.050416e-01 -2.381827e+00 4.863800e+00 -3.859871e+00 -2.707376e+00 1.064200e-01 7.385807e-02 -4.839648e-01 -5.063150e-02 5.033383e-01 4.749955e-01 3.308510e-01 -9.061355e-02 -7.289527e-02 -6.219765e-02 1.365894e-01 2.091415e-01 -5.159267e-01
<VARIANCE> 25
 2.081962e+01 2.814713e+01 7.888812e+01 1.007615e+02 1.019782e+02 5.777719e+01 1.108182e+02 4.163917e+01 4.439340e+01 4.207886e+01 7.172212e+01 5.448950e+01 6.029845e-01 1.148918e+00 1.600251e+00 2.715976e+00 2.426195e+00 2.246795e+00 2.691290e+00 2.115553e+00 2.402547e+00 1.878715e+00 2.572285e+00 1.574060e+00 1.428491e+00
<GCONST> 1.020224e+02
<TRANSP> 5
 0.000000e+00 1.000000e+00 0.000000e+00 0.000000e+00 0.000000e+00
 0.000000e+00 8.261619e-01 1.738381e-01 0.000000e+00 0.000000e+00
 0.000000e+00 0.000000e+00 7.743915e-01 2.256086e-01 0.000000e+00
 0.000000e+00 0.000000e+00 0.000000e+00 8.335419e-01 1.664581e-01
 0.000000e+00 0.000000e+00 0.000000e+00 0.000000e+00 0.000000e+00
<ENDHMM>
~h "z"
<BEGINHMM>
<NUMSTATES> 5
<STATE> 2
<MEAN> 25
 -5.556780e+00 7.055065e+00 -2.153590e+00 6.201835e+00 -5.543315e+00 -5.476665e+00 1.575579e+00 -2.292030e+00 -5.972416e-01 -2.863501e+00 1.983134e+00 1.958002e+00 2.208847e-01 -2.531375e-01 4.159428e-01 -3.519647e-01 -8.157880e-01 8.585377e-02 -7.138460e-01 -2.355901e-01 -4.175007e-01 5.385018e-02 -4.521110e-02 -4.568849e-01 5.208770e-01
<VARIANCE> 25
 4.277489e+01 9.044167e+01 4.916791e+01 6.945126e+01 1.581116e+02 3.252686e+01 1.108068e+02 5.311341e+01 2.548607e+01 3.864072e+01 2.362209e+01 2.733021e+01 1.807133e+00 2.714609e+00 2.092190e+00 2.105395e+00 2.232169e+00 2.683366e+00 4.342710e+00 4.515871e+00 1.843952e+00 2.792640e+00 2.514170e+00 1.873742e+00 1.419941e+00
<GCONST> 1.043103e+02
<STATE> 3
<MEAN> 25
 -3.200976e+00 4.185066e+00 4.046541e-01 3.581403e+00 -9.581828e+00 -4.717768e+00 -2.519175e+00 -2.552857e+00 -2.320044e+00 -2.914193e+00 1.234120e+00 -6.006578e-01 3.993506e-01 -2.305757e-01 4.848123e-01 -4.540650e-01 -7.990558e-01 1.916739e-01 -6.558987e-01 -6.381397e-01 -4.883429e-01 7.722993e-02 -1.009870e-01 -5.708830e-01 3.189123e-01
<VARIANCE> 25
 3.385541e+01 1.010590e+02 6.141582e+01 8.725442e+01 1.971235e+02 2.975963e+01 1.251912e+02 9.040082e+01 2.915540e+01 3.308194e+01 1.737174e+01 3.183643e+01 1.800346e+00 2.062028e+00 2.050641e+00 1.760140e+00 2.767461e+00 2.177231e+00 4.958565e+00 4.479455e+00 1.911545e+00 2.426809e+00 1.989416e+00 1.663494e+00 1.440808e+00
<GCONST> 1.044576e+02
<STATE> 4
<MEAN> 25
 1.453251e-01 1.655837e+00 2.985773e+00 -6.210412e-01 -1.197947e+01 3.484699e-01 -6.878307e+00 -4.931859e+00 -4.046017e+00 -6.331556e+00 -1.686486e+00 -3.791386e+00 3.264190e-01 -2.252221e-01 1.679024e-01 -1.264337e-01 1.361660e-01 1.896463e-01 -1.728251e-01 -7.971454e-02 -5.757762e-02 5.150348e-02 -1.602409e-01 -1.973284e-01 -1.969510e-01
<VARIANCE> 25
 4.184719e+01 7.647595e+01 6.362625e+01 7.035677e+01 1.585723e+02 5.742392e+01 9.661069e+01 1.880085e+02 2.525356e+01 3.615897e+01 3.415538e+01 2.405113e+01 1.053980e+00 1.854637e+00 2.592278e+00 3.639135e+00 4.188288e+00 2.925804e+00 4.106196e+00 5.942692e+00 1.775565e+00 1.468118e+00 2.098456e+00 1.646914e+00 1.925422e+00
<GCONST> 1.063448e+02
<TRANSP> 5
 0.000000e+00 1.000000e+00 0.000000e+00 0.000000e+00 0.000000e+00
 0.000000e+00 7.007165e-01 2.992835e-01 0.000000e+00 0.000000e+00
 0.000000e+00 0.000000e+00 6.613703e-01 3.386298e-01 0.000000e+00
 0.000000e+00 0.000000e+00 0.000000e+00 8.841586e-01 1.158414e-01
 0.000000e+00 0.000000e+00 0.000000e+00 0.000000e+00 0.000000e+00
<ENDHMM>
~h "aw"
<BEGINHMM>
<NUMSTATES> 5
<STATE> 2
<MEAN> 25
 1.397015e+00 -5.606987e+00 -3.408084e+00 -1.104220e+01 1.760046e-01 -1.583325e-01 -1.001987e+01 -1.752047e-01 -9.869579e-01 -6.116624e-01 -5.887649e+00 -4.124937e+00 -4.152777e-02 1.438774e-01 -7.172281e-03 -7.187424e-01 2.287831e-01 2.227721e-01 -2.129016e-01 -3.572404e-01 -9.651358e-02 -1.733658e-01 8.368374e-02 -3.216053e-02 3.076015e-01
<VARIANCE> 25
 8.507534e+01 1.496652e+02 8.577227e+00 1.158327e+02 3.408612e+01 4.053168e+01 1.021470e+02 4.147623e+01 3.252560e+01 2.750536e+01 4.260107e+01 3.665685e+01 4.711451e+00 6.844182e+00 8.252487e-01 7.255704e+00 2.150237e+00 3.075705e+00 6.675541e+00 3.494345e+00 2.792692e+00 2.880209e+00 3.377193e+00 1.965634e+00 4.002864e+00
<GCONST> 1.076991e+02
<STATE> 3
<MEAN> 25
 -2.178982e+00 -7.282033e-01 -4.149567e+00 -8.290111e+00 1.520456e+00 -2.398531e+00 -7.826352e+00 5.786808e-01 -7.683432e-01 -8.013470e-01 -4.873582e+00 -2.581745e+00 3.679428e-01 -3.472470e-01 -3.964325e-03 -1.800844e-01 -1.254267e-01 1.706249e-01 -1.972989e-01 1.588050e-01 2.995363e-01 -1.351656e-01 -1.496730e-01 -4.684866e-02 1.193912e-01
<VARIANCE> 25
 1.362217e+02 1.576629e+02 9.711410e+00 1.140002e+02 3.472557e+01 5.191328e+01 1.062473e+02 4.199687e+01 4.305643e+01 2.814354e+01 3.104898e+01 2.678175e+01 7.772249e+00 7.617139e+00 8.599815e-01 6.883896e+00 2.394254e+00 2.661920e+00 8.413339e+00 3.021262e+00 3.197116e+00 2.392666e+00 2.670395e+00 2.190519e+00 2.726194e+00
<GCONST> 1.084056e+02
<STATE> 4
<MEAN> 25
 6.799491e+00 -8.392641e+00 -3.701158e+00 -1.641312e+01 -1.650716e+00 3.169596e+00 -8.722067e+00 3.960707e-01 9.401346e-01 -3.276382e+00 -6.902961e+00 -2.471978e+00 -1.178398e-01 5.583944e-01 2.390727e-02 5.627636e-01 2.018052e-01 -6.874662e-02 3.890721e-01 -5.980065e-02 -2.343430e-01 1.293049e-01 2.758065e-01 7.296695e-03 -5.396004e-01
<VARIANCE> 25
 1.176325e+01 6.824686e+01 8.189381e+00 7.435689e+01 8.222889e+01 2.825869e+01 5.077067e+01 6.217414e+01 4.667903e+01 2.131093e+01 2.019715e+01 1.659762e+01 6.569881e-01 3.266647e+00 6.448603e-01 2.439116e+00 2.157186e+00 1.664344e+00 2.554046e+00 2.316838e+00 1.980174e+00 1.266086e+00 1.697123e+00 1.169033e+00 1.547916e+00
<GCONST> 9.388606e+01
<TRANSP> 5
 0.000000e+00 1.000000e+00 0.000000e+00 0.000000e+00 0.000000e+00
 0.000000e+00 8.175371e-01 1.824629e-01 0.000000e+00 0.000000e+00
 0.000000e+00 0.000000e+00 8.572018e-01 1.427982e-01 0.000000e+00
 0.000000e+00 0.000000e+00 0.000000e+00 8.619006e-01 1.380995e-01
 0.000000e+00 0.000000e+00 0.000000e+00 0.000000e+00 0.000000e+00
<ENDHMM>
~h "ax"
<BEGINHMM>
<NUMSTATES> 5
<STATE> 2
<MEAN> 25
 4.528568e-01 -4.663006e-01 -2.702954e-01 4.176127e-01 1.286181e-01 -5.598388e-01 -4.484688e-01 1.301862e+00 4.959932e-01 -6.980767e-01 -6.741882e-01 -4.305828e-01 1.211819e-01 -1.123798e-01 1.150641e-01 -1.854078e-02 -1.333944e-01 4.595808e-02 -7.128604e-02 -2.937058e-02 -1.965718e-02 -5.642516e-02 -3.834755e-02 -5.631442e-02 6.506593e-02
<VARIANCE> 25
 2.730422e+01 5.572816e+01 2.481805e+01 8.944059e+01 5.553814e+01 4.163239e+01 8.286652e+01 6.052583e+01 4.695871e+01 4.594251e+01 6.175555e+01 3.327859e+01 1.513536e+00 2.896013e+00 1.775084e+00 4.475844e+00 2.753078e+00 2.937505e+00 3.674460e+00 4.673676e+00 3.388165e+00 3.493277e+00 3.617224e+00 2.385791e+00 3.962056e+00
<GCONST> 1.070377e+02
<STATE> 3
<MEAN> 25
 6.678451e-01 -5.099417e-01 -1.168237e-01 4.243528e-01 -2.310526e-01 -5.549797e-01 -5.776315e-01 9.514490e-01 4.310017e-01 -8.070498e-01 -7.096841e-01 -6.117558e-01 5.309054e-02 3.630755e-03 5.006937e-02 1.145436e-02 -1.697737e-01 -1.800429e-02 -1.098794e-01 -1.781328e-01 -1.156914e-02 8.760056e-03 -6.368336e-04 -6.730492e-02 1.079859e-01
<VARIANCE> 25
 2.798749e+01 5.659307e+01 2.519986e+01 8.595776e+01 5.608170e+01 4.112117e+01 8.277896e+01 6.522391e+01 4.702251e+01 4.456802e+01 6.237348e+01 3.397299e+01 1.302942e+00 3.012348e+00 1.700250e+00 4.434099e+00 2.910729e+00 3.062232e+00 3.716178e+00 4.937779e+00 3.211643e+00 3.636072e+00 3.548995e+00 2.335282e+00 4.444182e+00
<GCONST> 1.071876e+02
<STATE> 4
<MEAN> 25
 7.605546e-01 -4.558109e-01 -9.983948e-02 2.515025e-01 -7.642267e-01 -6.015218e-01 -9.801061e-01 5.810311e-01 5.726308e-01 -5.980158e-01 -6.007927e-01 -9.023259e-01 3.674720e-02 -9.113717e-02 1.778373e-03 -1.619367e-01 -2.284530e-01 -1.187239e-01 -3.139253e-01 -1.054569e-01 -1.010954e-02 1.177488e-02 -2.574739e-02 -1.127189e-01 3.726389e-01
<VARIANCE> 25
 2.815959e+01 5.485715e+01 2.649780e+01 8.357147e+01 5.557103e+01 4.117154e+01 8.612542e+01 6.466624e+01 4.467765e+01 4.213095e+01 6.092780e+01 3.434415e+01 1.218256e+00 3.085034e+00 1.594476e+00 4.759706e+00 3.196218e+00 2.941357e+00 4.217810e+00 4.494184e+00 3.056302e+00 3.491840e+00 3.594739e+00 2.329162e+00 5.027936e+00
<GCONST> 1.071804e+02
<TRANSP> 5
 0.000000e+00 1.000000e+00 0.000000e+00 0.000000e+00 0.000000e+00
 0.000000e+00 5.556256e-01 4.443745e-01 0.000000e+00 0.000000e+00
 0.000000e+00 0.000000e+00 5.521439e-01 4.478561e-01 0.000000e+00
 0.000000e+00 0.000000e+00 0.000000e+00 6.639214e-01 3.360786e-01
 0.000000e+00 0.000000e+00 0.000000e+00 0.000000e+00 0.000000e+00
<ENDHMM>
~h "ay"
<BEGINHMM>
<NUMSTATES> 5
<STATE> 2
<MEAN> 25
 2.968472e+00 -9.248740e+00 2.697316e+00 -1.037568e+01 -3.296644e+00 -4.372136e+00 -6.698602e+00 5.224528e+00 -2.866444e+00 -4.064750e+00 -8.306250e+00 -4.120585e-01 -3.815565e-02 -5.289094e-01 2.150210e-01 -2.901720e-01 -3.411248e-01 2.227650e-01 -7.848084e-03 3.787031e-01 -4.194596e-01 -2.746586e-01 -2.772161e-01 1.611481e-01 4.287110e-01
<VARIANCE> 25
 1.158043e+01 6.370495e+01 6.205952e+01 5.341013e+01 9.011014e+01 9.967456e+01 7.111832e+01 5.159894e+01 4.481654e+01 4.706286e+01 6.535834e+01 2.603819e+01 5.922812e-01 3.529959e+00 2.088374e+00 2.213206e+00 4.177562e+00 2.466887e+00 4.411687e+00 3.976194e+00 2.444633e+00 3.556691e+00 4.153473e+00 1.797300e+00 1.910569e+00
<GCONST> 1.053469e+02
<STATE> 3
<MEAN> 25
 2.913583e+00 -9.398633e+00 3.108545e+00 -1.023150e+01 -5.264915e+00 -3.500808e+00 -7.256048e+00 5.693079e+00 -3.773965e+00 -3.580789e+00 -8.969464e+00 -1.000733e+00 -5.443676e-02 -3.053694e-02 1.314865e-01 -5.488902e-03 -2.808894e-01 1.645278e-01 1.866899e-01 4.173328e-03 -2.129711e-01 -2.308131e-02 -1.172898e-02 -7.642038e-02 -2.627119e-02
<VARIANCE> 25
 1.211916e+01 6.316675e+01 6.222752e+01 4.850751e+01 9.748679e+01 9.686735e+01 5.586647e+01 5.245469e+01 4.039268e+01 5.656568e+01 6.160883e+01 2.348353e+01 4.472150e-01 2.687590e+00 1.900371e+00 1.506638e+00 3.844920e+00 1.920979e+00 2.995290e+00 3.450292e+00 1.818218e+00 3.087150e+00 2.938929e+00 1.379555e+00 1.056886e+00
<GCONST> 1.014983e+02
<STATE> 4
<MEAN> 25
 3.370322e+00 -9.263341e+00 2.240971e+00 -8.887006e+00 -5.777879e+00 -1.057493e+00 -7.092174e+00 6.574792e+00 -4.961059e+00 -5.126744e+00 -8.549622e+00 -1.799323e+00 -1.322169e-01 5.802799e-01 2.109750e-01 3.650536e-01 -2.062199e-01 -9.283323e-02 2.478177e-01 -1.200848e-01 -5.229187e-02 1.918669e-01 3.770675e-01 -1.110641e-01 -5.585782e-01
<VARIANCE> 25
 1.402878e+01 8.274968e+01 4.662033e+01 5.555936e+01 1.167981e+02 4.289781e+01 4.642183e+01 5.003815e+01 3.824041e+01 5.646397e+01 4.876296e+01 2.174758e+01 5.661019e-01 2.533627e+00 1.780720e+00 1.959607e+00 4.166550e+00 1.686131e+00 2.782738e+00 3.080074e+00 2.209575e+00 3.066726e+00 2.536625e+00 1.434048e+00 1.156317e+00
<GCONST> 1.008355e+02
<TRANSP> 5
 0.000000e+00 1.000000e+00 0.000000e+00 0.000000e+00 0.000000e+00
 0.000000e+00 7.655686e-01 2.344314e-01 0.000000e+00 0.000000e+00
 0.000000e+00 0.000000e+00 7.413233e-01 2.586768e-01 0.000000e+00
 0.000000e+00 0.000000e+00 0.000000e+00 9.079605e-01 9.203943e-02
 0.000000e+00 0.000000e+00 0.000000e+00 0.000000e+00 0.000000e+00
<ENDHMM>
~h "ey"
<BEGINHMM>
<NUMSTATES> 5
<STATE> 2
<MEAN> 25
 2.466733e+00 -3.177965e+00 2.650051e+00 -5.612827e+00 -9.882071e+00 -4.382357e-01 -3.995919e+00 -1.031105e+00 -4.723568e+00 -1.124322e+00 -1.039635e+00 -4.685198e+00 -4.905641e-02 -2.059518e-01 5.652933e-01 -9.263669e-01 -8.589180e-01 3.940468e-01 -1.782641e-01 2.583870e-01 -3.110378e-01 3.570639e-01 -8.397831e-02 -3.899312e-01 4.637216e-01
<VARIANCE> 25
 1.767721e+01 5.769636e+01 4.186868e+01 9.342493e+01 1.600432e+02 3.047212e+01 9.796970e+01 1.120518e+02 4.253656e+01 3.221631e+01 2.030551e+01 4.930169e+01 1.301382e+00 2.974118e+00 1.769865e+00 3.013002e+00 3.960243e+00 1.609986e+00 3.803062e+00 6.541396e+00 2.463530e+00 2.032712e+00 1.333095e+00 1.746287e+00 1.860942e+00
<GCONST> 1.042444e+02
<STATE> 3
<MEAN> 25
 1.468691e+00 -2.150924e+00 5.183234e+00 -7.789425e+00 -1.162059e+01 1.510877e+00 -4.764871e+00 -2.566785e-01 -5.081772e+00 -6.670306e-01 -1.333494e+00 -4.698242e+00 -1.493394e-01 2.671903e-01 5.101475e-01 -2.384772e-01 -1.464657e-01 4.122464e-01 -7.146183e-02 -1.783504e-01 -8.688784e-02 1.177521e-01 -1.061889e-01 1.489011e-02 -1.542511e-01
<VARIANCE> 25
 1.458244e+01 5.631305e+01 6.049319e+01 1.011432e+02 1.769544e+02 3.015458e+01 1.098654e+02 6.602409e+01 3.833271e+01 3.877206e+01 2.080538e+01 4.902907e+01 5.133682e-01 1.559174e+00 9.292247e-01 1.903489e+00 2.431064e+00 1.635724e+00 1.885806e+00 4.061840e+00 1.521226e+00 1.995616e+00 1.090363e+00 1.263001e+00 8.099509e-01
<GCONST> 9.806364e+01
<STATE> 4
<MEAN> 25
 1.057096e+00 2.015111e+00 9.590312e+00 -6.737525e+00 -9.818394e+00 2.969243e+00 -5.554969e+00 -1.597041e+00 -5.413451e+00 -5.591403e-01 -2.127152e+00 -4.178719e+00 -8.416817e-02 3.061788e-01 -1.731286e-02 6.064027e-01 6.663556e-01 6.020050e-02 4.319351e-01 -2.790831e-01 2.225809e-01 2.987061e-02 -6.441112e-03 2.343018e-01 -6.229773e-01
<VARIANCE> 25
 9.056187e+00 5.574956e+01 7.567290e+01 1.065443e+02 1.605238e+02 2.204676e+01 1.035681e+02 3.966481e+01 3.401225e+01 3.933126e+01 1.950992e+01 3.488586e+01 3.791579e-01 1.195680e+00 1.580021e+00 2.166977e+00 1.935091e+00 1.399129e+00 2.363569e+00 1.570711e+00 1.199020e+00 1.479300e+00 1.076228e+00 1.160511e+00 6.729603e-01
<GCONST> 9.452699e+01
<TRANSP> 5
 0.000000e+00 1.000000e+00 0.000000e+00 0.000000e+00 0.000000e+00
 0.000000e+00 6.582057e-01 3.417943e-01 0.000000e+00 0.000000e+00
 0.000000e+00 0.000000e+00 6.461568e-01 3.538432e-01 0.000000e+00
 0.000000e+00 0.000000e+00 0.000000e+00 8.182122e-01 1.817878e-01
 0.000000e+00 0.000000e+00 0.000000e+00 0.000000e+00 0.000000e+00
<ENDHMM>
~h "ng"
<BEGINHMM>
<NUMSTATES> 5
<STATE> 2
<MEAN> 25
 1.183782e+00 -4.097613e-01 -5.580741e-01 3.624334e-01 -3.110607e-01 2.804174e+00 1.752573e+00 -1.204659e+00 -1.928346e-01 8.416205e-02 3.636664e-01 -2.640637e-01 -6.764002e-03 5.210931e-01 1.569186e-01 -1.799796e-03 -2.767204e-01 1.568264e-01 2.600959e-01 -3.918006e-01 -1.249663e-01 -3.851049e-03 2.932971e-01 1.161656e-01 -3.237421e-01
<VARIANCE> 25
 2.307517e+01 4.518957e+01 2.660900e+01 8.265392e+01 3.384575e+01 4.007989e+01 5.560229e+01 4.730843e+01 4.526291e+01 3.109903e+01 6.216447e+01 3.824697e+01 3.745912e-01 1.296990e+00 1.002777e+00 1.385562e+00 1.760493e+00 1.900335e+00 2.297465e+00 2.980240e+00 2.239105e+00 1.844394e+00 1.885756e+00 1.951387e+00 6.465670e-01
<GCONST> 9.572704e+01
<STATE> 3
<MEAN> 25
 1.755235e+00 3.046986e-01 -5.710250e-02 -1.094011e+00 -1.546157e+00 3.125252e+00 1.646270e+00 -2.314183e+00 -1.224798e+00 -2.929180e-01 1.294564e-01 -4.406413e-01 -4.606237e-02 5.816768e-01 1.002690e-01 -5.042180e-02 -2.963172e-01 1.066824e-01 1.662307e-01 -2.565625e-01 -1.257234e-01 -7.667767e-02 2.121301e-01 1.721281e-01 -2.524475e-01
<VARIANCE> 25
 2.301631e+01 3.851541e+01 2.610982e+01 8.619568e+01 4.117704e+01 4.510394e+01 5.940356e+01 5.494975e+01 5.050573e+01 3.766465e+01 5.686107e+01 3.982791e+01 4.567262e-01 1.319455e+00 1.063925e+00 1.837862e+00 1.931937e+00 2.001720e+00 2.346433e+00 2.712836e+00 2.311872e+00 1.816013e+00 1.733729e+00 1.931331e+00 7.904105e-01
<GCONST> 9.712225e+01
<STATE> 4
<MEAN> 25
 2.309739e+00 1.898164e+00 2.165493e-01 -3.347586e+00 -3.989856e+00 3.431136e+00 8.654574e-01 -3.559676e+00 -2.807546e+00 -1.039877e+00 -4.085773e-01 -7.910339e-01 -2.420780e-01 6.098417e-01 4.579254e-02 1.489231e-02 -2.218095e-01 -8.088495e-02 4.110093e-02 -4.561441e-02 1.322198e-02 -9.411971e-02 1.081850e-01 2.183892e-01 -2.117687e-01
<VARIANCE> 25
 2.135197e+01 3.556463e+01 3.149684e+01 8.573035e+01 5.667535e+01 5.188849e+01 7.177652e+01 5.447499e+01 5.239447e+01 4.638602e+01 4.965350e+01 4.353093e+01 8.100371e-01 1.703267e+00 1.498158e+00 2.976533e+00 2.767430e+00 2.881894e+00 3.497702e+00 3.629131e+00 3.016555e+00 2.150071e+00 2.028710e+00 2.253240e+00 1.605270e+00
<GCONST> 1.025096e+02
<TRANSP> 5
 0.000000e+00 1.000000e+00 0.000000e+00 0.000000e+00 0.000000e+00
 0.000000e+00 6.574236e-01 3.425765e-01 0.000000e+00 0.000000e+00
 0.000000e+00 0.000000e+00 6.075644e-01 3.924356e-01 0.000000e+00
 0.000000e+00 0.000000e+00 0.000000e+00 6.934187e-01 3.065813e-01
 0.000000e+00 0.000000e+00 0.000000e+00 0.000000e+00 0.000000e+00
<ENDHMM>
~h "ny"
<BEGINHMM>
<NUMSTATES> 5
<STATE> 2
<MEAN> 25
 3.102220e+00 -9.030794e+00 -1.677600e+00 -7.741476e+00 -3.948604e+00 9.365522e-01 -5.458615e+00 6.498731e+00 -5.090178e+00 -3.906035e+00 -7.631292e+00 -9.264287e-01 3.146677e-01 -7.982774e-01 -2.537517e-01 -1.379275e-01 3.934582e-01 6.277670e-01 -5.476730e-01 1.539344e-01 -5.852883e-01 -4.480976e-01 -3.519090e-01 -2.938326e-01 4.556567e-01
<VARIANCE> 25
 1.211788e+01 6.120309e+01 3.031360e+01 4.695077e+01 3.350973e+01 5.441803e+01 4.864970e+01 6.774738e+01 6.783719e+01 3.180429e+01 5.732292e+01 2.329603e+01 9.215177e-01 3.507361e+00 1.402378e+00 3.900345e+00 2.914718e+00 3.668341e+00 2.699766e+00 5.398724e+00 4.018059e+00 2.358832e+00 2.680503e+00 1.786601e+00 2.447223e+00
<GCONST> 1.029306e+02
<STATE> 3
<MEAN> 25
 3.870984e+00 -9.037210e+00 -2.354214e+00 -6.728061e+00 -2.612689e+00 1.382048e+00 -6.860131e+00 5.270743e+00 -5.296972e+00 -4.658745e+00 -8.134483e+00 -2.490063e+00 1.462582e-01 1.830224e-01 1.809410e-03 2.269622e-01 2.238055e-01 -4.715725e-02 -1.747218e-01 -3.280327e-01 -3.830563e-02 -6.829520e-02 -6.624767e-02 -3.008909e-01 -2.992802e-01
<VARIANCE> 25
 1.311637e+01 6.089825e+01 3.189169e+01 4.031425e+01 3.299595e+01 5.450517e+01 4.658547e+01 6.877855e+01 6.538322e+01 4.242728e+01 5.033060e+01 2.724097e+01 6.904315e-01 2.549810e+00 1.798793e+00 2.289587e+00 1.958144e+00 2.853231e+00 2.318267e+00 5.029205e+00 3.074615e+00 2.762299e+00 2.531523e+00 1.486626e+00 1.909451e+00
<GCONST> 1.007763e+02
<STATE> 4
<MEAN> 25
 3.359581e+00 -4.976615e+00 -8.599731e-01 -4.125469e+00 -5.743017e-01 1.004186e+00 -3.994645e+00 2.857002e+00 -2.649601e+00 -3.903418e+00 -5.568474e+00 -2.595515e+00 -4.057518e-02 3.543448e-01 1.205094e-01 2.196271e-01 1.097971e-01 -1.529322e-01 1.957473e-01 -2.473667e-01 9.756331e-02 2.487615e-02 6.212525e-02 -2.033148e-02 -3.755224e-01
<VARIANCE> 25
 2.536439e+01 9.278478e+01 2.924933e+01 5.623043e+01 4.088328e+01 7.313564e+01 5.926971e+01 9.317180e+01 7.659230e+01 4.847160e+01 7.106075e+01 3.095811e+01 1.360212e+00 3.245480e+00 1.921512e+00 2.257996e+00 2.497431e+00 3.537213e+00 2.652113e+00 5.565795e+00 3.250060e+00 3.288472e+00 3.218834e+00 2.034387e+00 2.217665e+00
<GCONST> 1.065189e+02
<TRANSP> 5
 0.000000e+00 1.000000e+00 0.000000e+00 0.000000e+00 0.000000e+00
 0.000000e+00 7.597727e-01 2.402273e-01 0.000000e+00 0.000000e+00
 0.000000e+00 0.000000e+00 7.800043e-01 2.199957e-01 0.000000e+00
 0.000000e+00 0.000000e+00 0.000000e+00 9.544585e-01 4.554146e-02
 0.000000e+00 0.000000e+00 0.000000e+00 0.000000e+00 0.000000e+00
<ENDHMM>
~h "sil"
<BEGINHMM>
<NUMSTATES> 5
<STATE> 2
<MEAN> 25
 -2.255202e+00 3.151167e+00 -1.038226e+00 7.450606e+00 3.884896e+00 1.961207e+00 7.423691e+00 1.363748e+00 4.415845e+00 4.064194e+00 5.745125e+00 2.878589e+00 -8.157908e-03 3.645722e-03 -1.759246e-02 3.379405e-02 -6.052777e-02 -3.089242e-02 1.000802e-02 -2.065350e-02 -1.219425e-02 3.493462e-02 8.614596e-02 2.942650e-02 -6.549715e-02
<VARIANCE> 25
 4.216313e+00 6.437203e+00 1.025123e+01 8.571338e+00 1.724145e+01 1.833360e+01 1.923948e+01 1.601955e+01 1.484821e+01 1.757992e+01 1.453308e+01 1.522621e+01 1.666698e-01 2.710058e-01 4.865914e-01 5.902219e-01 8.445855e-01 1.002655e+00 1.116386e+00 1.321767e+00 1.377296e+00 1.394900e+00 1.282468e+00 1.278466e+00 8.409519e-02
<GCONST> 7.072416e+01
<STATE> 3
<MEAN> 25
 -2.248189e+00 3.208174e+00 -1.037055e+00 7.861576e+00 3.741587e+00 1.707131e+00 7.255927e+00 1.084132e+00 4.261189e+00 3.747679e+00 6.174148e+00 3.084495e+00 -2.392273e-03 9.862697e-04 4.617583e-04 9.087380e-04 -6.334128e-03 -9.182276e-03 -2.734711e-03 -7.937490e-04 6.933296e-03 6.280536e-03 1.079069e-02 2.562735e-03 -2.701066e-03
<VARIANCE> 25
 3.302568e+00 4.949517e+00 6.891510e+00 7.744446e+00 1.017898e+01 1.535837e+01 1.729361e+01 1.311098e+01 1.328706e+01 1.585930e+01 1.317564e+01 1.289720e+01 8.930628e-02 1.862414e-01 3.278452e-01 4.880908e-01 6.693112e-01 8.344019e-01 9.860406e-01 1.112016e+00 1.148252e+00 1.224569e+00 1.183936e+00 1.098032e+00 3.299119e-02
<GCONST> 6.445228e+01
<STATE> 4
<MEAN> 25
 -4.351784e-01 1.677856e-01 -2.000904e-01 9.476533e-01 6.677787e-01 2.789721e-01 7.034340e-01 4.319596e-01 5.034151e-01 4.187691e-01 9.312119e-01 5.279524e-01 2.816971e-04 1.846831e-04 -5.669314e-04 8.879695e-05 6.639782e-04 1.636129e-04 -9.291545e-04 -3.866833e-04 -1.581012e-03 -4.523098e-04 -2.009502e-03 -2.336614e-04 6.475465e-04
<VARIANCE> 25
 2.536689e+01 5.131573e+01 3.248557e+01 1.150753e+02 6.769357e+01 3.512740e+01 8.630276e+01 4.122379e+01 5.164262e+01 3.832245e+01 6.445889e+01 2.854295e+01 1.149246e+00 1.983542e+00 1.450893e+00 3.659981e+00 2.608225e+00 2.188002e+00 3.134739e+00 2.680127e+00 2.490449e+00 2.395121e+00 2.678226e+00 1.773723e+00 2.744748e+00
<GCONST> 1.031209e+02
<TRANSP> 5
 0.000000e+00 1.000000e+00 0.000000e+00 0.000000e+00 0.000000e+00
 0.000000e+00 9.181966e-01 8.180337e-02 0.000000e+00 0.000000e+00
 0.000000e+00 0.000000e+00 9.597535e-01 4.024648e-02 0.000000e+00
 0.000000e+00 0.000000e+00 0.000000e+00 9.944567e-01 5.543287e-03
 0.000000e+00 0.000000e+00 0.000000e+00 0.000000e+00 0.000000e+00
<ENDHMM>
