~h "a"
<BEGINHMM>
<NUMSTATES> 5
<STATE> 2
<MEAN> 25
 1.842593e-09 -2.576395e-08 1.213246e-09 1.102351e-07 5.049876e-08 2.685317e-08 1.114029e-08 1.294129e-10 -3.466416e-09 -2.296308e-08 -2.622614e-08 -9.813810e-09 2.980634e-04 -8.550466e-04 4.178782e-04 9.468905e-04 5.062926e-05 -1.024574e-04 3.503152e-05 -6.060586e-04 3.684188e-06 2.464041e-05 -1.013554e-04 -2.583867e-05 -1.010176e-06
<VARIANCE> 25
 3.122577e+01 5.719802e+01 3.946896e+01 1.100318e+02 7.297534e+01 4.239960e+01 8.885344e+01 4.992168e+01 5.386439e+01 4.312420e+01 6.630042e+01 3.168895e+01 1.448071e+00 2.278910e+00 1.858679e+00 4.019047e+00 3.178237e+00 2.636007e+00 3.570275e+00 3.178643e+00 2.899120e+00 2.714130e+00 2.987308e+00 2.010213e+00 3.236470e+00
<GCONST> 1.064359e+02
<STATE> 3
<MEAN> 25
 1.842593e-09 -2.576395e-08 1.213246e-09 1.102351e-07 5.049876e-08 2.685317e-08 1.114029e-08 1.294129e-10 -3.466416e-09 -2.296308e-08 -2.622614e-08 -9.813810e-09 2.980634e-04 -8.550466e-04 4.178782e-04 9.468905e-04 5.062926e-05 -1.024574e-04 3.503152e-05 -6.060586e-04 3.684188e-06 2.464041e-05 -1.013554e-04 -2.583867e-05 -1.010176e-06
<VARIANCE> 25
 3.122577e+01 5.719802e+01 3.946896e+01 1.100318e+02 7.297534e+01 4.239960e+01 8.885344e+01 4.992168e+01 5.386439e+01 4.312420e+01 6.630042e+01 3.168895e+01 1.448071e+00 2.278910e+00 1.858679e+00 4.019047e+00 3.178237e+00 2.636007e+00 3.570275e+00 3.178643e+00 2.899120e+00 2.714130e+00 2.987308e+00 2.010213e+00 3.236470e+00
<GCONST> 1.064359e+02
<STATE> 4
<MEAN> 25
 1.842593e-09 -2.576395e-08 1.213246e-09 1.102351e-07 5.049876e-08 2.685317e-08 1.114029e-08 1.294129e-10 -3.466416e-09 -2.296308e-08 -2.622614e-08 -9.813810e-09 2.980634e-04 -8.550466e-04 4.178782e-04 9.468905e-04 5.062926e-05 -1.024574e-04 3.503152e-05 -6.060586e-04 3.684188e-06 2.464041e-05 -1.013554e-04 -2.583867e-05 -1.010176e-06
<VARIANCE> 25
 3.122577e+01 5.719802e+01 3.946896e+01 1.100318e+02 7.297534e+01 4.239960e+01 8.885344e+01 4.992168e+01 5.386439e+01 4.312420e+01 6.630042e+01 3.168895e+01 1.448071e+00 2.278910e+00 1.858679e+00 4.019047e+00 3.178237e+00 2.636007e+00 3.570275e+00 3.178643e+00 2.899120e+00 2.714130e+00 2.987308e+00 2.010213e+00 3.236470e+00
<GCONST> 1.064359e+02
<TRANSP> 5
 0.000000e+00 1.000000e+00 0.000000e+00 0.000000e+00 0.000000e+00
 0.000000e+00 6.000000e-01 4.000000e-01 0.000000e+00 0.000000e+00
 0.000000e+00 0.000000e+00 6.000000e-01 4.000000e-01 0.000000e+00
 0.000000e+00 0.000000e+00 0.000000e+00 7.000000e-01 3.000000e-01
 0.000000e+00 0.000000e+00 0.000000e+00 0.000000e+00 0.000000e+00
<ENDHMM>
~h "b"
<BEGINHMM>
<NUMSTATES> 5
<STATE> 2
<MEAN> 25
 1.842593e-09 -2.576395e-08 1.213246e-09 1.102351e-07 5.049876e-08 2.685317e-08 1.114029e-08 1.294129e-10 -3.466416e-09 -2.296308e-08 -2.622614e-08 -9.813810e-09 2.980634e-04 -8.550466e-04 4.178782e-04 9.468905e-04 5.062926e-05 -1.024574e-04 3.503152e-05 -6.060586e-04 3.684188e-06 2.464041e-05 -1.013554e-04 -2.583867e-05 -1.010176e-06
<VARIANCE> 25
 3.122577e+01 5.719802e+01 3.946896e+01 1.100318e+02 7.297534e+01 4.239960e+01 8.885344e+01 4.992168e+01 5.386439e+01 4.312420e+01 6.630042e+01 3.168895e+01 1.448071e+00 2.278910e+00 1.858679e+00 4.019047e+00 3.178237e+00 2.636007e+00 3.570275e+00 3.178643e+00 2.899120e+00 2.714130e+00 2.987308e+00 2.010213e+00 3.236470e+00
<GCONST> 1.064359e+02
<STATE> 3
<MEAN> 25
 1.842593e-09 -2.576395e-08 1.213246e-09 1.102351e-07 5.049876e-08 2.685317e-08 1.114029e-08 1.294129e-10 -3.466416e-09 -2.296308e-08 -2.622614e-08 -9.813810e-09 2.980634e-04 -8.550466e-04 4.178782e-04 9.468905e-04 5.062926e-05 -1.024574e-04 3.503152e-05 -6.060586e-04 3.684188e-06 2.464041e-05 -1.013554e-04 -2.583867e-05 -1.010176e-06
<VARIANCE> 25
 3.122577e+01 5.719802e+01 3.946896e+01 1.100318e+02 7.297534e+01 4.239960e+01 8.885344e+01 4.992168e+01 5.386439e+01 4.312420e+01 6.630042e+01 3.168895e+01 1.448071e+00 2.278910e+00 1.858679e+00 4.019047e+00 3.178237e+00 2.636007e+00 3.570275e+00 3.178643e+00 2.899120e+00 2.714130e+00 2.987308e+00 2.010213e+00 3.236470e+00
<GCONST> 1.064359e+02
<STATE> 4
<MEAN> 25
 1.842593e-09 -2.576395e-08 1.213246e-09 1.102351e-07 5.049876e-08 2.685317e-08 1.114029e-08 1.294129e-10 -3.466416e-09 -2.296308e-08 -2.622614e-08 -9.813810e-09 2.980634e-04 -8.550466e-04 4.178782e-04 9.468905e-04 5.062926e-05 -1.024574e-04 3.503152e-05 -6.060586e-04 3.684188e-06 2.464041e-05 -1.013554e-04 -2.583867e-05 -1.010176e-06
<VARIANCE> 25
 3.122577e+01 5.719802e+01 3.946896e+01 1.100318e+02 7.297534e+01 4.239960e+01 8.885344e+01 4.992168e+01 5.386439e+01 4.312420e+01 6.630042e+01 3.168895e+01 1.448071e+00 2.278910e+00 1.858679e+00 4.019047e+00 3.178237e+00 2.636007e+00 3.570275e+00 3.178643e+00 2.899120e+00 2.714130e+00 2.987308e+00 2.010213e+00 3.236470e+00
<GCONST> 1.064359e+02
<TRANSP> 5
 0.000000e+00 1.000000e+00 0.000000e+00 0.000000e+00 0.000000e+00
 0.000000e+00 6.000000e-01 4.000000e-01 0.000000e+00 0.000000e+00
 0.000000e+00 0.000000e+00 6.000000e-01 4.000000e-01 0.000000e+00
 0.000000e+00 0.000000e+00 0.000000e+00 7.000000e-01 3.000000e-01
 0.000000e+00 0.000000e+00 0.000000e+00 0.000000e+00 0.000000e+00
<ENDHMM>
~h "s"
<BEGINHMM>
<NUMSTATES> 5
<STATE> 2
<MEAN> 25
 1.842593e-09 -2.576395e-08 1.213246e-09 1.102351e-07 5.049876e-08 2.685317e-08 1.114029e-08 1.294129e-10 -3.466416e-09 -2.296308e-08 -2.622614e-08 -9.813810e-09 2.980634e-04 -8.550466e-04 4.178782e-04 9.468905e-04 5.062926e-05 -1.024574e-04 3.503152e-05 -6.060586e-04 3.684188e-06 2.464041e-05 -1.013554e-04 -2.583867e-05 -1.010176e-06
<VARIANCE> 25
 3.122577e+01 5.719802e+01 3.946896e+01 1.100318e+02 7.297534e+01 4.239960e+01 8.885344e+01 4.992168e+01 5.386439e+01 4.312420e+01 6.630042e+01 3.168895e+01 1.448071e+00 2.278910e+00 1.858679e+00 4.019047e+00 3.178237e+00 2.636007e+00 3.570275e+00 3.178643e+00 2.899120e+00 2.714130e+00 2.987308e+00 2.010213e+00 3.236470e+00
<GCONST> 1.064359e+02
<STATE> 3
<MEAN> 25
 1.842593e-09 -2.576395e-08 1.213246e-09 1.102351e-07 5.049876e-08 2.685317e-08 1.114029e-08 1.294129e-10 -3.466416e-09 -2.296308e-08 -2.622614e-08 -9.813810e-09 2.980634e-04 -8.550466e-04 4.178782e-04 9.468905e-04 5.062926e-05 -1.024574e-04 3.503152e-05 -6.060586e-04 3.684188e-06 2.464041e-05 -1.013554e-04 -2.583867e-05 -1.010176e-06
<VARIANCE> 25
 3.122577e+01 5.719802e+01 3.946896e+01 1.100318e+02 7.297534e+01 4.239960e+01 8.885344e+01 4.992168e+01 5.386439e+01 4.312420e+01 6.630042e+01 3.168895e+01 1.448071e+00 2.278910e+00 1.858679e+00 4.019047e+00 3.178237e+00 2.636007e+00 3.570275e+00 3.178643e+00 2.899120e+00 2.714130e+00 2.987308e+00 2.010213e+00 3.236470e+00
<GCONST> 1.064359e+02
<STATE> 4
<MEAN> 25
 1.842593e-09 -2.576395e-08 1.213246e-09 1.102351e-07 5.049876e-08 2.685317e-08 1.114029e-08 1.294129e-10 -3.466416e-09 -2.296308e-08 -2.622614e-08 -9.813810e-09 2.980634e-04 -8.550466e-04 4.178782e-04 9.468905e-04 5.062926e-05 -1.024574e-04 3.503152e-05 -6.060586e-04 3.684188e-06 2.464041e-05 -1.013554e-04 -2.583867e-05 -1.010176e-06
<VARIANCE> 25
 3.122577e+01 5.719802e+01 3.946896e+01 1.100318e+02 7.297534e+01 4.239960e+01 8.885344e+01 4.992168e+01 5.386439e+01 4.312420e+01 6.630042e+01 3.168895e+01 1.448071e+00 2.278910e+00 1.858679e+00 4.019047e+00 3.178237e+00 2.636007e+00 3.570275e+00 3.178643e+00 2.899120e+00 2.714130e+00 2.987308e+00 2.010213e+00 3.236470e+00
<GCONST> 1.064359e+02
<TRANSP> 5
 0.000000e+00 1.000000e+00 0.000000e+00 0.000000e+00 0.000000e+00
 0.000000e+00 6.000000e-01 4.000000e-01 0.000000e+00 0.000000e+00
 0.000000e+00 0.000000e+00 6.000000e-01 4.000000e-01 0.000000e+00
 0.000000e+00 0.000000e+00 0.000000e+00 7.000000e-01 3.000000e-01
 0.000000e+00 0.000000e+00 0.000000e+00 0.000000e+00 0.000000e+00
<ENDHMM>
~h "e"
<BEGINHMM>
<NUMSTATES> 5
<STATE> 2
<MEAN> 25
 1.842593e-09 -2.576395e-08 1.213246e-09 1.102351e-07 5.049876e-08 2.685317e-08 1.114029e-08 1.294129e-10 -3.466416e-09 -2.296308e-08 -2.622614e-08 -9.813810e-09 2.980634e-04 -8.550466e-04 4.178782e-04 9.468905e-04 5.062926e-05 -1.024574e-04 3.503152e-05 -6.060586e-04 3.684188e-06 2.464041e-05 -1.013554e-04 -2.583867e-05 -1.010176e-06
<VARIANCE> 25
 3.122577e+01 5.719802e+01 3.946896e+01 1.100318e+02 7.297534e+01 4.239960e+01 8.885344e+01 4.992168e+01 5.386439e+01 4.312420e+01 6.630042e+01 3.168895e+01 1.448071e+00 2.278910e+00 1.858679e+00 4.019047e+00 3.178237e+00 2.636007e+00 3.570275e+00 3.178643e+00 2.899120e+00 2.714130e+00 2.987308e+00 2.010213e+00 3.236470e+00
<GCONST> 1.064359e+02
<STATE> 3
<MEAN> 25
 1.842593e-09 -2.576395e-08 1.213246e-09 1.102351e-07 5.049876e-08 2.685317e-08 1.114029e-08 1.294129e-10 -3.466416e-09 -2.296308e-08 -2.622614e-08 -9.813810e-09 2.980634e-04 -8.550466e-04 4.178782e-04 9.468905e-04 5.062926e-05 -1.024574e-04 3.503152e-05 -6.060586e-04 3.684188e-06 2.464041e-05 -1.013554e-04 -2.583867e-05 -1.010176e-06
<VARIANCE> 25
 3.122577e+01 5.719802e+01 3.946896e+01 1.100318e+02 7.297534e+01 4.239960e+01 8.885344e+01 4.992168e+01 5.386439e+01 4.312420e+01 6.630042e+01 3.168895e+01 1.448071e+00 2.278910e+00 1.858679e+00 4.019047e+00 3.178237e+00 2.636007e+00 3.570275e+00 3.178643e+00 2.899120e+00 2.714130e+00 2.987308e+00 2.010213e+00 3.236470e+00
<GCONST> 1.064359e+02
<STATE> 4
<MEAN> 25
 1.842593e-09 -2.576395e-08 1.213246e-09 1.102351e-07 5.049876e-08 2.685317e-08 1.114029e-08 1.294129e-10 -3.466416e-09 -2.296308e-08 -2.622614e-08 -9.813810e-09 2.980634e-04 -8.550466e-04 4.178782e-04 9.468905e-04 5.062926e-05 -1.024574e-04 3.503152e-05 -6.060586e-04 3.684188e-06 2.464041e-05 -1.013554e-04 -2.583867e-05 -1.010176e-06
<VARIANCE> 25
 3.122577e+01 5.719802e+01 3.946896e+01 1.100318e+02 7.297534e+01 4.239960e+01 8.885344e+01 4.992168e+01 5.386439e+01 4.312420e+01 6.630042e+01 3.168895e+01 1.448071e+00 2.278910e+00 1.858679e+00 4.019047e+00 3.178237e+00 2.636007e+00 3.570275e+00 3.178643e+00 2.899120e+00 2.714130e+00 2.987308e+00 2.010213e+00 3.236470e+00
<GCONST> 1.064359e+02
<TRANSP> 5
 0.000000e+00 1.000000e+00 0.000000e+00 0.000000e+00 0.000000e+00
 0.000000e+00 6.000000e-01 4.000000e-01 0.000000e+00 0.000000e+00
 0.000000e+00 0.000000e+00 6.000000e-01 4.000000e-01 0.000000e+00
 0.000000e+00 0.000000e+00 0.000000e+00 7.000000e-01 3.000000e-01
 0.000000e+00 0.000000e+00 0.000000e+00 0.000000e+00 0.000000e+00
<ENDHMM>
~h "n"
<BEGINHMM>
<NUMSTATES> 5
<STATE> 2
<MEAN> 25
 1.842593e-09 -2.576395e-08 1.213246e-09 1.102351e-07 5.049876e-08 2.685317e-08 1.114029e-08 1.294129e-10 -3.466416e-09 -2.296308e-08 -2.622614e-08 -9.813810e-09 2.980634e-04 -8.550466e-04 4.178782e-04 9.468905e-04 5.062926e-05 -1.024574e-04 3.503152e-05 -6.060586e-04 3.684188e-06 2.464041e-05 -1.013554e-04 -2.583867e-05 -1.010176e-06
<VARIANCE> 25
 3.122577e+01 5.719802e+01 3.946896e+01 1.100318e+02 7.297534e+01 4.239960e+01 8.885344e+01 4.992168e+01 5.386439e+01 4.312420e+01 6.630042e+01 3.168895e+01 1.448071e+00 2.278910e+00 1.858679e+00 4.019047e+00 3.178237e+00 2.636007e+00 3.570275e+00 3.178643e+00 2.899120e+00 2.714130e+00 2.987308e+00 2.010213e+00 3.236470e+00
<GCONST> 1.064359e+02
<STATE> 3
<MEAN> 25
 1.842593e-09 -2.576395e-08 1.213246e-09 1.102351e-07 5.049876e-08 2.685317e-08 1.114029e-08 1.294129e-10 -3.466416e-09 -2.296308e-08 -2.622614e-08 -9.813810e-09 2.980634e-04 -8.550466e-04 4.178782e-04 9.468905e-04 5.062926e-05 -1.024574e-04 3.503152e-05 -6.060586e-04 3.684188e-06 2.464041e-05 -1.013554e-04 -2.583867e-05 -1.010176e-06
<VARIANCE> 25
 3.122577e+01 5.719802e+01 3.946896e+01 1.100318e+02 7.297534e+01 4.239960e+01 8.885344e+01 4.992168e+01 5.386439e+01 4.312420e+01 6.630042e+01 3.168895e+01 1.448071e+00 2.278910e+00 1.858679e+00 4.019047e+00 3.178237e+00 2.636007e+00 3.570275e+00 3.178643e+00 2.899120e+00 2.714130e+00 2.987308e+00 2.010213e+00 3.236470e+00
<GCONST> 1.064359e+02
<STATE> 4
<MEAN> 25
 1.842593e-09 -2.576395e-08 1.213246e-09 1.102351e-07 5.049876e-08 2.685317e-08 1.114029e-08 1.294129e-10 -3.466416e-09 -2.296308e-08 -2.622614e-08 -9.813810e-09 2.980634e-04 -8.550466e-04 4.178782e-04 9.468905e-04 5.062926e-05 -1.024574e-04 3.503152e-05 -6.060586e-04 3.684188e-06 2.464041e-05 -1.013554e-04 -2.583867e-05 -1.010176e-06
<VARIANCE> 25
 3.122577e+01 5.719802e+01 3.946896e+01 1.100318e+02 7.297534e+01 4.239960e+01 8.885344e+01 4.992168e+01 5.386439e+01 4.312420e+01 6.630042e+01 3.168895e+01 1.448071e+00 2.278910e+00 1.858679e+00 4.019047e+00 3.178237e+00 2.636007e+00 3.570275e+00 3.178643e+00 2.899120e+00 2.714130e+00 2.987308e+00 2.010213e+00 3.236470e+00
<GCONST> 1.064359e+02
<TRANSP> 5
 0.000000e+00 1.000000e+00 0.000000e+00 0.000000e+00 0.000000e+00
 0.000000e+00 6.000000e-01 4.000000e-01 0.000000e+00 0.000000e+00
 0.000000e+00 0.000000e+00 6.000000e-01 4.000000e-01 0.000000e+00
 0.000000e+00 0.000000e+00 0.000000e+00 7.000000e-01 3.000000e-01
 0.000000e+00 0.000000e+00 0.000000e+00 0.000000e+00 0.000000e+00
<ENDHMM>
~h "t"
<BEGINHMM>
<NUMSTATES> 5
<STATE> 2
<MEAN> 25
 1.842593e-09 -2.576395e-08 1.213246e-09 1.102351e-07 5.049876e-08 2.685317e-08 1.114029e-08 1.294129e-10 -3.466416e-09 -2.296308e-08 -2.622614e-08 -9.813810e-09 2.980634e-04 -8.550466e-04 4.178782e-04 9.468905e-04 5.062926e-05 -1.024574e-04 3.503152e-05 -6.060586e-04 3.684188e-06 2.464041e-05 -1.013554e-04 -2.583867e-05 -1.010176e-06
<VARIANCE> 25
 3.122577e+01 5.719802e+01 3.946896e+01 1.100318e+02 7.297534e+01 4.239960e+01 8.885344e+01 4.992168e+01 5.386439e+01 4.312420e+01 6.630042e+01 3.168895e+01 1.448071e+00 2.278910e+00 1.858679e+00 4.019047e+00 3.178237e+00 2.636007e+00 3.570275e+00 3.178643e+00 2.899120e+00 2.714130e+00 2.987308e+00 2.010213e+00 3.236470e+00
<GCONST> 1.064359e+02
<STATE> 3
<MEAN> 25
 1.842593e-09 -2.576395e-08 1.213246e-09 1.102351e-07 5.049876e-08 2.685317e-08 1.114029e-08 1.294129e-10 -3.466416e-09 -2.296308e-08 -2.622614e-08 -9.813810e-09 2.980634e-04 -8.550466e-04 4.178782e-04 9.468905e-04 5.062926e-05 -1.024574e-04 3.503152e-05 -6.060586e-04 3.684188e-06 2.464041e-05 -1.013554e-04 -2.583867e-05 -1.010176e-06
<VARIANCE> 25
 3.122577e+01 5.719802e+01 3.946896e+01 1.100318e+02 7.297534e+01 4.239960e+01 8.885344e+01 4.992168e+01 5.386439e+01 4.312420e+01 6.630042e+01 3.168895e+01 1.448071e+00 2.278910e+00 1.858679e+00 4.019047e+00 3.178237e+00 2.636007e+00 3.570275e+00 3.178643e+00 2.899120e+00 2.714130e+00 2.987308e+00 2.010213e+00 3.236470e+00
<GCONST> 1.064359e+02
<STATE> 4
<MEAN> 25
 1.842593e-09 -2.576395e-08 1.213246e-09 1.102351e-07 5.049876e-08 2.685317e-08 1.114029e-08 1.294129e-10 -3.466416e-09 -2.296308e-08 -2.622614e-08 -9.813810e-09 2.980634e-04 -8.550466e-04 4.178782e-04 9.468905e-04 5.062926e-05 -1.024574e-04 3.503152e-05 -6.060586e-04 3.684188e-06 2.464041e-05 -1.013554e-04 -2.583867e-05 -1.010176e-06
<VARIANCE> 25
 3.122577e+01 5.719802e+01 3.946896e+01 1.100318e+02 7.297534e+01 4.239960e+01 8.885344e+01 4.992168e+01 5.386439e+01 4.312420e+01 6.630042e+01 3.168895e+01 1.448071e+00 2.278910e+00 1.858679e+00 4.019047e+00 3.178237e+00 2.636007e+00 3.570275e+00 3.178643e+00 2.899120e+00 2.714130e+00 2.987308e+00 2.010213e+00 3.236470e+00
<GCONST> 1.064359e+02
<TRANSP> 5
 0.000000e+00 1.000000e+00 0.000000e+00 0.000000e+00 0.000000e+00
 0.000000e+00 6.000000e-01 4.000000e-01 0.000000e+00 0.000000e+00
 0.000000e+00 0.000000e+00 6.000000e-01 4.000000e-01 0.000000e+00
 0.000000e+00 0.000000e+00 0.000000e+00 7.000000e-01 3.000000e-01
 0.000000e+00 0.000000e+00 0.000000e+00 0.000000e+00 0.000000e+00
<ENDHMM>
~h "ey"
<BEGINHMM>
<NUMSTATES> 5
<STATE> 2
<MEAN> 25
 1.842593e-09 -2.576395e-08 1.213246e-09 1.102351e-07 5.049876e-08 2.685317e-08 1.114029e-08 1.294129e-10 -3.466416e-09 -2.296308e-08 -2.622614e-08 -9.813810e-09 2.980634e-04 -8.550466e-04 4.178782e-04 9.468905e-04 5.062926e-05 -1.024574e-04 3.503152e-05 -6.060586e-04 3.684188e-06 2.464041e-05 -1.013554e-04 -2.583867e-05 -1.010176e-06
<VARIANCE> 25
 3.122577e+01 5.719802e+01 3.946896e+01 1.100318e+02 7.297534e+01 4.239960e+01 8.885344e+01 4.992168e+01 5.386439e+01 4.312420e+01 6.630042e+01 3.168895e+01 1.448071e+00 2.278910e+00 1.858679e+00 4.019047e+00 3.178237e+00 2.636007e+00 3.570275e+00 3.178643e+00 2.899120e+00 2.714130e+00 2.987308e+00 2.010213e+00 3.236470e+00
<GCONST> 1.064359e+02
<STATE> 3
<MEAN> 25
 1.842593e-09 -2.576395e-08 1.213246e-09 1.102351e-07 5.049876e-08 2.685317e-08 1.114029e-08 1.294129e-10 -3.466416e-09 -2.296308e-08 -2.622614e-08 -9.813810e-09 2.980634e-04 -8.550466e-04 4.178782e-04 9.468905e-04 5.062926e-05 -1.024574e-04 3.503152e-05 -6.060586e-04 3.684188e-06 2.464041e-05 -1.013554e-04 -2.583867e-05 -1.010176e-06
<VARIANCE> 25
 3.122577e+01 5.719802e+01 3.946896e+01 1.100318e+02 7.297534e+01 4.239960e+01 8.885344e+01 4.992168e+01 5.386439e+01 4.312420e+01 6.630042e+01 3.168895e+01 1.448071e+00 2.278910e+00 1.858679e+00 4.019047e+00 3.178237e+00 2.636007e+00 3.570275e+00 3.178643e+00 2.899120e+00 2.714130e+00 2.987308e+00 2.010213e+00 3.236470e+00
<GCONST> 1.064359e+02
<STATE> 4
<MEAN> 25
 1.842593e-09 -2.576395e-08 1.213246e-09 1.102351e-07 5.049876e-08 2.685317e-08 1.114029e-08 1.294129e-10 -3.466416e-09 -2.296308e-08 -2.622614e-08 -9.813810e-09 2.980634e-04 -8.550466e-04 4.178782e-04 9.468905e-04 5.062926e-05 -1.024574e-04 3.503152e-05 -6.060586e-04 3.684188e-06 2.464041e-05 -1.013554e-04 -2.583867e-05 -1.010176e-06
<VARIANCE> 25
 3.122577e+01 5.719802e+01 3.946896e+01 1.100318e+02 7.297534e+01 4.239960e+01 8.885344e+01 4.992168e+01 5.386439e+01 4.312420e+01 6.630042e+01 3.168895e+01 1.448071e+00 2.278910e+00 1.858679e+00 4.019047e+00 3.178237e+00 2.636007e+00 3.570275e+00 3.178643e+00 2.899120e+00 2.714130e+00 2.987308e+00 2.010213e+00 3.236470e+00
<GCONST> 1.064359e+02
<TRANSP> 5
 0.000000e+00 1.000000e+00 0.000000e+00 0.000000e+00 0.000000e+00
 0.000000e+00 6.000000e-01 4.000000e-01 0.000000e+00 0.000000e+00
 0.000000e+00 0.000000e+00 6.000000e-01 4.000000e-01 0.000000e+00
 0.000000e+00 0.000000e+00 0.000000e+00 7.000000e-01 3.000000e-01
 0.000000e+00 0.000000e+00 0.000000e+00 0.000000e+00 0.000000e+00
<ENDHMM>
~h "i"
<BEGINHMM>
<NUMSTATES> 5
<STATE> 2
<MEAN> 25
 1.842593e-09 -2.576395e-08 1.213246e-09 1.102351e-07 5.049876e-08 2.685317e-08 1.114029e-08 1.294129e-10 -3.466416e-09 -2.296308e-08 -2.622614e-08 -9.813810e-09 2.980634e-04 -8.550466e-04 4.178782e-04 9.468905e-04 5.062926e-05 -1.024574e-04 3.503152e-05 -6.060586e-04 3.684188e-06 2.464041e-05 -1.013554e-04 -2.583867e-05 -1.010176e-06
<VARIANCE> 25
 3.122577e+01 5.719802e+01 3.946896e+01 1.100318e+02 7.297534e+01 4.239960e+01 8.885344e+01 4.992168e+01 5.386439e+01 4.312420e+01 6.630042e+01 3.168895e+01 1.448071e+00 2.278910e+00 1.858679e+00 4.019047e+00 3.178237e+00 2.636007e+00 3.570275e+00 3.178643e+00 2.899120e+00 2.714130e+00 2.987308e+00 2.010213e+00 3.236470e+00
<GCONST> 1.064359e+02
<STATE> 3
<MEAN> 25
 1.842593e-09 -2.576395e-08 1.213246e-09 1.102351e-07 5.049876e-08 2.685317e-08 1.114029e-08 1.294129e-10 -3.466416e-09 -2.296308e-08 -2.622614e-08 -9.813810e-09 2.980634e-04 -8.550466e-04 4.178782e-04 9.468905e-04 5.062926e-05 -1.024574e-04 3.503152e-05 -6.060586e-04 3.684188e-06 2.464041e-05 -1.013554e-04 -2.583867e-05 -1.010176e-06
<VARIANCE> 25
 3.122577e+01 5.719802e+01 3.946896e+01 1.100318e+02 7.297534e+01 4.239960e+01 8.885344e+01 4.992168e+01 5.386439e+01 4.312420e+01 6.630042e+01 3.168895e+01 1.448071e+00 2.278910e+00 1.858679e+00 4.019047e+00 3.178237e+00 2.636007e+00 3.570275e+00 3.178643e+00 2.899120e+00 2.714130e+00 2.987308e+00 2.010213e+00 3.236470e+00
<GCONST> 1.064359e+02
<STATE> 4
<MEAN> 25
 1.842593e-09 -2.576395e-08 1.213246e-09 1.102351e-07 5.049876e-08 2.685317e-08 1.114029e-08 1.294129e-10 -3.466416e-09 -2.296308e-08 -2.622614e-08 -9.813810e-09 2.980634e-04 -8.550466e-04 4.178782e-04 9.468905e-04 5.062926e-05 -1.024574e-04 3.503152e-05 -6.060586e-04 3.684188e-06 2.464041e-05 -1.013554e-04 -2.583867e-05 -1.010176e-06
<VARIANCE> 25
 3.122577e+01 5.719802e+01 3.946896e+01 1.100318e+02 7.297534e+01 4.239960e+01 8.885344e+01 4.992168e+01 5.386439e+01 4.312420e+01 6.630042e+01 3.168895e+01 1.448071e+00 2.278910e+00 1.858679e+00 4.019047e+00 3.178237e+00 2.636007e+00 3.570275e+00 3.178643e+00 2.899120e+00 2.714130e+00 2.987308e+00 2.010213e+00 3.236470e+00
<GCONST> 1.064359e+02
<TRANSP> 5
 0.000000e+00 1.000000e+00 0.000000e+00 0.000000e+00 0.000000e+00
 0.000000e+00 6.000000e-01 4.000000e-01 0.000000e+00 0.000000e+00
 0.000000e+00 0.000000e+00 6.000000e-01 4.000000e-01 0.000000e+00
 0.000000e+00 0.000000e+00 0.000000e+00 7.000000e-01 3.000000e-01
 0.000000e+00 0.000000e+00 0.000000e+00 0.000000e+00 0.000000e+00
<ENDHMM>
~h "m"
<BEGINHMM>
<NUMSTATES> 5
<STATE> 2
<MEAN> 25
 1.842593e-09 -2.576395e-08 1.213246e-09 1.102351e-07 5.049876e-08 2.685317e-08 1.114029e-08 1.294129e-10 -3.466416e-09 -2.296308e-08 -2.622614e-08 -9.813810e-09 2.980634e-04 -8.550466e-04 4.178782e-04 9.468905e-04 5.062926e-05 -1.024574e-04 3.503152e-05 -6.060586e-04 3.684188e-06 2.464041e-05 -1.013554e-04 -2.583867e-05 -1.010176e-06
<VARIANCE> 25
 3.122577e+01 5.719802e+01 3.946896e+01 1.100318e+02 7.297534e+01 4.239960e+01 8.885344e+01 4.992168e+01 5.386439e+01 4.312420e+01 6.630042e+01 3.168895e+01 1.448071e+00 2.278910e+00 1.858679e+00 4.019047e+00 3.178237e+00 2.636007e+00 3.570275e+00 3.178643e+00 2.899120e+00 2.714130e+00 2.987308e+00 2.010213e+00 3.236470e+00
<GCONST> 1.064359e+02
<STATE> 3
<MEAN> 25
 1.842593e-09 -2.576395e-08 1.213246e-09 1.102351e-07 5.049876e-08 2.685317e-08 1.114029e-08 1.294129e-10 -3.466416e-09 -2.296308e-08 -2.622614e-08 -9.813810e-09 2.980634e-04 -8.550466e-04 4.178782e-04 9.468905e-04 5.062926e-05 -1.024574e-04 3.503152e-05 -6.060586e-04 3.684188e-06 2.464041e-05 -1.013554e-04 -2.583867e-05 -1.010176e-06
<VARIANCE> 25
 3.122577e+01 5.719802e+01 3.946896e+01 1.100318e+02 7.297534e+01 4.239960e+01 8.885344e+01 4.992168e+01 5.386439e+01 4.312420e+01 6.630042e+01 3.168895e+01 1.448071e+00 2.278910e+00 1.858679e+00 4.019047e+00 3.178237e+00 2.636007e+00 3.570275e+00 3.178643e+00 2.899120e+00 2.714130e+00 2.987308e+00 2.010213e+00 3.236470e+00
<GCONST> 1.064359e+02
<STATE> 4
<MEAN> 25
 1.842593e-09 -2.576395e-08 1.213246e-09 1.102351e-07 5.049876e-08 2.685317e-08 1.114029e-08 1.294129e-10 -3.466416e-09 -2.296308e-08 -2.622614e-08 -9.813810e-09 2.980634e-04 -8.550466e-04 4.178782e-04 9.468905e-04 5.062926e-05 -1.024574e-04 3.503152e-05 -6.060586e-04 3.684188e-06 2.464041e-05 -1.013554e-04 -2.583867e-05 -1.010176e-06
<VARIANCE> 25
 3.122577e+01 5.719802e+01 3.946896e+01 1.100318e+02 7.297534e+01 4.239960e+01 8.885344e+01 4.992168e+01 5.386439e+01 4.312420e+01 6.630042e+01 3.168895e+01 1.448071e+00 2.278910e+00 1.858679e+00 4.019047e+00 3.178237e+00 2.636007e+00 3.570275e+00 3.178643e+00 2.899120e+00 2.714130e+00 2.987308e+00 2.010213e+00 3.236470e+00
<GCONST> 1.064359e+02
<TRANSP> 5
 0.000000e+00 1.000000e+00 0.000000e+00 0.000000e+00 0.000000e+00
 0.000000e+00 6.000000e-01 4.000000e-01 0.000000e+00 0.000000e+00
 0.000000e+00 0.000000e+00 6.000000e-01 4.000000e-01 0.000000e+00
 0.000000e+00 0.000000e+00 0.000000e+00 7.000000e-01 3.000000e-01
 0.000000e+00 0.000000e+00 0.000000e+00 0.000000e+00 0.000000e+00
<ENDHMM>
~h "ax"
<BEGINHMM>
<NUMSTATES> 5
<STATE> 2
<MEAN> 25
 1.842593e-09 -2.576395e-08 1.213246e-09 1.102351e-07 5.049876e-08 2.685317e-08 1.114029e-08 1.294129e-10 -3.466416e-09 -2.296308e-08 -2.622614e-08 -9.813810e-09 2.980634e-04 -8.550466e-04 4.178782e-04 9.468905e-04 5.062926e-05 -1.024574e-04 3.503152e-05 -6.060586e-04 3.684188e-06 2.464041e-05 -1.013554e-04 -2.583867e-05 -1.010176e-06
<VARIANCE> 25
 3.122577e+01 5.719802e+01 3.946896e+01 1.100318e+02 7.297534e+01 4.239960e+01 8.885344e+01 4.992168e+01 5.386439e+01 4.312420e+01 6.630042e+01 3.168895e+01 1.448071e+00 2.278910e+00 1.858679e+00 4.019047e+00 3.178237e+00 2.636007e+00 3.570275e+00 3.178643e+00 2.899120e+00 2.714130e+00 2.987308e+00 2.010213e+00 3.236470e+00
<GCONST> 1.064359e+02
<STATE> 3
<MEAN> 25
 1.842593e-09 -2.576395e-08 1.213246e-09 1.102351e-07 5.049876e-08 2.685317e-08 1.114029e-08 1.294129e-10 -3.466416e-09 -2.296308e-08 -2.622614e-08 -9.813810e-09 2.980634e-04 -8.550466e-04 4.178782e-04 9.468905e-04 5.062926e-05 -1.024574e-04 3.503152e-05 -6.060586e-04 3.684188e-06 2.464041e-05 -1.013554e-04 -2.583867e-05 -1.010176e-06
<VARIANCE> 25
 3.122577e+01 5.719802e+01 3.946896e+01 1.100318e+02 7.297534e+01 4.239960e+01 8.885344e+01 4.992168e+01 5.386439e+01 4.312420e+01 6.630042e+01 3.168895e+01 1.448071e+00 2.278910e+00 1.858679e+00 4.019047e+00 3.178237e+00 2.636007e+00 3.570275e+00 3.178643e+00 2.899120e+00 2.714130e+00 2.987308e+00 2.010213e+00 3.236470e+00
<GCONST> 1.064359e+02
<STATE> 4
<MEAN> 25
 1.842593e-09 -2.576395e-08 1.213246e-09 1.102351e-07 5.049876e-08 2.685317e-08 1.114029e-08 1.294129e-10 -3.466416e-09 -2.296308e-08 -2.622614e-08 -9.813810e-09 2.980634e-04 -8.550466e-04 4.178782e-04 9.468905e-04 5.062926e-05 -1.024574e-04 3.503152e-05 -6.060586e-04 3.684188e-06 2.464041e-05 -1.013554e-04 -2.583867e-05 -1.010176e-06
<VARIANCE> 25
 3.122577e+01 5.719802e+01 3.946896e+01 1.100318e+02 7.297534e+01 4.239960e+01 8.885344e+01 4.992168e+01 5.386439e+01 4.312420e+01 6.630042e+01 3.168895e+01 1.448071e+00 2.278910e+00 1.858679e+00 4.019047e+00 3.178237e+00 2.636007e+00 3.570275e+00 3.178643e+00 2.899120e+00 2.714130e+00 2.987308e+00 2.010213e+00 3.236470e+00
<GCONST> 1.064359e+02
<TRANSP> 5
 0.000000e+00 1.000000e+00 0.000000e+00 0.000000e+00 0.000000e+00
 0.000000e+00 6.000000e-01 4.000000e-01 0.000000e+00 0.000000e+00
 0.000000e+00 0.000000e+00 6.000000e-01 4.000000e-01 0.000000e+00
 0.000000e+00 0.000000e+00 0.000000e+00 7.000000e-01 3.000000e-01
 0.000000e+00 0.000000e+00 0.000000e+00 0.000000e+00 0.000000e+00
<ENDHMM>
~h "d"
<BEGINHMM>
<NUMSTATES> 5
<STATE> 2
<MEAN> 25
 1.842593e-09 -2.576395e-08 1.213246e-09 1.102351e-07 5.049876e-08 2.685317e-08 1.114029e-08 1.294129e-10 -3.466416e-09 -2.296308e-08 -2.622614e-08 -9.813810e-09 2.980634e-04 -8.550466e-04 4.178782e-04 9.468905e-04 5.062926e-05 -1.024574e-04 3.503152e-05 -6.060586e-04 3.684188e-06 2.464041e-05 -1.013554e-04 -2.583867e-05 -1.010176e-06
<VARIANCE> 25
 3.122577e+01 5.719802e+01 3.946896e+01 1.100318e+02 7.297534e+01 4.239960e+01 8.885344e+01 4.992168e+01 5.386439e+01 4.312420e+01 6.630042e+01 3.168895e+01 1.448071e+00 2.278910e+00 1.858679e+00 4.019047e+00 3.178237e+00 2.636007e+00 3.570275e+00 3.178643e+00 2.899120e+00 2.714130e+00 2.987308e+00 2.010213e+00 3.236470e+00
<GCONST> 1.064359e+02
<STATE> 3
<MEAN> 25
 1.842593e-09 -2.576395e-08 1.213246e-09 1.102351e-07 5.049876e-08 2.685317e-08 1.114029e-08 1.294129e-10 -3.466416e-09 -2.296308e-08 -2.622614e-08 -9.813810e-09 2.980634e-04 -8.550466e-04 4.178782e-04 9.468905e-04 5.062926e-05 -1.024574e-04 3.503152e-05 -6.060586e-04 3.684188e-06 2.464041e-05 -1.013554e-04 -2.583867e-05 -1.010176e-06
<VARIANCE> 25
 3.122577e+01 5.719802e+01 3.946896e+01 1.100318e+02 7.297534e+01 4.239960e+01 8.885344e+01 4.992168e+01 5.386439e+01 4.312420e+01 6.630042e+01 3.168895e+01 1.448071e+00 2.278910e+00 1.858679e+00 4.019047e+00 3.178237e+00 2.636007e+00 3.570275e+00 3.178643e+00 2.899120e+00 2.714130e+00 2.987308e+00 2.010213e+00 3.236470e+00
<GCONST> 1.064359e+02
<STATE> 4
<MEAN> 25
 1.842593e-09 -2.576395e-08 1.213246e-09 1.102351e-07 5.049876e-08 2.685317e-08 1.114029e-08 1.294129e-10 -3.466416e-09 -2.296308e-08 -2.622614e-08 -9.813810e-09 2.980634e-04 -8.550466e-04 4.178782e-04 9.468905e-04 5.062926e-05 -1.024574e-04 3.503152e-05 -6.060586e-04 3.684188e-06 2.464041e-05 -1.013554e-04 -2.583867e-05 -1.010176e-06
<VARIANCE> 25
 3.122577e+01 5.719802e+01 3.946896e+01 1.100318e+02 7.297534e+01 4.239960e+01 8.885344e+01 4.992168e+01 5.386439e+01 4.312420e+01 6.630042e+01 3.168895e+01 1.448071e+00 2.278910e+00 1.858679e+00 4.019047e+00 3.178237e+00 2.636007e+00 3.570275e+00 3.178643e+00 2.899120e+00 2.714130e+00 2.987308e+00 2.010213e+00 3.236470e+00
<GCONST> 1.064359e+02
<TRANSP> 5
 0.000000e+00 1.000000e+00 0.000000e+00 0.000000e+00 0.000000e+00
 0.000000e+00 6.000000e-01 4.000000e-01 0.000000e+00 0.000000e+00
 0.000000e+00 0.000000e+00 6.000000e-01 4.000000e-01 0.000000e+00
 0.000000e+00 0.000000e+00 0.000000e+00 7.000000e-01 3.000000e-01
 0.000000e+00 0.000000e+00 0.000000e+00 0.000000e+00 0.000000e+00
<ENDHMM>
~h "p"
<BEGINHMM>
<NUMSTATES> 5
<STATE> 2
<MEAN> 25
 1.842593e-09 -2.576395e-08 1.213246e-09 1.102351e-07 5.049876e-08 2.685317e-08 1.114029e-08 1.294129e-10 -3.466416e-09 -2.296308e-08 -2.622614e-08 -9.813810e-09 2.980634e-04 -8.550466e-04 4.178782e-04 9.468905e-04 5.062926e-05 -1.024574e-04 3.503152e-05 -6.060586e-04 3.684188e-06 2.464041e-05 -1.013554e-04 -2.583867e-05 -1.010176e-06
<VARIANCE> 25
 3.122577e+01 5.719802e+01 3.946896e+01 1.100318e+02 7.297534e+01 4.239960e+01 8.885344e+01 4.992168e+01 5.386439e+01 4.312420e+01 6.630042e+01 3.168895e+01 1.448071e+00 2.278910e+00 1.858679e+00 4.019047e+00 3.178237e+00 2.636007e+00 3.570275e+00 3.178643e+00 2.899120e+00 2.714130e+00 2.987308e+00 2.010213e+00 3.236470e+00
<GCONST> 1.064359e+02
<STATE> 3
<MEAN> 25
 1.842593e-09 -2.576395e-08 1.213246e-09 1.102351e-07 5.049876e-08 2.685317e-08 1.114029e-08 1.294129e-10 -3.466416e-09 -2.296308e-08 -2.622614e-08 -9.813810e-09 2.980634e-04 -8.550466e-04 4.178782e-04 9.468905e-04 5.062926e-05 -1.024574e-04 3.503152e-05 -6.060586e-04 3.684188e-06 2.464041e-05 -1.013554e-04 -2.583867e-05 -1.010176e-06
<VARIANCE> 25
 3.122577e+01 5.719802e+01 3.946896e+01 1.100318e+02 7.297534e+01 4.239960e+01 8.885344e+01 4.992168e+01 5.386439e+01 4.312420e+01 6.630042e+01 3.168895e+01 1.448071e+00 2.278910e+00 1.858679e+00 4.019047e+00 3.178237e+00 2.636007e+00 3.570275e+00 3.178643e+00 2.899120e+00 2.714130e+00 2.987308e+00 2.010213e+00 3.236470e+00
<GCONST> 1.064359e+02
<STATE> 4
<MEAN> 25
 1.842593e-09 -2.576395e-08 1.213246e-09 1.102351e-07 5.049876e-08 2.685317e-08 1.114029e-08 1.294129e-10 -3.466416e-09 -2.296308e-08 -2.622614e-08 -9.813810e-09 2.980634e-04 -8.550466e-04 4.178782e-04 9.468905e-04 5.062926e-05 -1.024574e-04 3.503152e-05 -6.060586e-04 3.684188e-06 2.464041e-05 -1.013554e-04 -2.583867e-05 -1.010176e-06
<VARIANCE> 25
 3.122577e+01 5.719802e+01 3.946896e+01 1.100318e+02 7.297534e+01 4.239960e+01 8.885344e+01 4.992168e+01 5.386439e+01 4.312420e+01 6.630042e+01 3.168895e+01 1.448071e+00 2.278910e+00 1.858679e+00 4.019047e+00 3.178237e+00 2.636007e+00 3.570275e+00 3.178643e+00 2.899120e+00 2.714130e+00 2.987308e+00 2.010213e+00 3.236470e+00
<GCONST> 1.064359e+02
<TRANSP> 5
 0.000000e+00 1.000000e+00 0.000000e+00 0.000000e+00 0.000000e+00
 0.000000e+00 6.000000e-01 4.000000e-01 0.000000e+00 0.000000e+00
 0.000000e+00 0.000000e+00 6.000000e-01 4.000000e-01 0.000000e+00
 0.000000e+00 0.000000e+00 0.000000e+00 7.000000e-01 3.000000e-01
 0.000000e+00 0.000000e+00 0.000000e+00 0.000000e+00 0.000000e+00
<ENDHMM>
~h "o"
<BEGINHMM>
<NUMSTATES> 5
<STATE> 2
<MEAN> 25
 1.842593e-09 -2.576395e-08 1.213246e-09 1.102351e-07 5.049876e-08 2.685317e-08 1.114029e-08 1.294129e-10 -3.466416e-09 -2.296308e-08 -2.622614e-08 -9.813810e-09 2.980634e-04 -8.550466e-04 4.178782e-04 9.468905e-04 5.062926e-05 -1.024574e-04 3.503152e-05 -6.060586e-04 3.684188e-06 2.464041e-05 -1.013554e-04 -2.583867e-05 -1.010176e-06
<VARIANCE> 25
 3.122577e+01 5.719802e+01 3.946896e+01 1.100318e+02 7.297534e+01 4.239960e+01 8.885344e+01 4.992168e+01 5.386439e+01 4.312420e+01 6.630042e+01 3.168895e+01 1.448071e+00 2.278910e+00 1.858679e+00 4.019047e+00 3.178237e+00 2.636007e+00 3.570275e+00 3.178643e+00 2.899120e+00 2.714130e+00 2.987308e+00 2.010213e+00 3.236470e+00
<GCONST> 1.064359e+02
<STATE> 3
<MEAN> 25
 1.842593e-09 -2.576395e-08 1.213246e-09 1.102351e-07 5.049876e-08 2.685317e-08 1.114029e-08 1.294129e-10 -3.466416e-09 -2.296308e-08 -2.622614e-08 -9.813810e-09 2.980634e-04 -8.550466e-04 4.178782e-04 9.468905e-04 5.062926e-05 -1.024574e-04 3.503152e-05 -6.060586e-04 3.684188e-06 2.464041e-05 -1.013554e-04 -2.583867e-05 -1.010176e-06
<VARIANCE> 25
 3.122577e+01 5.719802e+01 3.946896e+01 1.100318e+02 7.297534e+01 4.239960e+01 8.885344e+01 4.992168e+01 5.386439e+01 4.312420e+01 6.630042e+01 3.168895e+01 1.448071e+00 2.278910e+00 1.858679e+00 4.019047e+00 3.178237e+00 2.636007e+00 3.570275e+00 3.178643e+00 2.899120e+00 2.714130e+00 2.987308e+00 2.010213e+00 3.236470e+00
<GCONST> 1.064359e+02
<STATE> 4
<MEAN> 25
 1.842593e-09 -2.576395e-08 1.213246e-09 1.102351e-07 5.049876e-08 2.685317e-08 1.114029e-08 1.294129e-10 -3.466416e-09 -2.296308e-08 -2.622614e-08 -9.813810e-09 2.980634e-04 -8.550466e-04 4.178782e-04 9.468905e-04 5.062926e-05 -1.024574e-04 3.503152e-05 -6.060586e-04 3.684188e-06 2.464041e-05 -1.013554e-04 -2.583867e-05 -1.010176e-06
<VARIANCE> 25
 3.122577e+01 5.719802e+01 3.946896e+01 1.100318e+02 7.297534e+01 4.239960e+01 8.885344e+01 4.992168e+01 5.386439e+01 4.312420e+01 6.630042e+01 3.168895e+01 1.448071e+00 2.278910e+00 1.858679e+00 4.019047e+00 3.178237e+00 2.636007e+00 3.570275e+00 3.178643e+00 2.899120e+00 2.714130e+00 2.987308e+00 2.010213e+00 3.236470e+00
<GCONST> 1.064359e+02
<TRANSP> 5
 0.000000e+00 1.000000e+00 0.000000e+00 0.000000e+00 0.000000e+00
 0.000000e+00 6.000000e-01 4.000000e-01 0.000000e+00 0.000000e+00
 0.000000e+00 0.000000e+00 6.000000e-01 4.000000e-01 0.000000e+00
 0.000000e+00 0.000000e+00 0.000000e+00 7.000000e-01 3.000000e-01
 0.000000e+00 0.000000e+00 0.000000e+00 0.000000e+00 0.000000e+00
<ENDHMM>
~h "r"
<BEGINHMM>
<NUMSTATES> 5
<STATE> 2
<MEAN> 25
 1.842593e-09 -2.576395e-08 1.213246e-09 1.102351e-07 5.049876e-08 2.685317e-08 1.114029e-08 1.294129e-10 -3.466416e-09 -2.296308e-08 -2.622614e-08 -9.813810e-09 2.980634e-04 -8.550466e-04 4.178782e-04 9.468905e-04 5.062926e-05 -1.024574e-04 3.503152e-05 -6.060586e-04 3.684188e-06 2.464041e-05 -1.013554e-04 -2.583867e-05 -1.010176e-06
<VARIANCE> 25
 3.122577e+01 5.719802e+01 3.946896e+01 1.100318e+02 7.297534e+01 4.239960e+01 8.885344e+01 4.992168e+01 5.386439e+01 4.312420e+01 6.630042e+01 3.168895e+01 1.448071e+00 2.278910e+00 1.858679e+00 4.019047e+00 3.178237e+00 2.636007e+00 3.570275e+00 3.178643e+00 2.899120e+00 2.714130e+00 2.987308e+00 2.010213e+00 3.236470e+00
<GCONST> 1.064359e+02
<STATE> 3
<MEAN> 25
 1.842593e-09 -2.576395e-08 1.213246e-09 1.102351e-07 5.049876e-08 2.685317e-08 1.114029e-08 1.294129e-10 -3.466416e-09 -2.296308e-08 -2.622614e-08 -9.813810e-09 2.980634e-04 -8.550466e-04 4.178782e-04 9.468905e-04 5.062926e-05 -1.024574e-04 3.503152e-05 -6.060586e-04 3.684188e-06 2.464041e-05 -1.013554e-04 -2.583867e-05 -1.010176e-06
<VARIANCE> 25
 3.122577e+01 5.719802e+01 3.946896e+01 1.100318e+02 7.297534e+01 4.239960e+01 8.885344e+01 4.992168e+01 5.386439e+01 4.312420e+01 6.630042e+01 3.168895e+01 1.448071e+00 2.278910e+00 1.858679e+00 4.019047e+00 3.178237e+00 2.636007e+00 3.570275e+00 3.178643e+00 2.899120e+00 2.714130e+00 2.987308e+00 2.010213e+00 3.236470e+00
<GCONST> 1.064359e+02
<STATE> 4
<MEAN> 25
 1.842593e-09 -2.576395e-08 1.213246e-09 1.102351e-07 5.049876e-08 2.685317e-08 1.114029e-08 1.294129e-10 -3.466416e-09 -2.296308e-08 -2.622614e-08 -9.813810e-09 2.980634e-04 -8.550466e-04 4.178782e-04 9.468905e-04 5.062926e-05 -1.024574e-04 3.503152e-05 -6.060586e-04 3.684188e-06 2.464041e-05 -1.013554e-04 -2.583867e-05 -1.010176e-06
<VARIANCE> 25
 3.122577e+01 5.719802e+01 3.946896e+01 1.100318e+02 7.297534e+01 4.239960e+01 8.885344e+01 4.992168e+01 5.386439e+01 4.312420e+01 6.630042e+01 3.168895e+01 1.448071e+00 2.278910e+00 1.858679e+00 4.019047e+00 3.178237e+00 2.636007e+00 3.570275e+00 3.178643e+00 2.899120e+00 2.714130e+00 2.987308e+00 2.010213e+00 3.236470e+00
<GCONST> 1.064359e+02
<TRANSP> 5
 0.000000e+00 1.000000e+00 0.000000e+00 0.000000e+00 0.000000e+00
 0.000000e+00 6.000000e-01 4.000000e-01 0.000000e+00 0.000000e+00
 0.000000e+00 0.000000e+00 6.000000e-01 4.000000e-01 0.000000e+00
 0.000000e+00 0.000000e+00 0.000000e+00 7.000000e-01 3.000000e-01
 0.000000e+00 0.000000e+00 0.000000e+00 0.000000e+00 0.000000e+00
<ENDHMM>
~h "g"
<BEGINHMM>
<NUMSTATES> 5
<STATE> 2
<MEAN> 25
 1.842593e-09 -2.576395e-08 1.213246e-09 1.102351e-07 5.049876e-08 2.685317e-08 1.114029e-08 1.294129e-10 -3.466416e-09 -2.296308e-08 -2.622614e-08 -9.813810e-09 2.980634e-04 -8.550466e-04 4.178782e-04 9.468905e-04 5.062926e-05 -1.024574e-04 3.503152e-05 -6.060586e-04 3.684188e-06 2.464041e-05 -1.013554e-04 -2.583867e-05 -1.010176e-06
<VARIANCE> 25
 3.122577e+01 5.719802e+01 3.946896e+01 1.100318e+02 7.297534e+01 4.239960e+01 8.885344e+01 4.992168e+01 5.386439e+01 4.312420e+01 6.630042e+01 3.168895e+01 1.448071e+00 2.278910e+00 1.858679e+00 4.019047e+00 3.178237e+00 2.636007e+00 3.570275e+00 3.178643e+00 2.899120e+00 2.714130e+00 2.987308e+00 2.010213e+00 3.236470e+00
<GCONST> 1.064359e+02
<STATE> 3
<MEAN> 25
 1.842593e-09 -2.576395e-08 1.213246e-09 1.102351e-07 5.049876e-08 2.685317e-08 1.114029e-08 1.294129e-10 -3.466416e-09 -2.296308e-08 -2.622614e-08 -9.813810e-09 2.980634e-04 -8.550466e-04 4.178782e-04 9.468905e-04 5.062926e-05 -1.024574e-04 3.503152e-05 -6.060586e-04 3.684188e-06 2.464041e-05 -1.013554e-04 -2.583867e-05 -1.010176e-06
<VARIANCE> 25
 3.122577e+01 5.719802e+01 3.946896e+01 1.100318e+02 7.297534e+01 4.239960e+01 8.885344e+01 4.992168e+01 5.386439e+01 4.312420e+01 6.630042e+01 3.168895e+01 1.448071e+00 2.278910e+00 1.858679e+00 4.019047e+00 3.178237e+00 2.636007e+00 3.570275e+00 3.178643e+00 2.899120e+00 2.714130e+00 2.987308e+00 2.010213e+00 3.236470e+00
<GCONST> 1.064359e+02
<STATE> 4
<MEAN> 25
 1.842593e-09 -2.576395e-08 1.213246e-09 1.102351e-07 5.049876e-08 2.685317e-08 1.114029e-08 1.294129e-10 -3.466416e-09 -2.296308e-08 -2.622614e-08 -9.813810e-09 2.980634e-04 -8.550466e-04 4.178782e-04 9.468905e-04 5.062926e-05 -1.024574e-04 3.503152e-05 -6.060586e-04 3.684188e-06 2.464041e-05 -1.013554e-04 -2.583867e-05 -1.010176e-06
<VARIANCE> 25
 3.122577e+01 5.719802e+01 3.946896e+01 1.100318e+02 7.297534e+01 4.239960e+01 8.885344e+01 4.992168e+01 5.386439e+01 4.312420e+01 6.630042e+01 3.168895e+01 1.448071e+00 2.278910e+00 1.858679e+00 4.019047e+00 3.178237e+00 2.636007e+00 3.570275e+00 3.178643e+00 2.899120e+00 2.714130e+00 2.987308e+00 2.010213e+00 3.236470e+00
<GCONST> 1.064359e+02
<TRANSP> 5
 0.000000e+00 1.000000e+00 0.000000e+00 0.000000e+00 0.000000e+00
 0.000000e+00 6.000000e-01 4.000000e-01 0.000000e+00 0.000000e+00
 0.000000e+00 0.000000e+00 6.000000e-01 4.000000e-01 0.000000e+00
 0.000000e+00 0.000000e+00 0.000000e+00 7.000000e-01 3.000000e-01
 0.000000e+00 0.000000e+00 0.000000e+00 0.000000e+00 0.000000e+00
<ENDHMM>
~h "j"
<BEGINHMM>
<NUMSTATES> 5
<STATE> 2
<MEAN> 25
 1.842593e-09 -2.576395e-08 1.213246e-09 1.102351e-07 5.049876e-08 2.685317e-08 1.114029e-08 1.294129e-10 -3.466416e-09 -2.296308e-08 -2.622614e-08 -9.813810e-09 2.980634e-04 -8.550466e-04 4.178782e-04 9.468905e-04 5.062926e-05 -1.024574e-04 3.503152e-05 -6.060586e-04 3.684188e-06 2.464041e-05 -1.013554e-04 -2.583867e-05 -1.010176e-06
<VARIANCE> 25
 3.122577e+01 5.719802e+01 3.946896e+01 1.100318e+02 7.297534e+01 4.239960e+01 8.885344e+01 4.992168e+01 5.386439e+01 4.312420e+01 6.630042e+01 3.168895e+01 1.448071e+00 2.278910e+00 1.858679e+00 4.019047e+00 3.178237e+00 2.636007e+00 3.570275e+00 3.178643e+00 2.899120e+00 2.714130e+00 2.987308e+00 2.010213e+00 3.236470e+00
<GCONST> 1.064359e+02
<STATE> 3
<MEAN> 25
 1.842593e-09 -2.576395e-08 1.213246e-09 1.102351e-07 5.049876e-08 2.685317e-08 1.114029e-08 1.294129e-10 -3.466416e-09 -2.296308e-08 -2.622614e-08 -9.813810e-09 2.980634e-04 -8.550466e-04 4.178782e-04 9.468905e-04 5.062926e-05 -1.024574e-04 3.503152e-05 -6.060586e-04 3.684188e-06 2.464041e-05 -1.013554e-04 -2.583867e-05 -1.010176e-06
<VARIANCE> 25
 3.122577e+01 5.719802e+01 3.946896e+01 1.100318e+02 7.297534e+01 4.239960e+01 8.885344e+01 4.992168e+01 5.386439e+01 4.312420e+01 6.630042e+01 3.168895e+01 1.448071e+00 2.278910e+00 1.858679e+00 4.019047e+00 3.178237e+00 2.636007e+00 3.570275e+00 3.178643e+00 2.899120e+00 2.714130e+00 2.987308e+00 2.010213e+00 3.236470e+00
<GCONST> 1.064359e+02
<STATE> 4
<MEAN> 25
 1.842593e-09 -2.576395e-08 1.213246e-09 1.102351e-07 5.049876e-08 2.685317e-08 1.114029e-08 1.294129e-10 -3.466416e-09 -2.296308e-08 -2.622614e-08 -9.813810e-09 2.980634e-04 -8.550466e-04 4.178782e-04 9.468905e-04 5.062926e-05 -1.024574e-04 3.503152e-05 -6.060586e-04 3.684188e-06 2.464041e-05 -1.013554e-04 -2.583867e-05 -1.010176e-06
<VARIANCE> 25
 3.122577e+01 5.719802e+01 3.946896e+01 1.100318e+02 7.297534e+01 4.239960e+01 8.885344e+01 4.992168e+01 5.386439e+01 4.312420e+01 6.630042e+01 3.168895e+01 1.448071e+00 2.278910e+00 1.858679e+00 4.019047e+00 3.178237e+00 2.636007e+00 3.570275e+00 3.178643e+00 2.899120e+00 2.714130e+00 2.987308e+00 2.010213e+00 3.236470e+00
<GCONST> 1.064359e+02
<TRANSP> 5
 0.000000e+00 1.000000e+00 0.000000e+00 0.000000e+00 0.000000e+00
 0.000000e+00 6.000000e-01 4.000000e-01 0.000000e+00 0.000000e+00
 0.000000e+00 0.000000e+00 6.000000e-01 4.000000e-01 0.000000e+00
 0.000000e+00 0.000000e+00 0.000000e+00 7.000000e-01 3.000000e-01
 0.000000e+00 0.000000e+00 0.000000e+00 0.000000e+00 0.000000e+00
<ENDHMM>
~h "k"
<BEGINHMM>
<NUMSTATES> 5
<STATE> 2
<MEAN> 25
 1.842593e-09 -2.576395e-08 1.213246e-09 1.102351e-07 5.049876e-08 2.685317e-08 1.114029e-08 1.294129e-10 -3.466416e-09 -2.296308e-08 -2.622614e-08 -9.813810e-09 2.980634e-04 -8.550466e-04 4.178782e-04 9.468905e-04 5.062926e-05 -1.024574e-04 3.503152e-05 -6.060586e-04 3.684188e-06 2.464041e-05 -1.013554e-04 -2.583867e-05 -1.010176e-06
<VARIANCE> 25
 3.122577e+01 5.719802e+01 3.946896e+01 1.100318e+02 7.297534e+01 4.239960e+01 8.885344e+01 4.992168e+01 5.386439e+01 4.312420e+01 6.630042e+01 3.168895e+01 1.448071e+00 2.278910e+00 1.858679e+00 4.019047e+00 3.178237e+00 2.636007e+00 3.570275e+00 3.178643e+00 2.899120e+00 2.714130e+00 2.987308e+00 2.010213e+00 3.236470e+00
<GCONST> 1.064359e+02
<STATE> 3
<MEAN> 25
 1.842593e-09 -2.576395e-08 1.213246e-09 1.102351e-07 5.049876e-08 2.685317e-08 1.114029e-08 1.294129e-10 -3.466416e-09 -2.296308e-08 -2.622614e-08 -9.813810e-09 2.980634e-04 -8.550466e-04 4.178782e-04 9.468905e-04 5.062926e-05 -1.024574e-04 3.503152e-05 -6.060586e-04 3.684188e-06 2.464041e-05 -1.013554e-04 -2.583867e-05 -1.010176e-06
<VARIANCE> 25
 3.122577e+01 5.719802e+01 3.946896e+01 1.100318e+02 7.297534e+01 4.239960e+01 8.885344e+01 4.992168e+01 5.386439e+01 4.312420e+01 6.630042e+01 3.168895e+01 1.448071e+00 2.278910e+00 1.858679e+00 4.019047e+00 3.178237e+00 2.636007e+00 3.570275e+00 3.178643e+00 2.899120e+00 2.714130e+00 2.987308e+00 2.010213e+00 3.236470e+00
<GCONST> 1.064359e+02
<STATE> 4
<MEAN> 25
 1.842593e-09 -2.576395e-08 1.213246e-09 1.102351e-07 5.049876e-08 2.685317e-08 1.114029e-08 1.294129e-10 -3.466416e-09 -2.296308e-08 -2.622614e-08 -9.813810e-09 2.980634e-04 -8.550466e-04 4.178782e-04 9.468905e-04 5.062926e-05 -1.024574e-04 3.503152e-05 -6.060586e-04 3.684188e-06 2.464041e-05 -1.013554e-04 -2.583867e-05 -1.010176e-06
<VARIANCE> 25
 3.122577e+01 5.719802e+01 3.946896e+01 1.100318e+02 7.297534e+01 4.239960e+01 8.885344e+01 4.992168e+01 5.386439e+01 4.312420e+01 6.630042e+01 3.168895e+01 1.448071e+00 2.278910e+00 1.858679e+00 4.019047e+00 3.178237e+00 2.636007e+00 3.570275e+00 3.178643e+00 2.899120e+00 2.714130e+00 2.987308e+00 2.010213e+00 3.236470e+00
<GCONST> 1.064359e+02
<TRANSP> 5
 0.000000e+00 1.000000e+00 0.000000e+00 0.000000e+00 0.000000e+00
 0.000000e+00 6.000000e-01 4.000000e-01 0.000000e+00 0.000000e+00
 0.000000e+00 0.000000e+00 6.000000e-01 4.000000e-01 0.000000e+00
 0.000000e+00 0.000000e+00 0.000000e+00 7.000000e-01 3.000000e-01
 0.000000e+00 0.000000e+00 0.000000e+00 0.000000e+00 0.000000e+00
<ENDHMM>
~h "f"
<BEGINHMM>
<NUMSTATES> 5
<STATE> 2
<MEAN> 25
 1.842593e-09 -2.576395e-08 1.213246e-09 1.102351e-07 5.049876e-08 2.685317e-08 1.114029e-08 1.294129e-10 -3.466416e-09 -2.296308e-08 -2.622614e-08 -9.813810e-09 2.980634e-04 -8.550466e-04 4.178782e-04 9.468905e-04 5.062926e-05 -1.024574e-04 3.503152e-05 -6.060586e-04 3.684188e-06 2.464041e-05 -1.013554e-04 -2.583867e-05 -1.010176e-06
<VARIANCE> 25
 3.122577e+01 5.719802e+01 3.946896e+01 1.100318e+02 7.297534e+01 4.239960e+01 8.885344e+01 4.992168e+01 5.386439e+01 4.312420e+01 6.630042e+01 3.168895e+01 1.448071e+00 2.278910e+00 1.858679e+00 4.019047e+00 3.178237e+00 2.636007e+00 3.570275e+00 3.178643e+00 2.899120e+00 2.714130e+00 2.987308e+00 2.010213e+00 3.236470e+00
<GCONST> 1.064359e+02
<STATE> 3
<MEAN> 25
 1.842593e-09 -2.576395e-08 1.213246e-09 1.102351e-07 5.049876e-08 2.685317e-08 1.114029e-08 1.294129e-10 -3.466416e-09 -2.296308e-08 -2.622614e-08 -9.813810e-09 2.980634e-04 -8.550466e-04 4.178782e-04 9.468905e-04 5.062926e-05 -1.024574e-04 3.503152e-05 -6.060586e-04 3.684188e-06 2.464041e-05 -1.013554e-04 -2.583867e-05 -1.010176e-06
<VARIANCE> 25
 3.122577e+01 5.719802e+01 3.946896e+01 1.100318e+02 7.297534e+01 4.239960e+01 8.885344e+01 4.992168e+01 5.386439e+01 4.312420e+01 6.630042e+01 3.168895e+01 1.448071e+00 2.278910e+00 1.858679e+00 4.019047e+00 3.178237e+00 2.636007e+00 3.570275e+00 3.178643e+00 2.899120e+00 2.714130e+00 2.987308e+00 2.010213e+00 3.236470e+00
<GCONST> 1.064359e+02
<STATE> 4
<MEAN> 25
 1.842593e-09 -2.576395e-08 1.213246e-09 1.102351e-07 5.049876e-08 2.685317e-08 1.114029e-08 1.294129e-10 -3.466416e-09 -2.296308e-08 -2.622614e-08 -9.813810e-09 2.980634e-04 -8.550466e-04 4.178782e-04 9.468905e-04 5.062926e-05 -1.024574e-04 3.503152e-05 -6.060586e-04 3.684188e-06 2.464041e-05 -1.013554e-04 -2.583867e-05 -1.010176e-06
<VARIANCE> 25
 3.122577e+01 5.719802e+01 3.946896e+01 1.100318e+02 7.297534e+01 4.239960e+01 8.885344e+01 4.992168e+01 5.386439e+01 4.312420e+01 6.630042e+01 3.168895e+01 1.448071e+00 2.278910e+00 1.858679e+00 4.019047e+00 3.178237e+00 2.636007e+00 3.570275e+00 3.178643e+00 2.899120e+00 2.714130e+00 2.987308e+00 2.010213e+00 3.236470e+00
<GCONST> 1.064359e+02
<TRANSP> 5
 0.000000e+00 1.000000e+00 0.000000e+00 0.000000e+00 0.000000e+00
 0.000000e+00 6.000000e-01 4.000000e-01 0.000000e+00 0.000000e+00
 0.000000e+00 0.000000e+00 6.000000e-01 4.000000e-01 0.000000e+00
 0.000000e+00 0.000000e+00 0.000000e+00 7.000000e-01 3.000000e-01
 0.000000e+00 0.000000e+00 0.000000e+00 0.000000e+00 0.000000e+00
<ENDHMM>
~h "l"
<BEGINHMM>
<NUMSTATES> 5
<STATE> 2
<MEAN> 25
 1.842593e-09 -2.576395e-08 1.213246e-09 1.102351e-07 5.049876e-08 2.685317e-08 1.114029e-08 1.294129e-10 -3.466416e-09 -2.296308e-08 -2.622614e-08 -9.813810e-09 2.980634e-04 -8.550466e-04 4.178782e-04 9.468905e-04 5.062926e-05 -1.024574e-04 3.503152e-05 -6.060586e-04 3.684188e-06 2.464041e-05 -1.013554e-04 -2.583867e-05 -1.010176e-06
<VARIANCE> 25
 3.122577e+01 5.719802e+01 3.946896e+01 1.100318e+02 7.297534e+01 4.239960e+01 8.885344e+01 4.992168e+01 5.386439e+01 4.312420e+01 6.630042e+01 3.168895e+01 1.448071e+00 2.278910e+00 1.858679e+00 4.019047e+00 3.178237e+00 2.636007e+00 3.570275e+00 3.178643e+00 2.899120e+00 2.714130e+00 2.987308e+00 2.010213e+00 3.236470e+00
<GCONST> 1.064359e+02
<STATE> 3
<MEAN> 25
 1.842593e-09 -2.576395e-08 1.213246e-09 1.102351e-07 5.049876e-08 2.685317e-08 1.114029e-08 1.294129e-10 -3.466416e-09 -2.296308e-08 -2.622614e-08 -9.813810e-09 2.980634e-04 -8.550466e-04 4.178782e-04 9.468905e-04 5.062926e-05 -1.024574e-04 3.503152e-05 -6.060586e-04 3.684188e-06 2.464041e-05 -1.013554e-04 -2.583867e-05 -1.010176e-06
<VARIANCE> 25
 3.122577e+01 5.719802e+01 3.946896e+01 1.100318e+02 7.297534e+01 4.239960e+01 8.885344e+01 4.992168e+01 5.386439e+01 4.312420e+01 6.630042e+01 3.168895e+01 1.448071e+00 2.278910e+00 1.858679e+00 4.019047e+00 3.178237e+00 2.636007e+00 3.570275e+00 3.178643e+00 2.899120e+00 2.714130e+00 2.987308e+00 2.010213e+00 3.236470e+00
<GCONST> 1.064359e+02
<STATE> 4
<MEAN> 25
 1.842593e-09 -2.576395e-08 1.213246e-09 1.102351e-07 5.049876e-08 2.685317e-08 1.114029e-08 1.294129e-10 -3.466416e-09 -2.296308e-08 -2.622614e-08 -9.813810e-09 2.980634e-04 -8.550466e-04 4.178782e-04 9.468905e-04 5.062926e-05 -1.024574e-04 3.503152e-05 -6.060586e-04 3.684188e-06 2.464041e-05 -1.013554e-04 -2.583867e-05 -1.010176e-06
<VARIANCE> 25
 3.122577e+01 5.719802e+01 3.946896e+01 1.100318e+02 7.297534e+01 4.239960e+01 8.885344e+01 4.992168e+01 5.386439e+01 4.312420e+01 6.630042e+01 3.168895e+01 1.448071e+00 2.278910e+00 1.858679e+00 4.019047e+00 3.178237e+00 2.636007e+00 3.570275e+00 3.178643e+00 2.899120e+00 2.714130e+00 2.987308e+00 2.010213e+00 3.236470e+00
<GCONST> 1.064359e+02
<TRANSP> 5
 0.000000e+00 1.000000e+00 0.000000e+00 0.000000e+00 0.000000e+00
 0.000000e+00 6.000000e-01 4.000000e-01 0.000000e+00 0.000000e+00
 0.000000e+00 0.000000e+00 6.000000e-01 4.000000e-01 0.000000e+00
 0.000000e+00 0.000000e+00 0.000000e+00 7.000000e-01 3.000000e-01
 0.000000e+00 0.000000e+00 0.000000e+00 0.000000e+00 0.000000e+00
<ENDHMM>
~h "h"
<BEGINHMM>
<NUMSTATES> 5
<STATE> 2
<MEAN> 25
 1.842593e-09 -2.576395e-08 1.213246e-09 1.102351e-07 5.049876e-08 2.685317e-08 1.114029e-08 1.294129e-10 -3.466416e-09 -2.296308e-08 -2.622614e-08 -9.813810e-09 2.980634e-04 -8.550466e-04 4.178782e-04 9.468905e-04 5.062926e-05 -1.024574e-04 3.503152e-05 -6.060586e-04 3.684188e-06 2.464041e-05 -1.013554e-04 -2.583867e-05 -1.010176e-06
<VARIANCE> 25
 3.122577e+01 5.719802e+01 3.946896e+01 1.100318e+02 7.297534e+01 4.239960e+01 8.885344e+01 4.992168e+01 5.386439e+01 4.312420e+01 6.630042e+01 3.168895e+01 1.448071e+00 2.278910e+00 1.858679e+00 4.019047e+00 3.178237e+00 2.636007e+00 3.570275e+00 3.178643e+00 2.899120e+00 2.714130e+00 2.987308e+00 2.010213e+00 3.236470e+00
<GCONST> 1.064359e+02
<STATE> 3
<MEAN> 25
 1.842593e-09 -2.576395e-08 1.213246e-09 1.102351e-07 5.049876e-08 2.685317e-08 1.114029e-08 1.294129e-10 -3.466416e-09 -2.296308e-08 -2.622614e-08 -9.813810e-09 2.980634e-04 -8.550466e-04 4.178782e-04 9.468905e-04 5.062926e-05 -1.024574e-04 3.503152e-05 -6.060586e-04 3.684188e-06 2.464041e-05 -1.013554e-04 -2.583867e-05 -1.010176e-06
<VARIANCE> 25
 3.122577e+01 5.719802e+01 3.946896e+01 1.100318e+02 7.297534e+01 4.239960e+01 8.885344e+01 4.992168e+01 5.386439e+01 4.312420e+01 6.630042e+01 3.168895e+01 1.448071e+00 2.278910e+00 1.858679e+00 4.019047e+00 3.178237e+00 2.636007e+00 3.570275e+00 3.178643e+00 2.899120e+00 2.714130e+00 2.987308e+00 2.010213e+00 3.236470e+00
<GCONST> 1.064359e+02
<STATE> 4
<MEAN> 25
 1.842593e-09 -2.576395e-08 1.213246e-09 1.102351e-07 5.049876e-08 2.685317e-08 1.114029e-08 1.294129e-10 -3.466416e-09 -2.296308e-08 -2.622614e-08 -9.813810e-09 2.980634e-04 -8.550466e-04 4.178782e-04 9.468905e-04 5.062926e-05 -1.024574e-04 3.503152e-05 -6.060586e-04 3.684188e-06 2.464041e-05 -1.013554e-04 -2.583867e-05 -1.010176e-06
<VARIANCE> 25
 3.122577e+01 5.719802e+01 3.946896e+01 1.100318e+02 7.297534e+01 4.239960e+01 8.885344e+01 4.992168e+01 5.386439e+01 4.312420e+01 6.630042e+01 3.168895e+01 1.448071e+00 2.278910e+00 1.858679e+00 4.019047e+00 3.178237e+00 2.636007e+00 3.570275e+00 3.178643e+00 2.899120e+00 2.714130e+00 2.987308e+00 2.010213e+00 3.236470e+00
<GCONST> 1.064359e+02
<TRANSP> 5
 0.000000e+00 1.000000e+00 0.000000e+00 0.000000e+00 0.000000e+00
 0.000000e+00 6.000000e-01 4.000000e-01 0.000000e+00 0.000000e+00
 0.000000e+00 0.000000e+00 6.000000e-01 4.000000e-01 0.000000e+00
 0.000000e+00 0.000000e+00 0.000000e+00 7.000000e-01 3.000000e-01
 0.000000e+00 0.000000e+00 0.000000e+00 0.000000e+00 0.000000e+00
<ENDHMM>
~h "aw"
<BEGINHMM>
<NUMSTATES> 5
<STATE> 2
<MEAN> 25
 1.842593e-09 -2.576395e-08 1.213246e-09 1.102351e-07 5.049876e-08 2.685317e-08 1.114029e-08 1.294129e-10 -3.466416e-09 -2.296308e-08 -2.622614e-08 -9.813810e-09 2.980634e-04 -8.550466e-04 4.178782e-04 9.468905e-04 5.062926e-05 -1.024574e-04 3.503152e-05 -6.060586e-04 3.684188e-06 2.464041e-05 -1.013554e-04 -2.583867e-05 -1.010176e-06
<VARIANCE> 25
 3.122577e+01 5.719802e+01 3.946896e+01 1.100318e+02 7.297534e+01 4.239960e+01 8.885344e+01 4.992168e+01 5.386439e+01 4.312420e+01 6.630042e+01 3.168895e+01 1.448071e+00 2.278910e+00 1.858679e+00 4.019047e+00 3.178237e+00 2.636007e+00 3.570275e+00 3.178643e+00 2.899120e+00 2.714130e+00 2.987308e+00 2.010213e+00 3.236470e+00
<GCONST> 1.064359e+02
<STATE> 3
<MEAN> 25
 1.842593e-09 -2.576395e-08 1.213246e-09 1.102351e-07 5.049876e-08 2.685317e-08 1.114029e-08 1.294129e-10 -3.466416e-09 -2.296308e-08 -2.622614e-08 -9.813810e-09 2.980634e-04 -8.550466e-04 4.178782e-04 9.468905e-04 5.062926e-05 -1.024574e-04 3.503152e-05 -6.060586e-04 3.684188e-06 2.464041e-05 -1.013554e-04 -2.583867e-05 -1.010176e-06
<VARIANCE> 25
 3.122577e+01 5.719802e+01 3.946896e+01 1.100318e+02 7.297534e+01 4.239960e+01 8.885344e+01 4.992168e+01 5.386439e+01 4.312420e+01 6.630042e+01 3.168895e+01 1.448071e+00 2.278910e+00 1.858679e+00 4.019047e+00 3.178237e+00 2.636007e+00 3.570275e+00 3.178643e+00 2.899120e+00 2.714130e+00 2.987308e+00 2.010213e+00 3.236470e+00
<GCONST> 1.064359e+02
<STATE> 4
<MEAN> 25
 1.842593e-09 -2.576395e-08 1.213246e-09 1.102351e-07 5.049876e-08 2.685317e-08 1.114029e-08 1.294129e-10 -3.466416e-09 -2.296308e-08 -2.622614e-08 -9.813810e-09 2.980634e-04 -8.550466e-04 4.178782e-04 9.468905e-04 5.062926e-05 -1.024574e-04 3.503152e-05 -6.060586e-04 3.684188e-06 2.464041e-05 -1.013554e-04 -2.583867e-05 -1.010176e-06
<VARIANCE> 25
 3.122577e+01 5.719802e+01 3.946896e+01 1.100318e+02 7.297534e+01 4.239960e+01 8.885344e+01 4.992168e+01 5.386439e+01 4.312420e+01 6.630042e+01 3.168895e+01 1.448071e+00 2.278910e+00 1.858679e+00 4.019047e+00 3.178237e+00 2.636007e+00 3.570275e+00 3.178643e+00 2.899120e+00 2.714130e+00 2.987308e+00 2.010213e+00 3.236470e+00
<GCONST> 1.064359e+02
<TRANSP> 5
 0.000000e+00 1.000000e+00 0.000000e+00 0.000000e+00 0.000000e+00
 0.000000e+00 6.000000e-01 4.000000e-01 0.000000e+00 0.000000e+00
 0.000000e+00 0.000000e+00 6.000000e-01 4.000000e-01 0.000000e+00
 0.000000e+00 0.000000e+00 0.000000e+00 7.000000e-01 3.000000e-01
 0.000000e+00 0.000000e+00 0.000000e+00 0.000000e+00 0.000000e+00
<ENDHMM>
~h "y"
<BEGINHMM>
<NUMSTATES> 5
<STATE> 2
<MEAN> 25
 1.842593e-09 -2.576395e-08 1.213246e-09 1.102351e-07 5.049876e-08 2.685317e-08 1.114029e-08 1.294129e-10 -3.466416e-09 -2.296308e-08 -2.622614e-08 -9.813810e-09 2.980634e-04 -8.550466e-04 4.178782e-04 9.468905e-04 5.062926e-05 -1.024574e-04 3.503152e-05 -6.060586e-04 3.684188e-06 2.464041e-05 -1.013554e-04 -2.583867e-05 -1.010176e-06
<VARIANCE> 25
 3.122577e+01 5.719802e+01 3.946896e+01 1.100318e+02 7.297534e+01 4.239960e+01 8.885344e+01 4.992168e+01 5.386439e+01 4.312420e+01 6.630042e+01 3.168895e+01 1.448071e+00 2.278910e+00 1.858679e+00 4.019047e+00 3.178237e+00 2.636007e+00 3.570275e+00 3.178643e+00 2.899120e+00 2.714130e+00 2.987308e+00 2.010213e+00 3.236470e+00
<GCONST> 1.064359e+02
<STATE> 3
<MEAN> 25
 1.842593e-09 -2.576395e-08 1.213246e-09 1.102351e-07 5.049876e-08 2.685317e-08 1.114029e-08 1.294129e-10 -3.466416e-09 -2.296308e-08 -2.622614e-08 -9.813810e-09 2.980634e-04 -8.550466e-04 4.178782e-04 9.468905e-04 5.062926e-05 -1.024574e-04 3.503152e-05 -6.060586e-04 3.684188e-06 2.464041e-05 -1.013554e-04 -2.583867e-05 -1.010176e-06
<VARIANCE> 25
 3.122577e+01 5.719802e+01 3.946896e+01 1.100318e+02 7.297534e+01 4.239960e+01 8.885344e+01 4.992168e+01 5.386439e+01 4.312420e+01 6.630042e+01 3.168895e+01 1.448071e+00 2.278910e+00 1.858679e+00 4.019047e+00 3.178237e+00 2.636007e+00 3.570275e+00 3.178643e+00 2.899120e+00 2.714130e+00 2.987308e+00 2.010213e+00 3.236470e+00
<GCONST> 1.064359e+02
<STATE> 4
<MEAN> 25
 1.842593e-09 -2.576395e-08 1.213246e-09 1.102351e-07 5.049876e-08 2.685317e-08 1.114029e-08 1.294129e-10 -3.466416e-09 -2.296308e-08 -2.622614e-08 -9.813810e-09 2.980634e-04 -8.550466e-04 4.178782e-04 9.468905e-04 5.062926e-05 -1.024574e-04 3.503152e-05 -6.060586e-04 3.684188e-06 2.464041e-05 -1.013554e-04 -2.583867e-05 -1.010176e-06
<VARIANCE> 25
 3.122577e+01 5.719802e+01 3.946896e+01 1.100318e+02 7.297534e+01 4.239960e+01 8.885344e+01 4.992168e+01 5.386439e+01 4.312420e+01 6.630042e+01 3.168895e+01 1.448071e+00 2.278910e+00 1.858679e+00 4.019047e+00 3.178237e+00 2.636007e+00 3.570275e+00 3.178643e+00 2.899120e+00 2.714130e+00 2.987308e+00 2.010213e+00 3.236470e+00
<GCONST> 1.064359e+02
<TRANSP> 5
 0.000000e+00 1.000000e+00 0.000000e+00 0.000000e+00 0.000000e+00
 0.000000e+00 6.000000e-01 4.000000e-01 0.000000e+00 0.000000e+00
 0.000000e+00 0.000000e+00 6.000000e-01 4.000000e-01 0.000000e+00
 0.000000e+00 0.000000e+00 0.000000e+00 7.000000e-01 3.000000e-01
 0.000000e+00 0.000000e+00 0.000000e+00 0.000000e+00 0.000000e+00
<ENDHMM>
~h "ay"
<BEGINHMM>
<NUMSTATES> 5
<STATE> 2
<MEAN> 25
 1.842593e-09 -2.576395e-08 1.213246e-09 1.102351e-07 5.049876e-08 2.685317e-08 1.114029e-08 1.294129e-10 -3.466416e-09 -2.296308e-08 -2.622614e-08 -9.813810e-09 2.980634e-04 -8.550466e-04 4.178782e-04 9.468905e-04 5.062926e-05 -1.024574e-04 3.503152e-05 -6.060586e-04 3.684188e-06 2.464041e-05 -1.013554e-04 -2.583867e-05 -1.010176e-06
<VARIANCE> 25
 3.122577e+01 5.719802e+01 3.946896e+01 1.100318e+02 7.297534e+01 4.239960e+01 8.885344e+01 4.992168e+01 5.386439e+01 4.312420e+01 6.630042e+01 3.168895e+01 1.448071e+00 2.278910e+00 1.858679e+00 4.019047e+00 3.178237e+00 2.636007e+00 3.570275e+00 3.178643e+00 2.899120e+00 2.714130e+00 2.987308e+00 2.010213e+00 3.236470e+00
<GCONST> 1.064359e+02
<STATE> 3
<MEAN> 25
 1.842593e-09 -2.576395e-08 1.213246e-09 1.102351e-07 5.049876e-08 2.685317e-08 1.114029e-08 1.294129e-10 -3.466416e-09 -2.296308e-08 -2.622614e-08 -9.813810e-09 2.980634e-04 -8.550466e-04 4.178782e-04 9.468905e-04 5.062926e-05 -1.024574e-04 3.503152e-05 -6.060586e-04 3.684188e-06 2.464041e-05 -1.013554e-04 -2.583867e-05 -1.010176e-06
<VARIANCE> 25
 3.122577e+01 5.719802e+01 3.946896e+01 1.100318e+02 7.297534e+01 4.239960e+01 8.885344e+01 4.992168e+01 5.386439e+01 4.312420e+01 6.630042e+01 3.168895e+01 1.448071e+00 2.278910e+00 1.858679e+00 4.019047e+00 3.178237e+00 2.636007e+00 3.570275e+00 3.178643e+00 2.899120e+00 2.714130e+00 2.987308e+00 2.010213e+00 3.236470e+00
<GCONST> 1.064359e+02
<STATE> 4
<MEAN> 25
 1.842593e-09 -2.576395e-08 1.213246e-09 1.102351e-07 5.049876e-08 2.685317e-08 1.114029e-08 1.294129e-10 -3.466416e-09 -2.296308e-08 -2.622614e-08 -9.813810e-09 2.980634e-04 -8.550466e-04 4.178782e-04 9.468905e-04 5.062926e-05 -1.024574e-04 3.503152e-05 -6.060586e-04 3.684188e-06 2.464041e-05 -1.013554e-04 -2.583867e-05 -1.010176e-06
<VARIANCE> 25
 3.122577e+01 5.719802e+01 3.946896e+01 1.100318e+02 7.297534e+01 4.239960e+01 8.885344e+01 4.992168e+01 5.386439e+01 4.312420e+01 6.630042e+01 3.168895e+01 1.448071e+00 2.278910e+00 1.858679e+00 4.019047e+00 3.178237e+00 2.636007e+00 3.570275e+00 3.178643e+00 2.899120e+00 2.714130e+00 2.987308e+00 2.010213e+00 3.236470e+00
<GCONST> 1.064359e+02
<TRANSP> 5
 0.000000e+00 1.000000e+00 0.000000e+00 0.000000e+00 0.000000e+00
 0.000000e+00 6.000000e-01 4.000000e-01 0.000000e+00 0.000000e+00
 0.000000e+00 0.000000e+00 6.000000e-01 4.000000e-01 0.000000e+00
 0.000000e+00 0.000000e+00 0.000000e+00 7.000000e-01 3.000000e-01
 0.000000e+00 0.000000e+00 0.000000e+00 0.000000e+00 0.000000e+00
<ENDHMM>
~h "u"
<BEGINHMM>
<NUMSTATES> 5
<STATE> 2
<MEAN> 25
 1.842593e-09 -2.576395e-08 1.213246e-09 1.102351e-07 5.049876e-08 2.685317e-08 1.114029e-08 1.294129e-10 -3.466416e-09 -2.296308e-08 -2.622614e-08 -9.813810e-09 2.980634e-04 -8.550466e-04 4.178782e-04 9.468905e-04 5.062926e-05 -1.024574e-04 3.503152e-05 -6.060586e-04 3.684188e-06 2.464041e-05 -1.013554e-04 -2.583867e-05 -1.010176e-06
<VARIANCE> 25
 3.122577e+01 5.719802e+01 3.946896e+01 1.100318e+02 7.297534e+01 4.239960e+01 8.885344e+01 4.992168e+01 5.386439e+01 4.312420e+01 6.630042e+01 3.168895e+01 1.448071e+00 2.278910e+00 1.858679e+00 4.019047e+00 3.178237e+00 2.636007e+00 3.570275e+00 3.178643e+00 2.899120e+00 2.714130e+00 2.987308e+00 2.010213e+00 3.236470e+00
<GCONST> 1.064359e+02
<STATE> 3
<MEAN> 25
 1.842593e-09 -2.576395e-08 1.213246e-09 1.102351e-07 5.049876e-08 2.685317e-08 1.114029e-08 1.294129e-10 -3.466416e-09 -2.296308e-08 -2.622614e-08 -9.813810e-09 2.980634e-04 -8.550466e-04 4.178782e-04 9.468905e-04 5.062926e-05 -1.024574e-04 3.503152e-05 -6.060586e-04 3.684188e-06 2.464041e-05 -1.013554e-04 -2.583867e-05 -1.010176e-06
<VARIANCE> 25
 3.122577e+01 5.719802e+01 3.946896e+01 1.100318e+02 7.297534e+01 4.239960e+01 8.885344e+01 4.992168e+01 5.386439e+01 4.312420e+01 6.630042e+01 3.168895e+01 1.448071e+00 2.278910e+00 1.858679e+00 4.019047e+00 3.178237e+00 2.636007e+00 3.570275e+00 3.178643e+00 2.899120e+00 2.714130e+00 2.987308e+00 2.010213e+00 3.236470e+00
<GCONST> 1.064359e+02
<STATE> 4
<MEAN> 25
 1.842593e-09 -2.576395e-08 1.213246e-09 1.102351e-07 5.049876e-08 2.685317e-08 1.114029e-08 1.294129e-10 -3.466416e-09 -2.296308e-08 -2.622614e-08 -9.813810e-09 2.980634e-04 -8.550466e-04 4.178782e-04 9.468905e-04 5.062926e-05 -1.024574e-04 3.503152e-05 -6.060586e-04 3.684188e-06 2.464041e-05 -1.013554e-04 -2.583867e-05 -1.010176e-06
<VARIANCE> 25
 3.122577e+01 5.719802e+01 3.946896e+01 1.100318e+02 7.297534e+01 4.239960e+01 8.885344e+01 4.992168e+01 5.386439e+01 4.312420e+01 6.630042e+01 3.168895e+01 1.448071e+00 2.278910e+00 1.858679e+00 4.019047e+00 3.178237e+00 2.636007e+00 3.570275e+00 3.178643e+00 2.899120e+00 2.714130e+00 2.987308e+00 2.010213e+00 3.236470e+00
<GCONST> 1.064359e+02
<TRANSP> 5
 0.000000e+00 1.000000e+00 0.000000e+00 0.000000e+00 0.000000e+00
 0.000000e+00 6.000000e-01 4.000000e-01 0.000000e+00 0.000000e+00
 0.000000e+00 0.000000e+00 6.000000e-01 4.000000e-01 0.000000e+00
 0.000000e+00 0.000000e+00 0.000000e+00 7.000000e-01 3.000000e-01
 0.000000e+00 0.000000e+00 0.000000e+00 0.000000e+00 0.000000e+00
<ENDHMM>
~h "c"
<BEGINHMM>
<NUMSTATES> 5
<STATE> 2
<MEAN> 25
 1.842593e-09 -2.576395e-08 1.213246e-09 1.102351e-07 5.049876e-08 2.685317e-08 1.114029e-08 1.294129e-10 -3.466416e-09 -2.296308e-08 -2.622614e-08 -9.813810e-09 2.980634e-04 -8.550466e-04 4.178782e-04 9.468905e-04 5.062926e-05 -1.024574e-04 3.503152e-05 -6.060586e-04 3.684188e-06 2.464041e-05 -1.013554e-04 -2.583867e-05 -1.010176e-06
<VARIANCE> 25
 3.122577e+01 5.719802e+01 3.946896e+01 1.100318e+02 7.297534e+01 4.239960e+01 8.885344e+01 4.992168e+01 5.386439e+01 4.312420e+01 6.630042e+01 3.168895e+01 1.448071e+00 2.278910e+00 1.858679e+00 4.019047e+00 3.178237e+00 2.636007e+00 3.570275e+00 3.178643e+00 2.899120e+00 2.714130e+00 2.987308e+00 2.010213e+00 3.236470e+00
<GCONST> 1.064359e+02
<STATE> 3
<MEAN> 25
 1.842593e-09 -2.576395e-08 1.213246e-09 1.102351e-07 5.049876e-08 2.685317e-08 1.114029e-08 1.294129e-10 -3.466416e-09 -2.296308e-08 -2.622614e-08 -9.813810e-09 2.980634e-04 -8.550466e-04 4.178782e-04 9.468905e-04 5.062926e-05 -1.024574e-04 3.503152e-05 -6.060586e-04 3.684188e-06 2.464041e-05 -1.013554e-04 -2.583867e-05 -1.010176e-06
<VARIANCE> 25
 3.122577e+01 5.719802e+01 3.946896e+01 1.100318e+02 7.297534e+01 4.239960e+01 8.885344e+01 4.992168e+01 5.386439e+01 4.312420e+01 6.630042e+01 3.168895e+01 1.448071e+00 2.278910e+00 1.858679e+00 4.019047e+00 3.178237e+00 2.636007e+00 3.570275e+00 3.178643e+00 2.899120e+00 2.714130e+00 2.987308e+00 2.010213e+00 3.236470e+00
<GCONST> 1.064359e+02
<STATE> 4
<MEAN> 25
 1.842593e-09 -2.576395e-08 1.213246e-09 1.102351e-07 5.049876e-08 2.685317e-08 1.114029e-08 1.294129e-10 -3.466416e-09 -2.296308e-08 -2.622614e-08 -9.813810e-09 2.980634e-04 -8.550466e-04 4.178782e-04 9.468905e-04 5.062926e-05 -1.024574e-04 3.503152e-05 -6.060586e-04 3.684188e-06 2.464041e-05 -1.013554e-04 -2.583867e-05 -1.010176e-06
<VARIANCE> 25
 3.122577e+01 5.719802e+01 3.946896e+01 1.100318e+02 7.297534e+01 4.239960e+01 8.885344e+01 4.992168e+01 5.386439e+01 4.312420e+01 6.630042e+01 3.168895e+01 1.448071e+00 2.278910e+00 1.858679e+00 4.019047e+00 3.178237e+00 2.636007e+00 3.570275e+00 3.178643e+00 2.899120e+00 2.714130e+00 2.987308e+00 2.010213e+00 3.236470e+00
<GCONST> 1.064359e+02
<TRANSP> 5
 0.000000e+00 1.000000e+00 0.000000e+00 0.000000e+00 0.000000e+00
 0.000000e+00 6.000000e-01 4.000000e-01 0.000000e+00 0.000000e+00
 0.000000e+00 0.000000e+00 6.000000e-01 4.000000e-01 0.000000e+00
 0.000000e+00 0.000000e+00 0.000000e+00 7.000000e-01 3.000000e-01
 0.000000e+00 0.000000e+00 0.000000e+00 0.000000e+00 0.000000e+00
<ENDHMM>
~h "w"
<BEGINHMM>
<NUMSTATES> 5
<STATE> 2
<MEAN> 25
 1.842593e-09 -2.576395e-08 1.213246e-09 1.102351e-07 5.049876e-08 2.685317e-08 1.114029e-08 1.294129e-10 -3.466416e-09 -2.296308e-08 -2.622614e-08 -9.813810e-09 2.980634e-04 -8.550466e-04 4.178782e-04 9.468905e-04 5.062926e-05 -1.024574e-04 3.503152e-05 -6.060586e-04 3.684188e-06 2.464041e-05 -1.013554e-04 -2.583867e-05 -1.010176e-06
<VARIANCE> 25
 3.122577e+01 5.719802e+01 3.946896e+01 1.100318e+02 7.297534e+01 4.239960e+01 8.885344e+01 4.992168e+01 5.386439e+01 4.312420e+01 6.630042e+01 3.168895e+01 1.448071e+00 2.278910e+00 1.858679e+00 4.019047e+00 3.178237e+00 2.636007e+00 3.570275e+00 3.178643e+00 2.899120e+00 2.714130e+00 2.987308e+00 2.010213e+00 3.236470e+00
<GCONST> 1.064359e+02
<STATE> 3
<MEAN> 25
 1.842593e-09 -2.576395e-08 1.213246e-09 1.102351e-07 5.049876e-08 2.685317e-08 1.114029e-08 1.294129e-10 -3.466416e-09 -2.296308e-08 -2.622614e-08 -9.813810e-09 2.980634e-04 -8.550466e-04 4.178782e-04 9.468905e-04 5.062926e-05 -1.024574e-04 3.503152e-05 -6.060586e-04 3.684188e-06 2.464041e-05 -1.013554e-04 -2.583867e-05 -1.010176e-06
<VARIANCE> 25
 3.122577e+01 5.719802e+01 3.946896e+01 1.100318e+02 7.297534e+01 4.239960e+01 8.885344e+01 4.992168e+01 5.386439e+01 4.312420e+01 6.630042e+01 3.168895e+01 1.448071e+00 2.278910e+00 1.858679e+00 4.019047e+00 3.178237e+00 2.636007e+00 3.570275e+00 3.178643e+00 2.899120e+00 2.714130e+00 2.987308e+00 2.010213e+00 3.236470e+00
<GCONST> 1.064359e+02
<STATE> 4
<MEAN> 25
 1.842593e-09 -2.576395e-08 1.213246e-09 1.102351e-07 5.049876e-08 2.685317e-08 1.114029e-08 1.294129e-10 -3.466416e-09 -2.296308e-08 -2.622614e-08 -9.813810e-09 2.980634e-04 -8.550466e-04 4.178782e-04 9.468905e-04 5.062926e-05 -1.024574e-04 3.503152e-05 -6.060586e-04 3.684188e-06 2.464041e-05 -1.013554e-04 -2.583867e-05 -1.010176e-06
<VARIANCE> 25
 3.122577e+01 5.719802e+01 3.946896e+01 1.100318e+02 7.297534e+01 4.239960e+01 8.885344e+01 4.992168e+01 5.386439e+01 4.312420e+01 6.630042e+01 3.168895e+01 1.448071e+00 2.278910e+00 1.858679e+00 4.019047e+00 3.178237e+00 2.636007e+00 3.570275e+00 3.178643e+00 2.899120e+00 2.714130e+00 2.987308e+00 2.010213e+00 3.236470e+00
<GCONST> 1.064359e+02
<TRANSP> 5
 0.000000e+00 1.000000e+00 0.000000e+00 0.000000e+00 0.000000e+00
 0.000000e+00 6.000000e-01 4.000000e-01 0.000000e+00 0.000000e+00
 0.000000e+00 0.000000e+00 6.000000e-01 4.000000e-01 0.000000e+00
 0.000000e+00 0.000000e+00 0.000000e+00 7.000000e-01 3.000000e-01
 0.000000e+00 0.000000e+00 0.000000e+00 0.000000e+00 0.000000e+00
<ENDHMM>
~h "ng"
<BEGINHMM>
<NUMSTATES> 5
<STATE> 2
<MEAN> 25
 1.842593e-09 -2.576395e-08 1.213246e-09 1.102351e-07 5.049876e-08 2.685317e-08 1.114029e-08 1.294129e-10 -3.466416e-09 -2.296308e-08 -2.622614e-08 -9.813810e-09 2.980634e-04 -8.550466e-04 4.178782e-04 9.468905e-04 5.062926e-05 -1.024574e-04 3.503152e-05 -6.060586e-04 3.684188e-06 2.464041e-05 -1.013554e-04 -2.583867e-05 -1.010176e-06
<VARIANCE> 25
 3.122577e+01 5.719802e+01 3.946896e+01 1.100318e+02 7.297534e+01 4.239960e+01 8.885344e+01 4.992168e+01 5.386439e+01 4.312420e+01 6.630042e+01 3.168895e+01 1.448071e+00 2.278910e+00 1.858679e+00 4.019047e+00 3.178237e+00 2.636007e+00 3.570275e+00 3.178643e+00 2.899120e+00 2.714130e+00 2.987308e+00 2.010213e+00 3.236470e+00
<GCONST> 1.064359e+02
<STATE> 3
<MEAN> 25
 1.842593e-09 -2.576395e-08 1.213246e-09 1.102351e-07 5.049876e-08 2.685317e-08 1.114029e-08 1.294129e-10 -3.466416e-09 -2.296308e-08 -2.622614e-08 -9.813810e-09 2.980634e-04 -8.550466e-04 4.178782e-04 9.468905e-04 5.062926e-05 -1.024574e-04 3.503152e-05 -6.060586e-04 3.684188e-06 2.464041e-05 -1.013554e-04 -2.583867e-05 -1.010176e-06
<VARIANCE> 25
 3.122577e+01 5.719802e+01 3.946896e+01 1.100318e+02 7.297534e+01 4.239960e+01 8.885344e+01 4.992168e+01 5.386439e+01 4.312420e+01 6.630042e+01 3.168895e+01 1.448071e+00 2.278910e+00 1.858679e+00 4.019047e+00 3.178237e+00 2.636007e+00 3.570275e+00 3.178643e+00 2.899120e+00 2.714130e+00 2.987308e+00 2.010213e+00 3.236470e+00
<GCONST> 1.064359e+02
<STATE> 4
<MEAN> 25
 1.842593e-09 -2.576395e-08 1.213246e-09 1.102351e-07 5.049876e-08 2.685317e-08 1.114029e-08 1.294129e-10 -3.466416e-09 -2.296308e-08 -2.622614e-08 -9.813810e-09 2.980634e-04 -8.550466e-04 4.178782e-04 9.468905e-04 5.062926e-05 -1.024574e-04 3.503152e-05 -6.060586e-04 3.684188e-06 2.464041e-05 -1.013554e-04 -2.583867e-05 -1.010176e-06
<VARIANCE> 25
 3.122577e+01 5.719802e+01 3.946896e+01 1.100318e+02 7.297534e+01 4.239960e+01 8.885344e+01 4.992168e+01 5.386439e+01 4.312420e+01 6.630042e+01 3.168895e+01 1.448071e+00 2.278910e+00 1.858679e+00 4.019047e+00 3.178237e+00 2.636007e+00 3.570275e+00 3.178643e+00 2.899120e+00 2.714130e+00 2.987308e+00 2.010213e+00 3.236470e+00
<GCONST> 1.064359e+02
<TRANSP> 5
 0.000000e+00 1.000000e+00 0.000000e+00 0.000000e+00 0.000000e+00
 0.000000e+00 6.000000e-01 4.000000e-01 0.000000e+00 0.000000e+00
 0.000000e+00 0.000000e+00 6.000000e-01 4.000000e-01 0.000000e+00
 0.000000e+00 0.000000e+00 0.000000e+00 7.000000e-01 3.000000e-01
 0.000000e+00 0.000000e+00 0.000000e+00 0.000000e+00 0.000000e+00
<ENDHMM>
~h "ny"
<BEGINHMM>
<NUMSTATES> 5
<STATE> 2
<MEAN> 25
 1.842593e-09 -2.576395e-08 1.213246e-09 1.102351e-07 5.049876e-08 2.685317e-08 1.114029e-08 1.294129e-10 -3.466416e-09 -2.296308e-08 -2.622614e-08 -9.813810e-09 2.980634e-04 -8.550466e-04 4.178782e-04 9.468905e-04 5.062926e-05 -1.024574e-04 3.503152e-05 -6.060586e-04 3.684188e-06 2.464041e-05 -1.013554e-04 -2.583867e-05 -1.010176e-06
<VARIANCE> 25
 3.122577e+01 5.719802e+01 3.946896e+01 1.100318e+02 7.297534e+01 4.239960e+01 8.885344e+01 4.992168e+01 5.386439e+01 4.312420e+01 6.630042e+01 3.168895e+01 1.448071e+00 2.278910e+00 1.858679e+00 4.019047e+00 3.178237e+00 2.636007e+00 3.570275e+00 3.178643e+00 2.899120e+00 2.714130e+00 2.987308e+00 2.010213e+00 3.236470e+00
<GCONST> 1.064359e+02
<STATE> 3
<MEAN> 25
 1.842593e-09 -2.576395e-08 1.213246e-09 1.102351e-07 5.049876e-08 2.685317e-08 1.114029e-08 1.294129e-10 -3.466416e-09 -2.296308e-08 -2.622614e-08 -9.813810e-09 2.980634e-04 -8.550466e-04 4.178782e-04 9.468905e-04 5.062926e-05 -1.024574e-04 3.503152e-05 -6.060586e-04 3.684188e-06 2.464041e-05 -1.013554e-04 -2.583867e-05 -1.010176e-06
<VARIANCE> 25
 3.122577e+01 5.719802e+01 3.946896e+01 1.100318e+02 7.297534e+01 4.239960e+01 8.885344e+01 4.992168e+01 5.386439e+01 4.312420e+01 6.630042e+01 3.168895e+01 1.448071e+00 2.278910e+00 1.858679e+00 4.019047e+00 3.178237e+00 2.636007e+00 3.570275e+00 3.178643e+00 2.899120e+00 2.714130e+00 2.987308e+00 2.010213e+00 3.236470e+00
<GCONST> 1.064359e+02
<STATE> 4
<MEAN> 25
 1.842593e-09 -2.576395e-08 1.213246e-09 1.102351e-07 5.049876e-08 2.685317e-08 1.114029e-08 1.294129e-10 -3.466416e-09 -2.296308e-08 -2.622614e-08 -9.813810e-09 2.980634e-04 -8.550466e-04 4.178782e-04 9.468905e-04 5.062926e-05 -1.024574e-04 3.503152e-05 -6.060586e-04 3.684188e-06 2.464041e-05 -1.013554e-04 -2.583867e-05 -1.010176e-06
<VARIANCE> 25
 3.122577e+01 5.719802e+01 3.946896e+01 1.100318e+02 7.297534e+01 4.239960e+01 8.885344e+01 4.992168e+01 5.386439e+01 4.312420e+01 6.630042e+01 3.168895e+01 1.448071e+00 2.278910e+00 1.858679e+00 4.019047e+00 3.178237e+00 2.636007e+00 3.570275e+00 3.178643e+00 2.899120e+00 2.714130e+00 2.987308e+00 2.010213e+00 3.236470e+00
<GCONST> 1.064359e+02
<TRANSP> 5
 0.000000e+00 1.000000e+00 0.000000e+00 0.000000e+00 0.000000e+00
 0.000000e+00 6.000000e-01 4.000000e-01 0.000000e+00 0.000000e+00
 0.000000e+00 0.000000e+00 6.000000e-01 4.000000e-01 0.000000e+00
 0.000000e+00 0.000000e+00 0.000000e+00 7.000000e-01 3.000000e-01
 0.000000e+00 0.000000e+00 0.000000e+00 0.000000e+00 0.000000e+00
<ENDHMM>
~h "z"
<BEGINHMM>
<NUMSTATES> 5
<STATE> 2
<MEAN> 25
 1.842593e-09 -2.576395e-08 1.213246e-09 1.102351e-07 5.049876e-08 2.685317e-08 1.114029e-08 1.294129e-10 -3.466416e-09 -2.296308e-08 -2.622614e-08 -9.813810e-09 2.980634e-04 -8.550466e-04 4.178782e-04 9.468905e-04 5.062926e-05 -1.024574e-04 3.503152e-05 -6.060586e-04 3.684188e-06 2.464041e-05 -1.013554e-04 -2.583867e-05 -1.010176e-06
<VARIANCE> 25
 3.122577e+01 5.719802e+01 3.946896e+01 1.100318e+02 7.297534e+01 4.239960e+01 8.885344e+01 4.992168e+01 5.386439e+01 4.312420e+01 6.630042e+01 3.168895e+01 1.448071e+00 2.278910e+00 1.858679e+00 4.019047e+00 3.178237e+00 2.636007e+00 3.570275e+00 3.178643e+00 2.899120e+00 2.714130e+00 2.987308e+00 2.010213e+00 3.236470e+00
<GCONST> 1.064359e+02
<STATE> 3
<MEAN> 25
 1.842593e-09 -2.576395e-08 1.213246e-09 1.102351e-07 5.049876e-08 2.685317e-08 1.114029e-08 1.294129e-10 -3.466416e-09 -2.296308e-08 -2.622614e-08 -9.813810e-09 2.980634e-04 -8.550466e-04 4.178782e-04 9.468905e-04 5.062926e-05 -1.024574e-04 3.503152e-05 -6.060586e-04 3.684188e-06 2.464041e-05 -1.013554e-04 -2.583867e-05 -1.010176e-06
<VARIANCE> 25
 3.122577e+01 5.719802e+01 3.946896e+01 1.100318e+02 7.297534e+01 4.239960e+01 8.885344e+01 4.992168e+01 5.386439e+01 4.312420e+01 6.630042e+01 3.168895e+01 1.448071e+00 2.278910e+00 1.858679e+00 4.019047e+00 3.178237e+00 2.636007e+00 3.570275e+00 3.178643e+00 2.899120e+00 2.714130e+00 2.987308e+00 2.010213e+00 3.236470e+00
<GCONST> 1.064359e+02
<STATE> 4
<MEAN> 25
 1.842593e-09 -2.576395e-08 1.213246e-09 1.102351e-07 5.049876e-08 2.685317e-08 1.114029e-08 1.294129e-10 -3.466416e-09 -2.296308e-08 -2.622614e-08 -9.813810e-09 2.980634e-04 -8.550466e-04 4.178782e-04 9.468905e-04 5.062926e-05 -1.024574e-04 3.503152e-05 -6.060586e-04 3.684188e-06 2.464041e-05 -1.013554e-04 -2.583867e-05 -1.010176e-06
<VARIANCE> 25
 3.122577e+01 5.719802e+01 3.946896e+01 1.100318e+02 7.297534e+01 4.239960e+01 8.885344e+01 4.992168e+01 5.386439e+01 4.312420e+01 6.630042e+01 3.168895e+01 1.448071e+00 2.278910e+00 1.858679e+00 4.019047e+00 3.178237e+00 2.636007e+00 3.570275e+00 3.178643e+00 2.899120e+00 2.714130e+00 2.987308e+00 2.010213e+00 3.236470e+00
<GCONST> 1.064359e+02
<TRANSP> 5
 0.000000e+00 1.000000e+00 0.000000e+00 0.000000e+00 0.000000e+00
 0.000000e+00 6.000000e-01 4.000000e-01 0.000000e+00 0.000000e+00
 0.000000e+00 0.000000e+00 6.000000e-01 4.000000e-01 0.000000e+00
 0.000000e+00 0.000000e+00 0.000000e+00 7.000000e-01 3.000000e-01
 0.000000e+00 0.000000e+00 0.000000e+00 0.000000e+00 0.000000e+00
<ENDHMM>
~h "sil"
<BEGINHMM>
<NUMSTATES> 5
<STATE> 2
<MEAN> 25
 1.842593e-09 -2.576395e-08 1.213246e-09 1.102351e-07 5.049876e-08 2.685317e-08 1.114029e-08 1.294129e-10 -3.466416e-09 -2.296308e-08 -2.622614e-08 -9.813810e-09 2.980634e-04 -8.550466e-04 4.178782e-04 9.468905e-04 5.062926e-05 -1.024574e-04 3.503152e-05 -6.060586e-04 3.684188e-06 2.464041e-05 -1.013554e-04 -2.583867e-05 -1.010176e-06
<VARIANCE> 25
 3.122577e+01 5.719802e+01 3.946896e+01 1.100318e+02 7.297534e+01 4.239960e+01 8.885344e+01 4.992168e+01 5.386439e+01 4.312420e+01 6.630042e+01 3.168895e+01 1.448071e+00 2.278910e+00 1.858679e+00 4.019047e+00 3.178237e+00 2.636007e+00 3.570275e+00 3.178643e+00 2.899120e+00 2.714130e+00 2.987308e+00 2.010213e+00 3.236470e+00
<GCONST> 1.064359e+02
<STATE> 3
<MEAN> 25
 1.842593e-09 -2.576395e-08 1.213246e-09 1.102351e-07 5.049876e-08 2.685317e-08 1.114029e-08 1.294129e-10 -3.466416e-09 -2.296308e-08 -2.622614e-08 -9.813810e-09 2.980634e-04 -8.550466e-04 4.178782e-04 9.468905e-04 5.062926e-05 -1.024574e-04 3.503152e-05 -6.060586e-04 3.684188e-06 2.464041e-05 -1.013554e-04 -2.583867e-05 -1.010176e-06
<VARIANCE> 25
 3.122577e+01 5.719802e+01 3.946896e+01 1.100318e+02 7.297534e+01 4.239960e+01 8.885344e+01 4.992168e+01 5.386439e+01 4.312420e+01 6.630042e+01 3.168895e+01 1.448071e+00 2.278910e+00 1.858679e+00 4.019047e+00 3.178237e+00 2.636007e+00 3.570275e+00 3.178643e+00 2.899120e+00 2.714130e+00 2.987308e+00 2.010213e+00 3.236470e+00
<GCONST> 1.064359e+02
<STATE> 4
<MEAN> 25
 1.842593e-09 -2.576395e-08 1.213246e-09 1.102351e-07 5.049876e-08 2.685317e-08 1.114029e-08 1.294129e-10 -3.466416e-09 -2.296308e-08 -2.622614e-08 -9.813810e-09 2.980634e-04 -8.550466e-04 4.178782e-04 9.468905e-04 5.062926e-05 -1.024574e-04 3.503152e-05 -6.060586e-04 3.684188e-06 2.464041e-05 -1.013554e-04 -2.583867e-05 -1.010176e-06
<VARIANCE> 25
 3.122577e+01 5.719802e+01 3.946896e+01 1.100318e+02 7.297534e+01 4.239960e+01 8.885344e+01 4.992168e+01 5.386439e+01 4.312420e+01 6.630042e+01 3.168895e+01 1.448071e+00 2.278910e+00 1.858679e+00 4.019047e+00 3.178237e+00 2.636007e+00 3.570275e+00 3.178643e+00 2.899120e+00 2.714130e+00 2.987308e+00 2.010213e+00 3.236470e+00
<GCONST> 1.064359e+02
<TRANSP> 5
 0.000000e+00 1.000000e+00 0.000000e+00 0.000000e+00 0.000000e+00
 0.000000e+00 6.000000e-01 4.000000e-01 0.000000e+00 0.000000e+00
 0.000000e+00 0.000000e+00 6.000000e-01 4.000000e-01 0.000000e+00
 0.000000e+00 0.000000e+00 0.000000e+00 7.000000e-01 3.000000e-01
 0.000000e+00 0.000000e+00 0.000000e+00 0.000000e+00 0.000000e+00
<ENDHMM>
